{"learner":{"attributes":{"scikit_learn":"{\"_estimator_type\": \"regressor\"}"},"feature_names":[],"feature_types":[],"gradient_booster":{"model":{"cats":{"enc":[],"feature_segments":[],"sorted_idx":[]},"gbtree_model_param":{"num_parallel_tree":"1","num_trees":"667"},"iteration_indptr":[0,1,2,3,4,5,6,7,8,9,10,11,12,13,14,15,16,17,18,19,20,21,22,23,24,25,26,27,28,29,30,31,32,33,34,35,36,37,38,39,40,41,42,43,44,45,46,47,48,49,50,51,52,53,54,55,56,57,58,59,60,61,62,63,64,65,66,67,68,69,70,71,72,73,74,75,76,77,78,79,80,81,82,83,84,85,86,87,88,89,90,91,92,93,94,95,96,97,98,99,100,101,102,103,104,105,106,107,108,109,110,111,112,113,114,115,116,117,118,119,120,121,122,123,124,125,126,127,128,129,130,131,132,133,134,135,136,137,138,139,140,141,142,143,144,145,146,147,148,149,150,151,152,153,154,155,156,157,158,159,160,161,162,163,164,165,166,167,168,169,170,171,172,173,174,175,176,177,178,179,180,181,182,183,184,185,186,187,188,189,190,191,192,193,194,195,196,197,198,199,200,201,202,203,204,205,206,207,208,209,210,211,212,213,214,215,216,217,218,219,220,221,222,223,224,225,226,227,228,229,230,231,232,233,234,235,236,237,238,239,240,241,242,243,244,245,246,247,248,249,250,251,252,253,254,255,256,257,258,259,260,261,262,263,264,265,266,267,268,269,270,271,272,273,274,275,276,277,278,279,280,281,282,283,284,285,286,287,288,289,290,291,292,293,294,295,296,297,298,299,300,301,302,303,304,305,306,307,308,309,310,311,312,313,314,315,316,317,318,319,320,321,322,323,324,325,326,327,328,329,330,331,332,333,334,335,336,337,338,339,340,341,342,343,344,345,346,347,348,349,350,351,352,353,354,355,356,357,358,359,360,361,362,363,364,365,366,367,368,369,370,371,372,373,374,375,376,377,378,379,380,381,382,383,384,385,386,387,388,389,390,391,392,393,394,395,396,397,398,399,400,401,402,403,404,405,406,407,408,409,410,411,412,413,414,415,416,417,418,419,420,421,422,423,424,425,426,427,428,429,430,431,432,433,434,435,436,437,438,439,440,441,442,443,444,445,446,447,448,449,450,451,452,453,454,455,456,457,458,459,460,461,462,463,464,465,466,467,468,469,470,471,472,473,474,475,476,477,478,479,480,481,482,483,484,485,486,487,488,489,490,491,492,493,494,495,496,497,498,499,500,501,502,503,504,505,506,507,508,509,510,511,512,513,514,515,516,517,518,519,520,521,522,523,524,525,526,527,528,529,530,531,532,533,534,535,536,537,538,539,540,541,542,543,544,545,546,547,548,549,550,551,552,553,554,555,556,557,558,559,560,561,562,563,564,565,566,567,568,569,570,571,572,573,574,575,576,577,578,579,580,581,582,583,584,585,586,587,588,589,590,591,592,593,594,595,596,597,598,599,600,601,602,603,604,605,606,607,608,609,610,611,612,613,614,615,616,617,618,619,620,621,622,623,624,625,626,627,628,629,630,631,632,633,634,635,636,637,638,639,640,641,642,643,644,645,646,647,648,649,650,651,652,653,654,655,656,657,658,659,660,661,662,663,664,665,666,667],"tree_info":[0,0,0,0,0,0,0,0,0,0,0,0,0,0,0,0,0,0,0,0,0,0,0,0,0,0,0,0,0,0,0,0,0,0,0,0,0,0,0,0,0,0,0,0,0,0,0,0,0,0,0,0,0,0,0,0,0,0,0,0,0,0,0,0,0,0,0,0,0,0,0,0,0,0,0,0,0,0,0,0,0,0,0,0,0,0,0,0,0,0,0,0,0,0,0,0,0,0,0,0,0,0,0,0,0,0,0,0,0,0,0,0,0,0,0,0,0,0,0,0,0,0,0,0,0,0,0,0,0,0,0,0,0,0,0,0,0,0,0,0,0,0,0,0,0,0,0,0,0,0,0,0,0,0,0,0,0,0,0,0,0,0,0,0,0,0,0,0,0,0,0,0,0,0,0,0,0,0,0,0,0,0,0,0,0,0,0,0,0,0,0,0,0,0,0,0,0,0,0,0,0,0,0,0,0,0,0,0,0,0,0,0,0,0,0,0,0,0,0,0,0,0,0,0,0,0,0,0,0,0,0,0,0,0,0,0,0,0,0,0,0,0,0,0,0,0,0,0,0,0,0,0,0,0,0,0,0,0,0,0,0,0,0,0,0,0,0,0,0,0,0,0,0,0,0,0,0,0,0,0,0,0,0,0,0,0,0,0,0,0,0,0,0,0,0,0,0,0,0,0,0,0,0,0,0,0,0,0,0,0,0,0,0,0,0,0,0,0,0,0,0,0,0,0,0,0,0,0,0,0,0,0,0,0,0,0,0,0,0,0,0,0,0,0,0,0,0,0,0,0,0,0,0,0,0,0,0,0,0,0,0,0,0,0,0,0,0,0,0,0,0,0,0,0,0,0,0,0,0,0,0,0,0,0,0,0,0,0,0,0,0,0,0,0,0,0,0,0,0,0,0,0,0,0,0,0,0,0,0,0,0,0,0,0,0,0,0,0,0,0,0,0,0,0,0,0,0,0,0,0,0,0,0,0,0,0,0,0,0,0,0,0,0,0,0,0,0,0,0,0,0,0,0,0,0,0,0,0,0,0,0,0,0,0,0,0,0,0,0,0,0,0,0,0,0,0,0,0,0,0,0,0,0,0,0,0,0,0,0,0,0,0,0,0,0,0,0,0,0,0,0,0,0,0,0,0,0,0,0,0,0,0,0,0,0,0,0,0,0,0,0,0,0,0,0,0,0,0,0,0,0,0,0,0,0,0,0,0,0,0,0,0,0,0,0,0,0,0,0,0,0,0,0,0,0,0,0,0,0,0,0,0,0,0,0,0,0,0,0,0,0,0,0,0,0,0,0,0,0,0,0,0,0,0,0,0,0,0,0,0,0,0,0,0,0,0,0,0,0,0,0,0,0,0,0,0,0,0,0,0,0,0,0,0,0,0,0,0,0,0,0,0,0,0,0,0,0,0,0,0,0,0,0,0,0,0,0,0,0,0,0,0,0,0,0,0,0,0,0,0,0,0,0,0,0,0,0,0,0,0,0,0,0,0,0,0,0],"trees":[{"base_weights":[-2.061939E-2,6.076483E0,-1.1067449E1,-4.3046384E0,8.061791E0,-2.324486E-1,-3.5104677E-1,-1.5125315E0,-1.6369148E-1,3.4360611E0,3.8445243E-1,-8.914607E-2,1.1413074E-2,1.7969204E-1,8.250806E-3],"categories":[],"categories_nodes":[],"categories_segments":[],"categories_sizes":[],"default_left":[0,0,0,0,0,0,0,0,0,0,0,0,0,0,0],"id":0,"left_children":[1,3,5,7,9,-1,-1,11,-1,13,-1,-1,-1,-1,-1],"loss_changes":[3.382387E4,6.8634688E3,2.0917578E2,2.1425781E2,7.401877E3,0E0,0E0,1.0515312E2,0E0,1.6013944E3,0E0,0E0,0E0,0E0,0E0],"parents":[2147483647,0,0,1,1,2,2,3,3,4,4,7,7,9,9],"right_children":[2,4,6,8,10,-1,-1,12,-1,14,-1,-1,-1,-1,-1],"split_conditions":[1.42E3,4.8E1,1E0,1E0,4.5E0,-2.324486E-1,-3.5104677E-1,1.2E1,-1.6369148E-1,1E0,3.8445243E-1,-8.914607E-2,1.1413074E-2,1.7969204E-1,8.250806E-3],"split_indices":[7,2,5,5,8,0,0,0,0,5,0,0,0,0,0],"split_type":[0,0,0,0,0,0,0,0,0,0,0,0,0,0,0],"sum_hessian":[4.91E2,3.18E2,1.73E2,5E1,2.68E2,8.6E1,8.7E1,2.3E1,2.7E1,1.57E2,1.11E2,1E1,1.3E1,7.5E1,8.2E1],"tree_param":{"num_deleted":"0","num_feature":"9","num_nodes":"15","size_leaf_vector":"1"}},{"base_weights":[-7.795996E-2,5.793042E0,-1.0823107E1,-2.487487E0,1.3181814E1,-3.5790756E-1,-3.7604713E0,2.2564062E-1,-4.8798966E0,6.542863E0,6.1340207E-1,-8.7443036E-1,-1.5886782E-1,-1.9812243E-2,7.770591E-2,-1.607357E-1,-4.9572848E-2,3.833841E-2,3.0293038E-1,-2.9486114E-2,1.3538215E-3],"categories":[],"categories_nodes":[],"categories_segments":[],"categories_sizes":[],"default_left":[0,0,0,0,0,0,0,0,0,0,0,0,0,0,0,0,0,0,0,0,0],"id":1,"left_children":[1,3,5,7,9,-1,11,13,15,17,-1,19,-1,-1,-1,-1,-1,-1,-1,-1,-1],"loss_changes":[3.2246266E4,2.0410537E4,2.6908457E3,1.0487094E3,1.0080506E4,0E0,2.8644476E2,2.1377011E2,2.081278E2,2.5166587E3,0E0,5.8546524E0,0E0,0E0,0E0,0E0,0E0,0E0,0E0,0E0,0E0],"parents":[2147483647,0,0,1,1,2,2,3,3,4,4,6,6,7,7,8,8,9,9,11,11],"right_children":[2,4,6,8,10,-1,12,14,16,18,-1,20,-1,-1,-1,-1,-1,-1,-1,-1,-1],"split_conditions":[1.42E3,4.8E1,7.2E1,1E0,4.5E0,-3.5790756E-1,1E0,2.8E1,2.8E1,7.2E1,6.1340207E-1,2.8E1,-1.5886782E-1,-1.9812243E-2,7.770591E-2,-1.607357E-1,-4.9572848E-2,3.833841E-2,3.0293038E-1,-2.9486114E-2,1.3538215E-3],"split_indices":[7,3,3,5,8,0,5,4,4,3,0,4,0,0,0,0,0,0,0,0,0],"split_type":[0,0,0,0,0,0,0,0,0,0,0,0,0,0,0,0,0,0,0,0,0],"sum_hessian":[5E2,3.25E2,1.75E2,1.55E2,1.7E2,1.28E2,4.7E1,7.5E1,8E1,1.05E2,6.5E1,2.3E1,2.4E1,5.8E1,1.7E1,5.6E1,2.4E1,5.3E1,5.2E1,1.8E1,5E0],"tree_param":{"num_deleted":"0","num_feature":"9","num_nodes":"21","size_leaf_vector":"1"}},{"base_weights":[-5.6038935E-2,5.6213484E0,-1.0495098E1,-2.3636534E0,1.2911373E1,-3.4812593E-1,-3.6780143E0,3.0059975E-1,-4.660181E0,5.986915E-1,6.3629985E0,-8.561051E-1,-1.5536132E-1,-7.1302325E-2,7.9528086E-2,-1.5303272E-1,-4.3730818E-2,3.873736E-2,2.9502085E-1,-5.413988E-2,9.52878E-3],"categories":[],"categories_nodes":[],"categories_segments":[],"categories_sizes":[],"default_left":[0,0,0,0,0,0,0,0,0,0,0,0,0,0,0,0,0,0,0,0,0],"id":2,"left_children":[1,3,5,7,9,-1,11,13,15,-1,17,19,-1,-1,-1,-1,-1,-1,-1,-1,-1],"loss_changes":[2.9880223E4,1.9182426E4,2.515541E3,9.9057477E2,9.425156E3,0E0,2.7377728E2,6.521667E2,2.0372766E2,0E0,2.292542E3,4.3027863E1,0E0,0E0,0E0,0E0,0E0,0E0,0E0,0E0,0E0],"parents":[2147483647,0,0,1,1,2,2,3,3,4,4,6,6,7,7,8,8,10,10,11,11],"right_children":[2,4,6,8,10,-1,12,14,16,-1,18,20,-1,-1,-1,-1,-1,-1,-1,-1,-1],"split_conditions":[5.633803E-1,4.8E1,7.2E1,1E0,2.6086956E-1,-3.4812593E-1,1E0,1.2E1,1.4E1,5.986915E-1,7.2E1,1.2E1,-1.5536132E-1,-7.1302325E-2,7.9528086E-2,-1.5303272E-1,-4.3730818E-2,3.873736E-2,2.9502085E-1,-5.413988E-2,9.52878E-3],"split_indices":[6,3,3,5,6,0,5,0,0,0,3,0,0,0,0,0,0,0,0,0,0],"split_type":[0,0,0,0,0,0,0,0,0,0,0,0,0,0,0,0,0,0,0,0,0],"sum_hessian":[4.93E2,3.21E2,1.72E2,1.55E2,1.66E2,1.25E2,4.7E1,7.4E1,8.1E1,6.4E1,1.02E2,2.3E1,2.4E1,3.5E1,3.9E1,5.8E1,2.3E1,5.2E1,5E1,1E1,1.3E1],"tree_param":{"num_deleted":"0","num_feature":"9","num_nodes":"21","size_leaf_vector":"1"}},{"base_weights":[-7.9733744E-2,-1.0272446E1,5.543738E0,-2.130116E-1,-3.2801655E-1,-4.1281323E0,7.3823795E0,-1.4539707E0,-1.5340358E-1,3.0895472E0,3.4719095E-1,9.013243E-3,-8.024651E-2,1.6476835E-1,2.615519E-3],"categories":[],"categories_nodes":[],"categories_segments":[],"categories_sizes":[],"default_left":[0,0,0,0,0,0,0,0,0,0,0,0,0,0,0],"id":3,"left_children":[1,3,5,-1,-1,7,9,11,-1,13,-1,-1,-1,-1,-1],"loss_changes":[2.8954738E4,2.5337305E2,5.9606865E3,0E0,0E0,1.7815118E2,6.136873E3,7.9158134E1,0E0,1.4215945E3,0E0,0E0,0E0,0E0,0E0],"parents":[2147483647,0,0,1,1,2,2,5,5,6,6,7,7,9,9],"right_children":[2,4,6,-1,-1,8,10,12,-1,14,-1,-1,-1,-1,-1],"split_conditions":[3.75E0,1E0,4.8E1,-2.130116E-1,-3.2801655E-1,1E0,4.5E0,4.5E0,-1.5340358E-1,1E0,3.4719095E-1,9.013243E-3,-8.024651E-2,1.6476835E-1,2.615519E-3],"split_indices":[8,5,2,0,0,5,8,8,0,5,0,0,0,0,0],"split_type":[0,0,0,0,0,0,0,0,0,0,0,0,0,0,0],"sum_hessian":[4.94E2,1.74E2,3.2E2,8.6E1,8.8E1,5E1,2.7E2,2.2E1,2.8E1,1.55E2,1.15E2,1.2E1,1E1,7.5E1,8E1],"tree_param":{"num_deleted":"0","num_feature":"9","num_nodes":"15","size_leaf_vector":"1"}},{"base_weights":[-1.4542297E-1,5.307136E0,-1.0026235E1,-2.4512022E0,1.235006E1,-3.3337173E-1,-9.1350056E-2,-4.13624E0,-1.471012E0,6.0638943E0,5.736091E-1,-4.7140248E-2,-1.6112459E-1,-7.807947E-2,6.274624E-3,3.1615537E-2,2.8664374E-1],"categories":[],"categories_nodes":[],"categories_segments":[],"categories_sizes":[],"default_left":[0,0,0,0,0,0,0,0,0,0,0,0,0,0,0,0,0],"id":4,"left_children":[1,3,5,7,9,-1,-1,11,13,15,-1,-1,-1,-1,-1,-1,-1],"loss_changes":[2.7213863E4,1.7960617E4,2.4316562E3,2.29383E2,8.695877E3,0E0,0E0,1.8081909E2,2.6443576E2,2.2878167E3,0E0,0E0,0E0,0E0,0E0,0E0,0E0],"parents":[2147483647,0,0,1,1,2,2,3,3,4,4,7,7,8,8,9,9],"right_children":[2,4,6,8,10,-1,-1,12,14,16,-1,-1,-1,-1,-1,-1,-1],"split_conditions":[1.42E3,4.8E1,7.2E1,4.8E1,4.5E0,-3.3337173E-1,-9.1350056E-2,4.5E0,4.5E0,7.2E1,5.736091E-1,-4.7140248E-2,-1.6112459E-1,-7.807947E-2,6.274624E-3,3.1615537E-2,2.8664374E-1],"split_indices":[7,3,3,2,8,0,0,8,8,3,0,0,0,0,0,0,0],"split_type":[0,0,0,0,0,0,0,0,0,0,0,0,0,0,0,0,0],"sum_hessian":[4.94E2,3.2E2,1.74E2,1.54E2,1.66E2,1.27E2,4.7E1,5E1,1.04E2,1.02E2,6.4E1,2.6E1,2.4E1,5.5E1,4.9E1,5.2E1,5E1],"tree_param":{"num_deleted":"0","num_feature":"9","num_nodes":"17","size_leaf_vector":"1"}},{"base_weights":[2.6130013E-2,5.274187E0,-2.6519907E-1,-3.9210124E0,7.030024E0,-5.503606E0,-1.6932147E0,3.3487356E-1,2.983537E0,-1.8028581E-1,-1.2758843E-2,-5.4019693E-2,-1.0050984E-2,2.2135656E-2,1.002668E-1],"categories":[],"categories_nodes":[],"categories_segments":[],"categories_sizes":[],"default_left":[0,0,0,0,0,0,0,0,0,0,0,0,0,0,0],"id":5,"left_children":[1,3,-1,5,7,9,11,-1,13,-1,-1,-1,-1,-1,-1],"loss_changes":[2.6057105E4,5.4918545E3,0E0,1.4717926E2,5.7607773E3,1.5499292E2,8.022644E0,0E0,2.3481885E2,0E0,0E0,0E0,0E0,0E0,0E0],"parents":[2147483647,0,0,1,1,3,3,4,4,5,5,6,6,8,8],"right_children":[2,4,-1,6,8,10,12,-1,14,-1,-1,-1,-1,-1,-1],"split_conditions":[5.633803E-1,4.8E1,-2.6519907E-1,2.6086956E-1,2.6086956E-1,2.8E1,1.4E1,3.3487356E-1,1E1,-1.8028581E-1,-1.2758843E-2,-5.4019693E-2,-1.0050984E-2,2.2135656E-2,1.002668E-1],"split_indices":[6,2,0,6,6,4,0,0,0,0,0,0,0,0,0],"split_type":[0,0,0,0,0,0,0,0,0,0,0,0,0,0,0],"sum_hessian":[4.97E2,3.25E2,1.72E2,5.1E1,2.74E2,2.5E1,2.6E1,1.14E2,1.6E2,1.9E1,6E0,1.9E1,7E0,4.2E1,1.18E2],"tree_param":{"num_deleted":"0","num_feature":"9","num_nodes":"15","size_leaf_vector":"1"}},{"base_weights":[3.2669272E-2,5.2074413E0,-9.460221E0,-2.4684007E0,1.2180982E1,-3.1639E-1,-3.037728E0,-4.824374E0,-2.4872209E-1,9.15914E0,4.1424054E-1,-9.4666615E-2,-1.1841676E0,-1.4915556E-1,-5.887632E-2,-3.3149756E-2,5.8236603E-2,1.1033376E-1,2.894303E-1,-3.913861E-2,-6.2660705E-3],"categories":[],"categories_nodes":[],"categories_segments":[],"categories_sizes":[],"default_left":[0,0,0,0,0,0,0,0,0,0,0,0,0,0,0,0,0,0,0,0,0],"id":6,"left_children":[1,3,5,7,9,-1,11,13,15,17,-1,-1,19,-1,-1,-1,-1,-1,-1,-1,-1],"loss_changes":[2.4866473E4,1.7703941E4,2.284671E3,8.329619E2,8.0428516E2,0E0,1.9754517E1,6.8867065E1,2.1964838E2,5.15874E2,0E0,0E0,2.5994453E0,0E0,0E0,0E0,0E0,0E0,0E0,0E0,0E0],"parents":[2147483647,0,0,1,1,2,2,3,3,4,4,6,6,7,7,8,8,9,9,12,12],"right_children":[2,4,6,8,10,-1,12,14,16,18,-1,-1,20,-1,-1,-1,-1,-1,-1,-1,-1],"split_conditions":[1.42E3,4.8E1,7.2E1,1.2E1,7.2E1,-3.1639E-1,1.4E1,2.8E1,2.8E1,1E1,4.1424054E-1,-9.4666615E-2,1.4E1,-1.4915556E-1,-5.887632E-2,-3.3149756E-2,5.8236603E-2,1.1033376E-1,2.894303E-1,-3.913861E-2,-6.2660705E-3],"split_indices":[7,3,3,0,3,0,0,4,4,0,0,0,4,0,0,0,0,0,0,0,0],"split_type":[0,0,0,0,0,0,0,0,0,0,0,0,0,0,0,0,0,0,0,0,0],"sum_hessian":[4.95E2,3.22E2,1.73E2,1.55E2,1.67E2,1.26E2,4.7E1,7.2E1,8.3E1,9.5E1,7.2E1,3.4E1,1.3E1,5.3E1,1.9E1,6.1E1,2.2E1,2.6E1,6.9E1,8E0,5E0],"tree_param":{"num_deleted":"0","num_feature":"9","num_nodes":"21","size_leaf_vector":"1"}},{"base_weights":[8.664075E-2,5.1658635E0,-9.285151E0,-2.3648684E0,1.1680226E1,-3.081035E-1,-3.0871737E0,-4.632191E0,-2.3241639E-1,8.749818E0,3.983501E-1,-1.0101735E-1,-5.0561484E-2,-1.4333764E-1,-5.7638403E-2,-3.2125052E-2,5.860663E-2,1.0563344E-1,2.7764443E-1],"categories":[],"categories_nodes":[],"categories_segments":[],"categories_sizes":[],"default_left":[0,0,0,0,0,0,0,0,0,0,0,0,0,0,0,0,0,0,0],"id":7,"left_children":[1,3,5,7,9,-1,11,13,15,17,-1,-1,-1,-1,-1,-1,-1,-1,-1],"loss_changes":[2.4049646E4,1.6225937E4,2.0440928E3,7.5095624E2,8.124199E2,0E0,8.5980225E-1,5.7937134E1,2.1001904E2,5.029795E2,0E0,0E0,0E0,0E0,0E0,0E0,0E0,0E0,0E0],"parents":[2147483647,0,0,1,1,2,2,3,3,4,4,6,6,7,7,8,8,9,9],"right_children":[2,4,6,8,10,-1,12,14,16,18,-1,-1,-1,-1,-1,-1,-1,-1,-1],"split_conditions":[1.42E3,4.8E1,7.2E1,1.2E1,7.2E1,-3.081035E-1,1.2E1,2.8E1,2.8E1,1E1,3.983501E-1,-1.0101735E-1,-5.0561484E-2,-1.4333764E-1,-5.7638403E-2,-3.2125052E-2,5.860663E-2,1.0563344E-1,2.7764443E-1],"split_indices":[7,3,3,0,3,0,0,4,4,0,0,0,0,0,0,0,0,0,0],"split_type":[0,0,0,0,0,0,0,0,0,0,0,0,0,0,0,0,0,0,0],"sum_hessian":[4.94E2,3.22E2,1.72E2,1.51E2,1.71E2,1.26E2,4.6E1,7E1,8.1E1,9.7E1,7.4E1,2.3E1,2.3E1,5.1E1,1.9E1,6E1,2.1E1,2.7E1,7E1],"tree_param":{"num_deleted":"0","num_feature":"9","num_nodes":"19","size_leaf_vector":"1"}},{"base_weights":[-1.8977338E-2,4.884794E0,-2.4457395E-1,-3.7594807E0,6.5235734E0,-4.194304E-2,-5.289424E0,2.5678215E0,3.156141E-1,-1.728597E-1,-1.3129183E-2,5.233502E-2,1.0502574E-1],"categories":[],"categories_nodes":[],"categories_segments":[],"categories_sizes":[],"default_left":[0,0,0,0,0,0,0,0,0,0,0,0,0],"id":8,"left_children":[1,3,-1,5,7,-1,9,11,-1,-1,-1,-1,-1],"loss_changes":[2.2214104E4,4.763856E3,0E0,1.4287842E2,5.3831064E3,0E0,1.3879706E2,9.3690186E1,0E0,0E0,0E0,0E0,0E0],"parents":[2147483647,0,0,1,1,3,3,4,4,6,6,7,7],"right_children":[2,4,-1,6,8,-1,10,12,-1,-1,-1,-1,-1],"split_conditions":[1.42E3,4.8E1,-2.4457395E-1,4.5E0,4.5E0,-4.194304E-2,2.8E1,2.8E1,3.156141E-1,-1.728597E-1,-1.3129183E-2,5.233502E-2,1.0502574E-1],"split_indices":[7,2,0,8,8,0,4,4,0,0,0,0,0],"split_type":[0,0,0,0,0,0,0,0,0,0,0,0,0],"sum_hessian":[4.94E2,3.21E2,1.73E2,5E1,2.71E2,2.5E1,2.5E1,1.57E2,1.14E2,1.9E1,6E0,1.14E2,4.3E1],"tree_param":{"num_deleted":"0","num_feature":"9","num_nodes":"13","size_leaf_vector":"1"}},{"base_weights":[-4.175183E-2,4.793239E0,-2.404113E-1,-3.6519868E0,6.4303136E0,-5.1794996E0,-1.5251648E0,3.1349447E-1,2.4977503E0,-1.6576575E-1,-2.0282442E-2,-4.885095E-2,-8.67063E-3,3.2088857E-2,9.894399E-2],"categories":[],"categories_nodes":[],"categories_segments":[],"categories_sizes":[],"default_left":[0,0,0,0,0,0,0,0,0,0,0,0,0,0,0],"id":9,"left_children":[1,3,-1,5,7,9,11,-1,13,-1,-1,-1,-1,-1,-1],"loss_changes":[2.1515322E4,4.646791E3,0E0,1.3946039E2,5.3529316E3,9.798938E1,7.017563E0,0E0,2.1980255E2,0E0,0E0,0E0,0E0,0E0,0E0],"parents":[2147483647,0,0,1,1,3,3,4,4,5,5,6,6,8,8],"right_children":[2,4,-1,6,8,10,12,-1,14,-1,-1,-1,-1,-1,-1],"split_conditions":[5.633803E-1,4.8E1,-2.404113E-1,2.6086956E-1,2.6086956E-1,1.4E1,1.4E1,3.1349447E-1,1.2E1,-1.6576575E-1,-2.0282442E-2,-4.885095E-2,-8.67063E-3,3.2088857E-2,9.894399E-2],"split_indices":[6,2,0,6,6,0,0,0,0,0,0,0,0,0,0],"split_type":[0,0,0,0,0,0,0,0,0,0,0,0,0,0,0],"sum_hessian":[4.95E2,3.21E2,1.74E2,5.1E1,2.7E2,2.5E1,2.6E1,1.13E2,1.57E2,1.9E1,6E0,1.9E1,7E0,7.8E1,7.9E1],"tree_param":{"num_deleted":"0","num_feature":"9","num_nodes":"15","size_leaf_vector":"1"}},{"base_weights":[5.224337E-2,4.726583E0,-8.549494E0,-2.5189257E0,1.1198323E1,-2.876752E-1,-2.430168E0,-5.1208798E-2,-1.2800214E-1,5.250345E-1,5.285995E0,3.320058E-3,-1.2269237E-1,1.065858E-3,-3.3344168E-3,1.7493077E-2,2.5406164E-1],"categories":[],"categories_nodes":[],"categories_segments":[],"categories_sizes":[],"default_left":[0,0,0,0,0,0,0,0,0,0,0,0,0,0,0,0,0],"id":10,"left_children":[1,3,5,7,9,-1,11,13,-1,-1,15,-1,-1,-1,-1,-1,-1],"loss_changes":[2.0393807E4,1.5566233E4,2.0636836E3,8.5867285E2,7.7821094E3,0E0,2.7680383E2,5.4872346E-1,0E0,0E0,2.0075928E3,0E0,0E0,0E0,0E0,0E0,0E0],"parents":[2147483647,0,0,1,1,2,2,3,3,4,4,6,6,7,7,10,10],"right_children":[2,4,6,8,10,-1,12,14,-1,-1,16,-1,-1,-1,-1,-1,-1],"split_conditions":[5.633803E-1,4.8E1,7.2E1,1E0,2.6086956E-1,-2.876752E-1,1E0,2.6086956E-1,-1.2800214E-1,5.250345E-1,7.2E1,3.320058E-3,-1.2269237E-1,1.065858E-3,-3.3344168E-3,1.7493077E-2,2.5406164E-1],"split_indices":[6,3,3,5,6,0,5,6,0,0,3,0,0,0,0,0,0],"split_type":[0,0,0,0,0,0,0,0,0,0,0,0,0,0,0,0,0],"sum_hessian":[4.96E2,3.23E2,1.73E2,1.54E2,1.69E2,1.27E2,4.6E1,7.5E1,7.9E1,6.6E1,1.03E2,2.3E1,2.3E1,3.4E1,4.1E1,5.1E1,5.2E1],"tree_param":{"num_deleted":"0","num_feature":"9","num_nodes":"17","size_leaf_vector":"1"}},{"base_weights":[-4.1482206E-2,4.435784E0,-8.367758E0,-2.5083294E0,1.0637086E1,-2.8035817E-1,-2.452268E0,-1.2696919E-1,-4.61885E-1,4.9666924E0,5.092595E-1,-7.7658445E-2,-6.668177E-1,-4.253593E-2,2.163976E-2,1.6680086E-2,2.444874E-1,-2.2229034E-2,-4.020953E-3],"categories":[],"categories_nodes":[],"categories_segments":[],"categories_sizes":[],"default_left":[0,0,0,0,0,0,0,0,0,0,0,0,0,0,0,0,0,0,0],"id":11,"left_children":[1,3,5,7,9,-1,11,-1,13,15,-1,-1,17,-1,-1,-1,-1,-1,-1],"loss_changes":[1.8720312E4,1.4213523E4,1.8662021E3,6.8776385E2,7.426922E3,0E0,2.547409E1,0E0,1.2819427E2,1.8852524E3,0E0,0E0,5.8671284E-1,0E0,0E0,0E0,0E0,0E0,0E0],"parents":[2147483647,0,0,1,1,2,2,3,3,4,4,6,6,8,8,9,9,12,12],"right_children":[2,4,6,8,10,-1,12,-1,14,16,-1,-1,18,-1,-1,-1,-1,-1,-1],"split_conditions":[1.42E3,4.8E1,7.2E1,1.2E1,4.5E0,-2.8035817E-1,1.4E1,-1.2696919E-1,4.5E0,7.2E1,5.092595E-1,-7.7658445E-2,6E1,-4.253593E-2,2.163976E-2,1.6680086E-2,2.444874E-1,-2.2229034E-2,-4.020953E-3],"split_indices":[7,3,3,0,8,0,0,0,8,3,0,0,2,0,0,0,0,0,0],"split_type":[0,0,0,0,0,0,0,0,0,0,0,0,0,0,0,0,0,0,0],"sum_hessian":[4.91E2,3.21E2,1.7E2,1.53E2,1.68E2,1.25E2,4.5E1,7.1E1,8.2E1,1.04E2,6.4E1,3.4E1,1.1E1,4.3E1,3.9E1,5.3E1,5.1E1,6E0,5E0],"tree_param":{"num_deleted":"0","num_feature":"9","num_nodes":"19","size_leaf_vector":"1"}},{"base_weights":[-4.5445345E-2,4.3968744E0,-8.138522E0,-2.4914474E0,1.0580017E1,-2.7269483E-1,-2.4585383E0,-1.9310328E-1,-1.2143294E-1,4.994616E0,4.998196E-1,2.064881E-3,-1.1861025E-1,-1.298789E-3,-9.355561E-3,1.5429336E-2,2.4299543E-1],"categories":[],"categories_nodes":[],"categories_segments":[],"categories_sizes":[],"default_left":[0,0,0,0,0,0,0,0,0,0,0,0,0,0,0,0,0],"id":12,"left_children":[1,3,5,7,9,-1,11,13,-1,15,-1,-1,-1,-1,-1,-1,-1],"loss_changes":[1.8017955E4,1.39301E4,1.75896E3,7.0865533E2,6.946664E3,0E0,2.5034952E2,1.6174417E0,0E0,1.8452734E3,0E0,0E0,0E0,0E0,0E0,0E0,0E0],"parents":[2147483647,0,0,1,1,2,2,3,3,4,4,6,6,7,7,9,9],"right_children":[2,4,6,8,10,-1,12,14,-1,16,-1,-1,-1,-1,-1,-1,-1],"split_conditions":[1.42E3,4.8E1,7.2E1,1E0,4.5E0,-2.7269483E-1,1E0,4.5E0,-1.2143294E-1,7.2E1,4.998196E-1,2.064881E-3,-1.1861025E-1,-1.298789E-3,-9.355561E-3,1.5429336E-2,2.4299543E-1],"split_indices":[7,3,3,5,8,0,5,8,0,3,0,0,0,0,0,0,0],"split_type":[0,0,0,0,0,0,0,0,0,0,0,0,0,0,0,0,0],"sum_hessian":[4.9E2,3.18E2,1.72E2,1.52E2,1.66E2,1.26E2,4.6E1,7.3E1,7.9E1,1.02E2,6.4E1,2.2E1,2.4E1,4.1E1,3.2E1,5.1E1,5.1E1],"tree_param":{"num_deleted":"0","num_feature":"9","num_nodes":"17","size_leaf_vector":"1"}},{"base_weights":[-5.676295E-2,4.321806E0,-7.9008174E0,7.486403E0,1.7429099E0,-1.5274303E-1,-2.626289E-1,2.504011E-1,1.5465702E-1,1.2662134E-1,-2.8043317E-2],"categories":[],"categories_nodes":[],"categories_segments":[],"categories_sizes":[],"default_left":[0,0,0,0,0,0,0,0,0,0,0],"id":13,"left_children":[1,3,5,7,9,-1,-1,-1,-1,-1,-1],"loss_changes":[1.7315746E4,2.5676265E3,4.1933203E2,1.5100879E2,1.5243889E3,0E0,0E0,0E0,0E0,0E0,0E0],"parents":[2147483647,0,0,1,1,2,2,3,3,4,4],"right_children":[2,4,6,8,10,-1,-1,-1,-1,-1,-1],"split_conditions":[5.633803E-1,2.6086956E-1,1E0,1E0,1E0,-1.5274303E-1,-2.626289E-1,2.504011E-1,1.5465702E-1,1.2662134E-1,-2.8043317E-2],"split_indices":[6,6,5,5,5,0,0,0,0,0,0],"split_type":[0,0,0,0,0,0,0,0,0,0,0],"sum_hessian":[4.93E2,3.18E2,1.75E2,1.38E2,1.8E2,8.6E1,8.9E1,5.9E1,7.9E1,8.6E1,9.4E1],"tree_param":{"num_deleted":"0","num_feature":"9","num_nodes":"11","size_leaf_vector":"1"}},{"base_weights":[-1.6826436E-1,4.049404E0,-7.739126E0,7.1083226E0,1.5769649E0,-1.5035357E-1,-2.559036E-1,2.3810758E-1,1.4490108E-1,1.16408065E-1,-2.8522193E-2],"categories":[],"categories_nodes":[],"categories_segments":[],"categories_sizes":[],"default_left":[0,0,0,0,0,0,0,0,0,0,0],"id":14,"left_children":[1,3,5,7,9,-1,-1,-1,-1,-1,-1],"loss_changes":[1.6032401E4,2.3768003E3,3.7053613E2,1.5631982E2,1.3405627E3,0E0,0E0,0E0,0E0,0E0,0E0],"parents":[2147483647,0,0,1,1,2,2,3,3,4,4],"right_children":[2,4,6,8,10,-1,-1,-1,-1,-1,-1],"split_conditions":[5.633803E-1,2.6086956E-1,1E0,1E0,1E0,-1.5035357E-1,-2.559036E-1,2.3810758E-1,1.4490108E-1,1.16408065E-1,-2.8522193E-2],"split_indices":[6,6,5,5,5,0,0,0,0,0,0],"split_type":[0,0,0,0,0,0,0,0,0,0,0],"sum_hessian":[4.91E2,3.17E2,1.74E2,1.37E2,1.8E2,8.5E1,8.9E1,6E1,7.7E1,8.7E1,9.3E1],"tree_param":{"num_deleted":"0","num_feature":"9","num_nodes":"11","size_leaf_vector":"1"}},{"base_weights":[-3.710238E-2,4.0743866E0,-7.512899E0,7.0570874E0,1.6536968E0,-1.449975E-1,-2.5045812E-1,1.09032474E-1,2.1301961E-1,1.1633027E-1,-9.0148944E-1,-3.682765E-2,8.413989E-3],"categories":[],"categories_nodes":[],"categories_segments":[],"categories_sizes":[],"default_left":[0,0,0,0,0,0,0,0,0,0,0,0,0],"id":15,"left_children":[1,3,5,7,9,-1,-1,-1,-1,-1,11,-1,-1],"loss_changes":[1.5557969E4,2.292518E3,3.8833496E2,1.6374121E2,1.2777529E3,0E0,0E0,0E0,0E0,0E0,5.682508E1,0E0,0E0],"parents":[2147483647,0,0,1,1,2,2,3,3,4,4,10,10],"right_children":[2,4,6,8,10,-1,-1,-1,-1,-1,12,-1,-1],"split_conditions":[5.633803E-1,2.6086956E-1,1E0,7E0,1E0,-1.449975E-1,-2.5045812E-1,1.09032474E-1,2.1301961E-1,1.1633027E-1,2.8E1,-3.682765E-2,8.413989E-3],"split_indices":[6,6,5,4,5,0,0,0,0,0,4,0,0],"split_type":[0,0,0,0,0,0,0,0,0,0,0,0,0],"sum_hessian":[4.95E2,3.21E2,1.74E2,1.39E2,1.82E2,8.6E1,8.8E1,3.5E1,1.04E2,8.8E1,9.4E1,6.8E1,2.6E1],"tree_param":{"num_deleted":"0","num_feature":"9","num_nodes":"13","size_leaf_vector":"1"}},{"base_weights":[6.435499E-2,4.047838E0,-1.9890091E-1,7.0861063E0,1.5820584E0,1.1426661E-1,2.110734E-1,1.1488022E0,6.948237E-2,1.9658064E-2,3.5572615E-2],"categories":[],"categories_nodes":[],"categories_segments":[],"categories_sizes":[],"default_left":[0,0,0,0,0,0,0,0,0,0,0],"id":16,"left_children":[1,3,-1,5,7,-1,-1,9,-1,-1,-1],"loss_changes":[1.4866573E4,2.398747E3,0E0,9.8782715E1,6.280533E1,0E0,0E0,4.142914E0,0E0,0E0,0E0],"parents":[2147483647,0,0,1,1,3,3,4,4,7,7],"right_children":[2,4,-1,6,8,-1,-1,10,-1,-1,-1],"split_conditions":[5.633803E-1,2.6086956E-1,-1.9890091E-1,7E0,2.8E1,1.1426661E-1,2.110734E-1,7E0,6.948237E-2,1.9658064E-2,3.5572615E-2],"split_indices":[6,6,0,4,4,0,0,4,0,0,0],"split_type":[0,0,0,0,0,0,0,0,0,0,0],"sum_hessian":[4.95E2,3.23E2,1.72E2,1.4E2,1.83E2,3.4E1,1.06E2,1.35E2,4.8E1,4.5E1,9E1],"tree_param":{"num_deleted":"0","num_feature":"9","num_nodes":"11","size_leaf_vector":"1"}},{"base_weights":[-4.2422686E-2,-1.9443254E-1,3.8435547E0,-3.7650805E0,5.305808E0,-1.472781E0,-5.499488E0,2.0651252E0,2.577713E-1,-4.742806E-2,-7.872673E-3,-1.7807686E-1,-1.9597843E-2,6.747318E-3,7.270204E-2],"categories":[],"categories_nodes":[],"categories_segments":[],"categories_sizes":[],"default_left":[0,0,0,0,0,0,0,0,0,0,0,0,0,0,0],"id":17,"left_children":[1,-1,3,5,7,9,11,13,-1,-1,-1,-1,-1,-1,-1],"loss_changes":[1.3857577E4,0E0,3.7231724E3,1.7550397E2,3.5966602E3,7.2064514E0,1.2099609E2,1.741784E2,0E0,0E0,0E0,0E0,0E0,0E0,0E0],"parents":[2147483647,0,0,2,2,3,3,4,4,5,5,6,6,7,7],"right_children":[2,-1,4,6,8,10,12,14,-1,-1,-1,-1,-1,-1,-1],"split_conditions":[3.75E0,-1.9443254E-1,4.8E1,4.5E0,4.5E0,1.4E1,2.8E1,1E1,2.577713E-1,-4.742806E-2,-7.872673E-3,-1.7807686E-1,-1.9597843E-2,6.747318E-3,7.270204E-2],"split_indices":[8,0,2,8,8,0,4,0,0,0,0,0,0,0,0],"split_type":[0,0,0,0,0,0,0,0,0,0,0,0,0,0,0],"sum_hessian":[4.91E2,1.72E2,3.19E2,5E1,2.69E2,2.6E1,2.4E1,1.56E2,1.13E2,1.9E1,7E0,1.8E1,6E0,4.1E1,1.15E2],"tree_param":{"num_deleted":"0","num_feature":"9","num_nodes":"15","size_leaf_vector":"1"}},{"base_weights":[4.6002034E-2,3.7942936E0,-6.869447E0,-2.8321655E0,9.837219E0,-2.3808011E-1,-1.3340292E0,-6.1840963E-1,-1.2876756E-1,4.611965E-1,4.546579E0,2.2901466E-2,-8.8443495E-2,-2.076426E-2,-1.1450335E-2,7.2651356E-3,2.2985141E-1],"categories":[],"categories_nodes":[],"categories_segments":[],"categories_sizes":[],"default_left":[0,0,0,0,0,0,0,0,0,0,0,0,0,0,0,0,0],"id":18,"left_children":[1,3,5,7,9,-1,11,13,-1,-1,15,-1,-1,-1,-1,-1,-1],"loss_changes":[1.3095785E4,1.3274027E4,1.7805938E3,6.585814E2,6.0587812E3,0E0,2.3037523E2,4.7053337E-1,0E0,0E0,1.7655835E3,0E0,0E0,0E0,0E0,0E0,0E0],"parents":[2147483647,0,0,1,1,2,2,3,3,4,4,6,6,7,7,10,10],"right_children":[2,4,6,8,10,-1,12,14,-1,-1,16,-1,-1,-1,-1,-1,-1],"split_conditions":[5.633803E-1,4.8E1,7.2E1,1E0,2.6086956E-1,-2.3808011E-1,1E0,2.6086956E-1,-1.2876756E-1,4.611965E-1,7.2E1,2.2901466E-2,-8.8443495E-2,-2.076426E-2,-1.1450335E-2,7.2651356E-3,2.2985141E-1],"split_indices":[6,3,3,5,6,0,5,6,0,0,3,0,0,0,0,0,0],"split_type":[0,0,0,0,0,0,0,0,0,0,0,0,0,0,0,0,0],"sum_hessian":[4.94E2,3.22E2,1.72E2,1.55E2,1.67E2,1.26E2,4.6E1,7.5E1,8E1,6.6E1,1.01E2,2.3E1,2.3E1,3.4E1,4.1E1,5.1E1,5E1],"tree_param":{"num_deleted":"0","num_feature":"9","num_nodes":"17","size_leaf_vector":"1"}},{"base_weights":[-4.9013933E-3,-5.21202E0,4.470962E0,-3.0908637E0,-6.9425373E0,1.9767638E0,7.3477597E0,-9.729356E-2,-3.014832E-2,-2.0974708E-1,-1.1015819E-1,3.5595567E0,5.0479794E-1,2.4529395E-1,1.4363635E-1,4.404825E-2,1.3031137E-1,-1.0825087E-2,3.663579E-2],"categories":[],"categories_nodes":[],"categories_segments":[],"categories_sizes":[],"default_left":[0,0,0,0,0,0,0,0,0,0,0,0,0,0,0,0,0,0,0],"id":19,"left_children":[1,3,5,7,9,11,13,-1,-1,-1,-1,15,17,-1,-1,-1,-1,-1,-1],"loss_changes":[1.1727513E4,7.3342285E2,1.8600508E3,8.766492E1,9.848047E1,3.4534027E2,1.5943652E2,0E0,0E0,0E0,0E0,1.295398E2,6.801312E1,0E0,0E0,0E0,0E0,0E0,0E0],"parents":[2147483647,0,0,1,1,2,2,3,3,4,4,5,5,6,6,11,11,12,12],"right_children":[2,4,6,8,10,12,14,-1,-1,-1,-1,16,18,-1,-1,-1,-1,-1,-1],"split_conditions":[4.8E1,1E0,7.2E1,2.8E1,2.8E1,1E0,1E0,-9.729356E-2,-3.014832E-2,-2.0974708E-1,-1.1015819E-1,6E1,6E1,2.4529395E-1,1.4363635E-1,4.404825E-2,1.3031137E-1,-1.0825087E-2,3.663579E-2],"split_indices":[3,5,3,4,4,5,5,0,0,0,0,2,2,0,0,0,0,0,0],"split_type":[0,0,0,0,0,0,0,0,0,0,0,0,0,0,0,0,0,0,0],"sum_hessian":[4.92E2,2.27E2,2.65E2,1.09E2,1.18E2,1.47E2,1.18E2,8.4E1,2.5E1,8.6E1,3.2E1,6.7E1,8E1,5.5E1,6.3E1,3.1E1,3.6E1,4E1,4E1],"tree_param":{"num_deleted":"0","num_feature":"9","num_nodes":"19","size_leaf_vector":"1"}},{"base_weights":[1.47980945E-2,3.7642415E0,-6.88068E0,-2.629121E0,9.414647E0,-2.3207924E-1,-1.6692127E0,-4.78352E0,-6.015891E-1,4.4737238E-1,4.2994847E0,-6.439842E-2,-5.676101E-1,-1.5978578E-1,-8.625999E-2,-4.3210786E-2,1.1243191E-2,9.213146E-3,2.1514788E-1,-2.2376135E-2,-3.6800604E-3],"categories":[],"categories_nodes":[],"categories_segments":[],"categories_sizes":[],"default_left":[0,0,0,0,0,0,0,0,0,0,0,0,0,0,0,0,0,0,0,0,0],"id":20,"left_children":[1,3,5,7,9,-1,11,13,15,-1,17,-1,19,-1,-1,-1,-1,-1,-1,-1,-1],"loss_changes":[1.3035582E4,1.1936953E4,1.4437412E3,6.7212646E2,5.875667E3,0E0,3.0469833E1,2.8297485E1,9.1345726E1,0E0,1.5356069E3,0E0,2.2756414E0,0E0,0E0,0E0,0E0,0E0,0E0,0E0,0E0],"parents":[2147483647,0,0,1,1,2,2,3,3,4,4,6,6,7,7,8,8,10,10,12,12],"right_children":[2,4,6,8,10,-1,12,14,16,-1,18,-1,20,-1,-1,-1,-1,-1,-1,-1,-1],"split_conditions":[5.633803E-1,4.8E1,7.2E1,1.2E1,2.6086956E-1,-2.3207924E-1,1.2E1,2.6086956E-1,1.4E1,4.4737238E-1,7.2E1,-6.439842E-2,1.4E1,-1.5978578E-1,-8.625999E-2,-4.3210786E-2,1.1243191E-2,9.213146E-3,2.1514788E-1,-2.2376135E-2,-3.6800604E-3],"split_indices":[6,3,3,0,6,0,0,6,0,0,3,0,0,0,0,0,0,0,0,0,0],"split_type":[0,0,0,0,0,0,0,0,0,0,0,0,0,0,0,0,0,0,0,0,0],"sum_hessian":[4.93E2,3.21E2,1.72E2,1.52E2,1.69E2,1.28E2,4.4E1,7E1,8.2E1,6.6E1,1.03E2,2.3E1,2.1E1,3.3E1,3.7E1,4E1,4.2E1,5.2E1,5.1E1,1E1,1.1E1],"tree_param":{"num_deleted":"0","num_feature":"9","num_nodes":"21","size_leaf_vector":"1"}},{"base_weights":[1.0775959E-1,3.7444162E0,-6.583234E0,6.539099E0,1.4784889E0,-4.4786983E0,-2.2221662E-1,4.381658E0,1.947662E-1,3.9485824E0,-9.74978E-1,-1.4200033E-1,-4.8637457E-2,1.8946415E-1,1.3322157E-2,2.1420918E-2,1.3501313E-1,-3.4485225E-2,-1.7213035E-2],"categories":[],"categories_nodes":[],"categories_segments":[],"categories_sizes":[],"default_left":[0,0,0,0,0,0,0,0,0,0,0,0,0,0,0,0,0,0,0],"id":21,"left_children":[1,3,5,7,9,11,-1,13,-1,15,17,-1,-1,-1,-1,-1,-1,-1,-1],"loss_changes":[1.2270053E4,2.0138408E3,3.8607324E2,1.6675293E1,1.1585087E3,1.23761475E2,0E0,4.4852484E2,0E0,2.8064026E2,5.3224716E0,0E0,0E0,0E0,0E0,0E0,0E0,0E0,0E0],"parents":[2147483647,0,0,1,1,2,2,3,3,4,4,5,5,7,7,9,9,10,10],"right_children":[2,4,6,8,10,12,-1,14,-1,16,18,-1,-1,-1,-1,-1,-1,-1,-1],"split_conditions":[5.633803E-1,2.6086956E-1,1E0,1E1,1E0,1.4E1,-2.2221662E-1,1E0,1.947662E-1,1E1,1.2E1,-1.4200033E-1,-4.8637457E-2,1.8946415E-1,1.3322157E-2,2.1420918E-2,1.3501313E-1,-3.4485225E-2,-1.7213035E-2],"split_indices":[6,6,5,0,5,0,0,5,0,0,0,0,0,0,0,0,0,0,0],"split_type":[0,0,0,0,0,0,0,0,0,0,0,0,0,0,0,0,0,0,0],"sum_hessian":[4.93E2,3.21E2,1.72E2,1.39E2,1.82E2,8.3E1,8.9E1,4.1E1,9.8E1,8.9E1,9.3E1,6.1E1,2.2E1,2.2E1,1.9E1,2.4E1,6.5E1,4.2E1,5.1E1],"tree_param":{"num_deleted":"0","num_feature":"9","num_nodes":"19","size_leaf_vector":"1"}},{"base_weights":[2.5164638E-2,3.5458815E0,-6.420431E0,-3.5679882E0,4.9150057E0,-4.442557E0,-2.1652621E-1,-1.4211694E0,-1.3064693E-1,1.844161E-1,3.1177416E0,-1.3993625E-1,-5.1593907E-2,-6.1264172E-2,3.196211E-2,1.6308993E-2,1.0600005E-1],"categories":[],"categories_nodes":[],"categories_segments":[],"categories_sizes":[],"default_left":[0,0,0,0,0,0,0,0,0,0,0,0,0,0,0,0,0],"id":22,"left_children":[1,3,5,7,9,11,-1,13,-1,-1,15,-1,-1,-1,-1,-1,-1],"loss_changes":[1.1600803E4,3.3180713E3,3.5021094E2,1.11352234E2,8.1654004E2,1.0830408E2,0E0,7.64061E1,0E0,0E0,2.8536755E2,0E0,0E0,0E0,0E0,0E0,0E0],"parents":[2147483647,0,0,1,1,2,2,3,3,4,4,5,5,7,7,10,10],"right_children":[2,4,6,8,10,12,-1,14,-1,-1,16,-1,-1,-1,-1,-1,-1],"split_conditions":[1.42E3,4.8E1,1E0,1E0,1E0,1.4E1,-2.1652621E-1,1.4E1,-1.3064693E-1,1.844161E-1,1E1,-1.3993625E-1,-5.1593907E-2,-6.1264172E-2,3.196211E-2,1.6308993E-2,1.0600005E-1],"split_indices":[7,2,5,5,5,0,0,0,0,0,0,0,0,0,0,0,0],"split_type":[0,0,0,0,0,0,0,0,0,0,0,0,0,0,0,0,0],"sum_hessian":[5E2,3.25E2,1.75E2,5.1E1,2.74E2,8.6E1,8.9E1,2.3E1,2.8E1,1.27E2,1.47E2,6.3E1,2.3E1,1.8E1,5E0,3.7E1,1.1E2],"tree_param":{"num_deleted":"0","num_feature":"9","num_nodes":"17","size_leaf_vector":"1"}},{"base_weights":[-9.3567325E-3,3.452416E0,-6.2466764E0,-2.7871969E0,9.001866E0,-7.9771357E0,-1.2190071E0,-4.9067683E0,-7.564416E-1,4.2898634E-1,3.9888735E0,-2.4581736E-1,-1.5737991E-1,-5.4876182E-2,-2.1722998E-1,-1.6653682E-1,-8.609621E-2,-4.4676505E-2,3.9942686E-2,4.751562E-3,2.1071595E-1,-1.5310999E-2,6.5619815E-3],"categories":[],"categories_nodes":[],"categories_segments":[],"categories_sizes":[],"default_left":[0,0,0,0,0,0,0,0,0,0,0,0,0,0,0,0,0,0,0,0,0,0,0],"id":23,"left_children":[1,3,5,7,9,11,13,15,17,-1,19,-1,-1,-1,21,-1,-1,-1,-1,-1,-1,-1,-1],"loss_changes":[1.0864898E4,1.1345489E4,1.5078193E3,6.530957E2,5.4963203E3,1.4259766E1,3.9485825E1,5.1170288E1,1.8393088E2,0E0,1.518173E3,0E0,0E0,0E0,5.452629E0,0E0,0E0,0E0,0E0,0E0,0E0,0E0,0E0],"parents":[2147483647,0,0,1,1,2,2,3,3,4,4,5,5,6,6,7,7,8,8,10,10,14,14],"right_children":[2,4,6,8,10,12,14,16,18,-1,20,-1,-1,-1,22,-1,-1,-1,-1,-1,-1,-1,-1],"split_conditions":[5.633803E-1,4.8E1,7.2E1,1.2E1,2.6086956E-1,4.8E1,1.2E1,2.6086956E-1,2.8E1,4.2898634E-1,7.2E1,-2.4581736E-1,-1.5737991E-1,-5.4876182E-2,1.4E1,-1.6653682E-1,-8.609621E-2,-4.4676505E-2,3.9942686E-2,4.751562E-3,2.1071595E-1,-1.5310999E-2,6.5619815E-3],"split_indices":[6,3,3,0,6,3,0,6,4,0,3,0,0,0,4,0,0,0,0,0,0,0,0],"split_type":[0,0,0,0,0,0,0,0,0,0,0,0,0,0,0,0,0,0,0,0,0,0,0],"sum_hessian":[4.92E2,3.18E2,1.74E2,1.51E2,1.67E2,1.27E2,4.7E1,7E1,8.1E1,6.6E1,1.01E2,7.4E1,5.3E1,2.3E1,2.4E1,3.3E1,3.7E1,5.9E1,2.2E1,5.3E1,4.8E1,1.3E1,1.1E1],"tree_param":{"num_deleted":"0","num_feature":"9","num_nodes":"23","size_leaf_vector":"1"}},{"base_weights":[1.128499E-2,-4.9108977E0,4.126713E0,-2.9904323E0,-6.4503484E0,1.8177378E0,6.7455254E0,-1.3429058E-1,-8.6642593E-1,-1.9539031E-1,-3.7338352E0,2.2387022E-1,3.5328915E0,2.2999293E-1,4.7751136E0,-4.3914784E-2,2.8316448E-3,-1.20042145E-1,-1.1674769E-2,6.076966E-2,-4.6950266E-2,5.262493E-2,1.1933781E-1,1.5163459E-1,2.9120117E-2],"categories":[],"categories_nodes":[],"categories_segments":[],"categories_sizes":[],"default_left":[0,0,0,0,0,0,0,0,0,0,0,0,0,0,0,0,0,0,0,0,0,0,0,0,0],"id":24,"left_children":[1,3,5,7,9,11,13,-1,15,-1,17,19,21,-1,23,-1,-1,-1,-1,-1,-1,-1,-1,-1,-1],"loss_changes":[1.0213335E4,5.705796E2,1.5915488E3,4.4072516E2,9.234717E1,4.15346E2,1.9908936E2,0E0,4.4917202E1,0E0,7.3345276E1,3.5668063E2,5.263275E1,0E0,1.776532E2,0E0,0E0,0E0,0E0,0E0,0E0,0E0,0E0,0E0,0E0],"parents":[2147483647,0,0,1,1,2,2,3,3,4,4,5,5,6,6,8,8,10,10,11,11,12,12,14,14],"right_children":[2,4,6,8,10,12,14,-1,16,-1,18,20,22,-1,24,-1,-1,-1,-1,-1,-1,-1,-1,-1,-1],"split_conditions":[4.8E1,1E0,7.2E1,1.2E1,2.8E1,1.2E1,1E0,-1.3429058E-1,1.4E1,-1.9539031E-1,1.4E1,1E0,6E1,2.2999293E-1,1.4E1,-4.3914784E-2,2.8316448E-3,-1.20042145E-1,-1.1674769E-2,6.076966E-2,-4.6950266E-2,5.262493E-2,1.1933781E-1,1.5163459E-1,2.9120117E-2],"split_indices":[3,5,3,0,4,0,5,0,0,0,0,5,2,0,0,0,0,0,0,0,0,0,0,0,0],"split_type":[0,0,0,0,0,0,0,0,0,0,0,0,0,0,0,0,0,0,0,0,0,0,0,0,0],"sum_hessian":[4.93E2,2.24E2,2.69E2,1.07E2,1.17E2,1.48E2,1.21E2,5.2E1,5.5E1,8.5E1,3.2E1,8E1,6.8E1,5.5E1,6.6E1,2.9E1,2.6E1,2.5E1,7E0,3.9E1,4.1E1,3E1,3.8E1,5.2E1,1.4E1],"tree_param":{"num_deleted":"0","num_feature":"9","num_nodes":"25","size_leaf_vector":"1"}},{"base_weights":[7.0015505E-2,3.382833E0,-6.147942E0,6.1397624E0,1.1685923E0,-1.1699442E-1,-2.048265E-1,8.55196E-2,6.9363995E0,3.5251918E0,-1.0432938E0,2.3074709E-1,1.4360675E-1,4.912101E-2,1.0582974E-1,-4.03387E-2,3.785703E-3],"categories":[],"categories_nodes":[],"categories_segments":[],"categories_sizes":[],"default_left":[0,0,0,0,0,0,0,0,0,0,0,0,0,0,0,0,0],"id":25,"left_children":[1,3,5,7,9,-1,-1,-1,11,13,15,-1,-1,-1,-1,-1,-1],"loss_changes":[1.0345605E4,1.959438E3,2.6350342E2,2.230498E2,1.0037081E3,0E0,0E0,0E0,2.9781738E1,1.8415771E1,5.3906876E1,0E0,0E0,0E0,0E0,0E0,0E0],"parents":[2147483647,0,0,1,1,2,2,3,3,4,4,8,8,9,9,10,10],"right_children":[2,4,6,8,10,-1,-1,-1,12,14,16,-1,-1,-1,-1,-1,-1],"split_conditions":[5.633803E-1,2.6086956E-1,1E0,7E0,1E0,-1.1699442E-1,-2.048265E-1,8.55196E-2,1E0,7E0,2.8E1,2.3074709E-1,1.4360675E-1,4.912101E-2,1.0582974E-1,-4.03387E-2,3.785703E-3],"split_indices":[6,6,5,4,5,0,0,0,5,4,4,0,0,0,0,0,0],"split_type":[0,0,0,0,0,0,0,0,0,0,0,0,0,0,0,0,0],"sum_hessian":[4.91E2,3.22E2,1.69E2,1.39E2,1.83E2,8.2E1,8.7E1,3.5E1,1.04E2,8.7E1,9.6E1,4.2E1,6.2E1,2.1E1,6.6E1,6.9E1,2.7E1],"tree_param":{"num_deleted":"0","num_feature":"9","num_nodes":"17","size_leaf_vector":"1"}},{"base_weights":[8.230059E-2,3.3225727E0,-5.951925E0,-2.6103857E0,8.579302E0,-2.0637864E-1,-1.1466005E0,-4.595491E0,-7.721241E-1,4.1217414E-1,3.8953238E0,-5.195622E-2,-2.1797037E-1,-1.5347542E-1,-8.119844E-2,-4.756053E-2,6.84034E-3,2.8062633E-3,2.0071141E-1,-1.26084E-2,1.765394E-3],"categories":[],"categories_nodes":[],"categories_segments":[],"categories_sizes":[],"default_left":[0,0,0,0,0,0,0,0,0,0,0,0,0,0,0,0,0,0,0,0,0],"id":26,"left_children":[1,3,5,7,9,-1,11,13,15,-1,17,-1,19,-1,-1,-1,-1,-1,-1,-1,-1],"loss_changes":[9.937559E3,1.0436051E4,1.3427808E3,5.623677E2,5.099427E3,0E0,3.4133102E1,3.2778564E1,9.193617E1,0E0,1.4546643E3,0E0,2.2334385E0,0E0,0E0,0E0,0E0,0E0,0E0,0E0,0E0],"parents":[2147483647,0,0,1,1,2,2,3,3,4,4,6,6,7,7,8,8,10,10,12,12],"right_children":[2,4,6,8,10,-1,12,14,16,-1,18,-1,20,-1,-1,-1,-1,-1,-1,-1,-1],"split_conditions":[5.633803E-1,4.8E1,7.2E1,1.2E1,2.6086956E-1,-2.0637864E-1,1.2E1,2.6086956E-1,1.4E1,4.1217414E-1,7.2E1,-5.195622E-2,1.4E1,-1.5347542E-1,-8.119844E-2,-4.756053E-2,6.84034E-3,2.8062633E-3,2.0071141E-1,-1.26084E-2,1.765394E-3],"split_indices":[6,3,3,0,6,0,0,6,0,0,3,0,0,0,0,0,0,0,0,0,0],"split_type":[0,0,0,0,0,0,0,0,0,0,0,0,0,0,0,0,0,0,0,0,0],"sum_hessian":[4.97E2,3.25E2,1.72E2,1.54E2,1.71E2,1.26E2,4.6E1,7E1,8.4E1,6.6E1,1.05E2,2.2E1,2.4E1,3.4E1,3.6E1,4.1E1,4.3E1,5.3E1,5.2E1,1.1E1,1.3E1],"tree_param":{"num_deleted":"0","num_feature":"9","num_nodes":"21","size_leaf_vector":"1"}},{"base_weights":[-3.2128844E-2,-5.8197184E0,3.1139412E0,-4.013637E0,-1.9649929E-1,-3.3379853E0,4.366681E0,-1.4428751E-1,-6.555905E-2,-1.0486798E0,-5.090712E0,1.5970087E0,2.1639791E-1,8.542722E-3,-5.7084E-2,-1.6043895E-1,-2.5205178E-2,1.0811123E-1,-1.9518E-2],"categories":[],"categories_nodes":[],"categories_segments":[],"categories_sizes":[],"default_left":[0,0,0,0,0,0,0,0,0,0,0,0,0,0,0,0,0,0,0],"id":27,"left_children":[1,3,5,7,-1,9,11,-1,-1,13,15,17,-1,-1,-1,-1,-1,-1,-1],"loss_changes":[9.23459E3,2.8910938E2,2.7374749E3,1.15548584E2,0E0,1.9703204E2,2.684312E3,0E0,0E0,4.8882805E1,7.1700745E1,9.1522864E2,0E0,0E0,0E0,0E0,0E0,0E0,0E0],"parents":[2147483647,0,0,1,1,2,2,3,3,5,5,6,6,9,9,10,10,11,11],"right_children":[2,4,6,8,-1,10,12,-1,-1,14,16,18,-1,-1,-1,-1,-1,-1,-1],"split_conditions":[3.75E0,1E0,4.8E1,1.2E1,-1.9649929E-1,4.5E0,4.5E0,-1.4428751E-1,-6.555905E-2,1E0,1.4E1,1E0,2.1639791E-1,8.542722E-3,-5.7084E-2,-1.6043895E-1,-2.5205178E-2,1.0811123E-1,-1.9518E-2],"split_indices":[8,5,2,0,0,8,8,0,0,5,0,5,0,0,0,0,0,0,0],"split_type":[0,0,0,0,0,0,0,0,0,0,0,0,0,0,0,0,0,0,0],"sum_hessian":[4.96E2,1.73E2,3.23E2,8.5E1,8.8E1,5.1E1,2.72E2,4E1,4.5E1,2.6E1,2.5E1,1.58E2,1.14E2,1.3E1,1.3E1,1.9E1,6E0,7.6E1,8.2E1],"tree_param":{"num_deleted":"0","num_feature":"9","num_nodes":"19","size_leaf_vector":"1"}},{"base_weights":[7.36147E-2,-4.5570235E0,3.9608693E0,-2.6439025E0,-2.2149976E-1,8.290546E0,-3.407568E0,-4.6224637E0,-7.883592E-1,5.71288E0,2.9843995E-1,-1.4157914E-1,-1.0455384E0,-1.4230277E-1,-5.5684086E-2,-4.3762736E-2,3.6694307E-2,4.044128E-2,1.9460994E-1,-4.915005E-2,-3.0544593E-3],"categories":[],"categories_nodes":[],"categories_segments":[],"categories_sizes":[],"default_left":[0,0,0,0,0,0,0,0,0,0,0,0,0,0,0,0,0,0,0,0,0],"id":28,"left_children":[1,3,5,7,-1,9,11,13,15,17,-1,-1,19,-1,-1,-1,-1,-1,-1,-1,-1],"loss_changes":[9.093905E3,1.4591714E3,8.918588E3,5.6169556E2,0E0,8.527246E2,4.1690503E2,5.7956787E1,1.6726852E2,5.5149854E2,0E0,0E0,3.6129112E1,0E0,0E0,0E0,0E0,0E0,0E0,0E0,0E0],"parents":[2147483647,0,0,1,1,2,2,3,3,5,5,6,6,7,7,8,8,9,9,12,12],"right_children":[2,4,6,8,-1,10,12,14,16,18,-1,-1,20,-1,-1,-1,-1,-1,-1,-1,-1],"split_conditions":[4.8E1,1.42E3,1.42E3,1.2E1,-2.2149976E-1,7.2E1,7.2E1,2.8E1,2.8E1,1E1,2.9843995E-1,-1.4157914E-1,1.2E1,-1.4230277E-1,-5.5684086E-2,-4.3762736E-2,3.6694307E-2,4.044128E-2,1.9460994E-1,-4.915005E-2,-3.0544593E-3],"split_indices":[3,7,7,0,0,3,3,4,4,0,0,0,0,0,0,0,0,0,0,0,0],"split_type":[0,0,0,0,0,0,0,0,0,0,0,0,0,0,0,0,0,0,0,0,0],"sum_hessian":[4.94E2,2.25E2,2.69E2,1.53E2,7.2E1,1.69E2,1E2,7E1,8.3E1,9.5E1,7.4E1,5.3E1,4.7E1,5.2E1,1.8E1,6.1E1,2.2E1,2.7E1,6.8E1,2.3E1,2.4E1],"tree_param":{"num_deleted":"0","num_feature":"9","num_nodes":"21","size_leaf_vector":"1"}},{"base_weights":[8.459336E-3,3.0290258E0,-5.501381E0,5.463119E0,1.0257406E0,-3.6995506E0,-1.878339E-1,2.8018527E0,6.157041E0,3.2516756E0,-1.1452054E0,-1.18254475E-1,-3.9442994E-2,3.0662661E-2,8.552696E-2,1.02352E-1,1.8659468E-1,1.1278004E-2,1.1421322E-1,-4.2081572E-2,-5.5010617E-4],"categories":[],"categories_nodes":[],"categories_segments":[],"categories_sizes":[],"default_left":[0,0,0,0,0,0,0,0,0,0,0,0,0,0,0,0,0,0,0,0,0],"id":29,"left_children":[1,3,5,7,9,11,-1,13,15,17,19,-1,-1,-1,-1,-1,-1,-1,-1,-1,-1],"loss_changes":[8.441114E3,1.5658613E3,3.0985107E2,1.7392822E2,9.225959E2,9.6154175E1,0E0,3.2219238E0,4.230127E1,2.410022E2,4.424872E1,0E0,0E0,0E0,0E0,0E0,0E0,0E0,0E0,0E0,0E0],"parents":[2147483647,0,0,1,1,2,2,3,3,4,4,5,5,7,7,8,8,9,9,10,10],"right_children":[2,4,6,8,10,12,-1,14,16,18,20,-1,-1,-1,-1,-1,-1,-1,-1,-1,-1],"split_conditions":[5.633803E-1,2.6086956E-1,1E0,7E0,1E0,1.4E1,-1.878339E-1,1E1,1E1,1E1,2.8E1,-1.18254475E-1,-3.9442994E-2,3.0662661E-2,8.552696E-2,1.02352E-1,1.8659468E-1,1.1278004E-2,1.1421322E-1,-4.2081572E-2,-5.5010617E-4],"split_indices":[6,6,5,4,5,0,0,0,0,0,4,0,0,0,0,0,0,0,0,0,0],"split_type":[0,0,0,0,0,0,0,0,0,0,0,0,0,0,0,0,0,0,0,0,0],"sum_hessian":[4.96E2,3.22E2,1.74E2,1.41E2,1.81E2,8.5E1,8.9E1,3.5E1,1.06E2,8.8E1,9.3E1,6.2E1,2.3E1,1E1,2.5E1,3.2E1,7.4E1,2.4E1,6.4E1,6.7E1,2.6E1],"tree_param":{"num_deleted":"0","num_feature":"9","num_nodes":"21","size_leaf_vector":"1"}},{"base_weights":[-1.2630725E-2,-4.493887E0,3.7947624E0,-2.1316318E-1,-2.6809158E0,2.03082E-1,3.8796672E-1,-4.561473E0,-9.066583E-1,-3.2530398E0,3.4914389E0,-7.936682E-2,-1.536319E-1,-4.9197894E-2,2.2126583E-3,-1.3606794E-1,-2.274688E-2,-2.484276E-3,1.8660465E-1],"categories":[],"categories_nodes":[],"categories_segments":[],"categories_sizes":[],"default_left":[0,0,0,0,0,0,0,0,0,0,0,0,0,0,0,0,0,0,0],"id":30,"left_children":[1,3,5,-1,7,9,-1,11,13,15,17,-1,-1,-1,-1,-1,-1,-1,-1],"loss_changes":[8.602405E3,1.2837783E3,1.0224232E4,0E0,5.058601E2,2.4342222E3,0E0,4.2381104E1,7.9733246E1,4.1797473E2,1.3248536E3,0E0,0E0,0E0,0E0,0E0,0E0,0E0,0E0],"parents":[2147483647,0,0,1,1,2,2,4,4,5,5,7,7,8,8,9,9,10,10],"right_children":[2,4,6,-1,8,10,-1,12,14,16,18,-1,-1,-1,-1,-1,-1,-1,-1],"split_conditions":[4.8E1,3.75E0,4.5E0,-2.1316318E-1,1.2E1,3.75E0,3.8796672E-1,4.5E0,1.4E1,7.2E1,7.2E1,-7.936682E-2,-1.536319E-1,-4.9197894E-2,2.2126583E-3,-1.3606794E-1,-2.274688E-2,-2.484276E-3,1.8660465E-1],"split_indices":[3,8,8,0,0,8,0,8,0,3,3,0,0,0,0,0,0,0,0],"split_type":[0,0,0,0,0,0,0,0,0,0,0,0,0,0,0,0,0,0,0],"sum_hessian":[4.93E2,2.26E2,2.67E2,7.3E1,1.53E2,2.03E2,6.4E1,7E1,8.3E1,9.9E1,1.04E2,3.6E1,3.4E1,4.1E1,4.2E1,5.4E1,4.5E1,5.3E1,5.1E1],"tree_param":{"num_deleted":"0","num_feature":"9","num_nodes":"19","size_leaf_vector":"1"}},{"base_weights":[-3.8102057E-2,2.8307345E0,-5.241096E0,5.086448E0,1.0171518E0,-3.523044E0,-1.7947923E-1,2.6406395E0,5.7324557E0,3.2284658E0,-1.096551E0,-1.2809671E-1,-5.5604205E-2,8.877415E-2,3.8606185E-2,8.953354E-2,1.7586122E-1,1.0747637E-2,1.13589205E-1,-4.0719695E-2,-1.427521E-4],"categories":[],"categories_nodes":[],"categories_segments":[],"categories_sizes":[],"default_left":[0,0,0,0,0,0,0,0,0,0,0,0,0,0,0,0,0,0,0,0,0],"id":31,"left_children":[1,3,5,7,9,11,-1,13,15,17,19,-1,-1,-1,-1,-1,-1,-1,-1,-1,-1],"loss_changes":[7.585078E3,1.3110322E3,2.8958936E2,1.4351514E2,9.013748E2,1.0643103E2,0E0,4.7858276E0,7.5944336E1,2.4125745E2,4.377323E1,0E0,0E0,0E0,0E0,0E0,0E0,0E0,0E0,0E0,0E0],"parents":[2147483647,0,0,1,1,2,2,3,3,4,4,5,5,7,7,8,8,9,9,10,10],"right_children":[2,4,6,8,10,12,-1,14,16,18,20,-1,-1,-1,-1,-1,-1,-1,-1,-1,-1],"split_conditions":[5.633803E-1,2.6086956E-1,1E0,7E0,1E0,1.2E1,-1.7947923E-1,1E0,1E1,1E1,2.8E1,-1.2809671E-1,-5.5604205E-2,8.877415E-2,3.8606185E-2,8.953354E-2,1.7586122E-1,1.0747637E-2,1.13589205E-1,-4.0719695E-2,-1.427521E-4],"split_indices":[6,6,5,4,5,0,0,5,0,0,4,0,0,0,0,0,0,0,0,0,0],"split_type":[0,0,0,0,0,0,0,0,0,0,0,0,0,0,0,0,0,0,0,0,0],"sum_hessian":[4.97E2,3.22E2,1.75E2,1.39E2,1.83E2,8.6E1,8.9E1,3.5E1,1.04E2,8.8E1,9.5E1,4.1E1,4.5E1,1.7E1,1.8E1,3.1E1,7.3E1,2.4E1,6.4E1,6.8E1,2.7E1],"tree_param":{"num_deleted":"0","num_feature":"9","num_nodes":"21","size_leaf_vector":"1"}},{"base_weights":[-2.9502565E-2,-4.4631352E0,3.7078018E0,-2.7815526E0,-2.0624849E-1,3.7412536E-1,2.755667E-1,-3.4706056E0,-5.839874E-1,3.4182773E0,-3.0618699E0,-1.2394654E-1,-5.7577204E-2,3.925847E-2,-6.1513532E-2,-2.9623904E-3,1.8167737E-1,-1.2938309E-1,-1.9864492E-2],"categories":[],"categories_nodes":[],"categories_segments":[],"categories_sizes":[],"default_left":[0,0,0,0,0,0,0,0,0,0,0,0,0,0,0,0,0,0,0],"id":32,"left_children":[1,3,5,7,-1,-1,9,11,13,15,17,-1,-1,-1,-1,-1,-1,-1,-1],"loss_changes":[8.354239E3,1.0895503E3,9.404633E3,2.2868665E2,0E0,0E0,2.2569216E3,1.2147717E2,1.6972997E2,1.2746984E3,3.9309674E2,0E0,0E0,0E0,0E0,0E0,0E0,0E0,0E0],"parents":[2147483647,0,0,1,1,2,2,3,3,6,6,7,7,8,8,9,9,10,10],"right_children":[2,4,6,8,-1,-1,10,12,14,16,18,-1,-1,-1,-1,-1,-1,-1,-1],"split_conditions":[4.8E1,5.633803E-1,2.6086956E-1,2.8E1,-2.0624849E-1,3.7412536E-1,5.633803E-1,2.6086956E-1,2.6086956E-1,7.2E1,7.2E1,-1.2394654E-1,-5.7577204E-2,3.925847E-2,-6.1513532E-2,-2.9623904E-3,1.8167737E-1,-1.2938309E-1,-1.9864492E-2],"split_indices":[3,6,6,4,0,0,6,6,6,3,3,0,0,0,0,0,0,0,0],"split_type":[0,0,0,0,0,0,0,0,0,0,0,0,0,0,0,0,0,0,0],"sum_hessian":[4.93E2,2.25E2,2.68E2,1.53E2,7.2E1,6.4E1,2.04E2,1.14E2,3.9E1,1.05E2,9.9E1,5.6E1,5.8E1,1.8E1,2.1E1,5.3E1,5.2E1,5.4E1,4.5E1],"tree_param":{"num_deleted":"0","num_feature":"9","num_nodes":"19","size_leaf_vector":"1"}},{"base_weights":[-3.6612442E-3,2.7199936E0,-4.9791603E0,-3.2242277E0,3.8506303E0,-9.1908775E-2,-1.6951762E-1,-1.3619386E-1,-9.1204184E-1,1.929658E-1,1.3242003E0,1.1600028E-2,-5.186367E-2,9.6844584E-2,-2.4980236E-2],"categories":[],"categories_nodes":[],"categories_segments":[],"categories_sizes":[],"default_left":[0,0,0,0,0,0,0,0,0,0,0,0,0,0,0],"id":33,"left_children":[1,3,5,7,9,-1,-1,-1,11,-1,13,-1,-1,-1,-1],"loss_changes":[6.76481E3,2.237559E3,2.3549951E2,1.9894928E2,2.1862407E3,0E0,0E0,0E0,4.526681E1,0E0,8.2272595E2,0E0,0E0,0E0,0E0],"parents":[2147483647,0,0,1,1,2,2,3,3,4,4,8,8,10,10],"right_children":[2,4,6,8,10,-1,-1,-1,12,-1,14,-1,-1,-1,-1],"split_conditions":[5.633803E-1,4.8E1,1E0,2.6086956E-1,2.6086956E-1,-9.1908775E-2,-1.6951762E-1,-1.3619386E-1,1E0,1.929658E-1,1E0,1.1600028E-2,-5.186367E-2,9.6844584E-2,-2.4980236E-2],"split_indices":[6,2,5,6,6,0,0,0,5,0,5,0,0,0,0],"split_type":[0,0,0,0,0,0,0,0,0,0,0,0,0,0,0],"sum_hessian":[4.88E2,3.17E2,1.71E2,4.9E1,2.68E2,8.4E1,8.7E1,2.4E1,2.5E1,1.13E2,1.55E2,1.2E1,1.3E1,7.6E1,7.9E1],"tree_param":{"num_deleted":"0","num_feature":"9","num_nodes":"15","size_leaf_vector":"1"}},{"base_weights":[-3.577759E-2,-4.2482567E0,3.6201246E0,-2.6345139E0,-1.964819E-1,3.567006E-1,1.6352126E-1,-3.3843634E0,-3.7661237E-1,3.2225885E0,-3.0887148E0,-1.23016484E-1,-5.5035703E-2,3.906888E-2,-5.3735554E-2,-6.36599E-3,1.7625836E-1,-1.24362044E-1,-2.3279883E-2],"categories":[],"categories_nodes":[],"categories_segments":[],"categories_sizes":[],"default_left":[0,0,0,0,0,0,0,0,0,0,0,0,0,0,0,0,0,0,0],"id":34,"left_children":[1,3,5,7,-1,-1,9,11,13,15,17,-1,-1,-1,-1,-1,-1,-1,-1],"loss_changes":[7.6106216E3,9.939971E2,8.663152E3,2.5957532E2,0E0,0E0,2.0414219E3,1.3056104E2,1.4787688E2,1.1961235E3,3.0728943E2,0E0,0E0,0E0,0E0,0E0,0E0,0E0,0E0],"parents":[2147483647,0,0,1,1,2,2,3,3,6,6,7,7,8,8,9,9,10,10],"right_children":[2,4,6,8,-1,-1,10,12,14,16,18,-1,-1,-1,-1,-1,-1,-1,-1],"split_conditions":[4.8E1,5.633803E-1,2.6086956E-1,2.8E1,-1.964819E-1,3.567006E-1,5.633803E-1,2.6086956E-1,2.6086956E-1,7.2E1,7.2E1,-1.23016484E-1,-5.5035703E-2,3.906888E-2,-5.3735554E-2,-6.36599E-3,1.7625836E-1,-1.24362044E-1,-2.3279883E-2],"split_indices":[3,6,6,4,0,0,6,6,6,3,3,0,0,0,0,0,0,0,0],"split_type":[0,0,0,0,0,0,0,0,0,0,0,0,0,0,0,0,0,0,0],"sum_hessian":[4.83E2,2.24E2,2.59E2,1.52E2,7.2E1,6.5E1,1.94E2,1.12E2,4E1,1E2,9.4E1,5.4E1,5.8E1,1.9E1,2.1E1,5.1E1,4.9E1,5.3E1,4.1E1],"tree_param":{"num_deleted":"0","num_feature":"9","num_nodes":"19","size_leaf_vector":"1"}},{"base_weights":[-8.442475E-3,-4.182716E0,3.555606E0,-2.624244E0,-1.9239898E-1,7.340392E0,-2.758929E0,-4.4419656E0,-8.661462E-1,4.869742E0,2.7076304E-1,-1.1990158E-1,-5.992871E-1,-8.044412E-2,-1.43552E-1,3.6737923E-2,-7.516289E-2,2.4601452E-2,1.7077819E-1,3.154056E-2,-5.9490096E-2],"categories":[],"categories_nodes":[],"categories_segments":[],"categories_sizes":[],"default_left":[0,0,0,0,0,0,0,0,0,0,0,0,0,0,0,0,0,0,0,0,0],"id":35,"left_children":[1,3,5,7,-1,9,11,13,15,17,-1,-1,19,-1,-1,-1,-1,-1,-1,-1,-1],"loss_changes":[7.545606E3,9.46688E2,6.652128E3,4.915298E2,0E0,8.405615E2,3.6409906E2,8.528442E0,3.93019E2,5.229617E2,0E0,0E0,1.6090222E2,0E0,0E0,0E0,0E0,0E0,0E0,0E0,0E0],"parents":[2147483647,0,0,1,1,2,2,3,3,5,5,6,6,7,7,8,8,9,9,12,12],"right_children":[2,4,6,8,-1,10,12,14,16,18,-1,-1,20,-1,-1,-1,-1,-1,-1,-1,-1],"split_conditions":[4.8E1,1.42E3,1.42E3,1.2E1,-1.9239898E-1,7.2E1,7.2E1,1E0,1E0,1E1,2.7076304E-1,-1.1990158E-1,1E0,-8.044412E-2,-1.43552E-1,3.6737923E-2,-7.516289E-2,2.4601452E-2,1.7077819E-1,3.154056E-2,-5.9490096E-2],"split_indices":[3,7,7,0,0,3,3,5,5,0,0,0,5,0,0,0,0,0,0,0,0],"split_type":[0,0,0,0,0,0,0,0,0,0,0,0,0,0,0,0,0,0,0,0,0],"sum_hessian":[4.96E2,2.28E2,2.68E2,1.55E2,7.3E1,1.67E2,1.01E2,7.2E1,8.3E1,9.4E1,7.3E1,5.4E1,4.7E1,3.5E1,3.7E1,3.9E1,4.4E1,2.7E1,6.7E1,2.3E1,2.4E1],"tree_param":{"num_deleted":"0","num_feature":"9","num_nodes":"21","size_leaf_vector":"1"}},{"base_weights":[9.912514E-3,-4.041648E0,3.4564402E0,-2.516426E0,-1.8698366E-1,7.060009E0,-2.6846929E0,-4.2881575E0,-8.442892E-1,4.7697945E0,2.5903815E-1,-1.1735142E-1,-5.8593315E-1,-7.855642E-2,-1.3823028E-1,3.460994E-2,-7.334795E-2,2.4046814E-2,1.6629043E-1,3.0850092E-2,-5.817704E-2],"categories":[],"categories_nodes":[],"categories_segments":[],"categories_sizes":[],"default_left":[0,0,0,0,0,0,0,0,0,0,0,0,0,0,0,0,0,0,0,0,0],"id":36,"left_children":[1,3,5,7,-1,9,11,13,15,17,-1,-1,19,-1,-1,-1,-1,-1,-1,-1,-1],"loss_changes":[7.096279E3,9.107151E2,6.1829565E3,4.553614E2,0E0,7.2822363E2,3.4628516E2,2.6395264E0,3.7004962E2,4.9864404E2,0E0,0E0,1.5389914E2,0E0,0E0,0E0,0E0,0E0,0E0,0E0,0E0],"parents":[2147483647,0,0,1,1,2,2,3,3,5,5,6,6,7,7,8,8,9,9,12,12],"right_children":[2,4,6,8,-1,10,12,14,16,18,-1,-1,20,-1,-1,-1,-1,-1,-1,-1,-1],"split_conditions":[4.8E1,1.42E3,1.42E3,1.2E1,-1.8698366E-1,7.2E1,7.2E1,1E0,1E0,1E1,2.5903815E-1,-1.1735142E-1,1E0,-7.855642E-2,-1.3823028E-1,3.460994E-2,-7.334795E-2,2.4046814E-2,1.6629043E-1,3.0850092E-2,-5.817704E-2],"split_indices":[3,7,7,0,0,3,3,5,5,0,0,0,5,0,0,0,0,0,0,0,0],"split_type":[0,0,0,0,0,0,0,0,0,0,0,0,0,0,0,0,0,0,0,0,0],"sum_hessian":[4.97E2,2.28E2,2.69E2,1.55E2,7.3E1,1.69E2,1E2,7.1E1,8.4E1,9.6E1,7.3E1,5.3E1,4.7E1,3.5E1,3.6E1,4E1,4.4E1,2.7E1,6.9E1,2.3E1,2.4E1],"tree_param":{"num_deleted":"0","num_feature":"9","num_nodes":"21","size_leaf_vector":"1"}},{"base_weights":[3.970547E-2,-3.9135747E0,3.373227E0,-2.4908845E0,-1.8139471E-1,3.4356913E-1,1.6747676E-1,-7.170821E-1,-1.0833757E-1,2.8507507E0,-2.6260242E0,-2.4769178E-2,-1.2692316E-2,-1.1439146E-2,1.5909496E-1,-1.140505E-1,-1.4526734E-2],"categories":[],"categories_nodes":[],"categories_segments":[],"categories_sizes":[],"default_left":[0,0,0,0,0,0,0,0,0,0,0,0,0,0,0,0,0],"id":37,"left_children":[1,3,5,7,-1,-1,9,11,-1,13,15,-1,-1,-1,-1,-1,-1],"loss_changes":[6.670851E3,8.133137E2,8.1304404E3,4.1086505E2,0E0,0E0,1.612955E3,1.4832726E0,0E0,1.0874624E3,3.329668E2,0E0,0E0,0E0,0E0,0E0,0E0],"parents":[2147483647,0,0,1,1,2,2,3,3,6,6,7,7,9,9,10,10],"right_children":[2,4,6,8,-1,-1,10,12,-1,14,16,-1,-1,-1,-1,-1,-1],"split_conditions":[4.8E1,5.633803E-1,2.6086956E-1,1E0,-1.8139471E-1,3.4356913E-1,5.633803E-1,2.6086956E-1,-1.0833757E-1,7.2E1,7.2E1,-2.4769178E-2,-1.2692316E-2,-1.1439146E-2,1.5909496E-1,-1.140505E-1,-1.4526734E-2],"split_indices":[3,6,6,5,0,0,6,6,0,3,3,0,0,0,0,0,0],"split_type":[0,0,0,0,0,0,0,0,0,0,0,0,0,0,0,0,0],"sum_hessian":[4.95E2,2.26E2,2.69E2,1.56E2,7E1,6.5E1,2.04E2,7.5E1,8.1E1,1.04E2,1E2,3.4E1,4.1E1,5.2E1,5.2E1,5.4E1,4.6E1],"tree_param":{"num_deleted":"0","num_feature":"9","num_nodes":"17","size_leaf_vector":"1"}},{"base_weights":[-1.5719092E-2,-3.864154E0,3.2823324E0,-2.4058926E0,-1.7734945E-1,7.1222104E-2,3.3453706E-1,-2.9058576E0,-1.2081747E0,2.695561E0,-2.6319048E0,-4.546359E-2,-1.06554836E-1,-5.9414633E-2,2.5262714E-3,-1.1675418E-2,1.5116824E-1,-1.1399898E-1,-1.573494E-2],"categories":[],"categories_nodes":[],"categories_segments":[],"categories_sizes":[],"default_left":[0,0,0,0,0,0,0,0,0,0,0,0,0,0,0,0,0,0,0],"id":38,"left_children":[1,3,5,7,-1,9,-1,11,13,15,17,-1,-1,-1,-1,-1,-1,-1,-1],"loss_changes":[6.424695E3,8.153838E2,7.880674E3,7.579993E1,0E0,1.5052601E3,0E0,9.863098E1,7.297275E1,9.745024E2,3.2068646E2,0E0,0E0,0E0,0E0,0E0,0E0,0E0,0E0],"parents":[2147483647,0,0,1,1,2,2,3,3,5,5,7,7,8,8,9,9,10,10],"right_children":[2,4,6,8,-1,10,-1,12,14,16,18,-1,-1,-1,-1,-1,-1,-1,-1],"split_conditions":[4.8E1,1.42E3,4.5E0,6E1,-1.7734945E-1,1.42E3,3.3453706E-1,4.5E0,4.5E0,7.2E1,7.2E1,-4.546359E-2,-1.06554836E-1,-5.9414633E-2,2.5262714E-3,-1.1675418E-2,1.5116824E-1,-1.1399898E-1,-1.573494E-2],"split_indices":[3,7,8,2,0,7,0,8,8,3,3,0,0,0,0,0,0,0,0],"split_type":[0,0,0,0,0,0,0,0,0,0,0,0,0,0,0,0,0,0,0],"sum_hessian":[4.95E2,2.28E2,2.67E2,1.54E2,7.4E1,2.01E2,6.6E1,1.03E2,5.1E1,1.02E2,9.9E1,5.3E1,5E1,2.7E1,2.4E1,5.1E1,5.1E1,5.3E1,4.6E1],"tree_param":{"num_deleted":"0","num_feature":"9","num_nodes":"19","size_leaf_vector":"1"}},{"base_weights":[3.633925E-4,2.336354E0,-4.271283E0,-2.8576453E0,3.355649E0,-1.3687176E-1,-8.829703E-2,-6.916343E-1,-4.5708857E0,9.1478634E-1,1.7681511E-1,-2.4969805E-2,1.4722899E-3,-1.480314E-1,-1.4191609E-2,1.9542068E-4,4.909381E-2],"categories":[],"categories_nodes":[],"categories_segments":[],"categories_sizes":[],"default_left":[0,0,0,0,0,0,0,0,0,0,0,0,0,0,0,0,0],"id":39,"left_children":[1,3,5,7,9,-1,-1,11,13,15,-1,-1,-1,-1,-1,-1,-1],"loss_changes":[5.0409907E3,1.7827281E3,4.744287E1,1.9216873E2,2.079321E3,0E0,0E0,5.6241426E0,9.1492676E1,1.3025658E2,0E0,0E0,0E0,0E0,0E0,0E0,0E0],"parents":[2147483647,0,0,1,1,2,2,3,3,4,4,7,7,8,8,9,9],"right_children":[2,4,6,8,10,-1,-1,12,14,16,-1,-1,-1,-1,-1,-1,-1],"split_conditions":[1.42E3,4.8E1,1.2E1,4.5E0,4.5E0,-1.3687176E-1,-8.829703E-2,1.4E1,2.8E1,1.2E1,1.7681511E-1,-2.4969805E-2,1.4722899E-3,-1.480314E-1,-1.4191609E-2,1.9542068E-4,4.909381E-2],"split_indices":[7,2,0,8,8,0,0,0,4,0,0,0,0,0,0,0,0],"split_type":[0,0,0,0,0,0,0,0,0,0,0,0,0,0,0,0,0],"sum_hessian":[4.94E2,3.21E2,1.73E2,5.1E1,2.7E2,8.7E1,8.6E1,2.6E1,2.5E1,1.56E2,1.14E2,1.9E1,7E0,1.9E1,6E0,8E1,7.6E1],"tree_param":{"num_deleted":"0","num_feature":"9","num_nodes":"17","size_leaf_vector":"1"}},{"base_weights":[-7.309875E-2,-3.7285411E0,3.0685039E0,-2.3546462E0,-1.6970107E-1,3.1639856E-1,8.844324E-2,-4.110762E0,-7.0717376E-1,-2.312363E0,2.6737304E0,-1.4356546E-1,-6.6654965E-2,-3.9382644E-2,3.3217944E-2,-1.2513767E-2,-1.0722978E-1,1.4712027E-1,-1.2130278E-2],"categories":[],"categories_nodes":[],"categories_segments":[],"categories_sizes":[],"default_left":[0,0,0,0,0,0,0,0,0,0,0,0,0,0,0,0,0,0,0],"id":40,"left_children":[1,3,5,7,-1,-1,9,11,13,15,17,-1,-1,-1,-1,-1,-1,-1,-1],"loss_changes":[5.7554136E3,7.151494E2,6.868247E3,4.42427E2,0E0,0E0,1.3106809E3,7.371924E1,1.3623175E2,3.2015436E2,8.793525E2,0E0,0E0,0E0,0E0,0E0,0E0,0E0,0E0],"parents":[2147483647,0,0,1,1,2,2,3,3,6,6,7,7,8,8,9,9,10,10],"right_children":[2,4,6,8,-1,-1,10,12,14,16,18,-1,-1,-1,-1,-1,-1,-1,-1],"split_conditions":[4.8E1,5.633803E-1,2.6086956E-1,1.2E1,-1.6970107E-1,3.1639856E-1,7.2E1,2.6086956E-1,2.8E1,5.633803E-1,5.633803E-1,-1.4356546E-1,-6.6654965E-2,-3.9382644E-2,3.3217944E-2,-1.2513767E-2,-1.0722978E-1,1.4712027E-1,-1.2130278E-2],"split_indices":[3,6,6,0,0,0,3,6,4,6,6,0,0,0,0,0,0,0,0],"split_type":[0,0,0,0,0,0,0,0,0,0,0,0,0,0,0,0,0,0,0],"sum_hessian":[4.9E2,2.26E2,2.64E2,1.53E2,7.3E1,6.4E1,2E2,7E1,8.3E1,1.04E2,9.6E1,3.4E1,3.6E1,6.1E1,2.2E1,5.2E1,5.2E1,4.9E1,4.7E1],"tree_param":{"num_deleted":"0","num_feature":"9","num_nodes":"19","size_leaf_vector":"1"}},{"base_weights":[-3.2963853E-2,2.1968856E0,-4.0871105E0,-2.7242546E0,3.120563E0,-6.86149E-2,-1.4547326E-1,-1.20150656E-1,-5.900523E-1,1.6446346E-1,9.088652E-1,1.2321442E-2,-4.0994372E-2,8.521129E-2,-3.2512452E-2],"categories":[],"categories_nodes":[],"categories_segments":[],"categories_sizes":[],"default_left":[0,0,0,0,0,0,0,0,0,0,0,0,0,0,0],"id":41,"left_children":[1,3,5,7,9,-1,-1,-1,11,-1,13,-1,-1,-1,-1],"loss_changes":[4.5757373E3,1.5321254E3,2.7814526E2,1.8221774E2,1.7630947E3,0E0,0E0,0E0,3.3075047E1,0E0,7.902455E2,0E0,0E0,0E0,0E0],"parents":[2147483647,0,0,1,1,2,2,3,3,4,4,8,8,10,10],"right_children":[2,4,6,8,10,-1,-1,-1,12,-1,14,-1,-1,-1,-1],"split_conditions":[5.633803E-1,4.8E1,1E0,2.6086956E-1,2.6086956E-1,-6.86149E-2,-1.4547326E-1,-1.20150656E-1,1E0,1.6446346E-1,1E0,1.2321442E-2,-4.0994372E-2,8.521129E-2,-3.2512452E-2],"split_indices":[6,2,5,6,6,0,0,0,5,0,5,0,0,0,0],"split_type":[0,0,0,0,0,0,0,0,0,0,0,0,0,0,0],"sum_hessian":[4.95E2,3.21E2,1.74E2,4.9E1,2.72E2,8.5E1,8.9E1,2.4E1,2.5E1,1.13E2,1.59E2,1.3E1,1.2E1,7.6E1,8.3E1],"tree_param":{"num_deleted":"0","num_feature":"9","num_nodes":"15","size_leaf_vector":"1"}},{"base_weights":[1.20068025E-2,2.0950077E0,-3.9418604E0,3.9806135E0,6.2262124E-1,-2.3355522E0,-1.420562E-1,1.6518168E0,4.5972323E0,2.6629944E0,-1.3506595E0,-9.4120786E-2,-1.058937E0,7.1141176E-2,8.763973E-3,6.325075E-2,1.4606823E-1,3.2355785E-3,9.5426254E-2,-4.5932572E-2,-8.571149E-3,-3.7285782E-2,-1.4789705E-2],"categories":[],"categories_nodes":[],"categories_segments":[],"categories_sizes":[],"default_left":[0,0,0,0,0,0,0,0,0,0,0,0,0,0,0,0,0,0,0,0,0,0,0],"id":42,"left_children":[1,3,5,7,9,11,-1,13,15,17,19,-1,21,-1,-1,-1,-1,-1,-1,-1,-1,-1,-1],"loss_changes":[4.119583E3,8.955071E2,2.857461E2,1.6208643E2,7.875413E2,1.03474945E2,0E0,4.4575897E1,1.2171362E2,2.0260706E2,3.2074905E1,0E0,3.567894E0,0E0,0E0,0E0,0E0,0E0,0E0,0E0,0E0,0E0,0E0],"parents":[2147483647,0,0,1,1,2,2,3,3,4,4,5,5,7,7,8,8,9,9,10,10,12,12],"right_children":[2,4,6,8,10,12,-1,14,16,18,20,-1,22,-1,-1,-1,-1,-1,-1,-1,-1,-1,-1],"split_conditions":[5.633803E-1,2.6086956E-1,1E0,7E0,1E0,1.2E1,-1.420562E-1,1E0,1E1,1E1,2.8E1,-9.4120786E-2,1.4E1,7.1141176E-2,8.763973E-3,6.325075E-2,1.4606823E-1,3.2355785E-3,9.5426254E-2,-4.5932572E-2,-8.571149E-3,-3.7285782E-2,-1.4789705E-2],"split_indices":[6,6,5,4,5,0,0,5,0,0,4,0,0,0,0,0,0,0,0,0,0,0,0],"split_type":[0,0,0,0,0,0,0,0,0,0,0,0,0,0,0,0,0,0,0,0,0,0,0],"sum_hessian":[4.89E2,3.22E2,1.67E2,1.37E2,1.85E2,8.1E1,8.6E1,3.3E1,1.04E2,9E1,9.5E1,3.8E1,4.3E1,1.6E1,1.7E1,3.2E1,7.2E1,2.4E1,6.6E1,6.9E1,2.6E1,2.1E1,2.2E1],"tree_param":{"num_deleted":"0","num_feature":"9","num_nodes":"23","size_leaf_vector":"1"}},{"base_weights":[-2.9347219E-2,2.107221E0,-3.8569708E0,-2.7391737E0,3.0702684E0,-2.3637443E0,-1.381104E-1,-3.3863719E0,-3.9603534E-1,4.6163945E0,1.6060323E0,-9.546329E-2,-1.0484488E0,-4.773654E-2,-1.1294666E-1,2.9629169E-2,-3.789549E-2,9.296587E-2,1.5745215E-1,-1.741288E-2,6.412753E-2,-5.476935E-2,-1.7275436E-2],"categories":[],"categories_nodes":[],"categories_segments":[],"categories_sizes":[],"default_left":[0,0,0,0,0,0,0,0,0,0,0,0,0,0,0,0,0,0,0,0,0,0,0],"id":43,"left_children":[1,3,5,7,9,11,-1,13,15,17,19,-1,21,-1,-1,-1,-1,-1,-1,-1,-1,-1,-1],"loss_changes":[4.1230215E3,1.5573784E3,2.6096777E2,7.820526E1,5.754551E2,1.1707623E2,0E0,1.3431366E1,3.5994286E1,7.100952E1,2.5881168E2,0E0,1.2948593E1,0E0,0E0,0E0,0E0,0E0,0E0,0E0,0E0,0E0,0E0],"parents":[2147483647,0,0,1,1,2,2,3,3,4,4,5,5,7,7,8,8,9,9,10,10,12,12],"right_children":[2,4,6,8,10,12,-1,14,16,18,20,-1,22,-1,-1,-1,-1,-1,-1,-1,-1,-1,-1],"split_conditions":[1.42E3,4.8E1,1E0,1.4E1,1E0,1.2E1,-1.381104E-1,1E0,1E0,1.2E1,1E1,-9.546329E-2,4.8E1,-4.773654E-2,-1.1294666E-1,2.9629169E-2,-3.789549E-2,9.296587E-2,1.5745215E-1,-1.741288E-2,6.412753E-2,-5.476935E-2,-1.7275436E-2],"split_indices":[7,2,5,0,5,0,0,5,5,0,0,0,2,0,0,0,0,0,0,0,0,0,0],"split_type":[0,0,0,0,0,0,0,0,0,0,0,0,0,0,0,0,0,0,0,0,0,0,0],"sum_hessian":[4.93E2,3.18E2,1.75E2,5.1E1,2.67E2,8.6E1,8.9E1,3.8E1,1.3E1,1.24E2,1.43E2,4.1E1,4.5E1,1.8E1,2E1,5E0,8E0,7.2E1,5.2E1,3.6E1,1.07E2,7E0,3.8E1],"tree_param":{"num_deleted":"0","num_feature":"9","num_nodes":"23","size_leaf_vector":"1"}},{"base_weights":[2.291624E-2,-3.7266266E0,3.1922624E0,-2.5419407E0,-1.5844066E-1,6.1422853E0,-2.0018408E0,-8.511029E-1,-3.9243908E0,3.9123962E0,2.3371604E-1,-3.4222834E0,-2.2607863E-1,-4.3562125E-2,3.7236735E-2,-1.2349716E-1,-4.9939208E-2,1.5645236E-1,5.4862004E-2,-1.0465402E-1,-3.8091198E-2,3.5689287E-2,-4.403296E-2],"categories":[],"categories_nodes":[],"categories_segments":[],"categories_sizes":[],"default_left":[0,0,0,0,0,0,0,0,0,0,0,0,0,0,0,0,0,0,0,0,0,0,0],"id":44,"left_children":[1,3,5,7,-1,9,11,13,15,17,-1,19,21,-1,-1,-1,-1,-1,-1,-1,-1,-1,-1],"loss_changes":[5.9559897E3,4.8671924E2,4.2304897E3,3.472068E2,0E0,7.6348975E2,2.543411E2,1.4131285E2,6.159839E1,2.88703E2,0E0,1.8141052E1,1.2227258E2,0E0,0E0,0E0,0E0,0E0,0E0,0E0,0E0,0E0,0E0],"parents":[2147483647,0,0,1,1,2,2,3,3,5,5,6,6,7,7,8,8,9,9,11,11,12,12],"right_children":[2,4,6,8,-1,10,12,14,16,18,-1,20,22,-1,-1,-1,-1,-1,-1,-1,-1,-1,-1],"split_conditions":[4.8E1,1.42E3,1.42E3,1E0,-1.5844066E-1,7.2E1,7.2E1,2.8E1,2.8E1,1E0,2.3371604E-1,2.8E1,1E0,-4.3562125E-2,3.7236735E-2,-1.2349716E-1,-4.9939208E-2,1.5645236E-1,5.4862004E-2,-1.0465402E-1,-3.8091198E-2,3.5689287E-2,-4.403296E-2],"split_indices":[3,7,7,5,0,3,3,4,4,5,0,4,5,0,0,0,0,0,0,0,0,0,0],"split_type":[0,0,0,0,0,0,0,0,0,0,0,0,0,0,0,0,0,0,0,0,0,0,0],"sum_hessian":[4.9E2,2.24E2,2.66E2,1.51E2,7.3E1,1.69E2,9.7E1,7.2E1,7.9E1,9.6E1,7.3E1,5.1E1,4.6E1,5.5E1,1.7E1,5.6E1,2.3E1,4.3E1,5.3E1,3.8E1,1.3E1,2.2E1,2.4E1],"tree_param":{"num_deleted":"0","num_feature":"9","num_nodes":"23","size_leaf_vector":"1"}},{"base_weights":[-4.5446593E-2,-3.5781555E0,2.9919853E0,-2.435414E0,-1.5359996E-1,3.0133876E-1,1.8904047E-1,-8.569991E-1,-1.0189105E-1,-2.175222E0,2.7526379E0,-3.5363268E-2,2.3946725E-3,-1.5015893E-2,-9.5594175E-2,1.362508E-1,-1.9544759E-3],"categories":[],"categories_nodes":[],"categories_segments":[],"categories_sizes":[],"default_left":[0,0,0,0,0,0,0,0,0,0,0,0,0,0,0,0,0],"id":45,"left_children":[1,3,5,7,-1,-1,9,11,-1,13,15,-1,-1,-1,-1,-1,-1],"loss_changes":[5.3992856E3,4.718191E2,6.116081E3,3.1146057E2,0E0,0E0,1.2856908E3,3.3944946E1,0E0,2.291065E2,6.4878406E2,0E0,0E0,0E0,0E0,0E0,0E0],"parents":[2147483647,0,0,1,1,2,2,3,3,6,6,7,7,9,9,10,10],"right_children":[2,4,6,8,-1,-1,10,12,-1,14,16,-1,-1,-1,-1,-1,-1],"split_conditions":[4.8E1,5.633803E-1,2.6086956E-1,1E0,-1.5359996E-1,3.0133876E-1,7.2E1,6E1,-1.0189105E-1,1E0,5.633803E-1,-3.5363268E-2,2.3946725E-3,-1.5015893E-2,-9.5594175E-2,1.362508E-1,-1.9544759E-3],"split_indices":[3,6,6,5,0,0,3,2,0,5,6,0,0,0,0,0,0],"split_type":[0,0,0,0,0,0,0,0,0,0,0,0,0,0,0,0,0],"sum_hessian":[4.92E2,2.27E2,2.65E2,1.54E2,7.3E1,6.4E1,2.01E2,7.4E1,8E1,1.05E2,9.6E1,4.9E1,2.5E1,5.1E1,5.4E1,5.1E1,4.5E1],"tree_param":{"num_deleted":"0","num_feature":"9","num_nodes":"17","size_leaf_vector":"1"}},{"base_weights":[-4.552625E-2,-3.4827878E0,2.9260087E0,-1.4990774E-1,-2.364556E0,2.4644561E-1,3.002504E-1,-4.036961E0,-7.681505E-1,-2.0251746E0,2.6572049E0,-6.249114E-2,-1.4442866E-1,-4.470213E-2,4.29898E-3,-9.155092E-2,-1.3410687E-2,-4.296026E-3,1.352766E-1],"categories":[],"categories_nodes":[],"categories_segments":[],"categories_sizes":[],"default_left":[0,0,0,0,0,0,0,0,0,0,0,0,0,0,0,0,0,0,0],"id":46,"left_children":[1,3,5,-1,7,9,-1,11,13,15,17,-1,-1,-1,-1,-1,-1,-1,-1],"loss_changes":[5.190505E3,4.6039746E2,5.9051113E3,0E0,4.1393488E2,1.1834124E3,0E0,1.0310547E2,7.403913E1,2.1951868E2,6.8559705E2,0E0,0E0,0E0,0E0,0E0,0E0,0E0,0E0],"parents":[2147483647,0,0,1,1,2,2,4,4,5,5,7,7,8,8,9,9,10,10],"right_children":[2,4,6,-1,8,10,-1,12,14,16,18,-1,-1,-1,-1,-1,-1,-1,-1],"split_conditions":[4.8E1,3.75E0,4.5E0,-1.4990774E-1,1.2E1,7.2E1,3.002504E-1,4.5E0,1.4E1,3.75E0,3.75E0,-6.249114E-2,-1.4442866E-1,-4.470213E-2,4.29898E-3,-9.155092E-2,-1.3410687E-2,-4.296026E-3,1.352766E-1],"split_indices":[3,8,8,0,0,3,0,8,0,8,8,0,0,0,0,0,0,0,0],"split_type":[0,0,0,0,0,0,0,0,0,0,0,0,0,0,0,0,0,0,0],"sum_hessian":[4.97E2,2.3E2,2.67E2,7.4E1,1.56E2,2.05E2,6.2E1,7.2E1,8.4E1,1.06E2,9.9E1,3.7E1,3.5E1,4.1E1,4.3E1,5.3E1,5.3E1,4.7E1,5.2E1],"tree_param":{"num_deleted":"0","num_feature":"9","num_nodes":"19","size_leaf_vector":"1"}},{"base_weights":[1.4134946E-2,1.9013506E0,-3.4673328E0,-2.501994E0,2.7639816E0,-2.072175E0,-1.2581164E-1,-3.1259234E0,-2.8477028E-1,4.5062914E0,1.2257408E0,-8.700476E-2,-7.812992E-1,-4.387475E-2,-1.0443279E-1,2.9999588E-2,-3.4042075E-2,9.096055E-2,1.5126355E-1,-2.1498851E-2,5.1652167E-2,-3.430143E-2,-3.8863772E-3],"categories":[],"categories_nodes":[],"categories_segments":[],"categories_sizes":[],"default_left":[0,0,0,0,0,0,0,0,0,0,0,0,0,0,0,0,0,0,0,0,0,0,0],"id":47,"left_children":[1,3,5,7,9,11,-1,13,15,17,19,-1,21,-1,-1,-1,-1,-1,-1,-1,-1,-1,-1],"loss_changes":[3.3193132E3,1.2830542E3,2.324292E2,7.3207794E1,7.102207E2,1.1741351E2,0E0,1.2158752E1,3.263142E1,5.199585E1,2.1783481E2,0E0,1.4118162E1,0E0,0E0,0E0,0E0,0E0,0E0,0E0,0E0,0E0,0E0],"parents":[2147483647,0,0,1,1,2,2,3,3,4,4,5,5,7,7,8,8,9,9,10,10,12,12],"right_children":[2,4,6,8,10,12,-1,14,16,18,20,-1,22,-1,-1,-1,-1,-1,-1,-1,-1,-1,-1],"split_conditions":[1.42E3,4.8E1,1E0,1.4E1,1E0,1.2E1,-1.2581164E-1,1E0,1E0,1.2E1,1E1,-8.700476E-2,1.4E1,-4.387475E-2,-1.0443279E-1,2.9999588E-2,-3.4042075E-2,9.096055E-2,1.5126355E-1,-2.1498851E-2,5.1652167E-2,-3.430143E-2,-3.8863772E-3],"split_indices":[7,2,5,0,5,0,0,5,5,0,0,0,0,0,0,0,0,0,0,0,0,0,0],"split_type":[0,0,0,0,0,0,0,0,0,0,0,0,0,0,0,0,0,0,0,0,0,0,0],"sum_hessian":[4.94E2,3.22E2,1.72E2,5.1E1,2.71E2,8.5E1,8.7E1,3.8E1,1.3E1,1.22E2,1.49E2,4.1E1,4.4E1,1.8E1,2E1,5E0,8E0,6.9E1,5.3E1,3.7E1,1.12E2,2.2E1,2.2E1],"tree_param":{"num_deleted":"0","num_feature":"9","num_nodes":"23","size_leaf_vector":"1"}},{"base_weights":[-4.918656E-2,-3.371758E0,2.8306165E0,-2.341053E0,-1.4356323E-1,2.8207856E-1,2.525299E-1,-8.295807E-1,-3.5961928E0,-1.9298362E0,2.5268857E0,-4.1452326E-2,3.6096234E-2,-1.1622988E-1,-4.053085E-2,-7.4031696E-2,1.0304562E-2,1.2781683E-1,-2.0581745E-3],"categories":[],"categories_nodes":[],"categories_segments":[],"categories_sizes":[],"default_left":[0,0,0,0,0,0,0,0,0,0,0,0,0,0,0,0,0,0,0],"id":48,"left_children":[1,3,5,7,-1,-1,9,11,13,15,17,-1,-1,-1,-1,-1,-1,-1,-1],"loss_changes":[4.8145747E3,3.8885718E2,5.221038E3,2.8973608E2,0E0,0E0,1.052729E3,1.317909E2,8.727136E1,2.0392645E2,5.869876E2,0E0,0E0,0E0,0E0,0E0,0E0,0E0,0E0],"parents":[2147483647,0,0,1,1,2,2,3,3,6,6,7,7,8,8,9,9,10,10],"right_children":[2,4,6,8,-1,-1,10,12,14,16,18,-1,-1,-1,-1,-1,-1,-1,-1],"split_conditions":[4.8E1,5.633803E-1,2.6086956E-1,1E0,-1.4356323E-1,2.8207856E-1,7.2E1,2.8E1,2.8E1,2.8E1,5.633803E-1,-4.1452326E-2,3.6096234E-2,-1.1622988E-1,-4.053085E-2,-7.4031696E-2,1.0304562E-2,1.2781683E-1,-2.0581745E-3],"split_indices":[3,6,6,5,0,0,3,4,4,4,6,0,0,0,0,0,0,0,0],"split_type":[0,0,0,0,0,0,0,0,0,0,0,0,0,0,0,0,0,0,0],"sum_hessian":[4.92E2,2.28E2,2.64E2,1.56E2,7.2E1,6.3E1,2.01E2,7.5E1,8.1E1,1.03E2,9.8E1,5.8E1,1.7E1,5.7E1,2.4E1,7.6E1,2.7E1,5.1E1,4.7E1],"tree_param":{"num_deleted":"0","num_feature":"9","num_nodes":"19","size_leaf_vector":"1"}},{"base_weights":[4.483925E-2,1.8541596E0,-3.3056066E0,3.4492917E0,4.2223328E-1,-1.9248261E0,-1.20958336E-1,4.8636E0,2.2766366E0,2.3004017E0,-1.2341908E0,-8.194151E-2,-7.328443E-1,9.2048876E-2,2.0655611E-1,2.0281183E-2,9.992565E-2,-4.510719E-2,9.8762445E-2,-4.2950388E-2,-6.9547724E-3,-3.192578E-2,-4.453241E-3],"categories":[],"categories_nodes":[],"categories_segments":[],"categories_sizes":[],"default_left":[0,0,0,0,0,0,0,0,0,0,0,0,0,0,0,0,0,0,0,0,0,0,0],"id":49,"left_children":[1,3,5,7,9,11,-1,13,15,17,19,-1,21,-1,-1,-1,-1,-1,-1,-1,-1,-1,-1],"loss_changes":[3.0870525E3,7.468484E2,2.3272412E2,1.9588562E2,5.7775494E2,1.0479788E2,0E0,1.2094849E2,1.8875723E2,4.8893408E2,3.120514E1,0E0,1.1561768E1,0E0,0E0,0E0,0E0,0E0,0E0,0E0,0E0,0E0,0E0],"parents":[2147483647,0,0,1,1,2,2,3,3,4,4,5,5,7,7,8,8,9,9,10,10,12,12],"right_children":[2,4,6,8,10,12,-1,14,16,18,20,-1,22,-1,-1,-1,-1,-1,-1,-1,-1,-1,-1],"split_conditions":[5.633803E-1,1E0,1E0,2.6086956E-1,2.6086956E-1,1.2E1,-1.20958336E-1,2.8E1,1.2E1,1E1,2.8E1,-8.194151E-2,1.4E1,9.2048876E-2,2.0655611E-1,2.0281183E-2,9.992565E-2,-4.510719E-2,9.8762445E-2,-4.2950388E-2,-6.9547724E-3,-3.192578E-2,-4.453241E-3],"split_indices":[6,5,5,6,6,0,0,4,0,0,4,0,0,0,0,0,0,0,0,0,0,0,0],"split_type":[0,0,0,0,0,0,0,0,0,0,0,0,0,0,0,0,0,0,0,0,0,0,0],"sum_hessian":[4.98E2,3.25E2,1.73E2,1.5E2,1.75E2,8.5E1,8.8E1,6E1,9E1,8.1E1,9.4E1,4E1,4.5E1,4.7E1,1.3E1,4.7E1,4.3E1,2E1,6.1E1,6.7E1,2.7E1,2.2E1,2.3E1],"tree_param":{"num_deleted":"0","num_feature":"9","num_nodes":"23","size_leaf_vector":"1"}},{"base_weights":[1.5871493E-2,1.7958148E0,-3.2411177E0,-2.4343107E0,2.6221502E0,-9.623454E-2,-5.6316555E-2,-4.1181912E0,-3.7169328E-1,5.2558813E0,5.783264E-1,-1.3416718E-1,-1.1089214E-2,-4.4840844E-3,-1.7596083E-2,1.0377831E-1,1.734907E-1,2.9273445E-3,4.4587363E-2],"categories":[],"categories_nodes":[],"categories_segments":[],"categories_sizes":[],"default_left":[0,0,0,0,0,0,0,0,0,0,0,0,0,0,0,0,0,0,0],"id":50,"left_children":[1,3,5,7,9,-1,-1,11,13,15,17,-1,-1,-1,-1,-1,-1,-1,-1],"loss_changes":[2.9461897E3,1.1843214E3,2.092273E1,1.8786334E2,1.4770748E3,0E0,0E0,8.070923E1,1.176014E0,5.8322998E1,8.008948E1,0E0,0E0,0E0,0E0,0E0,0E0,0E0,0E0],"parents":[2147483647,0,0,1,1,2,2,3,3,4,4,7,7,8,8,9,9,10,10],"right_children":[2,4,6,8,10,-1,-1,12,14,16,18,-1,-1,-1,-1,-1,-1,-1,-1],"split_conditions":[5.633803E-1,4.8E1,2.8E1,2.6086956E-1,2.6086956E-1,-9.623454E-2,-5.6316555E-2,2.8E1,2.8E1,1.4E1,2.8E1,-1.3416718E-1,-1.1089214E-2,-4.4840844E-3,-1.7596083E-2,1.0377831E-1,1.734907E-1,2.9273445E-3,4.4587363E-2],"split_indices":[6,2,4,6,6,0,0,4,4,4,4,0,0,0,0,0,0,0,0],"split_type":[0,0,0,0,0,0,0,0,0,0,0,0,0,0,0,0,0,0,0],"sum_hessian":[4.97E2,3.23E2,1.74E2,5.1E1,2.72E2,1.3E2,4.4E1,2.5E1,2.6E1,1.15E2,1.57E2,1.9E1,6E0,2E1,6E0,6.1E1,5.4E1,1.13E2,4.4E1],"tree_param":{"num_deleted":"0","num_feature":"9","num_nodes":"19","size_leaf_vector":"1"}},{"base_weights":[3.3140007E-2,-3.2784598E0,2.8173792E0,-1.2512988E-1,-1.9284362E0,2.934334E-1,2.7274072E-1,-1.09811224E-1,-8.1745833E-1,-1.8802763E0,2.5972161E0,-4.042978E-2,2.610809E-2,-7.085432E-2,1.1172379E-2,2.073801E-3,1.264657E-1],"categories":[],"categories_nodes":[],"categories_segments":[],"categories_sizes":[],"default_left":[0,0,0,0,0,0,0,0,0,0,0,0,0,0,0,0,0],"id":51,"left_children":[1,3,5,-1,7,9,-1,-1,11,13,15,-1,-1,-1,-1,-1,-1],"loss_changes":[4.6949497E3,3.643789E2,5.0121074E3,0E0,2.7294412E2,1.0819504E3,0E0,0E0,1.1313582E2,1.9087854E2,5.382551E2,0E0,0E0,0E0,0E0,0E0,0E0],"parents":[2147483647,0,0,1,1,2,2,4,4,5,5,8,8,9,9,10,10],"right_children":[2,4,6,-1,8,10,-1,-1,12,14,16,-1,-1,-1,-1,-1,-1],"split_conditions":[4.8E1,1.2E1,4.5E0,-1.2512988E-1,3.75E0,7.2E1,2.7274072E-1,-1.09811224E-1,2.8E1,2.8E1,3.75E0,-4.042978E-2,2.610809E-2,-7.085432E-2,1.1172379E-2,2.073801E-3,1.264657E-1],"split_indices":[3,0,8,0,8,3,0,0,4,4,8,0,0,0,0,0,0],"split_type":[0,0,0,0,0,0,0,0,0,0,0,0,0,0,0,0,0],"sum_hessian":[4.98E2,2.27E2,2.71E2,1.08E2,1.19E2,2.05E2,6.6E1,3.6E1,8.3E1,1.06E2,9.9E1,6.1E1,2.2E1,8E1,2.6E1,4.7E1,5.2E1],"tree_param":{"num_deleted":"0","num_feature":"9","num_nodes":"17","size_leaf_vector":"1"}},{"base_weights":[6.106586E-2,-3.1925673E0,2.782307E0,-1.21605374E-1,-1.9066278E0,2.7019837E-1,3.1305432E-1,-8.3140916E-1,-1.07224494E-1,-1.7834458E0,2.5334108E0,-4.4719912E-2,1.6411039E-3,-1.0539798E-2,-8.06944E-2,1.2335805E-1,2.0233283E-3],"categories":[],"categories_nodes":[],"categories_segments":[],"categories_sizes":[],"default_left":[0,0,0,0,0,0,0,0,0,0,0,0,0,0,0,0,0],"id":52,"left_children":[1,3,5,-1,7,-1,9,11,-1,13,15,-1,-1,-1,-1,-1,-1],"loss_changes":[4.481909E3,3.3034302E2,4.844712E3,0E0,2.5387906E2,0E0,1.00561475E3,6.472531E1,0E0,1.7754495E2,5.1211847E2,0E0,0E0,0E0,0E0,0E0,0E0],"parents":[2147483647,0,0,1,1,2,2,4,4,6,6,7,7,9,9,10,10],"right_children":[2,4,6,-1,8,-1,10,12,-1,14,16,-1,-1,-1,-1,-1,-1],"split_conditions":[4.8E1,1.2E1,2.6086956E-1,-1.21605374E-1,5.633803E-1,2.7019837E-1,7.2E1,1.4E1,-1.07224494E-1,5.633803E-1,5.633803E-1,-4.4719912E-2,1.6411039E-3,-1.0539798E-2,-8.06944E-2,1.2335805E-1,2.0233283E-3],"split_indices":[3,0,6,0,6,0,3,0,0,6,6,0,0,0,0,0,0],"split_type":[0,0,0,0,0,0,0,0,0,0,0,0,0,0,0,0,0],"sum_hessian":[4.95E2,2.25E2,2.7E2,1.06E2,1.19E2,6.5E1,2.05E2,8.3E1,3.6E1,1.06E2,9.9E1,4.1E1,4.2E1,5.2E1,5.4E1,5.2E1,4.7E1],"tree_param":{"num_deleted":"0","num_feature":"9","num_nodes":"17","size_leaf_vector":"1"}},{"base_weights":[-1.5280421E-2,-3.1200113E0,2.6260798E0,-1.19378254E-1,-1.815148E0,2.6272964E-1,2.7847797E-1,-7.463272E-1,-1.04698695E-1,-1.7719884E0,2.471173E0,-4.3648914E-2,4.9031163E-3,-1.2613177E-2,-7.870428E-2,1.203267E-1,1.9741545E-3],"categories":[],"categories_nodes":[],"categories_segments":[],"categories_sizes":[],"default_left":[0,0,0,0,0,0,0,0,0,0,0,0,0,0,0,0,0],"id":53,"left_children":[1,3,5,-1,7,-1,9,11,-1,13,15,-1,-1,-1,-1,-1,-1],"loss_changes":[4.1674897E3,3.41198E2,4.5145547E3,0E0,2.5435068E2,0E0,9.7586E2,7.20365E1,0E0,1.573778E2,4.8724982E2,0E0,0E0,0E0,0E0,0E0,0E0],"parents":[2147483647,0,0,1,1,2,2,4,4,6,6,7,7,9,9,10,10],"right_children":[2,4,6,-1,8,-1,10,12,-1,14,16,-1,-1,-1,-1,-1,-1],"split_conditions":[4.8E1,1.2E1,2.6086956E-1,-1.19378254E-1,5.633803E-1,2.6272964E-1,7.2E1,1.4E1,-1.04698695E-1,5.633803E-1,5.633803E-1,-4.3648914E-2,4.9031163E-3,-1.2613177E-2,-7.870428E-2,1.203267E-1,1.9741545E-3],"split_indices":[3,0,6,0,6,0,3,0,0,6,6,0,0,0,0,0,0],"split_type":[0,0,0,0,0,0,0,0,0,0,0,0,0,0,0,0,0],"sum_hessian":[4.97E2,2.28E2,2.69E2,1.09E2,1.19E2,6.3E1,2.06E2,8.3E1,3.6E1,1.07E2,9.9E1,4.1E1,4.2E1,5.3E1,5.4E1,5.2E1,4.7E1],"tree_param":{"num_deleted":"0","num_feature":"9","num_nodes":"17","size_leaf_vector":"1"}},{"base_weights":[-2.4082107E-2,-3.0729668E0,2.597028E0,-1.7206912E0,-4.2075415E0,2.1576966E-1,2.5738314E-1,-3.2476826E0,-1.36994E-1,-1.2668428E-1,-2.559041E0,-1.7580639E0,2.3937457E0,-1.05427526E-1,-5.5139497E-2,-5.944479E-2,2.61995E-2,-9.456866E-2,-9.78971E-3,-7.585767E-3,-8.10234E-2,1.2234166E-1,8.5783815E-3],"categories":[],"categories_nodes":[],"categories_segments":[],"categories_sizes":[],"default_left":[0,0,0,0,0,0,0,0,0,0,0,0,0,0,0,0,0,0,0,0,0,0,0],"id":54,"left_children":[1,3,5,7,9,11,-1,13,15,-1,17,19,21,-1,-1,-1,-1,-1,-1,-1,-1,-1,-1],"loss_changes":[4.0211736E3,3.1617358E2,4.4083403E3,2.769488E2,2.348462E1,9.1170703E2,0E0,7.2161865E-1,1.5270117E2,0E0,7.060643E1,1.9647809E2,4.3128876E2,0E0,0E0,0E0,0E0,0E0,0E0,0E0,0E0,0E0,0E0],"parents":[2147483647,0,0,1,1,2,2,3,3,4,4,5,5,7,7,8,8,10,10,11,11,12,12],"right_children":[2,4,6,8,10,12,-1,14,16,-1,18,20,22,-1,-1,-1,-1,-1,-1,-1,-1,-1,-1],"split_conditions":[4.8E1,1E0,4.5E0,1.2E1,1.4E1,7.2E1,2.5738314E-1,1E1,3.75E0,-1.2668428E-1,4.5E0,1E0,1E0,-1.05427526E-1,-5.5139497E-2,-5.944479E-2,2.61995E-2,-9.456866E-2,-9.78971E-3,-7.585767E-3,-8.10234E-2,1.2234166E-1,8.5783815E-3],"split_indices":[3,5,8,0,0,3,0,0,8,0,8,5,5,0,0,0,0,0,0,0,0,0,0],"split_type":[0,0,0,0,0,0,0,0,0,0,0,0,0,0,0,0,0,0,0,0,0,0,0],"sum_hessian":[4.92E2,2.27E2,2.65E2,1.1E2,1.17E2,2.01E2,6.4E1,5.3E1,5.7E1,8.4E1,3.3E1,1.06E2,9.5E1,2.7E1,2.6E1,1.8E1,3.9E1,2.1E1,1.2E1,5.1E1,5.5E1,4.4E1,5.1E1],"tree_param":{"num_deleted":"0","num_feature":"9","num_nodes":"23","size_leaf_vector":"1"}},{"base_weights":[-5.1569283E-2,-2.9810376E0,2.470474E0,-2.083321E0,-1.24719545E-1,8.94017E0,2.4554218E-1,-6.819183E-2,-4.2467814E-2,1.7852937E-1,3.1565952E-1,-1.6598407E0,2.3049815E0,-1.1160803E-2,-7.4863546E-2,1.15410544E-1,-1.8320391E-3],"categories":[],"categories_nodes":[],"categories_segments":[],"categories_sizes":[],"default_left":[0,0,0,0,0,0,0,0,0,0,0,0,0,0,0,0,0],"id":55,"left_children":[1,3,5,7,-1,9,11,-1,-1,-1,-1,13,15,-1,-1,-1,-1],"loss_changes":[3.7471235E3,2.8363037E2,3.911338E3,1.3459778E1,0E0,1.4157715E1,8.3995465E2,0E0,0E0,0E0,0E0,1.4572E2,4.7276886E2,0E0,0E0,0E0,0E0],"parents":[2147483647,0,0,1,1,2,2,3,3,5,5,6,6,11,11,12,12],"right_children":[2,4,6,8,-1,10,12,-1,-1,-1,-1,14,16,-1,-1,-1,-1],"split_conditions":[4.8E1,5.633803E-1,2.6086956E-1,2.6086956E-1,-1.24719545E-1,7.2E1,7.2E1,-6.819183E-2,-4.2467814E-2,1.7852937E-1,3.1565952E-1,5.633803E-1,5.633803E-1,-1.1160803E-2,-7.4863546E-2,1.15410544E-1,-1.8320391E-3],"split_indices":[3,6,6,6,0,3,3,0,0,0,0,6,6,0,0,0,0],"split_type":[0,0,0,0,0,0,0,0,0,0,0,0,0,0,0,0,0],"sum_hessian":[4.96E2,2.29E2,2.67E2,1.55E2,7.4E1,6.4E1,2.03E2,7.4E1,8.1E1,4.4E1,2E1,1.06E2,9.7E1,5.3E1,5.3E1,5.1E1,4.6E1],"tree_param":{"num_deleted":"0","num_feature":"9","num_nodes":"17","size_leaf_vector":"1"}},{"base_weights":[1.3811944E-2,1.5992203E0,-2.8945494E0,-2.148428E0,2.3176522E0,-8.901833E-2,-4.3913692E-2,-3.7598884E0,-1.4309146E-1,4.658885E0,5.266632E-1,-1.2009047E-1,-1.52164595E-2,-1.6796822E-2,3.0399908E-3,8.819788E-2,1.6809924E-1,-5.7072877E-3,3.3437632E-2],"categories":[],"categories_nodes":[],"categories_segments":[],"categories_sizes":[],"default_left":[0,0,0,0,0,0,0,0,0,0,0,0,0,0,0,0,0,0,0],"id":56,"left_children":[1,3,5,7,9,-1,-1,11,13,15,17,-1,-1,-1,-1,-1,-1,-1,-1],"loss_changes":[2.3340706E3,9.0988916E2,5.638269E1,1.7652579E2,1.1501019E3,0E0,0E0,4.993741E1,4.096423E0,1.4512134E2,8.602518E1,0E0,0E0,0E0,0E0,0E0,0E0,0E0,0E0],"parents":[2147483647,0,0,1,1,2,2,3,3,4,4,7,7,8,8,9,9,10,10],"right_children":[2,4,6,8,10,-1,-1,12,14,16,18,-1,-1,-1,-1,-1,-1,-1,-1],"split_conditions":[5.633803E-1,4.8E1,1.4E1,2.6086956E-1,2.6086956E-1,-8.901833E-2,-4.3913692E-2,1.4E1,1E1,1.2E1,1.2E1,-1.2009047E-1,-1.52164595E-2,-1.6796822E-2,3.0399908E-3,8.819788E-2,1.6809924E-1,-5.7072877E-3,3.3437632E-2],"split_indices":[6,2,0,6,6,0,0,0,0,0,0,0,0,0,0,0,0,0,0],"split_type":[0,0,0,0,0,0,0,0,0,0,0,0,0,0,0,0,0,0,0],"sum_hessian":[4.95E2,3.22E2,1.73E2,5E1,2.72E2,1.27E2,4.6E1,2.5E1,2.5E1,1.14E2,1.58E2,1.9E1,6E0,6E0,1.9E1,6.8E1,4.6E1,7.9E1,7.9E1],"tree_param":{"num_deleted":"0","num_feature":"9","num_nodes":"19","size_leaf_vector":"1"}},{"base_weights":[-2.2238484E-2,1.5007942E0,-2.784466E0,3.2503757E0,-2.3850454E-2,-1.4911424E0,-1.0537816E-1,-6.391123E-1,3.9332137E0,-2.909277E0,6.1206853E-1,-6.9352455E-2,-3.522326E-1,-5.4360326E-2,2.085259E-2,1.572452E-1,6.611526E-2,-1.0768299E-1,-2.3746708E-2,7.9978794E-2,-3.4124307E-2,-3.4387454E-2,-1.172246E-3],"categories":[],"categories_nodes":[],"categories_segments":[],"categories_sizes":[],"default_left":[0,0,0,0,0,0,0,0,0,0,0,0,0,0,0,0,0,0,0,0,0,0,0],"id":57,"left_children":[1,3,5,7,9,11,-1,13,15,17,19,-1,21,-1,-1,-1,-1,-1,-1,-1,-1,-1,-1],"loss_changes":[2.1378164E3,8.7438837E2,2.2149255E2,4.1943982E2,3.414056E2,1.0515167E2,0E0,6.126633E1,2.834702E2,5.2191925E1,6.830576E2,0E0,1.3908749E1,0E0,0E0,0E0,0E0,0E0,0E0,0E0,0E0,0E0,0E0],"parents":[2147483647,0,0,1,1,2,2,3,3,4,4,5,5,7,7,8,8,9,9,10,10,12,12],"right_children":[2,4,6,8,10,12,-1,14,16,18,20,-1,22,-1,-1,-1,-1,-1,-1,-1,-1,-1,-1],"split_conditions":[5.633803E-1,1E0,1E0,4.8E1,4.8E1,1.2E1,-1.0537816E-1,2.6086956E-1,2.6086956E-1,2.6086956E-1,2.6086956E-1,-6.9352455E-2,4.8E1,-5.4360326E-2,2.085259E-2,1.572452E-1,6.611526E-2,-1.0768299E-1,-2.3746708E-2,7.9978794E-2,-3.4124307E-2,-3.4387454E-2,-1.172246E-3],"split_indices":[6,5,5,2,2,0,0,6,6,6,6,0,2,0,0,0,0,0,0,0,0,0,0],"split_type":[0,0,0,0,0,0,0,0,0,0,0,0,0,0,0,0,0,0,0,0,0,0,0],"sum_hessian":[4.97E2,3.22E2,1.75E2,1.47E2,1.75E2,8.6E1,8.9E1,2.2E1,1.25E2,2.8E1,1.47E2,4.1E1,4.5E1,1E1,1.2E1,4.9E1,7.6E1,1.5E1,1.3E1,6.4E1,8.3E1,7E0,3.8E1],"tree_param":{"num_deleted":"0","num_feature":"9","num_nodes":"23","size_leaf_vector":"1"}},{"base_weights":[4.288472E-2,1.510212E0,-2.6814787E0,3.075658E0,1.2318579E-1,-1.4506409E0,-1.013396E-1,2.2728443E0,4.9502077E0,1.6092931E0,-1.1755534E0,-6.7691535E-2,-3.1261754E-1,3.5806097E-2,8.970546E-2,1.863718E-1,7.475859E-2,-5.7770908E-2,7.917051E-2,-4.105209E-2,-6.3061914E-3,-2.1626333E-2,6.3040806E-3],"categories":[],"categories_nodes":[],"categories_segments":[],"categories_sizes":[],"default_left":[0,0,0,0,0,0,0,0,0,0,0,0,0,0,0,0,0,0,0,0,0,0,0],"id":58,"left_children":[1,3,5,7,9,11,-1,13,15,17,19,-1,21,-1,-1,-1,-1,-1,-1,-1,-1,-1,-1],"loss_changes":[2.0277618E3,7.134361E2,1.973722E2,1.6948364E2,3.5915717E2,1.02421646E2,0E0,9.174707E1,6.837683E1,4.5453586E2,2.92724E1,0E0,1.405596E1,0E0,0E0,0E0,0E0,0E0,0E0,0E0,0E0,0E0,0E0],"parents":[2147483647,0,0,1,1,2,2,3,3,4,4,5,5,7,7,8,8,9,9,10,10,12,12],"right_children":[2,4,6,8,10,12,-1,14,16,18,20,-1,22,-1,-1,-1,-1,-1,-1,-1,-1,-1,-1],"split_conditions":[5.633803E-1,1E0,1E0,2.8E1,2.6086956E-1,1.2E1,-1.013396E-1,1.2E1,2.6086956E-1,1E1,2.8E1,-6.7691535E-2,1.4E1,3.5806097E-2,8.970546E-2,1.863718E-1,7.475859E-2,-5.7770908E-2,7.917051E-2,-4.105209E-2,-6.3061914E-3,-2.1626333E-2,6.3040806E-3],"split_indices":[6,5,5,4,6,0,0,0,6,0,4,0,0,0,0,0,0,0,0,0,0,0,0],"split_type":[0,0,0,0,0,0,0,0,0,0,0,0,0,0,0,0,0,0,0,0,0,0,0],"sum_hessian":[4.96E2,3.24E2,1.72E2,1.49E2,1.75E2,8.5E1,8.7E1,1.13E2,3.6E1,8.1E1,9.4E1,4.1E1,4.4E1,6.5E1,4.8E1,1.3E1,2.3E1,2E1,6.1E1,6.7E1,2.7E1,2.2E1,2.2E1],"tree_param":{"num_deleted":"0","num_feature":"9","num_nodes":"23","size_leaf_vector":"1"}},{"base_weights":[4.7178664E-3,-2.8817933E0,2.4481313E0,-4.035739E0,-1.7093383E0,8.47764E0,3.4175593E-1,-4.4282947E0,-2.3742385E0,-8.229911E-1,-9.333338E-2,5.9503736E0,3.0505663E-1,-1.5840734E0,2.4181886E0,-1.5512256E-1,-9.143492E-2,-2.3398442E-2,-7.235698E-2,-3.9939493E-2,2.5077047E-2,7.7812383E-3,2.1129449E-1,-6.198443E-2,1.561732E-2,1.1385444E-1,5.96932E-3],"categories":[],"categories_nodes":[],"categories_segments":[],"categories_sizes":[],"default_left":[0,0,0,0,0,0,0,0,0,0,0,0,0,0,0,0,0,0,0,0,0,0,0,0,0,0,0],"id":59,"left_children":[1,3,5,7,9,11,13,15,17,19,-1,21,-1,23,25,-1,-1,-1,-1,-1,-1,-1,-1,-1,-1,-1,-1],"loss_changes":[3.5630688E3,2.7456482E2,3.4582847E3,1.4407227E1,1.7401373E2,1.1351953E2,8.555967E2,7.5340576E0,1.5693359E0,1.082995E2,0E0,4.8636902E2,0E0,1.7432388E2,3.929037E2,0E0,0E0,0E0,0E0,0E0,0E0,0E0,0E0,0E0,0E0,0E0,0E0],"parents":[2147483647,0,0,1,1,2,2,3,3,4,4,5,5,6,6,7,7,8,8,9,9,11,11,13,13,14,14],"right_children":[2,4,6,8,10,12,14,16,18,20,-1,22,-1,24,26,-1,-1,-1,-1,-1,-1,-1,-1,-1,-1,-1,-1],"split_conditions":[4.8E1,1.2E1,2.6086956E-1,2.8E1,5.633803E-1,7.2E1,7.2E1,2.6086956E-1,2.6086956E-1,2.8E1,-9.333338E-2,1E1,3.0505663E-1,2.8E1,5.633803E-1,-1.5512256E-1,-9.143492E-2,-2.3398442E-2,-7.235698E-2,-3.9939493E-2,2.5077047E-2,7.7812383E-3,2.1129449E-1,-6.198443E-2,1.561732E-2,1.1385444E-1,5.96932E-3],"split_indices":[3,0,6,4,6,3,3,6,6,4,0,0,0,4,6,0,0,0,0,0,0,0,0,0,0,0,0],"split_type":[0,0,0,0,0,0,0,0,0,0,0,0,0,0,0,0,0,0,0,0,0,0,0,0,0,0,0],"sum_hessian":[4.94E2,2.26E2,2.68E2,1.07E2,1.19E2,6.5E1,2.03E2,7.9E1,2.8E1,8.4E1,3.5E1,4.3E1,2.2E1,1.06E2,9.7E1,2.5E1,5.4E1,8E0,2E1,6.2E1,2.2E1,1.2E1,3.1E1,8E1,2.6E1,5.1E1,4.6E1],"tree_param":{"num_deleted":"0","num_feature":"9","num_nodes":"27","size_leaf_vector":"1"}},{"base_weights":[-4.823604E-3,1.4059253E0,-2.6378527E0,-2.0148997E0,2.0581002E0,-1.4028174E0,-3.6731594E0,-3.6043313E0,-5.600997E-2,4.1433897E0,4.8235688E-1,-4.488183E-2,-2.533061E-2,-1.0922382E-1,-5.7867665E-2,-1.1903677E-1,-6.2798765E-3,1.8013934E-2,-2.1735957E-2,7.2745495E-2,1.4622544E-1,6.1334174E-2,-3.2632403E-2],"categories":[],"categories_nodes":[],"categories_segments":[],"categories_sizes":[],"default_left":[0,0,0,0,0,0,0,0,0,0,0,0,0,0,0,0,0,0,0,0,0,0,0],"id":60,"left_children":[1,3,5,7,9,11,13,15,17,19,21,-1,-1,-1,-1,-1,-1,-1,-1,-1,-1,-1,-1],"loss_changes":[1.880267E3,7.585201E2,1.9681702E2,1.7185364E2,9.073915E2,1.7494049E0,7.6452637E-1,7.3612915E1,1.927127E1,1.3559644E2,5.0827216E2,0E0,0E0,0E0,0E0,0E0,0E0,0E0,0E0,0E0,0E0,0E0,0E0],"parents":[2147483647,0,0,1,1,2,2,3,3,4,4,5,5,6,6,7,7,8,8,9,9,10,10],"right_children":[2,4,6,8,10,12,14,16,18,20,22,-1,-1,-1,-1,-1,-1,-1,-1,-1,-1,-1,-1],"split_conditions":[5.633803E-1,4.8E1,1E0,2.6086956E-1,2.6086956E-1,6E1,2.8E1,2.8E1,1E0,1.4E1,1E0,-4.488183E-2,-2.533061E-2,-1.0922382E-1,-5.7867665E-2,-1.1903677E-1,-6.2798765E-3,1.8013934E-2,-2.1735957E-2,7.2745495E-2,1.4622544E-1,6.1334174E-2,-3.2632403E-2],"split_indices":[6,2,5,6,6,2,4,4,5,4,5,0,0,0,0,0,0,0,0,0,0,0,0],"split_type":[0,0,0,0,0,0,0,0,0,0,0,0,0,0,0,0,0,0,0,0,0,0,0],"sum_hessian":[4.95E2,3.24E2,1.71E2,5E1,2.74E2,8.4E1,8.7E1,2.5E1,2.5E1,1.14E2,1.6E2,4.6E1,3.8E1,6.4E1,2.3E1,1.9E1,6E0,1.3E1,1.2E1,6E1,5.4E1,7.7E1,8.3E1],"tree_param":{"num_deleted":"0","num_feature":"9","num_nodes":"23","size_leaf_vector":"1"}},{"base_weights":[-4.0659986E-2,-2.8398097E0,2.3704307E0,-2.1144068E0,-1.1193139E-1,4.478872E0,-1.2210882E0,-7.410122E-2,-2.8576916E-1,2.6239996E0,1.8060791E-1,-2.418302E0,2.9357478E-1,-1.1095454E-2,-5.34717E-4,3.839812E-2,9.444517E-2,-7.6127335E-2,-2.0140529E-2,-3.1681664E-3,1.761452E-2],"categories":[],"categories_nodes":[],"categories_segments":[],"categories_sizes":[],"default_left":[0,0,0,0,0,0,0,0,0,0,0,0,0,0,0,0,0,0,0,0,0],"id":61,"left_children":[1,3,5,7,-1,9,11,-1,13,15,-1,17,19,-1,-1,-1,-1,-1,-1,-1,-1],"loss_changes":[3.4364385E3,1.6867065E2,2.1024956E3,1.7527435E2,0E0,5.9682935E2,1.9552002E2,0E0,1.4535856E0,7.776831E1,0E0,2.6192413E1,7.9175897E0,0E0,0E0,0E0,0E0,0E0,0E0,0E0,0E0],"parents":[2147483647,0,0,1,1,2,2,3,3,5,5,6,6,8,8,9,9,11,11,12,12],"right_children":[2,4,6,8,-1,10,12,-1,14,16,-1,18,20,-1,-1,-1,-1,-1,-1,-1,-1],"split_conditions":[4.8E1,1.42E3,1.42E3,2.8E1,-1.1193139E-1,7.2E1,7.2E1,-7.410122E-2,6E1,6E1,1.8060791E-1,2.8E1,1.4E1,-1.1095454E-2,-5.34717E-4,3.839812E-2,9.444517E-2,-7.6127335E-2,-2.0140529E-2,-3.1681664E-3,1.761452E-2],"split_indices":[3,7,7,4,0,3,3,0,2,2,0,4,4,0,0,0,0,0,0,0,0],"split_type":[0,0,0,0,0,0,0,0,0,0,0,0,0,0,0,0,0,0,0,0,0],"sum_hessian":[4.98E2,2.3E2,2.68E2,1.56E2,7.4E1,1.68E2,1E2,1.15E2,4.1E1,9.7E1,7.1E1,5.4E1,4.6E1,2.6E1,1.5E1,4.6E1,5.1E1,4.1E1,1.3E1,2.3E1,2.3E1],"tree_param":{"num_deleted":"0","num_feature":"9","num_nodes":"21","size_leaf_vector":"1"}},{"base_weights":[3.594549E-3,1.3376539E0,-2.4658089E0,3.639568E-1,2.560686E0,-8.4373616E-2,-1.6737211E0,-3.05176E-1,9.798936E-1,1.7408925E0,4.6558533E0,-5.198217E-2,-6.9351554E-1,-1.8971302E-2,1.9037189E-2,5.0110775E-3,3.3079445E-2,1.7711151E-2,8.110004E-2,4.846906E-2,1.4183494E-1,-2.3077793E-2,-5.2982545E-3],"categories":[],"categories_nodes":[],"categories_segments":[],"categories_sizes":[],"default_left":[0,0,0,0,0,0,0,0,0,0,0,0,0,0,0,0,0,0,0,0,0,0,0],"id":62,"left_children":[1,3,5,7,9,-1,11,13,15,17,19,-1,21,-1,-1,-1,-1,-1,-1,-1,-1,-1,-1],"loss_changes":[1.6774266E3,3.8838922E2,6.0542603E1,8.024612E1,2.0453082E2,0E0,1.3715027E1,4.0360943E1,1.7557068E1,1.4245505E2,7.8945312E0,0E0,1.092946E0,0E0,0E0,0E0,0E0,0E0,0E0,0E0,0E0,0E0,0E0],"parents":[2147483647,0,0,1,1,2,2,3,3,4,4,6,6,7,7,8,8,9,9,10,10,12,12],"right_children":[2,4,6,8,10,-1,12,14,16,18,20,-1,22,-1,-1,-1,-1,-1,-1,-1,-1,-1,-1],"split_conditions":[1.42E3,4.5E0,1.2E1,1.2E1,2.8E1,-8.4373616E-2,2.8E1,2.8E1,7E0,1.2E1,1E1,-5.198217E-2,1.4E1,-1.8971302E-2,1.9037189E-2,5.0110775E-3,3.3079445E-2,1.7711151E-2,8.110004E-2,4.846906E-2,1.4183494E-1,-2.3077793E-2,-5.2982545E-3],"split_indices":[7,8,0,0,4,0,4,4,4,0,0,0,0,0,0,0,0,0,0,0,0,0,0],"split_type":[0,0,0,0,0,0,0,0,0,0,0,0,0,0,0,0,0,0,0,0,0,0,0],"sum_hessian":[4.98E2,3.25E2,1.73E2,1.85E2,1.4E2,8.7E1,8.6E1,9E1,9.5E1,1.08E2,3.2E1,6.5E1,2.1E1,6.6E1,2.4E1,2.4E1,7.1E1,6.2E1,4.6E1,9E0,2.3E1,1.3E1,8E0],"tree_param":{"num_deleted":"0","num_feature":"9","num_nodes":"23","size_leaf_vector":"1"}},{"base_weights":[-1.0054517E-4,-2.784754E0,2.338241E0,-1.05847865E-1,-1.6342186E0,8.032415E0,3.5779464E-1,-8.01858E-1,-8.563952E-2,5.7968616E0,2.860631E-1,-1.4642423E0,2.2655063E0,-4.284204E-2,4.1664272E-4,4.061207E-3,2.0621122E-1,-1.1843262E-2,-6.269627E-2,1.0432303E-1,8.367232E-3],"categories":[],"categories_nodes":[],"categories_segments":[],"categories_sizes":[],"default_left":[0,0,0,0,0,0,0,0,0,0,0,0,0,0,0,0,0,0,0,0,0],"id":63,"left_children":[1,3,5,-1,7,9,11,13,-1,15,-1,17,19,-1,-1,-1,-1,-1,-1,-1,-1],"loss_changes":[3.28954E3,2.5724377E2,3.08027E3,0E0,1.4008429E2,4.9702637E1,7.4711847E2,5.4827213E1,0E0,4.9191248E2,0E0,8.983371E1,3.1431012E2,0E0,0E0,0E0,0E0,0E0,0E0,0E0,0E0],"parents":[2147483647,0,0,1,1,2,2,4,4,5,5,6,6,7,7,9,9,11,11,12,12],"right_children":[2,4,6,-1,8,10,12,14,-1,16,-1,18,20,-1,-1,-1,-1,-1,-1,-1,-1],"split_conditions":[4.8E1,1.2E1,2.6086956E-1,-1.05847865E-1,5.633803E-1,7.2E1,7.2E1,1.4E1,-8.563952E-2,1E1,2.860631E-1,5.633803E-1,5.633803E-1,-4.284204E-2,4.1664272E-4,4.061207E-3,2.0621122E-1,-1.1843262E-2,-6.269627E-2,1.0432303E-1,8.367232E-3],"split_indices":[3,0,6,0,6,3,3,0,0,0,0,6,6,0,0,0,0,0,0,0,0],"split_type":[0,0,0,0,0,0,0,0,0,0,0,0,0,0,0,0,0,0,0,0,0],"sum_hessian":[4.94E2,2.25E2,2.69E2,1.08E2,1.17E2,6.5E1,2.04E2,8.1E1,3.6E1,4.4E1,2.1E1,1.05E2,9.9E1,3.9E1,4.2E1,1.2E1,3.2E1,5.1E1,5.4E1,5.2E1,4.7E1],"tree_param":{"num_deleted":"0","num_feature":"9","num_nodes":"21","size_leaf_vector":"1"}},{"base_weights":[-2.2473E-3,-2.7528975E0,2.3176005E0,-3.3832033E0,-9.0651643E-1,3.185011E-1,7.9605384E0,-1.1483988E-1,-2.7555296E0,6.567733E-2,-7.02991E-2,-1.42438E0,2.1972046E0,5.6628246E0,2.8509995E-1,-5.869819E-2,-9.5296144E-2,-1.7705625E-2,2.0936053E-2,-6.8462856E-2,-7.439188E-3,1.0261973E-1,8.163764E-3,3.985794E-3,2.0143397E-1],"categories":[],"categories_nodes":[],"categories_segments":[],"categories_sizes":[],"default_left":[0,0,0,0,0,0,0,0,0,0,0,0,0,0,0,0,0,0,0,0,0,0,0,0,0],"id":64,"left_children":[1,3,5,7,9,11,13,-1,15,17,-1,19,21,23,-1,-1,-1,-1,-1,-1,-1,-1,-1,-1,-1],"loss_changes":[3.2300483E3,2.522362E2,3.083208E3,2.427649E1,1.095605E2,7.005468E2,8.128027E1,0E0,8.314941E0,2.6785677E1,0E0,1.3621548E2,2.9977057E2,4.692433E2,0E0,0E0,0E0,0E0,0E0,0E0,0E0,0E0,0E0,0E0,0E0],"parents":[2147483647,0,0,1,1,2,2,3,3,4,4,5,5,6,6,8,8,9,9,11,11,12,12,13,13],"right_children":[2,4,6,8,10,12,14,-1,16,18,-1,20,22,24,-1,-1,-1,-1,-1,-1,-1,-1,-1,-1,-1],"split_conditions":[4.8E1,1.4E1,4.5E0,1E1,1.42E3,7.2E1,7.2E1,-1.1483988E-1,1.42E3,4.5E0,-7.02991E-2,6E1,1.42E3,1E1,2.8509995E-1,-5.869819E-2,-9.5296144E-2,-1.7705625E-2,2.0936053E-2,-6.8462856E-2,-7.439188E-3,1.0261973E-1,8.163764E-3,3.985794E-3,2.0143397E-1],"split_indices":[3,0,8,0,7,3,3,0,7,8,0,2,7,0,0,0,0,0,0,0,0,0,0,0,0],"split_type":[0,0,0,0,0,0,0,0,0,0,0,0,0,0,0,0,0,0,0,0,0,0,0,0,0],"sum_hessian":[4.95E2,2.26E2,2.69E2,1.65E2,6.1E1,2.03E2,6.6E1,5.7E1,1.08E2,4.2E1,1.9E1,1.06E2,9.7E1,4.4E1,2.2E1,7.2E1,3.6E1,2.1E1,2.1E1,5.1E1,5.5E1,5E1,4.7E1,1.2E1,3.2E1],"tree_param":{"num_deleted":"0","num_feature":"9","num_nodes":"25","size_leaf_vector":"1"}},{"base_weights":[-9.6797785E-3,1.2543409E0,-2.3493629E0,2.7763944E0,-7.988544E-2,-1.1737845E0,-9.1081925E-2,-4.9667236E-1,3.3698068E0,-2.6588833E0,4.8691136E-1,-5.7491373E-2,-1.5898407E-1,-5.0014768E-2,2.1112926E-2,1.3585757E-1,5.5341665E-2,-1.0130074E-1,-1.8502908E-2,6.9256335E-2,-3.3358958E-2,-2.6853703E-2,2.8825125E-3],"categories":[],"categories_nodes":[],"categories_segments":[],"categories_sizes":[],"default_left":[0,0,0,0,0,0,0,0,0,0,0,0,0,0,0,0,0,0,0,0,0,0,0],"id":65,"left_children":[1,3,5,7,9,11,-1,13,15,17,19,-1,21,-1,-1,-1,-1,-1,-1,-1,-1,-1,-1],"loss_changes":[1.5058556E3,6.726834E2,1.8723535E2,3.097179E2,2.7275906E2,8.433684E1,0E0,5.6796658E1,2.2823206E2,5.6387894E1,5.587456E2,0E0,1.1484863E1,0E0,0E0,0E0,0E0,0E0,0E0,0E0,0E0,0E0,0E0],"parents":[2147483647,0,0,1,1,2,2,3,3,4,4,5,5,7,7,8,8,9,9,10,10,12,12],"right_children":[2,4,6,8,10,12,-1,14,16,18,20,-1,22,-1,-1,-1,-1,-1,-1,-1,-1,-1,-1],"split_conditions":[5.633803E-1,1E0,1E0,4.8E1,4.8E1,1.2E1,-9.1081925E-2,2.6086956E-1,2.6086956E-1,2.6086956E-1,2.6086956E-1,-5.7491373E-2,4.8E1,-5.0014768E-2,2.1112926E-2,1.3585757E-1,5.5341665E-2,-1.0130074E-1,-1.8502908E-2,6.9256335E-2,-3.3358958E-2,-2.6853703E-2,2.8825125E-3],"split_indices":[6,5,5,2,2,0,0,6,6,6,6,0,2,0,0,0,0,0,0,0,0,0,0],"split_type":[0,0,0,0,0,0,0,0,0,0,0,0,0,0,0,0,0,0,0,0,0,0,0],"sum_hessian":[4.98E2,3.25E2,1.73E2,1.49E2,1.76E2,8.5E1,8.8E1,2.3E1,1.26E2,2.8E1,1.48E2,4.1E1,4.4E1,1E1,1.3E1,5E1,7.6E1,1.5E1,1.3E1,6.6E1,8.2E1,7E0,3.7E1],"tree_param":{"num_deleted":"0","num_feature":"9","num_nodes":"23","size_leaf_vector":"1"}},{"base_weights":[3.3091214E-2,1.2627333E0,-2.2164102E0,2.405271E0,3.6600384E-1,-7.7047125E-2,-1.4595604E0,1.5377296E0,4.5986114E0,-2.564158E-1,9.3124807E-1,-4.589031E-2,-5.9122914E-1,1.4351458E-2,7.286243E-2,4.485942E-2,1.4162897E-1,-1.6727865E-2,1.6446302E-2,1.172469E-2,3.605148E-2,-1.9845925E-2,-5.082486E-3],"categories":[],"categories_nodes":[],"categories_segments":[],"categories_sizes":[],"default_left":[0,0,0,0,0,0,0,0,0,0,0,0,0,0,0,0,0,0,0,0,0,0,0],"id":66,"left_children":[1,3,5,7,9,-1,11,13,15,17,19,-1,21,-1,-1,-1,-1,-1,-1,-1,-1,-1,-1],"loss_changes":[1.3975486E3,3.296015E2,5.9803772E1,2.3158032E2,6.805969E1,0E0,1.2369461E1,1.1932541E2,1.8919128E1,3.124066E1,1.6556145E1,0E0,7.4979496E-1,0E0,0E0,0E0,0E0,0E0,0E0,0E0,0E0,0E0,0E0],"parents":[2147483647,0,0,1,1,2,2,3,3,4,4,6,6,7,7,8,8,9,9,10,10,12,12],"right_children":[2,4,6,8,10,-1,12,14,16,18,20,-1,22,-1,-1,-1,-1,-1,-1,-1,-1,-1,-1],"split_conditions":[5.633803E-1,2.6086956E-1,1.2E1,2.8E1,1.2E1,-7.7047125E-2,2.8E1,1.2E1,1E1,2.8E1,1.4E1,-4.589031E-2,1.4E1,1.4351458E-2,7.286243E-2,4.485942E-2,1.4162897E-1,-1.6727865E-2,1.6446302E-2,1.172469E-2,3.605148E-2,-1.9845925E-2,-5.082486E-3],"split_indices":[6,6,0,4,0,0,4,0,0,4,4,0,0,0,0,0,0,0,0,0,0,0,0],"split_type":[0,0,0,0,0,0,0,0,0,0,0,0,0,0,0,0,0,0,0,0,0,0,0],"sum_hessian":[4.94E2,3.21E2,1.73E2,1.37E2,1.84E2,8.7E1,8.6E1,1.05E2,3.2E1,8.9E1,9.5E1,6.4E1,2.2E1,6E1,4.5E1,9E0,2.3E1,6.4E1,2.5E1,4.7E1,4.8E1,1.3E1,9E0],"tree_param":{"num_deleted":"0","num_feature":"9","num_nodes":"23","size_leaf_vector":"1"}},{"base_weights":[1.432726E-2,-2.6165955E0,2.2059386E0,-2.0000987E0,-9.956756E-2,7.648947E0,2.8765097E-1,-2.531492E0,-1.3800367E0,1.4691323E-1,2.7605945E-1,-1.3470857E0,2.0663395E0,-9.181481E-2,-1.6880566E-2,1.4862588E-4,-5.340757E-2,-6.536944E-2,-6.9445176E-3,9.36056E-2,1.0744241E-2],"categories":[],"categories_nodes":[],"categories_segments":[],"categories_sizes":[],"default_left":[0,0,0,0,0,0,0,0,0,0,0,0,0,0,0,0,0,0,0,0,0],"id":67,"left_children":[1,3,5,7,-1,9,11,13,15,-1,-1,17,19,-1,-1,-1,-1,-1,-1,-1,-1],"loss_changes":[2.9129236E3,1.0633423E2,2.8650015E3,3.1932068E1,0E0,9.515625E1,6.250311E2,1.1303436E2,6.836229E1,0E0,0E0,1.2616014E2,2.277291E2,0E0,0E0,0E0,0E0,0E0,0E0,0E0,0E0],"parents":[2147483647,0,0,1,1,2,2,3,3,5,5,6,6,7,7,8,8,11,11,12,12],"right_children":[2,4,6,8,-1,10,12,14,16,-1,-1,18,20,-1,-1,-1,-1,-1,-1,-1,-1],"split_conditions":[4.8E1,5.633803E-1,2.6086956E-1,2.6086956E-1,-9.956756E-2,7.2E1,7.2E1,6E1,4.8E1,1.4691323E-1,2.7605945E-1,6E1,5.633803E-1,-9.181481E-2,-1.6880566E-2,1.4862588E-4,-5.340757E-2,-6.536944E-2,-6.9445176E-3,9.36056E-2,1.0744241E-2],"split_indices":[3,6,6,6,0,3,3,2,2,0,0,2,6,0,0,0,0,0,0,0,0],"split_type":[0,0,0,0,0,0,0,0,0,0,0,0,0,0,0,0,0,0,0,0,0],"sum_hessian":[4.94E2,2.24E2,2.7E2,1.51E2,7.3E1,6.6E1,2.04E2,7.2E1,7.9E1,4.4E1,2.2E1,1.07E2,9.7E1,4.7E1,2.5E1,2.5E1,5.4E1,5.1E1,5.6E1,5E1,4.7E1],"tree_param":{"num_deleted":"0","num_feature":"9","num_nodes":"21","size_leaf_vector":"1"}},{"base_weights":[-3.702053E-2,-2.5636137E0,2.154086E0,-1.3703818E0,-3.5729704E0,4.015705E0,-1.0635148E0,-2.7115831E0,-1.3588585E-2,-1.0924457E-1,-1.9663578E0,2.1855896E0,6.048569E0,-2.1848588E0,3.0296025E-1,-9.128702E-2,-4.2667367E-2,2.0873345E-2,-4.136811E-2,-6.394602E-2,-4.3486096E-3,6.7134597E-3,1.2114363E-1,2.0431013E-1,1.1281959E-1,-6.768428E-2,-1.921138E-2,4.0969145E-2,-2.3796914E-2],"categories":[],"categories_nodes":[],"categories_segments":[],"categories_sizes":[],"default_left":[0,0,0,0,0,0,0,0,0,0,0,0,0,0,0,0,0,0,0,0,0,0,0,0,0,0,0,0,0],"id":68,"left_children":[1,3,5,7,9,11,13,15,17,-1,19,21,23,25,27,-1,-1,-1,-1,-1,-1,-1,-1,-1,-1,-1,-1,-1,-1],"loss_changes":[2.796682E3,2.5499976E2,1.644832E3,2.1188155E2,4.3199097E1,5.6790405E2,1.6249802E2,1.3493683E1,8.131387E1,0E0,2.3843765E1,4.3118213E2,4.3684082E1,1.5804108E1,8.04139E1,0E0,0E0,0E0,0E0,0E0,0E0,0E0,0E0,0E0,0E0,0E0,0E0,0E0,0E0],"parents":[2147483647,0,0,1,1,2,2,3,3,4,4,5,5,6,6,7,7,8,8,10,10,11,11,12,12,13,13,14,14],"right_children":[2,4,6,8,10,12,14,16,18,-1,20,22,24,26,28,-1,-1,-1,-1,-1,-1,-1,-1,-1,-1,-1,-1,-1,-1],"split_conditions":[4.8E1,1E0,1.42E3,1.2E1,2.8E1,7.2E1,7.2E1,1E1,1.42E3,-1.0924457E-1,1.4E1,1.2E1,1E0,2.8E1,1E0,-9.128702E-2,-4.2667367E-2,2.0873345E-2,-4.136811E-2,-6.394602E-2,-4.3486096E-3,6.7134597E-3,1.2114363E-1,2.0431013E-1,1.1281959E-1,-6.768428E-2,-1.921138E-2,4.0969145E-2,-2.3796914E-2],"split_indices":[3,5,7,0,4,3,3,0,7,0,0,0,5,4,5,0,0,0,0,0,0,0,0,0,0,0,0,0,0],"split_type":[0,0,0,0,0,0,0,0,0,0,0,0,0,0,0,0,0,0,0,0,0,0,0,0,0,0,0,0,0],"sum_hessian":[4.94E2,2.29E2,2.65E2,1.11E2,1.18E2,1.67E2,9.8E1,5.3E1,5.8E1,8.6E1,3.2E1,9.4E1,7.3E1,5.2E1,4.6E1,2.7E1,2.6E1,4E1,1.8E1,2.5E1,7E0,5.4E1,4E1,3.2E1,4.1E1,4E1,1.2E1,2.2E1,2.4E1],"tree_param":{"num_deleted":"0","num_feature":"9","num_nodes":"29","size_leaf_vector":"1"}},{"base_weights":[6.836966E-3,-2.5393977E0,2.1967888E0,-1.3747182E0,-9.562704E-2,3.2423395E-1,7.5022683E0,-6.5539904E-2,-7.37708E-1,-1.2803923E0,2.0534563E0,5.3295383E0,2.6689932E-1,-2.8787864E-2,-8.375283E-4,-6.5487466E-4,-6.511704E-2,1.0730405E-1,4.3853107E-3,1.8756954E-1,8.57141E-2],"categories":[],"categories_nodes":[],"categories_segments":[],"categories_sizes":[],"default_left":[0,0,0,0,0,0,0,0,0,0,0,0,0,0,0,0,0,0,0,0,0],"id":69,"left_children":[1,3,5,7,-1,9,11,-1,13,15,17,19,-1,-1,-1,-1,-1,-1,-1,-1,-1],"loss_changes":[2.8170054E3,2.3784216E2,2.6843901E3,6.6053696E1,0E0,5.879834E2,6.054004E1,0E0,1.7790668E1,1.5412479E2,3.5949545E2,4.3766846E1,0E0,0E0,0E0,0E0,0E0,0E0,0E0,0E0,0E0],"parents":[2147483647,0,0,1,1,2,2,3,3,5,5,6,6,8,8,9,9,10,10,11,11],"right_children":[2,4,6,8,-1,10,12,-1,14,16,18,20,-1,-1,-1,-1,-1,-1,-1,-1,-1],"split_conditions":[4.8E1,1E0,4.5E0,3.75E0,-9.562704E-2,7.2E1,7.2E1,-6.5539904E-2,6E1,1E0,1E0,1E0,2.6689932E-1,-2.8787864E-2,-8.375283E-4,-6.5487466E-4,-6.511704E-2,1.0730405E-1,4.3853107E-3,1.8756954E-1,8.57141E-2],"split_indices":[3,5,8,8,0,3,3,0,2,5,5,5,0,0,0,0,0,0,0,0,0],"split_type":[0,0,0,0,0,0,0,0,0,0,0,0,0,0,0,0,0,0,0,0,0],"sum_hessian":[4.94E2,2.28E2,2.66E2,1.1E2,1.18E2,2.01E2,6.5E1,3.6E1,7.4E1,1.05E2,9.6E1,4.3E1,2.2E1,4.9E1,2.5E1,5.2E1,5.3E1,4.5E1,5.1E1,1.8E1,2.5E1],"tree_param":{"num_deleted":"0","num_feature":"9","num_nodes":"21","size_leaf_vector":"1"}},{"base_weights":[-9.62794E-3,-2.4849153E0,2.0691133E0,-1.3216152E0,-3.4666598E0,6.7255145E-1,3.7199929E0,-2.6460702E0,1.4679868E-2,-1.0501635E-1,-1.965852E0,-7.4407417E-1,2.307952E0,1.4010541E-1,2.2604012E0,-8.847439E-2,-4.1289587E-2,-1.9809313E-2,2.1168252E-2,-6.492495E-2,-2.8362847E-3,2.1013658E-2,-5.7419688E-2,9.316901E-2,3.1369556E-2,7.377941E-2,7.883711E-3],"categories":[],"categories_nodes":[],"categories_segments":[],"categories_sizes":[],"default_left":[0,0,0,0,0,0,0,0,0,0,0,0,0,0,0,0,0,0,0,0,0,0,0,0,0,0,0],"id":70,"left_children":[1,3,5,7,9,11,13,15,17,-1,19,21,23,-1,25,-1,-1,-1,-1,-1,-1,-1,-1,-1,-1,-1,-1],"loss_changes":[2.599434E3,2.3757422E2,6.189613E2,2.0311493E2,2.8885864E1,3.701298E2,1.9431238E2,1.1579712E1,3.8633995E1,0E0,2.7118378E1,1.9051721E2,7.261398E1,0E0,5.9060272E1,0E0,0E0,0E0,0E0,0E0,0E0,0E0,0E0,0E0,0E0,0E0,0E0],"parents":[2147483647,0,0,1,1,2,2,3,3,4,4,5,5,6,6,7,7,8,8,10,10,11,11,12,12,14,14],"right_children":[2,4,6,8,10,12,14,16,18,-1,20,22,24,-1,26,-1,-1,-1,-1,-1,-1,-1,-1,-1,-1,-1,-1],"split_conditions":[4.8E1,1E0,7.2E1,1.2E1,2.8E1,1.2E1,1E0,1E1,1.4E1,-1.0501635E-1,1.4E1,1E0,1E0,1.4010541E-1,1.4E1,-8.847439E-2,-4.1289587E-2,-1.9809313E-2,2.1168252E-2,-6.492495E-2,-2.8362847E-3,2.1013658E-2,-5.7419688E-2,9.316901E-2,3.1369556E-2,7.377941E-2,7.883711E-3],"split_indices":[3,5,3,0,4,0,5,0,0,0,0,5,5,0,0,0,0,0,0,0,0,0,0,0,0,0,0],"split_type":[0,0,0,0,0,0,0,0,0,0,0,0,0,0,0,0,0,0,0,0,0,0,0,0,0,0,0],"sum_hessian":[4.94E2,2.25E2,2.69E2,1.09E2,1.16E2,1.5E2,1.19E2,5.2E1,5.7E1,8.5E1,3.1E1,8.2E1,6.8E1,5.3E1,6.6E1,2.7E1,2.5E1,2.9E1,2.8E1,2.4E1,7E0,4E1,4.2E1,2.9E1,3.9E1,5.2E1,1.4E1],"tree_param":{"num_deleted":"0","num_feature":"9","num_nodes":"27","size_leaf_vector":"1"}},{"base_weights":[6.339048E-3,-2.4094682E0,2.0930176E0,-3.377336E0,-1.4030743E0,7.2003026E0,2.5739068E-1,-1.2050831E-1,-2.6134653E0,-7.1928585E-1,-7.267104E-2,5.099254E0,2.5898355E-1,-1.2609359E0,1.8507757E0,-3.4579884E-2,-9.769583E-2,-3.7207272E-2,-0E0,4.901469E-2,2.2605292E-1,-6.2053993E-2,-5.675136E-3,