{"learner":{"attributes":{"scikit_learn":"{\"_estimator_type\": \"regressor\"}"},"feature_names":[],"feature_types":[],"gradient_booster":{"model":{"cats":{"enc":[],"feature_segments":[],"sorted_idx":[]},"gbtree_model_param":{"num_parallel_tree":"1","num_trees":"500"},"iteration_indptr":[0,1,2,3,4,5,6,7,8,9,10,11,12,13,14,15,16,17,18,19,20,21,22,23,24,25,26,27,28,29,30,31,32,33,34,35,36,37,38,39,40,41,42,43,44,45,46,47,48,49,50,51,52,53,54,55,56,57,58,59,60,61,62,63,64,65,66,67,68,69,70,71,72,73,74,75,76,77,78,79,80,81,82,83,84,85,86,87,88,89,90,91,92,93,94,95,96,97,98,99,100,101,102,103,104,105,106,107,108,109,110,111,112,113,114,115,116,117,118,119,120,121,122,123,124,125,126,127,128,129,130,131,132,133,134,135,136,137,138,139,140,141,142,143,144,145,146,147,148,149,150,151,152,153,154,155,156,157,158,159,160,161,162,163,164,165,166,167,168,169,170,171,172,173,174,175,176,177,178,179,180,181,182,183,184,185,186,187,188,189,190,191,192,193,194,195,196,197,198,199,200,201,202,203,204,205,206,207,208,209,210,211,212,213,214,215,216,217,218,219,220,221,222,223,224,225,226,227,228,229,230,231,232,233,234,235,236,237,238,239,240,241,242,243,244,245,246,247,248,249,250,251,252,253,254,255,256,257,258,259,260,261,262,263,264,265,266,267,268,269,270,271,272,273,274,275,276,277,278,279,280,281,282,283,284,285,286,287,288,289,290,291,292,293,294,295,296,297,298,299,300,301,302,303,304,305,306,307,308,309,310,311,312,313,314,315,316,317,318,319,320,321,322,323,324,325,326,327,328,329,330,331,332,333,334,335,336,337,338,339,340,341,342,343,344,345,346,347,348,349,350,351,352,353,354,355,356,357,358,359,360,361,362,363,364,365,366,367,368,369,370,371,372,373,374,375,376,377,378,379,380,381,382,383,384,385,386,387,388,389,390,391,392,393,394,395,396,397,398,399,400,401,402,403,404,405,406,407,408,409,410,411,412,413,414,415,416,417,418,419,420,421,422,423,424,425,426,427,428,429,430,431,432,433,434,435,436,437,438,439,440,441,442,443,444,445,446,447,448,449,450,451,452,453,454,455,456,457,458,459,460,461,462,463,464,465,466,467,468,469,470,471,472,473,474,475,476,477,478,479,480,481,482,483,484,485,486,487,488,489,490,491,492,493,494,495,496,497,498,499,500],"tree_info":[0,0,0,0,0,0,0,0,0,0,0,0,0,0,0,0,0,0,0,0,0,0,0,0,0,0,0,0,0,0,0,0,0,0,0,0,0,0,0,0,0,0,0,0,0,0,0,0,0,0,0,0,0,0,0,0,0,0,0,0,0,0,0,0,0,0,0,0,0,0,0,0,0,0,0,0,0,0,0,0,0,0,0,0,0,0,0,0,0,0,0,0,0,0,0,0,0,0,0,0,0,0,0,0,0,0,0,0,0,0,0,0,0,0,0,0,0,0,0,0,0,0,0,0,0,0,0,0,0,0,0,0,0,0,0,0,0,0,0,0,0,0,0,0,0,0,0,0,0,0,0,0,0,0,0,0,0,0,0,0,0,0,0,0,0,0,0,0,0,0,0,0,0,0,0,0,0,0,0,0,0,0,0,0,0,0,0,0,0,0,0,0,0,0,0,0,0,0,0,0,0,0,0,0,0,0,0,0,0,0,0,0,0,0,0,0,0,0,0,0,0,0,0,0,0,0,0,0,0,0,0,0,0,0,0,0,0,0,0,0,0,0,0,0,0,0,0,0,0,0,0,0,0,0,0,0,0,0,0,0,0,0,0,0,0,0,0,0,0,0,0,0,0,0,0,0,0,0,0,0,0,0,0,0,0,0,0,0,0,0,0,0,0,0,0,0,0,0,0,0,0,0,0,0,0,0,0,0,0,0,0,0,0,0,0,0,0,0,0,0,0,0,0,0,0,0,0,0,0,0,0,0,0,0,0,0,0,0,0,0,0,0,0,0,0,0,0,0,0,0,0,0,0,0,0,0,0,0,0,0,0,0,0,0,0,0,0,0,0,0,0,0,0,0,0,0,0,0,0,0,0,0,0,0,0,0,0,0,0,0,0,0,0,0,0,0,0,0,0,0,0,0,0,0,0,0,0,0,0,0,0,0,0,0,0,0,0,0,0,0,0,0,0,0,0,0,0,0,0,0,0,0,0,0,0,0,0,0,0,0,0,0,0,0,0,0,0,0,0,0,0,0,0,0,0,0,0,0,0,0,0,0,0,0,0,0,0,0,0,0,0,0,0,0,0,0,0,0,0,0,0,0,0,0,0,0,0,0,0,0,0,0,0,0,0,0,0,0,0,0],"trees":[{"base_weights":[1.7527492E-1,-7.6383753E0,4.8766284E0,-1.1048838E1,5.1593703E-1,-1.915272E1,7.9222217E0,-8.1175E0,-8.198959E-1,-2.2359827E0,2.0587528E0,-3.7972066E-1,-1.1717405E0,9.718741E0,4.814453E0,-1.0454405E1,-4.609588E0,-1.9843063E-1,4.6380004E-1,-9.1884434E-1,2.6399226E0,4.029986E0,1.0714168E1,3.48317E0,4.7626397E-1,-3.2438105E-1,-6.109697E-1,-2.848601E-1,-1.6934928E-1,3.5557788E-2,-4.456673E-3,-1.0206661E-2,-5.620667E-2,5.1391065E-2,1.4247803E-1,4.508811E0,-1.6456662E-2,1.1191815E1,2.0400252E0,4.7255054E0,1.5412024E0,-6.258418E-2,2.876616E-2,3.305063E-1,1.324829E-1,5.868449E-1,3.4252584E-1,1.7910115E-1,-6.2149204E-2,3.5763612E-1,2.00666E-1,3.0467717E-2,1.1858572E-1],"categories":[],"categories_nodes":[],"categories_segments":[],"categories_sizes":[],"default_left":[0,0,0,0,0,0,0,0,0,0,0,0,0,0,0,0,0,0,0,0,0,0,0,0,0,0,0,0,0,0,0,0,0,0,0,0,0,0,0,0,0,0,0,0,0,0,0,0,0,0,0,0,0],"id":0,"left_children":[1,3,5,7,9,11,13,15,-1,17,19,-1,-1,21,23,25,27,-1,29,31,33,35,37,39,-1,-1,-1,-1,41,-1,-1,-1,-1,-1,-1,43,-1,45,47,49,51,-1,-1,-1,-1,-1,-1,-1,-1,-1,-1,-1,-1],"loss_changes":[6.649225E3,1.897832E3,8.420357E3,6.1707666E2,9.374542E1,4.623413E2,5.1565625E2,2.2082568E2,0E0,3.9612915E1,2.6824642E1,0E0,0E0,3.120996E2,2.1010718E2,5.1879883E1,7.088751E1,0E0,6.726749E-1,7.786727E-2,7.389145E-1,2.4861801E1,1.9543457E2,6.9292786E1,0E0,0E0,0E0,0E0,4.011697E0,0E0,0E0,0E0,0E0,0E0,0E0,2.0626099E1,0E0,3.6055664E1,2.4935875E1,3.0211792E0,9.0914345E0,0E0,0E0,0E0,0E0,0E0,0E0,0E0,0E0,0E0,0E0,0E0,0E0],"parents":[2147483647,0,0,1,1,2,2,3,3,4,4,5,5,6,6,7,7,9,9,10,10,13,13,14,14,15,15,16,16,18,18,19,19,20,20,21,21,22,22,23,23,28,28,35,35,37,37,38,38,39,39,40,40],"right_children":[2,4,6,8,10,12,14,16,-1,18,20,-1,-1,22,24,26,28,-1,30,32,34,36,38,40,-1,-1,-1,-1,42,-1,-1,-1,-1,-1,-1,44,-1,46,48,50,52,-1,-1,-1,-1,-1,-1,-1,-1,-1,-1,-1,-1],"split_conditions":[1.44E2,4.27E2,8E0,1.6107143E2,1.4E1,5.424E2,4.3811428E1,1.23E2,-8.198959E-1,8E1,6E1,-3.7972066E-1,-1.1717405E0,1.64E2,1E0,3.846857E1,1E0,-1.9843063E-1,5.3E2,1.6E1,7.802321E1,1.0908446E3,3.025116E2,2.4E2,4.7626397E-1,-3.2438105E-1,-6.109697E-1,-2.848601E-1,1.3571428E2,3.5557788E-2,-4.456673E-3,-1.0206661E-2,-5.620667E-2,5.1391065E-2,1.4247803E-1,1.1978571E2,-1.6456662E-2,2.58E2,5.344E2,1.8E2,4.896E1,-6.258418E-2,2.876616E-2,3.305063E-1,1.324829E-1,5.868449E-1,3.4252584E-1,1.7910115E-1,-6.2149204E-2,3.5763612E-1,2.00666E-1,3.0467717E-2,1.1858572E-1],"split_indices":[1,0,9,4,9,2,10,1,0,16,16,0,0,1,15,10,15,0,0,9,14,2,14,0,0,0,0,0,4,0,0,0,0,0,0,14,0,0,2,0,10,0,0,0,0,0,0,0,0,0,0,0,0],"split_type":[0,0,0,0,0,0,0,0,0,0,0,0,0,0,0,0,0,0,0,0,0,0,0,0,0,0,0,0,0,0,0,0,0,0,0,0,0,0,0,0,0,0,0,0,0,0,0,0,0,0,0,0,0],"sum_hessian":[1.79E2,6.7E1,1.12E2,4.7E1,2E1,1.2E1,1E2,3.2E1,1.5E1,7E0,1.3E1,4E0,8E0,6.2E1,3.8E1,1.8E1,1.4E1,4E0,3E0,2E0,1.1E1,1E1,5.2E1,3.1E1,7E0,7E0,1.1E1,1.1E1,3E0,2E0,1E0,1E0,1E0,2E0,9E0,9E0,1E0,4.9E1,3E0,1.8E1,1.3E1,1E0,2E0,3E0,6E0,4.2E1,7E0,2E0,1E0,2E0,1.6E1,7E0,6E0],"tree_param":{"num_deleted":"0","num_feature":"19","num_nodes":"53","size_leaf_vector":"1"}},{"base_weights":[-6.833305E-1,-7.527098E0,4.1334105E0,-3.975216E0,-1.3517848E1,-1.9362217E1,7.2213454E0,5.0585866E-1,-6.6229444E0,-8.940534E0,-1.5409336E1,-1.2154495E0,-5.173641E-1,9.343705E0,4.4545317E0,-2.097958E0,1.4068033E0,-7.1728983E0,-2.5285854E0,-6.5671736E-1,-2.099851E0,-8.250415E-1,-3.8558885E-1,3.5760703E0,1.1068325E1,-2.0474944E0,5.024362E0,-1.2832786E-1,-8.967064E-1,-3.19326E-1,1.9156864E0,-7.46036E0,-4.345284E-3,-1.7664188E-1,-6.4813817E-1,-1.4714153E-1,2.9301701E-2,-1.6045246E-2,3.9358935E0,3.4472907E-1,1.1632321E1,-0E0,-1.361628E-1,3.858423E0,7.5263567E0,-9.951458E-3,-5.4801524E-2,-2.7724687E-2,7.154427E-3,1.02723185E-2,1.1309006E-1,-3.8648143E-1,-1.4828025E-1,-6.1019577E-2,9.909211E-3,2.2682822E-1,7.877057E-2,5.899892E-1,1.5852496E-1,1.3906E-1,3.66402E-1,4.2868558E-1,9.2108704E-2],"categories":[],"categories_nodes":[],"categories_segments":[],"categories_sizes":[],"default_left":[0,0,0,0,0,0,0,0,0,0,0,0,0,0,0,0,0,0,0,0,0,0,0,0,0,0,0,0,0,0,0,0,0,0,0,0,0,0,0,0,0,0,0,0,0,0,0,0,0,0,0,0,0,0,0,0,0,0,0,0,0,0,0],"id":1,"left_children":[1,3,5,7,9,11,13,15,17,19,21,-1,-1,23,25,27,29,31,33,-1,35,-1,-1,37,39,41,43,-1,45,47,49,51,-1,-1,53,-1,-1,-1,55,-1,57,-1,-1,59,61,-1,-1,-1,-1,-1,-1,-1,-1,-1,-1,-1,-1,-1,-1,-1,-1,-1,-1],"loss_changes":[5.668408E3,1.4552837E3,7.4664575E3,5.497366E2,8.490381E1,2.8014014E2,4.8549414E2,4.5108406E1,4.619226E1,2.5778186E2,1.3158936E1,0E0,0E0,4.5630322E2,1.6249225E2,1.6675186E-1,1.3068935E1,4.9520752E1,6.734352E0,0E0,1.3281012E1,0E0,0E0,1.985344E1,7.3984375E0,5.479433E0,8.0674255E1,0E0,6.954384E-2,5.55462E-1,5.7999306E0,5.0545654E0,0E0,0E0,1.7970153E0,0E0,0E0,0E0,9.256317E0,0E0,6.4365234E0,0E0,0E0,8.3259735E1,4.8651E1,0E0,0E0,0E0,0E0,0E0,0E0,0E0,0E0,0E0,0E0,0E0,0E0,0E0,0E0,0E0,0E0,0E0,0E0],"parents":[2147483647,0,0,1,1,2,2,3,3,4,4,5,5,6,6,7,7,8,8,9,9,10,10,13,13,14,14,15,15,16,16,17,17,18,18,20,20,23,23,24,24,25,25,26,26,28,28,29,29,30,30,31,31,34,34,38,38,40,40,43,43,44,44],"right_children":[2,4,6,8,10,12,14,16,18,20,22,-1,-1,24,26,28,30,32,34,-1,36,-1,-1,38,40,42,44,-1,46,48,50,52,-1,-1,54,-1,-1,-1,56,-1,58,-1,-1,60,62,-1,-1,-1,-1,-1,-1,-1,-1,-1,-1,-1,-1,-1,-1,-1,-1,-1,-1],"split_conditions":[1.44E2,9.025714E1,1.4811429E1,2.622E1,1.852E1,1.0976E1,9.422678E1,6E1,7.954E2,2.87E2,1E0,-1.2154495E0,-5.173641E-1,1.64E2,1.728E1,1.4E1,1.7088E1,4.8085712E1,1E0,-6.5671736E-1,1E0,-8.250415E-1,-3.8558885E-1,3.204E1,1.8E2,7.853E2,2.25E2,-1.2832786E-1,1.6E1,9E1,1.4E1,1.725E1,-4.345284E-3,-1.7664188E-1,1.561E1,-1.4714153E-1,2.9301701E-2,-1.6045246E-2,2.34E2,3.4472907E-1,4.8085712E1,-0E0,-1.361628E-1,1E0,7.811E2,-9.951458E-3,-5.4801524E-2,-2.7724687E-2,7.154427E-3,1.02723185E-2,1.1309006E-1,-3.8648143E-1,-1.4828025E-1,-6.1019577E-2,9.909211E-3,2.2682822E-1,7.877057E-2,5.899892E-1,1.5852496E-1,1.3906E-1,3.66402E-1,4.2868558E-1,9.2108704E-2],"split_indices":[1,8,11,10,6,11,8,16,3,0,15,0,0,1,11,9,11,10,15,0,15,0,0,10,1,3,1,0,9,16,9,6,0,0,6,0,0,0,0,0,10,0,0,15,3,0,0,0,0,0,0,0,0,0,0,0,0,0,0,0,0,0,0],"split_type":[0,0,0,0,0,0,0,0,0,0,0,0,0,0,0,0,0,0,0,0,0,0,0,0,0,0,0,0,0,0,0,0,0,0,0,0,0,0,0,0,0,0,0,0,0,0,0,0,0,0,0,0,0,0,0,0,0,0,0,0,0,0,0],"sum_hessian":[1.7E2,7E1,1E2,4.5E1,2.5E1,1.1E1,8.9E1,1.7E1,2.8E1,9E0,1.6E1,6E0,5E0,4.9E1,4E1,4E0,1.3E1,2.4E1,4E0,5E0,4E0,1.3E1,3E0,1.2E1,3.7E1,3E0,3.7E1,2E0,2E0,3E0,1E1,2.3E1,1E0,2E0,2E0,3E0,1E0,1E0,1.1E1,6E0,3.1E1,1E0,2E0,2.7E1,1E1,1E0,1E0,2E0,1E0,2E0,8E0,2.1E1,2E0,1E0,1E0,8E0,3E0,3E1,1E0,2.2E1,5E0,8E0,2E0],"tree_param":{"num_deleted":"0","num_feature":"19","num_nodes":"63","size_leaf_vector":"1"}},{"base_weights":[-8.678329E-2,-1.1448091E0,1.2042316E0,-6.3402185E0,6.9126143E0,-9.54593E0,4.8189688E-1,9.235666E0,3.7173316E0,-7.212519E0,-7.543097E-1,-2.5419023E0,1.9699279E0,5.3848133E0,1.094937E1,-2.598244E-1,4.5832224E0,-8.999809E0,-4.5213737E0,-2.8665361E0,-4.2366604E-3,-8.7512153E-1,2.4460151E0,5.6961927E0,-0E0,1.1354251E1,4.94799E0,4.6447816E-1,3.7282243E0,-2.5949508E-1,-5.8180535E-1,-2.6454005E-1,2.715375E-2,-1.9497545E-1,-5.4596454E-2,-9.702644E-3,-5.3431477E-2,-1.579834E-2,1.3452363E-1,2.975653E-1,3.7859403E-2,5.7589287E-1,1.5456186E-1,4.4230517E-2,2.9871234E-1,1.1689943E-1,3.8839814E-1],"categories":[],"categories_nodes":[],"categories_segments":[],"categories_sizes":[],"default_left":[0,0,0,0,0,0,0,0,0,0,0,0,0,0,0,0,0,0,0,0,0,0,0,0,0,0,0,0,0,0,0,0,0,0,0,0,0,0,0,0,0,0,0,0,0,0,0],"id":2,"left_children":[1,-1,3,5,7,9,11,13,15,17,-1,19,21,23,25,-1,27,29,31,33,-1,35,37,39,-1,41,43,-1,45,-1,-1,-1,-1,-1,-1,-1,-1,-1,-1,-1,-1,-1,-1,-1,-1,-1,-1],"loss_changes":[4.947436E3,0E0,6.891475E3,1.5145181E3,6.3984814E2,4.9656348E2,1.08438835E2,2.8256592E2,3.3249103E2,1.2630151E2,0E0,5.843422E0,2.3969517E1,2.9660522E1,2.7233398E1,0E0,1.1294928E2,1.388081E2,6.569565E1,8.074715E0,0E0,6.1737776E-2,1.0540176E1,1.6243042E1,0E0,6.194336E0,1.0709511E1,0E0,1.661622E2,0E0,0E0,0E0,0E0,0E0,0E0,0E0,0E0,0E0,0E0,0E0,0E0,0E0,0E0,0E0,0E0,0E0,0E0],"parents":[2147483647,0,0,2,2,3,3,4,4,5,5,6,6,7,7,8,8,9,9,11,11,12,12,13,13,14,14,16,16,17,17,18,18,19,19,21,21,22,22,23,23,25,25,26,26,28,28],"right_children":[2,-1,4,6,8,10,12,14,16,18,-1,20,22,24,26,-1,28,30,32,34,-1,36,38,40,-1,42,44,-1,46,-1,-1,-1,-1,-1,-1,-1,-1,-1,-1,-1,-1,-1,-1,-1,-1,-1,-1],"split_conditions":[6E0,-1.1448091E0,1.44E2,4.27E2,1.6107143E2,1.6107143E2,1.4E1,1.8E2,8E0,1.2E2,-7.543097E-1,5.3E2,6E1,1.0908446E3,2.28E2,-2.598244E-1,5.327E2,5.657143E1,4E1,1E1,-4.2366604E-3,1.6E1,9.15E1,8.721429E1,-0E0,2.9804E2,9.72E2,4.6447816E-1,4E1,-2.5949508E-1,-5.8180535E-1,-2.6454005E-1,2.715375E-2,-1.9497545E-1,-5.4596454E-2,-9.702644E-3,-5.3431477E-2,-1.579834E-2,1.3452363E-1,2.975653E-1,3.7859403E-2,5.7589287E-1,1.5456186E-1,4.4230517E-2,2.9871234E-1,1.1689943E-1,3.8839814E-1],"split_indices":[9,0,1,0,4,4,9,1,9,1,0,0,16,2,0,0,2,5,16,9,0,9,4,5,0,14,2,0,16,0,0,0,0,0,0,0,0,0,0,0,0,0,0,0,0,0,0],"split_type":[0,0,0,0,0,0,0,0,0,0,0,0,0,0,0,0,0,0,0,0,0,0,0,0,0,0,0,0,0,0,0,0,0,0,0,0,0,0,0,0,0,0,0,0,0,0,0],"sum_hessian":[1.66E2,8E0,1.58E2,6.8E1,9E1,4.6E1,2.2E1,5.1E1,3.9E1,3.4E1,1.2E1,7E0,1.5E1,1.7E1,3.4E1,3E0,3.6E1,1.9E1,1.5E1,6E0,1E0,2E0,1.3E1,1.6E1,1E0,3.1E1,3E0,4E0,3.2E1,9E0,1E1,1.3E1,2E0,3E0,3E0,1E0,1E0,1E0,1.2E1,1.5E1,1E0,3E1,1E0,1E0,2E0,2.5E1,7E0],"tree_param":{"num_deleted":"0","num_feature":"19","num_nodes":"47","size_leaf_vector":"1"}},{"base_weights":[-4.6634134E-2,-2.020579E1,1.288892E0,-1.1772404E0,-5.735003E-1,-6.5887675E0,6.5550346E0,-2.202744E0,-1.0533053E1,8.142989E0,4.165883E0,5.296848E-1,-4.811482E0,-7.6075416E0,-1.3919899E1,3.472859E0,9.653878E0,4.800828E-1,2.8015387E0,-7.9104644E-1,1.3310878E0,-2.5478116E-1,-4.130707E-3,-5.5292803E-1,-4.0893974E0,-7.552962E-1,-3.4284258E-1,4.014296E0,-1.7813441E-1,8.523152E0,6.5465087E-1,-2.8624775E0,3.6279433E0,-4.969247E-2,-1.8274097E-2,8.412897E-2,-5.2095663E-2,-2.2858357E-1,2.7890358E-2,2.9740998E-1,1.4685157E-1,-1.5644131E-2,-0E0,4.7721943E-1,2.1939225E-1,-9.276962E-4,-1.77191E-1,1.2557082E-1,3.5414883E-1],"categories":[],"categories_nodes":[],"categories_segments":[],"categories_sizes":[],"default_left":[0,0,0,0,0,0,0,0,0,0,0,0,0,0,0,0,0,0,0,0,0,0,0,0,0,0,0,0,0,0,0,0,0,0,0,0,0,0,0,0,0,0,0,0,0,0,0,0,0],"id":3,"left_children":[1,3,5,-1,-1,7,9,11,13,15,17,19,21,23,25,27,29,-1,31,33,35,-1,-1,-1,37,-1,-1,39,41,43,-1,45,47,-1,-1,-1,-1,-1,-1,-1,-1,-1,-1,-1,-1,-1,-1,-1,-1],"loss_changes":[4.7663965E3,4.729785E1,6.9296763E3,0E0,0E0,1.1346064E3,3.442329E2,2.3820706E2,2.3874023E2,3.8146777E2,2.8334357E2,1.9100405E1,2.1903473E1,2.0822705E2,1.9878662E1,3.272725E1,5.7348633E1,0E0,1.7428836E2,1.0497236E-1,1.0992151E1,0E0,0E0,0E0,2.9846176E1,0E0,0E0,1.0807999E1,1.0059547E-1,1.0876001E2,0E0,9.266438E0,1.0083905E2,0E0,0E0,0E0,0E0,0E0,0E0,0E0,0E0,0E0,0E0,0E0,0E0,0E0,0E0,0E0,0E0],"parents":[2147483647,0,0,1,1,2,2,5,5,6,6,7,7,8,8,9,9,10,10,11,11,12,12,13,13,14,14,15,15,16,16,18,18,19,19,20,20,24,24,27,27,28,28,29,29,31,31,32,32],"right_children":[2,4,6,-1,-1,8,10,12,14,16,18,20,22,24,26,28,30,-1,32,34,36,-1,-1,-1,38,-1,-1,40,42,44,-1,46,48,-1,-1,-1,-1,-1,-1,-1,-1,-1,-1,-1,-1,-1,-1,-1,-1],"split_conditions":[1.2816E1,9.6E0,1.44E2,-1.1772404E0,-5.735003E-1,1.2876964E2,1.6107143E2,2.622E1,1.6107143E2,1.68E2,5.332E2,1.4E1,5.3E2,2.8E2,1E0,1.0908446E3,1E0,4.800828E-1,1.728E1,1.2E1,1.6E1,-2.5478116E-1,-4.130707E-3,-5.5292803E-1,1E0,-7.552962E-1,-3.4284258E-1,1.2857143E2,1.1628571E2,2.28E2,6.5465087E-1,5.356E2,1E0,-4.969247E-2,-1.8274097E-2,8.412897E-2,-5.2095663E-2,-2.2858357E-1,2.7890358E-2,2.9740998E-1,1.4685157E-1,-1.5644131E-2,-0E0,4.7721943E-1,2.1939225E-1,-9.276962E-4,-1.77191E-1,1.2557082E-1,3.5414883E-1],"split_indices":[11,11,1,0,0,14,4,10,4,1,2,9,0,0,15,2,15,0,11,9,9,0,0,0,15,0,0,4,4,0,0,2,15,0,0,0,0,0,0,0,0,0,0,0,0,0,0,0,0],"split_type":[0,0,0,0,0,0,0,0,0,0,0,0,0,0,0,0,0,0,0,0,0,0,0,0,0,0,0,0,0,0,0,0,0,0,0,0,0,0,0,0,0,0,0,0,0,0,0,0,0],"sum_hessian":[1.75E2,1E1,1.65E2,6E0,4E0,6.6E1,9.9E1,3.2E1,3.4E1,5.8E1,4.1E1,1.6E1,1.6E1,2E1,1.4E1,1.5E1,4.3E1,7E0,3.4E1,6E0,1E1,1.5E1,1E0,9E0,1.1E1,1.1E1,3E0,1.3E1,2E0,3.5E1,8E0,4E0,3E1,3E0,3E0,9E0,1E0,1E1,1E0,3E0,1E1,1E0,1E0,2.7E1,8E0,1E0,3E0,2.4E1,6E0],"tree_param":{"num_deleted":"0","num_feature":"19","num_nodes":"49","size_leaf_vector":"1"}},{"base_weights":[-1.946536E-1,-1.9780098E1,9.2505556E-1,-1.1267873E0,-4.9938446E-1,8.803822E0,2.90399E-1,9.606331E0,1.4466742E-1,1.33653E0,-3.305521E0,5.000948E-1,1.387674E-1,2.9349008E0,-2.811616E-1,-4.240205E0,6.458619E-2,2.008985E0,6.4051104E0,1.8301183E0,-3.880383E0,-3.1109437E-1,-3.1421578E0,1.3148877E-1,-2.6742462E-2,3.5706863E-1,1.4690891E-1,-1.604515E-2,1.9493765E-1,-2.3877685E-1,8.821359E-2,-9.784023E-2,-2.6941857E-1],"categories":[],"categories_nodes":[],"categories_segments":[],"categories_sizes":[],"default_left":[0,0,0,0,0,0,0,0,0,0,0,0,0,0,0,0,0,0,0,0,0,0,0,0,0,0,0,0,0,0,0,0,0],"id":4,"left_children":[1,3,5,-1,-1,7,9,11,-1,13,15,-1,-1,17,19,21,-1,23,25,27,29,-1,31,-1,-1,-1,-1,-1,-1,-1,-1,-1,-1],"loss_changes":[4.0553035E3,4.1511963E1,8.715884E2,0E0,0E0,3.261737E1,6.17395E2,6.8652344E-1,0E0,3.2947076E2,1.6475989E2,0E0,0E0,1.919306E2,4.9364026E2,4.6968872E1,0E0,8.373378E1,1.119281E1,1.840457E2,1.299945E2,0E0,4.729773E1,0E0,0E0,0E0,0E0,0E0,0E0,0E0,0E0,0E0,0E0],"parents":[2147483647,0,0,1,1,2,2,5,5,6,6,7,7,9,9,10,10,13,13,14,14,15,15,17,17,18,18,19,19,20,20,22,22],"right_children":[2,4,6,-1,-1,8,10,12,-1,14,16,-1,-1,18,20,22,-1,24,26,28,30,-1,32,-1,-1,-1,-1,-1,-1,-1,-1,-1,-1],"split_conditions":[1.2816E1,9.6E0,5.351E2,-1.1267873E0,-4.9938446E-1,1.9285715E2,1.714E2,5.332E2,1.4466742E-1,1.0704552E3,1E0,5.000948E-1,1.387674E-1,1E0,5.49E1,7.6567017E2,6.458619E-2,1.6107143E2,1.6107143E2,1E0,4.8085712E1,-3.1109437E-1,7.853E2,1.3148877E-1,-2.6742462E-2,3.5706863E-1,1.4690891E-1,-1.604515E-2,1.9493765E-1,-2.3877685E-1,8.821359E-2,-9.784023E-2,-2.6941857E-1],"split_indices":[11,11,2,0,0,4,4,2,0,2,15,0,0,15,5,3,0,4,4,17,10,0,3,0,0,0,0,0,0,0,0,0,0],"split_type":[0,0,0,0,0,0,0,0,0,0,0,0,0,0,0,0,0,0,0,0,0,0,0,0,0,0,0,0,0,0,0,0,0],"sum_hessian":[1.83E2,9E0,1.74E2,6E0,3E0,1.2E1,1.62E2,1E1,2E0,1.26E2,3.6E1,9E0,1E0,6.3E1,6.3E1,3E1,6E0,5.1E1,1.2E1,4E1,2.3E1,9E0,2.1E1,4.1E1,1E1,9E0,3E0,2E1,2E1,2E1,3E0,1.5E1,6E0],"tree_param":{"num_deleted":"0","num_feature":"19","num_nodes":"33","size_leaf_vector":"1"}},{"base_weights":[3.556053E-1,-5.5924416E0,4.214376E0,9.738461E-1,-8.574764E0,-1.7059143E1,6.652899E0,-1.979189E0,1.6684126E0,-6.7265024E0,-6.485925E-1,-1.0398364E0,-4.9193856E-1,8.945004E0,4.7185926E0,-1.2056285E-1,-4.2702906E-2,3.7139875E-1,1.16527155E-1,-7.2380223E0,-1.8828664E0,4.1609254E0,9.99354E0,-1.7249104E0,5.1032367E0,-2.6015624E-1,8.2236296E-1,-6.0802054E0,-5.805567E-1,-1.2806237E-1,1.8266449E-2,4.7238126E0,-2.0126496E-2,1.0620057E1,5.777029E0,-0E0,-1.14355005E-1,3.3516126E0,7.9959984E0,-2.56664E-2,9.983978E-3,-2.2029934E-2,6.3662656E-2,-3.14244E-1,-6.232796E-3,3.365374E-1,8.760577E-2,5.395164E-1,1.3529822E-1,1.4891131E-1,4.2413455E-1,1.2058196E-1,3.4434915E-1,5.725836E-1,3.0369982E-1],"categories":[],"categories_nodes":[],"categories_segments":[],"categories_sizes":[],"default_left":[0,0,0,0,0,0,0,0,0,0,0,0,0,0,0,0,0,0,0,0,0,0,0,0,0,0,0,0,0,0,0,0,0,0,0,0,0,0,0,0,0,0,0,0,0,0,0,0,0,0,0,0,0,0,0],"id":5,"left_children":[1,3,5,7,9,11,13,15,17,19,-1,-1,-1,21,23,-1,-1,25,-1,27,29,31,33,35,37,39,41,43,-1,-1,-1,45,-1,47,49,-1,-1,51,53,-1,-1,-1,-1,-1,-1,-1,-1,-1,-1,-1,-1,-1,-1,-1,-1],"loss_changes":[4.315483E3,1.458237E3,6.0263125E3,5.2496925E1,3.2525024E2,1.16163086E2,4.1309033E2,4.478073E-2,1.6040089E1,7.960913E1,0E0,0E0,0E0,1.8775098E2,1.5289087E2,0E0,0E0,2.548633E0,0E0,9.978357E1,8.780954E0,2.8020721E1,3.475122E1,3.791215E0,2.5075244E2,5.995358E-1,3.4915433E0,3.392517E1,0E0,0E0,0E0,4.1034683E1,0E0,1.122583E1,2.6598862E1,0E0,0E0,1.0209479E2,6.1526245E1,0E0,0E0,0E0,0E0,0E0,0E0,0E0,0E0,0E0,0E0,0E0,0E0,0E0,0E0,0E0,0E0],"parents":[2147483647,0,0,1,1,2,2,3,3,4,4,5,5,6,6,7,7,8,8,9,9,13,13,14,14,17,17,19,19,20,20,21,21,22,22,23,23,24,24,25,25,26,26,27,27,31,31,33,33,34,34,37,37,38,38],"right_children":[2,4,6,8,10,12,14,16,18,20,-1,-1,-1,22,24,-1,-1,26,-1,28,30,32,34,36,38,40,42,44,-1,-1,-1,46,-1,48,50,-1,-1,52,54,-1,-1,-1,-1,-1,-1,-1,-1,-1,-1,-1,-1,-1,-1,-1,-1],"split_conditions":[1.44E2,2.622E1,1.4811429E1,6E1,1.852E1,9.6E0,8.9630356E1,1.4E1,2.0571428E1,1.4523143E2,-6.485925E-1,-1.0398364E0,-4.9193856E-1,1.64E2,1.728E1,-1.2056285E-1,-4.2702906E-2,1.7088E1,1.16527155E-1,1.774E1,1E0,1.0908446E3,1.76E1,5.356E2,2.15E2,9E1,8E1,4.8085712E1,-5.805567E-1,-1.2806237E-1,1.8266449E-2,1.479E1,-2.0126496E-2,2.9804E2,1E0,-0E0,-1.14355005E-1,1E0,5.068E1,-2.56664E-2,9.983978E-3,-2.2029934E-2,6.3662656E-2,-3.14244E-1,-6.232796E-3,3.365374E-1,8.760577E-2,5.395164E-1,1.3529822E-1,1.4891131E-1,4.2413455E-1,1.2058196E-1,3.4434915E-1,5.725836E-1,3.0369982E-1],"split_indices":[1,10,11,16,6,11,8,9,11,14,0,0,0,1,11,0,0,11,0,6,15,2,13,2,1,16,16,10,0,0,0,6,0,14,15,0,0,15,7,0,0,0,0,0,0,0,0,0,0,0,0,0,0,0,0],"split_type":[0,0,0,0,0,0,0,0,0,0,0,0,0,0,0,0,0,0,0,0,0,0,0,0,0,0,0,0,0,0,0,0,0,0,0,0,0,0,0,0,0,0,0,0,0,0,0,0,0,0,0,0,0,0,0],"sum_hessian":[1.86E2,7.3E1,1.13E2,2.3E1,5E1,1.1E1,1.02E2,4E0,1.9E1,3.7E1,1.3E1,6E0,5E0,4.5E1,5.7E1,2E0,2E0,7E0,1.2E1,3.3E1,4E0,9E0,3.6E1,3E0,5.4E1,3E0,4E0,2.8E1,5E0,3E0,1E0,8E0,1E0,3E1,6E0,1E0,2E0,3.5E1,1.9E1,2E0,1E0,1E0,3E0,2.7E1,1E0,4E0,4E0,2.9E1,1E0,4E0,2E0,2.9E1,6E0,5E0,1.4E1],"tree_param":{"num_deleted":"0","num_feature":"19","num_nodes":"55","size_leaf_vector":"1"}},{"base_weights":[5.686232E-1,-5.313768E0,3.9783268E0,-8.558717E0,2.1649851E-1,-1.3814398E1,6.252598E0,-5.8884125E0,-1.1638082E1,-1.7107147E0,1.6220217E0,-8.095938E-1,-2.1960528E-1,7.680939E0,3.717384E0,-6.2861676E0,-3.0997105E0,-6.619715E-1,-4.8066907E0,-1.6572379E-1,-6.8249494E-1,-4.1279513E-2,2.0697765E0,4.281915E0,8.744822E0,2.8623116E0,7.080946E0,-3.2806036E-1,-1.2536047E-1,1.6844425E-2,-4.0680823E0,1.7809829E-2,-3.1057307E-1,-1.4794819E0,4.593626E-1,-1.646391E-2,2.305471E0,2.873921E-1,2.6709821E0,9.29937E0,5.35902E0,2.0473995E0,6.035697E0,3.782558E-1,1.0189807E-1,-2.3295617E-1,-5.4874003E-2,-8.209141E-2,-1.825243E-2,3.634215E-2,-6.0769655E-3,5.312069E-2,1.2953332E-1,1.492496E-1,4.5498125E-2,4.9389932E-1,3.1309924E-1,3.2428037E-2,2.927129E-1,-1.6077308E-2,1.1805411E-1,3.699964E-1,1.08574525E-1],"categories":[],"categories_nodes":[],"categories_segments":[],"categories_sizes":[],"default_left":[0,0,0,0,0,0,0,0,0,0,0,0,0,0,0,0,0,0,0,0,0,0,0,0,0,0,0,0,0,0,0,0,0,0,0,0,0,0,0,0,0,0,0,0,0,0,0,0,0,0,0,0,0,0,0,0,0,0,0,0,0,0,0],"id":6,"left_children":[1,3,5,7,9,11,13,15,17,19,21,-1,-1,23,25,27,29,-1,31,-1,33,-1,35,37,39,41,43,-1,-1,-1,45,-1,-1,47,49,-1,51,-1,53,55,57,59,61,-1,-1,-1,-1,-1,-1,-1,-1,-1,-1,-1,-1,-1,-1,-1,-1,-1,-1,-1,-1],"loss_changes":[3.5510752E3,1.1691403E3,4.617753E3,2.66854E2,7.048452E1,2.1804199E2,3.3242212E2,6.1973267E0,1.3146753E2,1.5477394E1,1.827216E1,0E0,0E0,1.8907104E2,8.8029175E1,3.4301147E0,1.8383144E1,0E0,3.90614E1,0E0,8.0619955E0,0E0,8.307533E0,2.3951385E1,3.6945557E1,6.958719E1,7.1395874E-1,0E0,0E0,0E0,1.3340378E0,0E0,0E0,1.0458565E-1,7.703899E-1,0E0,1.1364937E0,0E0,2.4240417E0,5.0720215E0,1.6548035E1,2.1026772E1,1.4604004E1,0E0,0E0,0E0,0E0,0E0,0E0,0E0,0E0,0E0,0E0,0E0,0E0,0E0,0E0,0E0,0E0,0E0,0E0,0E0,0E0],"parents":[2147483647,0,0,1,1,2,2,3,3,4,4,5,5,6,6,7,7,8,8,9,9,10,10,13,13,14,14,15,15,16,16,18,18,20,20,22,22,23,23,24,24,25,25,26,26,30,30,33,33,34,34,36,36,38,38,39,39,40,40,41,41,42,42],"right_children":[2,4,6,8,10,12,14,16,18,20,22,-1,-1,24,26,28,30,-1,32,-1,34,-1,36,38,40,42,44,-1,-1,-1,46,-1,-1,48,50,-1,52,-1,54,56,58,60,62,-1,-1,-1,-1,-1,-1,-1,-1,-1,-1,-1,-1,-1,-1,-1,-1,-1,-1,-1,-1],"split_conditions":[1.44E2,4.27E2,8E0,4.1674286E1,1.4E1,1.2816E1,9.6525E1,1E0,1E0,1.44E1,6E1,-8.095938E-1,-2.1960528E-1,1.68E2,1E1,1.5E2,5.2714287E1,-6.619715E-1,6.442857E1,-1.6572379E-1,9E1,-4.1279513E-2,9.15E1,1.3214285E2,2.58E2,1E0,1.9285715E2,-3.2806036E-1,-1.2536047E-1,1.6844425E-2,1.11E2,1.7809829E-2,-3.1057307E-1,8E1,5.3E2,-1.646391E-2,1.704837E1,2.873921E-1,1.5714285E2,4.1965714E1,1.4285715E2,1.8E2,1.8E2,3.782558E-1,1.0189807E-1,-2.3295617E-1,-5.4874003E-2,-8.209141E-2,-1.825243E-2,3.634215E-2,-6.0769655E-3,5.312069E-2,1.2953332E-1,1.492496E-1,4.5498125E-2,4.9389932E-1,3.1309924E-1,3.2428037E-2,2.927129E-1,-1.6077308E-2,1.1805411E-1,3.699964E-1,1.08574525E-1],"split_indices":[1,0,9,10,9,11,8,15,15,11,16,0,0,1,9,4,5,0,5,0,16,0,4,4,0,15,4,0,0,0,1,0,0,16,0,0,10,0,4,10,4,0,4,0,0,0,0,0,0,0,0,0,0,0,0,0,0,0,0,0,0,0,0],"split_type":[0,0,0,0,0,0,0,0,0,0,0,0,0,0,0,0,0,0,0,0,0,0,0,0,0,0,0,0,0,0,0,0,0,0,0,0,0,0,0,0,0,0,0,0,0,0,0,0,0,0,0,0,0,0,0,0,0,0,0,0,0,0,0],"sum_hessian":[1.75E2,6.4E1,1.11E2,4E1,2.4E1,1.2E1,9.9E1,2.3E1,1.7E1,1E1,1.4E1,9E0,3E0,6.2E1,3.7E1,1.9E1,4E0,1.3E1,4E0,3E0,7E0,2E0,1.2E1,1.6E1,4.6E1,3.1E1,6E0,1.7E1,2E0,1E0,3E0,1E0,3E0,4E0,3E0,1E0,1.1E1,7E0,9E0,3.8E1,8E0,2.6E1,5E0,5E0,1E0,2E0,1E0,3E0,1E0,2E0,1E0,3E0,8E0,7E0,2E0,3E1,8E0,1E0,7E0,3E0,2.3E1,3E0,2E0],"tree_param":{"num_deleted":"0","num_feature":"19","num_nodes":"63","size_leaf_vector":"1"}},{"base_weights":[-1.6889831E-1,-5.454666E0,3.3391242E0,6.232215E-1,-7.6893406E0,-4.5741014E0,5.936877E0,-1.1075204E-1,1.2602702E0,-5.773218E0,-5.644408E-1,6.8007097E0,-1.56293335E1,4.7985764E0,1.0618828E1,1.6257054E0,-9.5366234E-1,-7.6025257E0,-3.9246454E0,4.6637988E-1,2.9270225E0,-2.960619E-1,-8.864805E-1,6.834278E0,3.2511206E0,1.1233732E1,2.1906488E-1,-1.6052304E-2,1.7948338E0,-8.2850516E-2,8.825837E-3,-4.301774E0,-4.7364375E-1,-2.4187993E-1,-1.523791E0,1.9899593E-1,1.6318843E-1,4.443481E-1,2.844952E0,2.5239942E0,2.5850502E-1,1.5181671E-1,5.827744E-1,9.972596E-2,3.859952E-2,-2.512223E-1,1.6423283E-2,-1.1904585E-1,1.8967478E-2,1.2795696E-2,-0E0,3.0922089E-2,1.4978795E-1,1.3682042E-1,-1.6866976E-2],"categories":[],"categories_nodes":[],"categories_segments":[],"categories_sizes":[],"default_left":[0,0,0,0,0,0,0,0,0,0,0,0,0,0,0,0,0,0,0,0,0,0,0,0,0,0,0,0,0,0,0,0,0,0,0,0,0,0,0,0,0,0,0,0,0,0,0,0,0,0,0,0,0,0,0],"id":7,"left_children":[1,3,5,7,9,11,13,-1,15,17,-1,19,21,23,25,27,29,31,33,-1,35,-1,-1,37,39,41,-1,-1,43,-1,-1,45,-1,-1,47,-1,49,-1,51,53,-1,-1,-1,-1,-1,-1,-1,-1,-1,-1,-1,-1,-1,-1,-1],"loss_changes":[3.3004639E3,9.698279E2,2.2268489E3,3.88583E1,2.9176685E2,3.5024556E3,3.791897E2,0E0,1.537141E1,9.074805E1,0E0,1.08509705E2,1.7810913E2,1.8783301E2,6.7525635E0,5.662365E0,2.8252666E0,6.2822876E1,3.5829712E1,0E0,1.9306416E1,0E0,0E0,2.0283093E2,4.1994904E1,8.085571E0,0E0,0E0,1.0430565E0,0E0,0E0,2.8889114E1,0E0,0E0,1.2521976E1,0E0,5.1092483E-2,0E0,1.4793777E0,2.0004425E1,0E0,0E0,0E0,0E0,0E0,0E0,0E0,0E0,0E0,0E0,0E0,0E0,0E0,0E0,0E0],"parents":[2147483647,0,0,1,1,2,2,3,3,4,4,5,5,6,6,8,8,9,9,11,11,12,12,13,13,14,14,15,15,16,16,17,17,18,18,20,20,23,23,24,24,25,25,28,28,31,31,34,34,36,36,38,38,39,39],"right_children":[2,4,6,8,10,12,14,-1,16,18,-1,20,22,24,26,28,30,32,34,-1,36,-1,-1,38,40,42,-1,-1,44,-1,-1,46,-1,-1,48,-1,50,-1,52,54,-1,-1,-1,-1,-1,-1,-1,-1,-1,-1,-1,-1,-1,-1,-1],"split_conditions":[1.44E2,2.622E1,1.8E2,6E1,4.3811428E1,5.356E2,4E1,-1.1075204E-1,2.496E1,2.8E2,-5.644408E-1,5.308E2,5.394E2,2.16E2,1.8E2,9.15E1,8E1,1.3714285E2,1.4535715E2,4.6637988E-1,5.351E2,-2.960619E-1,-8.864805E-1,1.5428572E2,1.85E2,1.1496154E2,2.1906488E-1,-1.6052304E-2,2.2204E1,-8.2850516E-2,8.825837E-3,4E1,-4.7364375E-1,-2.4187993E-1,4E1,1.9899593E-1,5.354E2,4.443481E-1,1.9E2,1.0908446E3,2.5850502E-1,1.5181671E-1,5.827744E-1,9.972596E-2,3.859952E-2,-2.512223E-1,1.6423283E-2,-1.1904585E-1,1.8967478E-2,1.2795696E-2,-0E0,3.0922089E-2,1.4978795E-1,1.3682042E-1,-1.6866976E-2],"split_indices":[1,10,0,16,10,2,16,0,10,0,0,2,2,0,4,4,16,4,4,0,2,0,0,4,1,4,0,0,10,0,0,16,0,0,16,0,2,0,0,2,0,0,0,0,0,0,0,0,0,0,0,0,0,0,0],"split_type":[0,0,0,0,0,0,0,0,0,0,0,0,0,0,0,0,0,0,0,0,0,0,0,0,0,0,0,0,0,0,0,0,0,0,0,0,0,0,0,0,0,0,0,0,0,0,0,0,0,0,0,0,0,0,0],"sum_hessian":[1.76E2,7E1,1.06E2,1.9E1,5.1E1,2.6E1,8E1,3E0,1.6E1,3.5E1,1.6E1,1.3E1,1.3E1,6.6E1,1.4E1,1.4E1,2E0,1.6E1,1.9E1,7E0,6E0,3E0,1E1,2.7E1,3.9E1,1.2E1,2E0,1E0,1.3E1,1E0,1E0,7E0,9E0,1.3E1,6E0,4E0,2E0,1.7E1,1E1,3E1,9E0,1E0,1.1E1,1E1,3E0,6E0,1E0,4E0,2E0,1E0,1E0,1E0,9E0,2.8E1,2E0],"tree_param":{"num_deleted":"0","num_feature":"19","num_nodes":"55","size_leaf_vector":"1"}},{"base_weights":[1.863532E-1,-1.6434132E1,1.3873138E0,-9.901101E-1,-4.8745131E-1,-4.547587E0,5.450808E0,6.222907E-1,-7.035839E0,6.860387E0,2.7907014E0,-1.4226089E0,1.4335852E0,-5.263275E0,-5.561432E-1,3.2240093E0,8.0032625E0,-3.3448844E0,3.4528725E0,-1.09245084E-1,-1.3983183E-2,2.7198486E-2,1.856535E0,3.1859973E-3,-5.4296603E0,3.7257626E0,-3.260938E-1,4.1882655E-1,5.0773554E0,-3.8286265E-2,-1.9580147E-1,1.7766794E0,4.5891895E0,-1.5650997E-2,1.0775404E-2,2.2703229E-2,9.636178E-2,-7.5733215E-2,-2.8836688E-1,2.3234105E-1,7.76519E-2,-2.6386414E-2,-0E0,3.4355125E-1,7.704648E-2,3.4220472E-2,1.3171822E-1,1.0774058E-1,2.544018E-1],"categories":[],"categories_nodes":[],"categories_segments":[],"categories_sizes":[],"default_left":[0,0,0,0,0,0,0,0,0,0,0,0,0,0,0,0,0,0,0,0,0,0,0,0,0,0,0,0,0,0,0,0,0,0,0,0,0,0,0,0,0,0,0,0,0,0,0,0,0],"id":8,"left_children":[1,3,5,-1,-1,7,9,11,13,15,17,19,21,23,-1,25,27,29,31,-1,-1,33,35,-1,37,39,41,-1,43,-1,-1,45,47,-1,-1,-1,-1,-1,-1,-1,-1,-1,-1,-1,-1,-1,-1,-1,-1],"loss_changes":[3.5543115E3,7.418384E1,4.028207E3,0E0,0E0,8.797689E2,3.5110254E2,4.0197887E1,2.7306665E2,2.3905396E2,1.5782135E2,5.2413206E0,9.8732605E0,3.1017883E1,0E0,3.1836594E1,8.547119E0,2.425518E0,5.4064545E1,0E0,0E0,3.780391E-1,1.7580414E-1,0E0,3.4162415E1,2.2181442E1,2.3798275E-1,0E0,3.9316467E1,0E0,0E0,1.1917496E1,1.1385193E1,0E0,0E0,0E0,0E0,0E0,0E0,0E0,0E0,0E0,0E0,0E0,0E0,0E0,0E0,0E0,0E0],"parents":[2147483647,0,0,1,1,2,2,5,5,6,6,7,7,8,8,9,9,10,10,11,11,12,12,13,13,15,15,16,16,17,17,18,18,21,21,22,22,24,24,25,25,26,26,28,28,31,31,32,32],"right_children":[2,4,6,-1,-1,8,10,12,14,16,18,20,22,24,-1,26,28,30,32,-1,-1,34,36,-1,38,40,42,-1,44,-1,-1,46,48,-1,-1,-1,-1,-1,-1,-1,-1,-1,-1,-1,-1,-1,-1,-1,-1],"split_conditions":[1.2816E1,8.528E0,1.44E2,-9.901101E-1,-4.8745131E-1,2.622E1,5.068E1,1.4E1,1.6107143E2,1.68E2,1.5634286E1,1.2E1,1.6104E1,5.46E2,-5.561432E-1,1.0908446E3,4.3811428E1,5.388E2,1.85E2,-1.09245084E-1,-1.3983183E-2,9.15E1,1.0306896E2,3.1859973E-3,9.6796106E2,1.3621286E2,1.1628571E2,4.1882655E-1,9.6796106E2,-3.8286265E-2,-1.9580147E-1,9.72E2,5.304E1,-1.5650997E-2,1.0775404E-2,2.2703229E-2,9.636178E-2,-7.5733215E-2,-2.8836688E-1,2.3234105E-1,7.76519E-2,-2.6386414E-2,-0E0,3.4355125E-1,7.704648E-2,3.4220472E-2,1.3171822E-1,1.0774058E-1,2.544018E-1],"split_indices":[11,11,1,0,0,10,7,9,4,1,11,9,10,3,0,2,10,2,1,0,0,4,4,0,2,14,4,0,2,0,0,2,7,0,0,0,0,0,0,0,0,0,0,0,0,0,0,0,0],"split_type":[0,0,0,0,0,0,0,0,0,0,0,0,0,0,0,0,0,0,0,0,0,0,0,0,0,0,0,0,0,0,0,0,0,0,0,0,0,0,0,0,0,0,0,0,0,0,0,0,0],"sum_hessian":[1.76E2,1.1E1,1.65E2,6E0,5E0,6.7E1,9.8E1,2.2E1,4.5E1,6.3E1,3.5E1,6E0,1.6E1,3.3E1,1.2E1,1.6E1,4.7E1,3E0,3.2E1,3E0,3E0,4E0,1.2E1,1E0,3.2E1,1.4E1,2E0,4E1,7E0,1E0,2E0,1.4E1,1.8E1,1E0,3E0,1E0,1.1E1,3E0,2.9E1,9E0,5E0,1E0,1E0,4E0,3E0,7E0,7E0,4E0,1.4E1],"tree_param":{"num_deleted":"0","num_feature":"19","num_nodes":"49","size_leaf_vector":"1"}},{"base_weights":[1.418279E-1,-4.805603E0,3.6364183E0,6.5282685E-1,-6.7340493E0,-1.2530459E1,5.3970165E0,-1.7727147E0,1.3337022E0,-5.075928E0,-1.065949E1,-7.0210314E-1,-1.8927477E-1,4.583936E0,4.5217043E-1,-1.0806209E-1,-7.599495E-1,-2.2030232E-2,1.6063168E0,-5.4605346E0,-1.1177319E0,-5.769851E-1,-2.5544626E-1,6.0699463E0,2.9864042E0,-8.703004E-3,-4.579321E-2,2.4283421E-1,1.7897115E0,-4.857339E0,-4.6741816E-1,-8.3158046E-2,2.4099598E-2,8.441009E0,3.2921689E0,2.3704147E0,2.2488956E-1,-2.0042285E-2,4.075485E-2,2.21356E-2,9.2836775E-2,-2.6011053E-1,-8.638346E-2,4.3138385E-1,1.1052453E-1,3.6138237E-1,9.67568E-2,1.2817527E-1,-1.586492E-2],"categories":[],"categories_nodes":[],"categories_segments":[],"categories_sizes":[],"default_left":[0,0,0,0,0,0,0,0,0,0,0,0,0,0,0,0,0,0,0,0,0,0,0,0,0,0,0,0,0,0,0,0,0,0,0,0,0,0,0,0,0,0,0,0,0,0,0,0,0],"id":9,"left_children":[1,3,5,7,9,11,13,15,17,19,21,-1,-1,23,-1,-1,25,-1,27,29,31,-1,-1,33,35,-1,-1,37,39,41,-1,-1,-1,43,45,47,-1,-1,-1,-1,-1,-1,-1,-1,-1,-1,-1,-1,-1],"loss_changes":[3.2158687E3,8.155287E2,3.1694219E3,3.7001698E1,3.1532422E2,9.0468994E1,2.5069897E2,3.2878876E-2,9.047253E0,5.717749E1,1.7550415E1,0E0,0E0,1.7800488E2,0E0,0E0,5.6385994E-3,0E0,3.112976E0,4.2285767E1,5.282426E0,0E0,0E0,2.4766125E2,2.775351E1,0E0,0E0,1.4732156E0,1.21707916E-1,2.8096008E1,0E0,0E0,0E0,5.4316406E0,9.724928E1,1.7645126E1,0E0,0E0,0E0,0E0,0E0,0E0,0E0,0E0,0E0,0E0,0E0,0E0,0E0],"parents":[2147483647,0,0,1,1,2,2,3,3,4,4,5,5,6,6,7,7,8,8,9,9,10,10,13,13,16,16,18,18,19,19,20,20,23,23,24,24,27,27,28,28,29,29,33,33,34,34,35,35],"right_children":[2,4,6,8,10,12,14,16,18,20,22,-1,-1,24,-1,-1,26,-1,28,30,32,-1,-1,34,36,-1,-1,38,40,42,-1,-1,-1,44,46,48,-1,-1,-1,-1,-1,-1,-1,-1,-1,-1,-1,-1,-1],"split_conditions":[1.44E2,2.622E1,8E0,6E1,1.6107143E2,1.2816E1,1E0,1.4E1,1.7088E1,1.4523143E2,1E0,-7.0210314E-1,-1.8927477E-1,2.16E2,4.5217043E-1,-1.0806209E-1,1.6E1,-2.2030232E-2,1.4E1,1.5428572E2,1E0,-5.769851E-1,-2.5544626E-1,9.025714E1,1.85E2,-8.703004E-3,-4.579321E-2,8E1,1.0306896E2,1.5E2,-4.6741816E-1,-8.3158046E-2,2.4099598E-2,4.8085712E1,5.327E2,1.0908446E3,2.2488956E-1,-2.0042285E-2,4.075485E-2,2.21356E-2,9.2836775E-2,-2.6011053E-1,-8.638346E-2,4.3138385E-1,1.1052453E-1,3.6138237E-1,9.67568E-2,1.2817527E-1,-1.586492E-2],"split_indices":[1,10,9,16,4,11,15,9,11,14,15,0,0,0,0,0,9,0,9,4,15,0,0,8,1,0,0,16,4,4,0,0,0,10,2,2,0,0,0,0,0,0,0,0,0,0,0,0,0],"split_type":[0,0,0,0,0,0,0,0,0,0,0,0,0,0,0,0,0,0,0,0,0,0,0,0,0,0,0,0,0,0,0,0,0,0,0,0,0,0,0,0,0,0,0,0,0,0,0,0,0],"sum_hessian":[1.84E2,7.6E1,1.08E2,2E1,5.6E1,1E1,9.8E1,4E0,1.6E1,4.1E1,1.5E1,8E0,2E0,8.2E1,1.6E1,2E0,2E0,2E0,1.4E1,3.7E1,4E0,1.2E1,3E0,4.1E1,4.1E1,1E0,1E0,2E0,1.2E1,3.4E1,3E0,3E0,1E0,2.1E1,2E1,3.1E1,1E1,1E0,1E0,1E0,1.1E1,3E1,4E0,2E1,1E0,4E0,1.6E1,2.9E1,2E0],"tree_param":{"num_deleted":"0","num_feature":"19","num_nodes":"49","size_leaf_vector":"1"}},{"base_weights":[-9.444973E-2,-1.5382794E1,5.8124757E-1,-9.2177725E-1,-3.8480788E-1,4.668535E0,-2.7014408E0,-1.8518913E-1,5.039314E0,-4.718722E0,-1.8472001E-1,6.6905055E0,3.805751E0,-2.2636862E0,-7.4605436E0,3.9237186E-1,-3.1836388E-1,4.2043343E-1,4.1760087E0,5.284789E0,2.0282857E0,2.3103733E0,-6.7025156E0,-3.8185527E0,-5.691494E-1,3.2949378E0,-4.6992314E-1,2.3045433E-1,9.038866E-2,-3.272232E-2,2.9170233E-1,1.0935036E-1,1.039032E-2,1.5857242E-1,3.6796343E-2,-2.0888439E-1,-4.3463165E-1,-2.113986E-1,-8.053282E-2,3.361183E-1,-1.7508982E-1,-1.24982655E-1,5.3543527E-2],"categories":[],"categories_nodes":[],"categories_segments":[],"categories_sizes":[],"default_left":[0,0,0,0,0,0,0,0,0,0,0,0,0,0,0,0,0,0,0,0,0,0,0,0,0,0,0,0,0,0,0,0,0,0,0,0,0,0,0,0,0,0,0],"id":10,"left_children":[1,3,5,-1,-1,7,9,-1,11,13,15,17,19,21,23,25,-1,-1,27,29,31,33,35,37,-1,39,41,-1,-1,-1,-1,-1,-1,-1,-1,-1,-1,-1,-1,-1,-1,-1,-1],"loss_changes":[1.9525164E3,4.322693E1,2.4413384E3,0E0,0E0,2.702445E2,5.1140826E2,0E0,1.3236218E2,3.590902E2,1.672194E2,1.0187695E2,1.1210974E2,6.453321E2,3.2643652E2,1.0945419E2,0E0,0E0,6.4105835E0,8.589026E1,5.9518814E0,1.8966774E1,4.279309E1,6.1656647E0,0E0,2.568156E2,1.0915112E2,0E0,0E0,0E0,0E0,0E0,0E0,0E0,0E0,0E0,0E0,0E0,0E0,0E0,0E0,0E0,0E0],"parents":[2147483647,0,0,1,1,2,2,5,5,6,6,8,8,9,9,10,10,11,11,12,12,13,13,14,14,15,15,18,18,19,19,20,20,21,21,22,22,23,23,25,25,26,26],"right_children":[2,4,6,-1,-1,8,10,-1,12,14,16,18,20,22,24,26,-1,-1,28,30,32,34,36,38,-1,40,42,-1,-1,-1,-1,-1,-1,-1,-1,-1,-1,-1,-1,-1,-1,-1,-1],"split_conditions":[1.2816E1,4E0,2.52E2,-9.2177725E-1,-3.8480788E-1,8E0,1E0,-1.8518913E-1,1.4066464E2,2.8E2,3.2E1,2.16E2,9.73E2,1.0266499E3,1.6107143E2,2.73E2,-3.1836388E-1,4.2043343E-1,1.081E3,1.728E1,1.0908446E3,1.6107143E2,5.657143E1,1.5321428E2,-5.691494E-1,9.73E2,1.2E1,2.3045433E-1,9.038866E-2,-3.272232E-2,2.9170233E-1,1.0935036E-1,1.039032E-2,1.5857242E-1,3.6796343E-2,-2.0888439E-1,-4.3463165E-1,-2.113986E-1,-8.053282E-2,3.361183E-1,-1.7508982E-1,-1.24982655E-1,5.3543527E-2],"split_indices":[11,9,0,0,0,9,15,0,14,0,11,0,2,2,4,0,0,0,2,11,2,4,5,4,0,2,9,0,0,0,0,0,0,0,0,0,0,0,0,0,0,0,0],"split_type":[0,0,0,0,0,0,0,0,0,0,0,0,0,0,0,0,0,0,0,0,0,0,0,0,0,0,0,0,0,0,0,0,0,0,0,0,0,0,0,0,0,0,0],"sum_hessian":[1.87E2,7E0,1.8E2,4E0,3E0,8E1,1E2,3E0,7.7E1,5.5E1,4.5E1,3.1E1,4.6E1,3E1,2.5E1,4.2E1,3E0,1.7E1,1.4E1,2.4E1,2.2E1,1.5E1,1.5E1,1.4E1,1.1E1,9E0,3.3E1,1.1E1,3E0,2E0,2.2E1,2E1,2E0,9E0,6E0,8E0,7E0,1.1E1,3E0,6E0,3E0,1.4E1,1.9E1],"tree_param":{"num_deleted":"0","num_feature":"19","num_nodes":"43","size_leaf_vector":"1"}},{"base_weights":[-1.8162565E-2,-1.5580924E1,9.5399857E-1,-8.819176E-1,-4.030098E-1,-4.623232E0,4.8197165E0,-6.3295407E0,-6.3966975E-2,5.8499794E0,2.5007877E0,-4.9906154E0,-9.542753E0,-2.2380745E0,1.1039345E0,2.7061758E0,6.6579614E0,-1.9892361E0,3.2433555E0,-6.385465E0,-2.8417115E0,-5.09247E-1,-1.9869103E-1,-1.6129549E-1,-1.1777585E0,-2.8749523E-1,1.560113E0,1.6843556E0,2.5350463E-1,5.8443546E0,4.699656E-1,-6.0174563E-3,-1.2006853E-1,1.0809978E-1,2.764418E-1,-2.3961365E-1,-4.7765335E-1,-1.761787E-1,2.9884626E-3,-7.6374605E-2,-2.0105273E-2,-4.6431262E-2,3.8397368E-2,5.4831564E-2,1.1213466E-1,-0E0,1.11988954E-1,3.10572E-1,9.328196E-2],"categories":[],"categories_nodes":[],"categories_segments":[],"categories_sizes":[],"default_left":[0,0,0,0,0,0,0,0,0,0,0,0,0,0,0,0,0,0,0,0,0,0,0,0,0,0,0,0,0,0,0,0,0,0,0,0,0,0,0,0,0,0,0,0,0,0,0,0,0],"id":11,"left_children":[1,3,5,-1,-1,7,9,11,13,15,17,19,21,23,25,27,29,31,33,35,37,-1,-1,-1,39,41,43,45,-1,47,-1,-1,-1,-1,-1,-1,-1,-1,-1,-1,-1,-1,-1,-1,-1,-1,-1,-1,-1],"loss_changes":[2.5732144E3,9.995117E0,3.4719026E3,0E0,0E0,5.1240356E2,2.1150024E2,1.5743054E2,5.0827827E1,1.4615503E2,1.0993581E2,8.883795E1,4.602783E0,3.0922127E0,8.827411E0,2.7017189E1,5.7291992E1,3.309988E0,5.4006104E1,5.8763123E1,3.2211533E1,0E0,0E0,0E0,5.491867E-1,3.435907E0,3.7029457E-1,1.1104847E1,0E0,4.8946167E1,0E0,0E0,0E0,0E0,0E0,0E0,0E0,0E0,0E0,0E0,0E0,0E0,0E0,0E0,0E0,0E0,0E0,0E0,0E0],"parents":[2147483647,0,0,1,1,2,2,5,5,6,6,7,7,8,8,9,9,10,10,11,11,12,12,13,13,14,14,15,15,16,16,17,17,18,18,19,19,20,20,24,24,25,25,26,26,27,27,29,29],"right_children":[2,4,6,-1,-1,8,10,12,14,16,18,20,22,24,26,28,30,32,34,36,38,-1,-1,-1,40,42,44,46,-1,48,-1,-1,-1,-1,-1,-1,-1,-1,-1,-1,-1,-1,-1,-1,-1,-1,-1,-1,-1],"split_conditions":[1.28E1,8.528E0,1.44E2,-8.819176E-1,-4.030098E-1,1.2768E3,1.6714285E2,1.6107143E2,1.7088E1,1.64E2,1.728E1,1.23E2,1E0,8E1,1.4E1,1E0,1E0,5.356E2,2.25E2,1.4464285E2,1E0,-5.09247E-1,-1.9869103E-1,-1.6129549E-1,1E1,8E1,1E0,1.48E2,2.5350463E-1,1.6107143E2,4.699656E-1,-6.0174563E-3,-1.2006853E-1,1.0809978E-1,2.764418E-1,-2.3961365E-1,-4.7765335E-1,-1.761787E-1,2.9884626E-3,-7.6374605E-2,-2.0105273E-2,-4.6431262E-2,3.8397368E-2,5.4831564E-2,1.1213466E-1,-0E0,1.11988954E-1,3.10572E-1,9.328196E-2],"split_indices":[11,11,1,0,0,2,4,4,11,1,11,1,15,16,9,15,15,2,1,4,15,0,0,0,9,16,17,1,0,4,0,0,0,0,0,0,0,0,0,0,0,0,0,0,0,0,0,0,0],"split_type":[0,0,0,0,0,0,0,0,0,0,0,0,0,0,0,0,0,0,0,0,0,0,0,0,0,0,0,0,0,0,0,0,0,0,0,0,0,0,0,0,0,0,0,0,0,0,0,0,0],"sum_hessian":[1.68E2,9E0,1.59E2,6E0,3E0,6.5E1,9.4E1,4.7E1,1.8E1,6.4E1,3E1,3.5E1,1.2E1,6E0,1.2E1,1.4E1,5E1,4E0,2.6E1,2E1,1.5E1,1E1,2E0,2E0,4E0,3E0,9E0,1.1E1,3E0,4.1E1,9E0,1E0,3E0,1.9E1,7E0,1.5E1,5E0,1.2E1,3E0,2E0,2E0,2E0,1E0,7E0,2E0,3E0,8E0,3.7E1,4E0],"tree_param":{"num_deleted":"0","num_feature":"19","num_nodes":"49","size_leaf_vector":"1"}},{"base_weights":[-2.4827625E-1,-1.3901641E1,6.4657664E-1,-8.6247635E-1,-4.110074E-1,4.7159157E0,-2.7652242E0,6.812869E0,2.98609E0,-4.602802E0,8.8007346E-2,8.064355E0,4.4418645E0,-2.628529E0,3.775875E0,-2.4789298E0,-6.357527E0,1.5152817E0,-3.0034208E0,4.1385818E-1,9.270455E-2,4.7452903E0,9.9333385E-3,-5.9060365E-1,-1.7374204E-1,3.0209962E-1,4.274898E0,-4.456928E0,1.9611691E0,-3.7898753E0,-5.2194685E-1,6.4952606E-1,3.9514494E-1,1.1207029E0,-5.2180705E0,2.5300655E-1,9.878894E-2,-5.8670617E-3,-3.5928212E-2,-6.493597E-3,4.0534757E-2,2.9309323E-1,1.3541237E-1,1.1139901E-1,-3.5053393E-1,-6.4608003E-3,1.2955837E-1,-2.1257599E-1,-7.6731935E-2,-8.01815E-2,9.412905E-2,-2.3355861E-1,1.8807323E-1,-3.0423945E-1,1.8723926E-2],"categories":[],"categories_nodes":[],"categories_segments":[],"categories_sizes":[],"default_left":[0,0,0,0,0,0,0,0,0,0,0,0,0,0,0,0,0,0,0,0,0,0,0,0,0,0,0,0,0,0,0,0,0,0,0,0,0,0,0,0,0,0,0,0,0,0,0,0,0,0,0,0,0,0,0],"id":12,"left_children":[1,3,5,-1,-1,7,9,11,13,15,17,19,21,23,25,27,29,31,33,-1,-1,35,-1,37,-1,39,41,43,45,47,-1,49,-1,51,53,-1,-1,-1,-1,-1,-1,-1,-1,-1,-1,-1,-1,-1,-1,-1,-1,-1,-1,-1,-1],"loss_changes":[2.185074E3,6.489014E1,2.3457097E3,0E0,0E0,2.5798328E2,4.8321588E2,6.3816162E1,2.0515082E2,1.9205786E2,1.676579E2,1.1393921E1,1.658783E1,7.8895226E0,6.585712E1,2.4611803E2,2.7340393E2,1.377946E2,1.1585952E2,0E0,0E0,6.3409424E-1,0E0,1.3769031E-2,0E0,1.4915617E0,6.7799194E1,3.404582E2,1.243346E1,1.3719177E1,0E0,6.972521E1,0E0,9.395429E1,4.1626953E1,0E0,0E0,0E0,0E0,0E0,0E0,0E0,0E0,0E0,0E0,0E0,0E0,0E0,0E0,0E0,0E0,0E0,0E0,0E0,0E0],"parents":[2147483647,0,0,1,1,2,2,5,5,6,6,7,7,8,8,9,9,10,10,11,11,12,12,13,13,14,14,15,15,16,16,17,17,18,18,21,21,23,23,25,25,26,26,27,27,28,28,29,29,31,31,33,33,34,34],"right_children":[2,4,6,-1,-1,8,10,12,14,16,18,20,22,24,26,28,30,32,34,-1,-1,36,-1,38,-1,40,42,44,46,48,-1,50,-1,52,54,-1,-1,-1,-1,-1,-1,-1,-1,-1,-1,-1,-1,-1,-1,-1,-1,-1,-1,-1,-1],"split_conditions":[1.2816E1,4E0,2.52E2,-8.6247635E-1,-4.110074E-1,8.9630356E1,6E1,2.15E2,1.728E1,2.73E2,6.1285713E1,2.9804E2,8.721429E1,7.872E2,1.4193071E2,7.766E2,1.6107143E2,7.748E2,2.73E2,4.1385818E-1,9.270455E-2,1.4535715E2,9.9333385E-3,7.853E2,-1.7374204E-1,7.748E2,4.3811428E1,7.6915015E2,1.4285715E2,1.9657143E1,-5.2194685E-1,1.8285715E1,3.9514494E-1,1.5714285E2,5.44E1,2.5300655E-1,9.878894E-2,-5.8670617E-3,-3.5928212E-2,-6.493597E-3,4.0534757E-2,2.9309323E-1,1.3541237E-1,1.1139901E-1,-3.5053393E-1,-6.4608003E-3,1.2955837E-1,-2.1257599E-1,-7.6731935E-2,-8.01815E-2,9.412905E-2,-2.3355861E-1,1.8807323E-1,-3.0423945E-1,1.8723926E-2],"split_indices":[11,9,0,0,0,8,16,0,11,0,5,14,5,3,14,3,4,3,0,0,0,4,0,3,0,3,10,3,4,11,0,11,0,4,10,0,0,0,0,0,0,0,0,0,0,0,0,0,0,0,0,0,0,0,0],"split_type":[0,0,0,0,0,0,0,0,0,0,0,0,0,0,0,0,0,0,0,0,0,0,0,0,0,0,0,0,0,0,0,0,0,0,0,0,0,0,0,0,0,0,0,0,0,0,0,0,0,0,0,0,0,0,0],"sum_hessian":[1.77E2,1E1,1.67E2,5E0,5E0,7.6E1,9.1E1,3.3E1,4.3E1,5.5E1,3.6E1,2E1,1.3E1,5E0,3.8E1,2.6E1,2.9E1,2.5E1,1.1E1,1.9E1,1E0,1.2E1,1E0,2E0,3E0,5E0,3.3E1,1.8E1,8E0,1.9E1,1E1,2.3E1,2E0,4E0,7E0,1E1,2E0,1E0,1E0,3E0,2E0,1.5E1,1.8E1,5E0,1.3E1,2E0,6E0,1.5E1,4E0,8E0,1.5E1,1E0,3E0,6E0,1E0],"tree_param":{"num_deleted":"0","num_feature":"19","num_nodes":"55","size_leaf_vector":"1"}},{"base_weights":[-3.0039456E-1,-4.456433E0,2.6470928E0,5.83975E-1,-6.371379E0,-1.2432878E1,4.773384E0,-8.862918E-1,1.3895578E0,-4.431349E0,-8.526775E0,-7.7914065E-1,-3.072075E-1,3.9948597E0,7.7032413E0,-5.638487E-2,-3.7358347E-3,8.68211E-2,3.1646062E-3,-4.817471E0,-2.0672834E0,-4.6471086E-1,-1.8658262E-1,5.288405E0,2.128694E0,1.1040465E-1,7.890715E0,-3.160792E0,-5.704537E0,-1.2717167E-1,5.3366283E-3,6.9270883E0,3.4047937E0,2.6489434E0,1.0325332E0,1.1248433E-1,8.096424E0,-1.8276292E-1,4.2096768E-2,-3.0472216E-1,-1.04004934E-1,3.5400113E-1,9.038693E-2,7.227208E-2,2.800736E-1,6.558464E-2,1.7671202E-1,8.405095E-2,-3.298467E-2,4.2629763E-1,1.6799079E-1],"categories":[],"categories_nodes":[],"categories_segments":[],"categories_sizes":[],"default_left":[0,0,0,0,0,0,0,0,0,0,0,0,0,0,0,0,0,0,0,0,0,0,0,0,0,0,0,0,0,0,0,0,0,0,0,0,0,0,0,0,0,0,0,0,0,0,0,0,0,0,0],"id":13,"left_children":[1,3,5,7,9,11,13,15,17,19,21,-1,-1,23,25,-1,-1,-1,-1,27,29,-1,-1,31,33,-1,35,37,39,-1,-1,41,43,45,47,-1,49,-1,-1,-1,-1,-1,-1,-1,-1,-1,-1,-1,-1,-1,-1],"loss_changes":[2.1557048E3,7.0890344E2,3.3612153E3,2.6154736E1,1.8254028E2,1.596023E2,1.7562476E2,1.3628511E0,6.1506023E0,1.6737E1,5.233423E1,0E0,0E0,1.6663452E2,1.1022949E-1,0E0,0E0,0E0,0E0,1.7822205E1,6.72608E0,0E0,0E0,1.08107056E2,1.5145584E1,0E0,4.7790527E-1,2.513018E1,7.7033997E0,0E0,0E0,3.5367432E0,8.58882E1,1.9740707E1,1.437971E1,0E0,2.7180176E0,0E0,0E0,0E0,0E0,0E0,0E0,0E0,0E0,0E0,0E0,0E0,0E0,0E0,0E0],"parents":[2147483647,0,0,1,1,2,2,3,3,4,4,5,5,6,6,7,7,8,8,9,9,10,10,13,13,14,14,19,19,20,20,23,23,24,24,26,26,27,27,28,28,31,31,32,32,33,33,34,34,36,36],"right_children":[2,4,6,8,10,12,14,16,18,20,22,-1,-1,24,26,-1,-1,-1,-1,28,30,-1,-1,32,34,-1,36,38,40,-1,-1,42,44,46,48,-1,50,-1,-1,-1,-1,-1,-1,-1,-1,-1,-1,-1,-1,-1,-1],"split_conditions":[1.44E2,3.12E1,8E0,1.4E1,1.5428572E2,9.6E0,1E0,1.2E1,1.6E1,7.774E2,1E0,-7.7914065E-1,-3.072075E-1,2.16E2,1.85E2,-5.638487E-2,-3.7358347E-3,8.68211E-2,3.1646062E-3,5.49E1,1E0,-4.6471086E-1,-1.8658262E-1,9.025714E1,6.442857E1,1.1040465E-1,1.1496154E2,1E0,4.8085712E1,-1.2717167E-1,5.3366283E-3,4.8085712E1,1E1,1.64E2,2.59E2,1.1248433E-1,1.8E2,-1.8276292E-1,4.2096768E-2,-3.0472216E-1,-1.04004934E-1,3.5400113E-1,9.038693E-2,7.227208E-2,2.800736E-1,6.558464E-2,1.7671202E-1,8.405095E-2,-3.298467E-2,4.2629763E-1,1.6799079E-1],"split_indices":[1,10,9,9,4,11,15,9,9,3,15,0,0,0,0,0,0,0,0,5,15,0,0,8,5,0,4,15,10,0,0,10,9,1,0,0,4,0,0,0,0,0,0,0,0,0,0,0,0,0,0],"split_type":[0,0,0,0,0,0,0,0,0,0,0,0,0,0,0,0,0,0,0,0,0,0,0,0,0,0,0,0,0,0,0,0,0,0,0,0,0,0,0,0,0,0,0,0,0,0,0,0,0,0,0],"sum_hessian":[1.74E2,7.2E1,1.02E2,2E1,5.2E1,1.2E1,9E1,7E0,1.3E1,2.9E1,2.3E1,7E0,5E0,7.3E1,1.7E1,5E0,2E0,1E1,3E0,2.4E1,5E0,1.9E1,4E0,4.2E1,3.1E1,1E0,1.6E1,1E1,1.4E1,4E0,1E0,2.1E1,2.1E1,2E1,1.1E1,1E0,1.5E1,9E0,1E0,1.2E1,2E0,2E1,1E0,1.2E1,9E0,9E0,1.1E1,8E0,3E0,1.3E1,2E0],"tree_param":{"num_deleted":"0","num_feature":"19","num_nodes":"51","size_leaf_vector":"1"}},{"base_weights":[2.2673021E-1,-3.8309054E0,2.8919694E0,-8.700293E-1,-6.08363E0,-1.1471153E1,4.195847E0,-2.995322E0,8.2575554E-1,-4.6186633E0,-8.362595E0,-6.405868E-1,-2.2430372E-1,5.039957E0,1.9321493E0,-1.6439949E-1,-3.9643835E-2,-8.2036734E-1,1.7255143E0,-6.620392E0,-2.0999813E0,-1.7570709E-1,-4.434746E-1,2.024893E0,5.627127E0,-7.377469E-2,2.11671E0,4.1044388E-2,-1.2473911E0,3.547972E-2,9.870996E-2,-3.6063835E-1,-2.0107627E0,-2.6600535E0,6.2027687E-1,-3.8628826E-1,2.7968764E0,6.0141683E0,1.2537433E0,3.328684E0,1.0691849E0,-7.621811E-2,-2.1448301E-2,-1.7416316E-1,2.0855961E-2,-1.659215E-1,-5.9315782E-2,5.2032094E-3,3.881756E-2,-3.2849666E-2,8.145676E-3,2.3940726E-1,8.440205E-2,3.8480505E-1,2.5380704E-1,1.1871278E-1,-3.1242726E-2,1.1012589E-1,2.0355487E-1,-0E0,8.594718E-2],"categories":[],"categories_nodes":[],"categories_segments":[],"categories_sizes":[],"default_left":[0,0,0,0,0,0,0,0,0,0,0,0,0,0,0,0,0,0,0,0,0,0,0,0,0,0,0,0,0,0,0,0,0,0,0,0,0,0,0,0,0,0,0,0,0,0,0,0,0,0,0,0,0,0,0,0,0,0,0,0,0],"id":14,"left_children":[1,3,5,7,9,11,13,15,17,19,21,-1,-1,23,25,-1,-1,27,29,31,33,-1,-1,35,37,-1,39,-1,41,-1,-1,-1,43,45,47,49,51,53,55,57,59,-1,-1,-1,-1,-1,-1,-1,-1,-1,-1,-1,-1,-1,-1,-1,-1,-1,-1,-1,-1],"loss_changes":[1.8819055E3,4.5424426E2,2.0138179E3,1.1441558E2,9.028357E1,2.5072632E1,1.7491333E2,6.009117E0,2.8166111E1,1.1630994E2,2.0002441E0,0E0,0E0,1.1176538E2,2.0796982E1,0E0,0E0,5.972604E0,1.3624687E0,2.2803284E1,2.1659973E1,0E0,0E0,2.5519554E1,8.990857E1,0E0,3.0279709E1,0E0,5.1084805E-1,0E0,0E0,0E0,1.2484723E1,6.285843E0,7.287073E-2,7.5112796E-1,1.3349686E1,4.3274292E1,1.4288458E1,4.3893433E-1,1.125717E1,0E0,0E0,0E0,0E0,0E0,0E0,0E0,0E0,0E0,0E0,0E0,0E0,0E0,0E0,0E0,0E0,0E0,0E0,0E0,0E0],"parents":[2147483647,0,0,1,1,2,2,3,3,4,4,5,5,6,6,7,7,8,8,9,9,10,10,13,13,14,14,17,17,18,18,19,19,20,20,23,23,24,24,26,26,28,28,32,32,33,33,34,34,35,35,36,36,37,37,38,38,39,39,40,40],"right_children":[2,4,6,8,10,12,14,16,18,20,22,-1,-1,24,26,-1,-1,28,30,32,34,-1,-1,36,38,-1,40,-1,42,-1,-1,-1,44,46,48,50,52,54,56,58,60,-1,-1,-1,-1,-1,-1,-1,-1,-1,-1,-1,-1,-1,-1,-1,-1,-1,-1,-1,-1],"split_conditions":[1.44E2,5.657143E1,1.3664E1,6E1,1.6107143E2,1.0976E1,4.5462856E1,1.2E1,1.4E1,1.2E2,7.60538E2,-6.405868E-1,-2.2430372E-1,1.64E2,8E0,-1.6439949E-1,-3.9643835E-2,2.58E2,7.802321E1,4.8085712E1,4E1,-1.7570709E-1,-4.434746E-1,7.74E2,3.018916E2,-7.377469E-2,2.28E2,4.1044388E-2,1E1,3.547972E-2,9.870996E-2,-3.6063835E-1,2.64E2,1.5321428E2,3.01E2,1.3178572E2,1.2535714E2,3.6312E1,5.344E2,2.25E2,9.72E2,-7.621811E-2,-2.1448301E-2,-1.7416316E-1,2.0855961E-2,-1.659215E-1,-5.9315782E-2,5.2032094E-3,3.881756E-2,-3.2849666E-2,8.145676E-3,2.3940726E-1,8.440205E-2,3.8480505E-1,2.5380704E-1,1.1871278E-1,-3.1242726E-2,1.1012589E-1,2.0355487E-1,-0E0,8.594718E-2],"split_indices":[1,5,11,16,4,11,10,9,9,1,3,0,0,1,9,0,0,0,14,10,16,0,0,3,14,0,0,0,9,0,0,0,0,4,0,4,4,10,2,1,2,0,0,0,0,0,0,0,0,0,0,0,0,0,0,0,0,0,0,0,0],"split_type":[0,0,0,0,0,0,0,0,0,0,0,0,0,0,0,0,0,0,0,0,0,0,0,0,0,0,0,0,0,0,0,0,0,0,0,0,0,0,0,0,0,0,0,0,0,0,0,0,0,0,0,0,0,0,0,0,0,0,0,0,0],"sum_hessian":[1.72E2,6.8E1,1.04E2,3E1,3.8E1,8E0,9.6E1,1.3E1,1.7E1,2.5E1,1.3E1,6E0,2E0,6.9E1,2.7E1,1.1E1,2E0,6E0,1.1E1,1.3E1,1.2E1,2E0,1.1E1,1.2E1,5.7E1,1E0,2.6E1,1E0,5E0,3E0,8E0,1.1E1,2E0,1E1,2E0,3E0,9E0,5.2E1,5E0,1.1E1,1.5E1,3E0,2E0,1E0,1E0,6E0,4E0,1E0,1E0,2E0,1E0,2E0,7E0,1.6E1,3.6E1,3E0,2E0,6E0,5E0,6E0,9E0],"tree_param":{"num_deleted":"0","num_feature":"19","num_nodes":"61","size_leaf_vector":"1"}},{"base_weights":[-1.20503165E-1,-3.6471736E0,2.2979805E0,3.2270023E-1,-5.182177E0,-9.427461E0,3.9133863E0,-7.834307E-2,8.6535364E-1,-4.0757556E0,-8.18023E0,-5.5186164E-1,-1.5105823E-1,3.237997E0,3.6014393E-1,-2.6541048E-1,1.3669562E0,-4.383781E0,-1.8258247E-1,-4.4462284E-1,-1.4043276E-1,4.5414762E0,1.6329263E0,-9.998995E-1,3.845225E-2,1.34620285E-2,7.1659066E-2,-3.3346405E0,-6.0564528E0,-3.907023E-2,3.7847098E-2,5.9923778E0,2.568321E0,-1.3251236E-1,1.8539648E0,-6.022171E-2,-7.157383E-3,-1.9107616E-1,-7.612192E-2,-3.4265354E-1,-5.416842E-2,2.2352481E-1,3.4642735E-1,2.550535E-1,6.886668E-2,-3.473345E-2,7.834702E-3,1.3254496E-1,4.7104564E-2],"categories":[],"categories_nodes":[],"categories_segments":[],"categories_sizes":[],"default_left":[0,0,0,0,0,0,0,0,0,0,0,0,0,0,0,0,0,0,0,0,0,0,0,0,0,0,0,0,0,0,0,0,0,0,0,0,0,0,0,0,0,0,0,0,0,0,0,0,0],"id":15,"left_children":[1,3,5,7,9,11,13,-1,15,17,19,-1,-1,21,-1,23,25,27,29,-1,-1,31,33,35,-1,-1,-1,37,39,-1,-1,41,43,45,47,-1,-1,-1,-1,-1,-1,-1,-1,-1,-1,-1,-1,-1,-1],"loss_changes":[1.5096544E3,4.4090967E2,2.0251832E3,2.2818659E1,1.3792358E2,9.931372E1,1.8224988E2,0E0,1.0115263E1,4.6710815E1,2.3589172E1,0E0,0E0,1.5724866E2,0E0,5.35083E0,3.162403E-1,4.379492E1,2.8443563E0,0E0,0E0,1.068562E2,1.4856323E1,3.9377236E-1,0E0,0E0,0E0,1.5705841E1,4.3283386E1,0E0,0E0,2.079773E0,5.265573E1,9.7554433E-1,2.1124527E1,0E0,0E0,0E0,0E0,0E0,0E0,0E0,0E0,0E0,0E0,0E0,0E0,0E0,0E0],"parents":[2147483647,0,0,1,1,2,2,3,3,4,4,5,5,6,6,8,8,9,9,10,10,13,13,15,15,16,16,17,17,18,18,21,21,22,22,23,23,27,27,28,28,31,31,32,32,33,33,34,34],"right_children":[2,4,6,8,10,12,14,-1,16,18,20,-1,-1,22,-1,24,26,28,30,-1,-1,32,34,36,-1,-1,-1,38,40,-1,-1,42,44,46,48,-1,-1,-1,-1,-1,-1,-1,-1,-1,-1,-1,-1,-1,-1],"split_conditions":[1.44E2,2.622E1,8E0,6E1,1.6107143E2,1.2816E1,1E0,-7.834307E-2,1.4E1,1.6E2,1E0,-5.5186164E-1,-1.5105823E-1,2.16E2,3.6014393E-1,9E1,1.0306896E2,6.1285713E1,1E0,-4.4462284E-1,-1.4043276E-1,4.714E1,2.2E2,8E1,3.845225E-2,1.34620285E-2,7.1659066E-2,1E0,1.23E2,-3.907023E-2,3.7847098E-2,2E2,5.332E2,1.1628571E2,6.442857E1,-6.022171E-2,-7.157383E-3,-1.9107616E-1,-7.612192E-2,-3.4265354E-1,-5.416842E-2,2.2352481E-1,3.4642735E-1,2.550535E-1,6.886668E-2,-3.473345E-2,7.834702E-3,1.3254496E-1,4.7104564E-2],"split_indices":[1,10,9,16,4,11,15,0,9,4,15,0,0,0,0,16,4,5,15,0,0,7,0,16,0,0,0,15,1,0,0,1,2,4,5,0,0,0,0,0,0,0,0,0,0,0,0,0,0],"split_type":[0,0,0,0,0,0,0,0,0,0,0,0,0,0,0,0,0,0,0,0,0,0,0,0,0,0,0,0,0,0,0,0,0,0,0,0,0,0,0,0,0,0,0,0,0,0,0,0,0],"sum_hessian":[1.75E2,7.1E1,1.04E2,2E1,5.1E1,1.2E1,9.2E1,4E0,1.6E1,3.9E1,1.2E1,9E0,3E0,7.8E1,1.4E1,5E0,1.1E1,3.6E1,3E0,1E1,2E0,4.2E1,3.6E1,3E0,2E0,1E0,1E1,2.4E1,1.2E1,2E0,1E0,2.3E1,1.9E1,4E0,3.2E1,2E0,1E0,1.8E1,6E0,1E1,2E0,1.1E1,1.2E1,5E0,1.4E1,1E0,3E0,1.6E1,1.6E1],"tree_param":{"num_deleted":"0","num_feature":"19","num_nodes":"49","size_leaf_vector":"1"}},{"base_weights":[-1.412489E-1,-1.2290611E1,7.157013E-1,-7.258859E-1,-3.347269E-1,-3.252877E0,3.4401455E0,9.155957E-2,-4.777429E0,5.198125E0,2.0134041E0,-1.116037E0,9.282372E-1,-2.9493845E0,-6.044768E0,1.7607477E0,5.8510923E0,-2.4140394E0,2.426135E0,-1.5131152E0,4.901472E-2,-5.409775E-2,1.2383475E0,-1.5096508E-1,-3.802391E-2,-6.6545763E0,-2.9879441E0,3.5777828E-1,1.9732188E-1,6.602472E0,2.5712988E0,-1.4539354E-1,-8.467827E-3,1.6135244E0,4.153817E0,-1.04464255E-1,-4.780889E-2,-1.7608682E-2,1.8503247E-2,1.3125476E-2,6.532475E-2,-3.5499406E-1,-8.656114E-2,4.290873E-3,-2.2856395E-1,-3.3384934E-2,5.3122073E-2,3.36907E-1,7.437769E-2,2.915734E-2,2.8285852E-1,4.508849E-2,2.1587168E-1,7.445119E-2,2.3437987E-1],"categories":[],"categories_nodes":[],"categories_segments":[],"categories_sizes":[],"default_left":[0,0,0,0,0,0,0,0,0,0,0,0,0,0,0,0,0,0,0,0,0,0,0,0,0,0,0,0,0,0,0,0,0,0,0,0,0,0,0,0,0,0,0,0,0,0,0,0,0,0,0,0,0,0,0],"id":16,"left_children":[1,3,5,-1,-1,7,9,11,13,15,17,19,21,23,25,27,29,31,33,35,-1,37,39,-1,-1,41,43,45,-1,47,49,-1,-1,51,53,-1,-1,-1,-1,-1,-1,-1,-1,-1,-1,-1,-1,-1,-1,-1,-1,-1,-1,-1,-1],"loss_changes":[1.738246E3,3.778296E1,1.6979077E3,0E0,0E0,3.272271E2,2.2207373E2,2.2234919E1,8.320941E1,8.096094E1,1.0270717E2,9.028249E0,4.1456347E0,3.8674927E-1,2.575415E1,2.2689274E1,6.5894165E1,4.742285E0,6.1513702E1,2.6485062E-1,0E0,6.342686E-1,1.651411E-1,0E0,0E0,3.0673218E1,3.0041607E1,5.0845594E0,0E0,7.890259E0,4.5158455E1,0E0,0E0,6.2942947E1,1.3738586E1,0E0,0E0,0E0,0E0,0E0,0E0,0E0,0E0,0E0,0E0,0E0,0E0,0E0,0E0,0E0,0E0,0E0,0E0,0E0,0E0],"parents":[2147483647,0,0,1,1,2,2,5,5,6,6,7,7,8,8,9,9,10,10,11,11,12,12,13,13,14,14,15,15,16,16,17,17,18,18,19,19,21,21,22,22,25,25,26,26,27,27,29,29,30,30,33,33,34,34],"right_children":[2,4,6,-1,-1,8,10,12,14,16,18,20,22,24,26,28,30,32,34,36,-1,38,40,-1,-1,42,44,46,-1,48,50,-1,-1,52,54,-1,-1,-1,-1,-1,-1,-1,-1,-1,-1,-1,-1,-1,-1,-1,-1,-1,-1,-1,-1],"split_conditions":[1.2816E1,8.528E0,1.44E2,-7.258859E-1,-3.347269E-1,2.622E1,9.025714E1,8E1,6.1285713E1,1.64E2,1.728E1,1E0,1.7088E1,9E1,1.35E2,1E0,1.76E1,8E0,2.25E2,1.2E1,4.901472E-2,9E1,1.0306896E2,-1.5096508E-1,-3.802391E-2,5.206E1,1.6107143E2,1.3178572E2,1.9732188E-1,2.9804E2,1E0,-1.4539354E-1,-8.467827E-3,1E0,1.9313538E1,-1.04464255E-1,-4.780889E-2,-1.7608682E-2,1.8503247E-2,1.3125476E-2,6.532475E-2,-3.5499406E-1,-8.656114E-2,4.290873E-3,-2.2856395E-1,-3.3384934E-2,5.3122073E-2,3.36907E-1,7.437769E-2,2.915734E-2,2.8285852E-1,4.508849E-2,2.1587168E-1,7.445119E-2,2.3437987E-1],"split_indices":[11,11,1,0,0,10,8,16,5,1,11,17,11,16,1,15,13,9,1,9,0,16,4,0,0,10,4,4,0,14,15,0,0,15,11,0,0,0,0,0,0,0,0,0,0,0,0,0,0,0,0,0,0,0,0],"split_type":[0,0,0,0,0,0,0,0,0,0,0,0,0,0,0,0,0,0,0,0,0,0,0,0,0,0,0,0,0,0,0,0,0,0,0,0,0,0,0,0,0,0,0,0,0,0,0,0,0,0,0,0,0,0,0],"sum_hessian":[1.65E2,1E1,1.55E2,6E0,4E0,6.3E1,9.2E1,2E1,4.3E1,4E1,5.2E1,8E0,1.2E1,1.9E1,2.4E1,7E0,3.3E1,4E0,4.8E1,7E0,1E0,3E0,9E0,1.8E1,1E0,1.9E1,5E0,5E0,2E0,2.6E1,7E0,3E0,1E0,3.4E1,1.4E1,2E0,5E0,2E0,1E0,1E0,8E0,1.7E1,2E0,2E0,3E0,2E0,3E0,2.5E1,1E0,5E0,2E0,2.8E1,6E0,3E0,1.1E1],"tree_param":{"num_deleted":"0","num_feature":"19","num_nodes":"55","size_leaf_vector":"1"}},{"base_weights":[-3.4539905E-1,-1.1353297E1,4.8692912E-1,-6.947766E-1,-3.2392374E-1,4.219268E0,-2.5711994E0,-1.3994129E-1,4.5664144E0,-1.4586861E0,-5.026926E0,5.4688787E0,2.755321E0,-2.6605334E0,4.224694E-1,-1.2352687E0,-7.1787677E0,5.775406E0,1.8415829E0,2.6105493E-1,2.1772106E0,-3.3555777E0,1.5889655E0,2.4053144E0,-1.8850757E-1,-3.3026035E0,1.0212775E0,-3.8556767E-1,3.1064948E-2,3.4453192E-1,2.3910157E-1,-1.2877616E-2,1.2278774E-1,-8.256111E-3,1.15068756E-1,-9.4021246E-2,-2.16915E-1,1.4885561E-1,-3.7910946E-2,2.3279455E-1,4.552679E-3,3.8865916E-2,-1.0537577E-1,-6.472348E-2,-2.4229573E-1,-6.818638E-3,6.50041E-2],"categories":[],"categories_nodes":[],"categories_segments":[],"categories_sizes":[],"default_left":[0,0,0,0,0,0,0,0,0,0,0,0,0,0,0,0,0,0,0,0,0,0,0,0,0,0,0,0,0,0,0,0,0,0,0,0,0,0,0,0,0,0,0,0,0,0,0],"id":17,"left_children":[1,3,5,-1,-1,7,9,-1,11,13,15,17,19,21,23,25,27,29,31,-1,33,35,37,39,41,43,45,-1,-1,-1,-1,-1,-1,-1,-1,-1,-1,-1,-1,-1,-1,-1,-1,-1,-1,-1,-1],"loss_changes":[1.5641859E3,5.665625E1,1.8258348E3,0E0,0E0,1.8837146E2,2.324372E2,0E0,9.688599E1,1.4152124E2,2.105852E2,3.863623E1,2.353003E1,1.17744934E2,3.0961918E1,5.4916412E1,7.612152E1,1.1303101E1,7.2984543E0,0E0,6.991997E0,3.9059265E1,2.2028614E1,3.0351898E1,3.883978E1,1.170813E1,2.2302155E0,0E0,0E0,0E0,0E0,0E0,0E0,0E0,0E0,0E0,0E0,0E0,0E0,0E0,0E0,0E0,0E0,0E0,0E0,0E0,0E0],"parents":[2147483647,0,0,1,1,2,2,5,5,6,6,8,8,9,9,10,10,11,11,12,12,13,13,14,14,15,15,16,16,17,17,18,18,20,20,21,21,22,22,23,23,24,24,25,25,26,26],"right_children":[2,4,6,-1,-1,8,10,-1,12,14,16,18,20,22,24,26,28,30,32,-1,34,36,38,40,42,44,46,-1,-1,-1,-1,-1,-1,-1,-1,-1,-1,-1,-1,-1,-1,-1,-1,-1,-1,-1,-1],"split_conditions":[1.2816E1,8.528E0,2.52E2,-6.947766E-1,-3.2392374E-1,8E0,4.3811428E1,-1.3994129E-1,9.6525E1,6E1,2.73E2,2.4E2,5.307E2,1.4477571E2,9.73E2,1.8E2,5.44E1,1.3571428E2,2.46E2,2.6105493E-1,1.728E1,1.04238E3,2.73E2,2.73E2,2.622E1,9.73E2,9.6796106E2,-3.8556767E-1,3.1064948E-2,3.4453192E-1,2.3910157E-1,-1.2877616E-2,1.2278774E-1,-8.256111E-3,1.15068756E-1,-9.4021246E-2,-2.16915E-1,1.4885561E-1,-3.7910946E-2,2.3279455E-1,4.552679E-3,3.8865916E-2,-1.0537577E-1,-6.472348E-2,-2.4229573E-1,-6.818638E-3,6.50041E-2],"split_indices":[11,11,0,0,0,9,10,0,8,16,0,0,2,14,2,4,10,4,0,0,11,2,0,0,10,2,2,0,0,0,0,0,0,0,0,0,0,0,0,0,0,0,0,0,0,0,0],"split_type":[0,0,0,0,0,0,0,0,0,0,0,0,0,0,0,0,0,0,0,0,0,0,0,0,0,0,0,0,0,0,0,0,0,0,0,0,0,0,0,0,0,0,0,0,0,0,0],"sum_hessian":[1.69E2,1.1E1,1.58E2,6E0,5E0,7.1E1,8.7E1,3E0,6.8E1,6.1E1,2.6E1,4.4E1,2.4E1,3.7E1,2.4E1,1E1,1.6E1,4E1,4E0,3E0,2.1E1,3.2E1,5E0,5E0,1.9E1,5E0,5E0,1.5E1,1E0,1.6E1,2.4E1,1E0,3E0,1E0,2E1,1.4E1,1.8E1,3E0,2E0,2E0,3E0,1.3E1,6E0,3E0,2E0,1E0,4E0],"tree_param":{"num_deleted":"0","num_feature":"19","num_nodes":"47","size_leaf_vector":"1"}},{"base_weights":[-1.1830469E-1,-1.1276195E1,6.167558E-1,-6.650004E-1,-3.0838084E-1,-3.561998E0,3.315589E0,-4.9102793E0,3.0065718E-1,2.6500547E0,6.7209578E0,-3.3478947E0,-6.671029E0,-7.140724E-1,8.7586135E-1,3.722018E0,1.1672065E0,8.092143E-2,6.946564E0,-3.8664848E-2,-3.6219146E0,-3.6796176E-1,-4.1306977E0,-4.9433466E-2,-0E0,1.0953066E0,-3.595091E-2,2.5623417E0,5.6357574E0,-2.1319737E0,1.734718E0,8.4369056E-2,3.597275E-1,-1.8580729E-1,-3.1509075E-2,-2.7125254E-1,-8.89335E-2,3.9127532E-2,8.175695E-2,2.4714318E-1,5.7142984E-2,2.902412E-1,6.654068E-2,-8.049737E-3,-1.23698525E-1,2.1270745E-1,5.646571E-2],"categories":[],"categories_nodes":[],"categories_segments":[],"categories_sizes":[],"default_left":[0,0,0,0,0,0,0,0,0,0,0,0,0,0,0,0,0,0,0,0,0,0,0,0,0,0,0,0,0,0,0,0,0,0,0,0,0,0,0,0,0,0,0,0,0,0,0],"id":18,"left_children":[1,3,5,-1,-1,7,9,11,13,15,17,19,21,23,25,27,29,-1,31,-1,33,-1,35,-1,-1,37,-1,39,41,43,45,-1,-1,-1,-1,-1,-1,-1,-1,-1,-1,-1,-1,-1,-1,-1,-1],"loss_changes":[1.4597257E3,2.9750854E1,1.8951713E3,0E0,0E0,3.4566174E2,2.1242383E2,1.1146167E2,1.1147788E1,1.3345831E2,6.319641E0,1.6513397E1,6.9142456E0,1.318039E0,5.0250387E0,9.570532E1,7.48069E1,0E0,6.534912E0,0E0,4.2713623E0,0E0,1.09407425E1,0E0,0E0,3.35845E-1,0E0,1.0525299E2,4.6620483E0,3.382616E0,4.499138E1,0E0,0E0,0E0,0E0,0E0,0E0,0E0,0E0,0E0,0E0,0E0,0E0,0E0,0E0,0E0,0E0],"parents":[2147483647,0,0,1,1,2,2,5,5,6,6,7,7,8,8,9,9,10,10,11,11,12,12,13,13,14,14,15,15,16,16,18,18,20,20,22,22,25,25,27,27,28,28,29,29,30,30],"right_children":[2,4,6,-1,-1,8,10,12,14,16,18,20,22,24,26,28,30,-1,32,-1,34,-1,36,-1,-1,38,-1,40,42,44,46,-1,-1,-1,-1,-1,-1,-1,-1,-1,-1,-1,-1,-1,-1,-1,-1],"split_conditions":[1.2816E1,8.528E0,1.44E2,-6.650004E-1,-3.0838084E-1,1.2768E3,1E0,4.1965714E1,1.4E1,1.6107143E2,1.85E2,9.6796106E2,1E0,1.2E1,1.6E1,1.95E2,1.728E1,8.092143E-2,1.1496154E2,-3.8664848E-2,1.5357143E2,-3.6796176E-1,1.29E2,-4.9433466E-2,-0E0,1E0,-3.595091E-2,1.35E2,4.8085712E1,5.356E2,5.332E2,8.4369056E-2,3.597275E-1,-1.8580729E-1,-3.1509075E-2,-2.7125254E-1,-8.89335E-2,3.9127532E-2,8.175695E-2,2.4714318E-1,5.7142984E-2,2.902412E-1,6.654068E-2,-8.049737E-3,-1.23698525E-1,2.1270745E-1,5.646571E-2],"split_indices":[11,11,1,0,0,2,15,10,9,4,0,2,15,9,9,1,11,0,4,0,4,0,1,0,0,17,0,4,10,2,2,0,0,0,0,0,0,0,0,0,0,0,0,0,0,0,0],"split_type":[0,0,0,0,0,0,0,0,0,0,0,0,0,0,0,0,0,0,0,0,0,0,0,0,0,0,0,0,0,0,0,0,0,0,0,0,0,0,0,0,0,0,0,0,0,0,0],"sum_hessian":[1.76E2,1E1,1.66E2,6E0,4E0,6.5E1,1.01E2,4.8E1,1.7E1,8.6E1,1.5E1,2.7E1,2.1E1,6E0,1.1E1,4.9E1,3.7E1,1E0,1.4E1,3E0,2.4E1,1.5E1,6E0,4E0,2E0,1E1,1E0,3.2E1,1.7E1,5E0,3.2E1,1E0,1.3E1,2.3E1,1E0,3E0,3E0,8E0,2E0,1.1E1,2.1E1,1.6E1,1E0,1E0,4E0,5E0,2.7E1],"tree_param":{"num_deleted":"0","num_feature":"19","num_nodes":"47","size_leaf_vector":"1"}},{"base_weights":[-4.080433E-1,-3.4422479E0,1.8557566E0,-8.3682925E-1,-5.763704E0,-1.0364738E1,3.2978184E0,-2.1331413E0,6.4445233E-1,-6.5380836E0,-3.1186957E0,-6.3650036E-1,-2.4802068E-1,5.1501985E0,2.0682833E0,-1.4089744E-1,-9.7193766E-1,-3.821829E-2,9.8384035E-1,-4.2317157E0,-3.822682E-1,-9.861458E-1,-3.4719129E0,1.7037997E0,6.2321906E0,-7.631987E-1,2.5481825E0,-1.370805E0,5.2975047E-2,1.3245976E-1,1.0969404E0,-2.3706925E-1,-5.4445684E-2,-8.806416E-2,1.1603222E-2,-2.0249443E-1,-1.7119709E0,2.1167655E0,-4.782234E-2,2.9144082E0,6.8492136E0,3.7549552E-1,-1.411795E0,1.6553313E0,4.1255884E0,-1.19276844E-1,-3.091525E-2,-1.9713363E-2,3.2147847E-2,1.084753E-2,5.719302E-2,3.89032E-2,-1.4173353E-1,1.6926001E-1,4.5084085E-2,-1.718069E-2,1.8273677E-1,3.5235146E-1,6.487719E-2,3.5887398E-4,3.4511242E-2,-2.3692995E-2,-8.686488E-2,5.3105533E-2,1.681941E-1,3.0581716E-1,1.2373002E-1],"categories":[],"categories_nodes":[],"categories_segments":[],"categories_sizes":[],"default_left":[0,0,0,0,0,0,0,0,0,0,0,0,0,0,0,0,0,0,0,0,0,0,0,0,0,0,0,0,0,0,0,0,0,0,0,0,0,0,0,0,0,0,0,0,0,0,0,0,0,0,0,0,0,0,0,0,0,0,0,0,0,0,0,0,0,0,0],"id":19,"left_children":[1,3,5,7,9,11,13,15,17,19,21,-1,-1,23,25,-1,27,-1,29,31,-1,33,35,37,39,41,43,45,-1,47,49,-1,-1,-1,-1,-1,51,53,-1,55,57,59,61,63,65,-1,-1,-1,-1,-1,-1,-1,-1,-1,-1,-1,-1,-1,-1,-1,-1,-1,-1,-1,-1,-1,-1],"loss_changes":[1.22233E3,4.5419238E2,1.8309908E3,7.257109E1,6.057373E1,7.5694336E1,1.9816211E2,1.2786163E1,9.380409E0,4.307312E1,4.416168E0,0E0,0E0,1.2283118E2,7.957634E1,0E0,8.775972E0,0E0,1.1761274E0,1.3475464E1,0E0,3.3944938E0,1.6453552E0,1.312652E1,3.4335205E1,7.2807293E0,6.160373E1,4.333313E0,0E0,1.0850438E0,1.5251637E-1,0E0,0E0,0E0,0E0,0E0,1.3593462E1,1.0390224E1,0E0,1.6058937E1,1.4182251E1,3.8898766E-1,7.8744984E-1,2.9431648E1,3.9879517E1,0E0,0E0,0E0,0E0,0E0,0E0,0E0,0E0,0E0,0E0,0E0,0E0,0E0,0E0,0E0,0E0,0E0,0E0,0E0,0E0,0E0,0E0],"parents":[2147483647,0,0,1,1,2,2,3,3,4,4,5,5,6,6,7,7,8,8,9,9,10,10,13,13,14,14,16,16,18,18,19,19,21,21,22,22,23,23,24,24,25,25,26,26,27,27,29,29,30,30,36,36,37,37,39,39,40,40,41,41,42,42,43,43,44,44],"right_children":[2,4,6,8,10,12,14,16,18,20,22,-1,-1,24,26,-1,28,-1,30,32,-1,34,36,38,40,42,44,46,-1,48,50,-1,-1,-1,-1,-1,52,54,-1,56,58,60,62,64,66,-1,-1,-1,-1,-1,-1,-1,-1,-1,-1,-1,-1,-1,-1,-1,-1,-1,-1,-1,-1,-1,-1],"split_conditions":[1.44E2,5.5285713E1,1.3664E1,1.737143E1,4E1,8.528E0,8.9630356E1,6E1,6E1,1.5428572E2,6.1285713E1,-6.3650036E-1,-2.4802068E-1,1.64E2,1.9657143E1,-1.4089744E-1,1.08E2,-3.821829E-2,1.4E1,1.5E2,-3.822682E-1,1.11E2,1.29E2,1.0908446E3,7.6915015E2,7.835E2,2.15E2,8E1,5.2975047E-2,8E1,1.0306896E2,-2.3706925E-1,-5.4445684E-2,-8.806416E-2,1.1603222E-2,-2.0249443E-1,1.6107143E2,1.2857143E2,-4.782234E-2,9.72E2,2.9804E2,2E2,5.356E2,4E1,1.0112143E2,-1.19276844E-1,-3.091525E-2,-1.9713363E-2,3.2147847E-2,1.084753E-2,5.719302E-2,3.89032E-2,-1.4173353E-1,1.6926001E-1,4.5084085E-2,-1.718069E-2,1.8273677E-1,3.5235146E-1,6.487719E-2,3.5887398E-4,3.4511242E-2,-2.3692995E-2,-8.686488E-2,5.3105533E-2,1.681941E-1,3.0581716E-1,1.2373002E-1],"split_indices":[1,5,11,11,16,11,8,16,16,4,5,0,0,1,11,0,1,0,9,4,0,1,1,2,3,3,1,16,0,16,4,0,0,0,0,0,4,4,0,2,14,1,2,16,8,0,0,0,0,0,0,0,0,0,0,0,0,0,0,0,0,0,0,0,0,0,0],"split_type":[0,0,0,0,0,0,0,0,0,0,0,0,0,0,0,0,0,0,0,0,0,0,0,0,0,0,0,0,0,0,0,0,0,0,0,0,0,0,0,0,0,0,0,0,0,0,0,0,0,0,0,0,0,0,0,0,0,0,0,0,0,0,0,0,0,0,0],"sum_hessian":[1.76E2,7.5E1,1.01E2,3.6E1,3.9E1,1E1,9.1E1,1.9E1,1.7E1,2.9E1,1E1,6E0,4E0,3.5E1,5.6E1,1.1E1,8E0,3E0,1.4E1,1.1E1,1.8E1,2E0,8E0,9E0,2.6E1,8E0,4.8E1,7E0,1E0,2E0,1.2E1,9E0,2E0,1E0,1E0,5E0,3E0,8E0,1E0,5E0,2.1E1,3E0,5E0,3.2E1,1.6E1,2E0,5E0,1E0,1E0,1E0,1.1E1,1E0,2E0,3E0,5E0,1E0,4E0,2E1,1E0,2E0,1E0,2E0,3E0,2.5E1,7E0,6E0,1E1],"tree_param":{"num_deleted":"0","num_feature":"19","num_nodes":"67","size_leaf_vector":"1"}},{"base_weights":[7.7124104E-2,-2.9971254E0,2.0798268E0,-6.1015826E-1,-5.2980614E0,-8.558154E0,3.2418263E0,-1.7665992E0,7.803698E-1,-3.7944186E0,-6.934213E0,-5.489263E-1,-2.7962193E-1,2.6547825E0,5.911403E0,-2.1117818E0,-5.92543E-1,-3.6785062E-2,1.1649351E0,-3.1401142E-1,-1.7739028E0,-3.6652455E-1,-2.7401805E0,3.7171378E0,1.4173223E0,6.9462852E0,2.8397393E0,-6.3232577E-1,-2.4206185E0,-5.485786E-2,-4.094658E-2,1.2831573E-1,1.3186787E0,-3.4527395E0,-2.8053743E-1,-3.0019244E-2,-1.729943E-1,5.218003E0,2.1155655E0,-9.850286E-2,1.6395403E0,7.802836E-2,3.6424676E-1,-1.984621E-2,1.7932284E-1,-7.82555E-2,5.165068E-2,-1.2736027E-1,-2.3204098E-2,-1.7114932E-2,1.9077739E-2,-1.9220505E-2,3.1344187E-2,3.0606901E-2,7.914659E-2,-2.2501719E-1,4.2132054E-2,-3.6783747E-2,3.4495838E-2,2.6706156E-1,6.325527E-2,2.147796E-1,4.435398E-2,1.951149E-2,-3.7532274E-2,1.0317806E-1,4.2448446E-2],"categories":[],"categories_nodes":[],"categories_segments":[],"categories_sizes":[],"default_left":[0,0,0,0,0,0,0,0,0,0,0,0,0,0,0,0,0,0,0,0,0,0,0,0,0,0,0,0,0,0,0,0,0,0,0,0,0,0,0,0,0,0,0,0,0,0,0,0,0,0,0,0,0,0,0,0,0,0,0,0,0,0,0,0,0,0,0],"id":20,"left_children":[1,3,5,7,9,11,13,15,17,19,21,-1,-1,23,25,27,29,-1,31,-1,33,-1,35,37,39,41,43,45,47,-1,49,51,53,55,57,-1,-1,59,61,63,65,-1,-1,-1,-1,-1,-1,-1,-1,-1,-1,-1,-1,-1,-1,-1,-1,-1,-1,-1,-1,-1,-1,-1,-1,-1,-1],"loss_changes":[1.1082102E3,3.861269E2,1.3745975E3,5.9367516E1,6.1182556E1,1.590564E1,1.3859851E2,6.583519E0,1.0811451E1,9.352905E1,5.498047E0,0E0,0E0,1.0333185E2,3.333551E1,5.0177383E0,1.5113254E0,0E0,1.9173241E0,0E0,3.125056E1,0E0,2.1367779E0,9.399231E1,1.3789352E1,9.63324E0,1.624374E1,7.8835983E0,1.4888153E0,0E0,6.359667E-1,1.0321139E0,1.0519867E0,3.1157104E1,4.045651E0,0E0,0E0,3.298523E0,5.7268227E1,2.241306E0,9.689507E0,0E0,0E0,0E0,0E0,0E0,0E0,0E0,0E0,0E0,0E0,0E0,0E0,0E0,0E0,0E0,0E0,0E0,0E0,0E0,0E0,0E0,0E0,0E0,0E0,0E0,0E0],"parents":[2147483647,0,0,1,1,2,2,3,3,4,4,5,5,6,6,7,7,8,8,9,9,10,10,13,13,14,14,15,15,16,16,18,18,20,20,22,22,23,23,24,24,25,25,26,26,27,27,28,28,30,30,31,31,32,32,33,33,34,34,37,37,38,38,39,39,40,40],"right_children":[2,4,6,8,10,12,14,16,18,20,22,-1,-1,24,26,28,30,-1,32,-1,34,-1,36,38,40,42,44,46,48,-1,50,52,54,56,58,-1,-1,60,62,64,66,-1,-1,-1,-1,-1,-1,-1,-1,-1,-1,-1,-1,-1,-1,-1,-1,-1,-1,-1,-1,-1,-1,-1,-1,-1,-1],"split_conditions":[1.44E2,5.657143E1,8E0,1.8102858E1,4.832E1,8.528E0,1E0,8E1,6E1,2.87E2,1E0,-5.489263E-1,-2.7962193E-1,2.16E2,4.832E1,2.58E2,1E1,-3.6785062E-2,1.4E1,-3.1401142E-1,4.361E1,-3.6652455E-1,7.2E1,4.714E1,2.2E2,3.471E1,1.72E2,1E0,5.49E1,-5.485786E-2,9E1,8E1,7.846125E1,4.8085712E1,1E0,-3.0019244E-2,-1.729943E-1,4.8085712E1,5.332E2,1.0908446E3,6.442857E1,7.802836E-2,3.6424676E-1,-1.984621E-2,1.7932284E-1,-7.82555E-2,5.165068E-2,-1.2736027E-1,-2.3204098E-2,-1.7114932E-2,1.9077739E-2,-1.9220505E-2,3.1344187E-2,3.0606901E-2,7.914659E-2,-2.2501719E-1,4.2132054E-2,-3.6783747E-2,3.4495838E-2,2.6706156E-1,6.325527E-2,2.147796E-1,4.435398E-2,1.951149E-2,-3.7532274E-2,1.0317806E-1,4.2448446E-2],"split_indices":[1,5,9,11,7,11,15,16,16,0,15,0,0,0,7,0,9,0,9,0,7,0,5,7,0,7,1,15,5,0,16,16,14,10,15,0,0,10,2,2,5,0,0,0,0,0,0,0,0,0,0,0,0,0,0,0,0,0,0,0,0,0,0,0,0,0,0],"split_type":[0,0,0,0,0,0,0,0,0,0,0,0,0,0,0,0,0,0,0,0,0,0,0,0,0,0,0,0,0,0,0,0,0,0,0,0,0,0,0,0,0,0,0,0,0,0,0,0,0,0,0,0,0,0,0,0,0,0,0,0,0,0,0,0,0,0,0],"sum_hessian":[1.78E2,7E1,1.08E2,3.5E1,3.5E1,1E1,9.8E1,1.9E1,1.6E1,2E1,1.5E1,4E0,6E0,8.2E1,1.6E1,1.4E1,5E0,3E0,1.3E1,8E0,1.2E1,1.3E1,2E0,4.3E1,3.9E1,1.1E1,5E0,3E0,1.1E1,2E0,3E0,2E0,1.1E1,5E0,7E0,1E0,1E0,2.1E1,2.2E1,5E0,3.4E1,1E0,1E1,1E0,4E0,2E0,1E0,1E1,1E0,2E0,1E0,1E0,1E0,4E0,7E0,4E0,1E0,5E0,2E0,2E1,1E0,7E0,1.5E1,3E0,2E0,2.1E1,1.3E1],"tree_param":{"num_deleted":"0","num_feature":"19","num_nodes":"67","size_leaf_vector":"1"}},{"base_weights":[8.97136E-3,-1.0842556E1,5.521167E-1,-6.0809493E-1,-2.2781768E-1,-2.8251367E0,2.8936598E0,4.4427502E-1,-4.158394E0,2.3021207E0,5.664252E0,-9.452008E-1,8.56969E-1,-3.215968E0,-3.3154032E-1,3.4638953E0,1.27058E0,6.1001353E0,-1.9350013E-2,-8.7785125E-2,1.4703445E-1,-4.887932E-1,1.0912775E0,-4.0909767E0,-1.7115567E0,4.953779E0,1.6104746E0,2.5587258E-1,8.618468E-1,6.5587394E-2,3.170662E-1,-5.0732233E-3,1.8600807E-2,-9.824372E-4,-3.317705E-2,-1.7243346E-2,6.179853E-2,-1.1931964E-1,-2.7847627E-1,-1.253905E-1,-2.1450441E-2,2.539701E-1,6.167389E-2,9.5795184E-2,-2.6098607E-2,-1.14297085E-1,5.8657218E-2],"categories":[],"categories_nodes":[],"categories_segments":[],"categories_sizes":[],"default_left":[0,0,0,0,0,0,0,0,0,0,0,0,0,0,0,0,0,0,0,0,0,0,0,0,0,0,0,0,0,0,0,0,0,0,0,0,0,0,0,0,0,0,0,0,0,0,0],"id":21,"left_children":[1,3,5,-1,-1,7,9,11,13,15,17,19,21,23,-1,25,27,29,-1,-1,31,33,35,37,39,41,43,-1,45,-1,-1,-1,-1,-1,-1,-1,-1,-1,-1,-1,-1,-1,-1,-1,-1,-1,-1],"loss_changes":[9.8924805E2,9.263489E0,1.2734595E3,0E0,0E0,2.899107E2,1.4186041E2,1.2269752E1,8.720404E1,9.099884E1,4.513434E1,4.8453083E0,5.638833E0,3.980725E1,0E0,9.353671E1,6.417476E1,8.23999E0,0E0,0E0,2.325247E-1,1.6458917E-1,3.4245586E0,4.1360138E1,1.3948936E1,2.45047E0,1.2863041E1,0E0,4.274631E1,0E0,0E0,0E0,0E0,0E0,0E0,0E0,0E0,0E0,0E0,0E0,0E0,0E0,0E0,0E0,0E0,0E0,0E0],"parents":[2147483647,0,0,1,1,2,2,5,5,6,6,7,7,8,8,9,9,10,10,11,11,12,12,13,13,15,15,16,16,17,17,20,20,21,21,22,22,23,23,24,24,25,25,26,26,28,28],"right_children":[2,4,6,-1,-1,8,10,12,14,16,18,20,22,24,-1,26,28,30,-1,-1,32,34,36,38,40,42,44,-1,46,-1,-1,-1,-1,-1,-1,-1,-1,-1,-1,-1,-1,-1,-1,-1,-1,-1,-1],"split_conditions":[6E0,4E0,1.44E2,-6.0809493E-1,-2.2781768E-1,2.622E1,4E1,1.2E1,1.6107143E2,8.9630356E1,1.8E2,8E1,6E1,1.2E2,-3.3154032E-1,2.15E2,5.296E2,1.85E2,-1.9350013E-2,-8.7785125E-2,9E1,1.6E1,9.15E1,1.2876964E2,1.4535715E2,4.8085712E1,2.58E2,2.5587258E-1,8E0,6.5587394E-2,3.170662E-1,-5.0732233E-3,1.8600807E-2,-9.824372E-4,-3.317705E-2,-1.7243346E-2,6.179853E-2,-1.1931964E-1,-2.7847627E-1,-1.253905E-1,-2.1450441E-2,2.539701E-1,6.167389E-2,9.5795184E-2,-2.6098607E-2,-1.14297085E-1,5.8657218E-2],"split_indices":[9,9,1,0,0,10,16,9,4,8,4,16,16,1,0,0,2,0,0,0,16,9,4,14,4,10,0,0,9,0,0,0,0,0,0,0,0,0,0,0,0,0,0,0,0,0,0],"split_type":[0,0,0,0,0,0,0,0,0,0,0,0,0,0,0,0,0,0,0,0,0,0,0,0,0,0,0,0,0,0,0,0,0,0,0,0,0,0,0,0,0,0,0,0,0,0,0],"sum_hessian":[1.66E2,7E0,1.59E2,5E0,2E0,6.5E1,9.4E1,1.9E1,4.6E1,7.9E1,1.5E1,4E0,1.5E1,3.5E1,1.1E1,3.6E1,4.3E1,1.4E1,1E0,2E0,2E0,2E0,1.3E1,2.1E1,1.4E1,1.9E1,1.7E1,3E0,4E1,1E0,1.3E1,1E0,1E0,1E0,1E0,1E0,1.2E1,1.1E1,1E1,8E0,6E0,1.8E1,1E0,1.5E1,2E0,3E0,3.7E1],"tree_param":{"num_deleted":"0","num_feature":"19","num_nodes":"47","size_leaf_vector":"1"}},{"base_weights":[2.1478733E-2,-8.526393E0,6.182984E-1,-5.490603E-1,-2.594963E-1,-2.748994E0,2.8473837E0,-6.384516E-1,-4.7781367E0,2.245243E0,5.417737E0,-1.7981622E0,8.4483993E-1,-3.0088716E0,-5.361488E0,2.993166E0,9.503013E-1,3.0287385E-1,1.479343E0,4.4061717E-2,-1.990827E0,7.4329756E-2,5.8961183E-2,-4.2857563E-1,-1.7617701E-1,-3.1367904E-1,-3.8422554E0,4.214682E-1,3.4959173E0,-7.5282514E-2,1.1605449E0,-1.886631E-2,1.1286708E-1,-2.8975565E-2,-1.1064897E-1,-1.6812285E-2,1.2184701E-2,-4.563013E-2,1.0986958E-2,-2.0290969E-2,-2.7486232E-1,-1.1603108E-2,1.0285299E-1,1.9786036E-1,5.9997868E-2,4.6842657E-3,9.601472E-2],"categories":[],"categories_nodes":[],"categories_segments":[],"categories_sizes":[],"default_left":[0,0,0,0,0,0,0,0,0,0,0,0,0,0,0,0,0,0,0,0,0,0,0,0,0,0,0,0,0,0,0,0,0,0,0,0,0,0,0,0,0,0,0,0,0,0,0],"id":22,"left_children":[1,3,5,-1,-1,7,9,11,13,15,17,19,21,23,25,27,29,-1,31,-1,33,35,-1,37,-1,-1,39,41,43,-1,45,-1,-1,-1,-1,-1,-1,-1,-1,-1,-1,-1,-1,-1,-1,-1,-1],"loss_changes":[9.380625E2,3.9676025E1,1.2988662E3,0E0,0E0,2.919065E2,1.480318E2,6.18211E1,1.9154602E1,8.005371E1,3.8156677E1,1.21898575E1,3.9093304E0,1.270266E1,9.525696E0,6.795279E1,1.8752356E1,0E0,6.8176994E0,0E0,4.3953094E0,4.8990673E-1,0E0,1.2112265E0,0E0,0E0,6.5426025E1,1.1348952E1,4.2395447E1,0E0,2.4745628E1,0E0,0E0,0E0,0E0,0E0,0E0,0E0,0E0,0E0,0E0,0E0,0E0,0E0,0E0,0E0,0E0],"parents":[2147483647,0,0,1,1,2,2,5,5,6,6,7,7,8,8,9,9,10,10,11,11,12,12,13,13,14,14,15,15,16,16,18,18,20,20,21,21,23,23,26,26,27,27,28,28,30,30],"right_children":[2,4,6,-1,-1,8,10,12,14,16,18,20,22,24,26,28,30,-1,32,-1,34,36,-1,38,-1,-1,40,42,44,-1,46,-1,-1,-1,-1,-1,-1,-1,-1,-1,-1,-1,-1,-1,-1,-1,-1],"split_conditions":[1.3664E1,8.528E0,1.44E2,-5.490603E-1,-2.594963E-1,1.2876964E2,1E0,1.2E1,6.1285713E1,4.3811428E1,1.8E2,5.46E2,2.0571428E1,9.6796106E2,1.29E2,1.64E2,8E0,3.0287385E-1,1.72E2,4.4061717E-2,2.622E1,9.15E1,5.8961183E-2,1E0,-1.7617701E-1,-3.1367904E-1,1.6107143E2,7.7584155E2,3.00988E2,-7.5282514E-2,1.85E2,-1.886631E-2,1.1286708E-1,-2.8975565E-2,-1.1064897E-1,-1.6812285E-2,1.2184701E-2,-4.563013E-2,1.0986958E-2,-2.0290969E-2,-2.7486232E-1,-1.1603108E-2,1.0285299E-1,1.9786036E-1,5.9997868E-2,4.6842657E-3,9.601472E-2],"split_indices":[11,11,1,0,0,14,15,9,5,10,4,3,11,2,1,1,9,0,1,0,10,4,0,15,0,0,4,3,14,0,1,0,0,0,0,0,0,0,0,0,0,0,0,0,0,0,0],"split_type":[0,0,0,0,0,0,0,0,0,0,0,0,0,0,0,0,0,0,0,0,0,0,0,0,0,0,0,0,0,0,0,0,0,0,0,0,0,0,0,0,0,0,0,0,0,0,0],"sum_hessian":[1.82E2,1.1E1,1.71E2,5E0,6E0,6.8E1,1.03E2,3.4E1,3.4E1,8.5E1,1.8E1,1.9E1,1.5E1,1E1,2.4E1,5.3E1,3.2E1,1.5E1,3E0,1E0,1.8E1,5E0,1E1,2E0,8E0,1.3E1,1.1E1,9E0,4.4E1,2E0,3E1,1E0,2E0,3E0,1.5E1,1E0,4E0,1E0,1E0,4E0,7E0,7E0,2E0,3.6E1,8E0,1.3E1,1.7E1],"tree_param":{"num_deleted":"0","num_feature":"19","num_nodes":"47","size_leaf_vector":"1"}},{"base_weights":[1.9356887E-1,-2.4375668E0,1.8980682E0,-6.3927966E-1,-4.4314256E0,-7.5486927E0,2.834124E0,-1.6532657E0,5.7366407E-1,-3.3667104E0,-5.8027787E0,-4.7869793E-1,-2.2930944E-1,3.6845052E0,1.6386392E0,-2.196779E0,-8.257231E-1,-8.484036E-2,8.129157E-1,-4.9380875E0,-1.480178E0,-3.1150636E-1,-2.2682414E0,1.8499777E0,4.7004805E0,1.1795301E0,2.4359809E-1,-1.1630163E-1,-1.6874751E-2,5.610863E-2,-1.1779529E0,-4.5502257E-2,1.1099801E0,-1.7982403E0,-2.939125E-1,-1.4649928E-1,-2.1886149E-1,-1.4108715E-2,-1.535094E-1,1.3561971E0,1.8539707E-1,3.9755652E0,6.728238E0,-9.6528304E-1,1.3878558E0,-9.5120125E-2,-2.4099719E-2,3.7044257E-2,8.3999656E-2,-1.1930139E-1,-0E0,-2.6304169E-2,3.8111743E-2,7.798038E-2,-5.5129778E-2,2.1103382E-1,6.8172485E-2,3.5838655E-1,8.879467E-2,-1.1331425E-2,-5.5131253E-2,8.706742E-2,2.637125E-2],"categories":[],"categories_nodes":[],"categories_segments":[],"categories_sizes":[],"default_left":[0,0,0,0,0,0,0,0,0,0,0,0,0,0,0,0,0,0,0,0,0,0,0,0,0,0,0,0,0,0,0,0,0,0,0,0,0,0,0,0,0,0,0,0,0,0,0,0,0,0,0,0,0,0,0,0,0,0,0,0,0,0,0],"id":23,"left_children":[1,3,5,7,9,11,13,15,17,19,21,-1,-1,23,25,27,29,-1,31,33,35,-1,37,39,41,43,-1,-1,-1,-1,45,-1,47,49,-1,-1,51,-1,-1,53,-1,55,57,59,61,-1,-1,-1,-1,-1,-1,-1,-1,-1,-1,-1,-1,-1,-1,-1,-1,-1,-1],"loss_changes":[7.983768E2,2.4764716E2,9.759337E2,4.7792885E1,2.7730103E1,1.4674561E1,9.407532E1,7.3292084E0,1.1068825E1,5.4302475E1,4.6549683E0,0E0,0E0,9.688776E1,5.7479485E1,1.8324509E0,8.188513E0,0E0,9.731242E0,2.1133453E1,1.9159185E1,0E0,3.5765934E0,1.464827E1,2.5099304E1,1.8807884E1,0E0,0E0,0E0,0E0,3.3822947E0,0E0,1.6690655E0,4.1447134E0,0E0,0E0,2.4872835E0,0E0,0E0,1.1268059E1,0E0,1.2254425E1,3.7886658E0,2.2981644E-2,9.804306E0,0E0,0E0,0E0,0E0,0E0,0E0,0E0,0E0,0E0,0E0,0E0,0E0,0E0,0E0,0E0,0E0,0E0,0E0],"parents":[2147483647,0,0,1,1,2,2,3,3,4,4,5,5,6,6,7,7,8,8,9,9,10,10,13,13,14,14,15,15,16,16,18,18,19,19,20,20,22,22,23,23,24,24,25,25,30,30,32,32,33,33,36,36,39,39,41,41,42,42,43,43,44,44],"right_children":[2,4,6,8,10,12,14,16,18,20,22,-1,-1,24,26,28,30,-1,32,34,36,-1,38,40,42,44,-1,-1,-1,-1,46,-1,48,50,-1,-1,52,-1,-1,54,-1,56,58,60,62,-1,-1,-1,-1,-1,-1,-1,-1,-1,-1,-1,-1,-1,-1,-1,-1,-1,-1],"split_conditions":[1.44E2,1.2876964E2,1.3664E1,1.8102858E1,6.514286E1,8.528E0,1.6107143E2,6E1,4.27E2,2.94E2,1E0,-4.7869793E-1,-2.2930944E-1,1.8E2,2.56E1,1.3714285E2,2.58E2,-8.484036E-2,6E1,1.4464285E2,1.4535715E2,-3.1150636E-1,1.8E2,1E0,1E0,1.728E1,2.4359809E-1,-1.1630163E-1,-1.6874751E-2,5.610863E-2,8E1,-4.5502257E-2,1E0,2.58E2,-2.939125E-1,-1.4649928E-1,1E0,-1.4108715E-2,-1.535094E-1,7.954E2,1.8539707E-1,2.28E2,7.766E2,7.853E2,2.52E2,-9.5120125E-2,-2.4099719E-2,3.7044257E-2,8.3999656E-2,-1.1930139E-1,-0E0,-2.6304169E-2,3.8111743E-2,7.798038E-2,-5.5129778E-2,2.1103382E-1,6.8172485E-2,3.5838655E-1,8.879467E-2,-1.1331425E-2,-5.5131253E-2,8.706742E-2,2.637125E-2],"split_indices":[1,14,11,11,5,11,4,16,0,0,15,0,0,1,11,4,0,0,16,4,4,0,4,15,15,11,0,0,0,0,16,0,17,0,0,0,15,0,0,3,0,0,3,3,0,0,0,0,0,0,0,0,0,0,0,0,0,0,0,0,0,0,0],"split_type":[0,0,0,0,0,0,0,0,0,0,0,0,0,0,0,0,0,0,0,0,0,0,0,0,0,0,0,0,0,0,0,0,0,0,0,0,0,0,0,0,0,0,0,0,0,0,0,0,0,0,0,0,0,0,0,0,0,0,0,0,0,0,0],"sum_hessian":[1.76E2,6.9E1,1.07E2,3.7E1,3.2E1,9E0,9.8E1,2E1,1.7E1,2E1,1.2E1,4E0,5E0,5.6E1,4.2E1,1.1E1,9E0,1E0,1.6E1,1E1,1E1,1E1,2E0,2.1E1,3.5E1,3.8E1,4E0,1E1,1E0,1E0,8E0,2E0,1.4E1,3E0,7E0,4E0,6E0,1E0,1E0,1.8E1,3E0,2.8E1,7E0,3E0,3.5E1,3E0,5E0,1E1,4E0,2E0,1E0,5E0,1E0,1.7E1,1E0,2.5E1,3E0,6E0,1E0,1E0,2E0,2.4E1,1.1E1],"tree_param":{"num_deleted":"0","num_feature":"19","num_nodes":"63","size_leaf_vector":"1"}},{"base_weights":[2.4427897E-1,-2.5449796E0,1.9862773E0,-8.881003E-1,-4.2702603E0,-4.2384282E-1,2.8736036E0,-1.752268E0,1.0499377E0,-3.594324E0,-3.174841E-1,2.333898E0,5.1599755E0,-1.8209635E0,-0E0,-1.578947E-2,1.2118938E0,-2.935296E-1,-2.2018502E0,3.9369965E0,1.6482309E0,5.5944122E-2,5.316765E0,-1.1323859E-1,-1.1431069E0,7.190717E-2,3.1638283E-2,-1.0140858E0,-3.3978012E0,4.1996207E0,2.8893892E-2,3.7276298E-1,3.0833232E0,6.65129E0,3.8537683E0,5.470587E-2,-7.275236E-2,-1.3755701E-1,-1.556402E-2,-2.0196636E-1,4.086014E-2,9.579367E-2,2.2871557E-1,-1.202446E-2,3.404307E-2,2.4120302E-1,6.8061024E-2,3.5462376E-1,8.657481E-2,7.338994E-2,2.276266E-1],"categories":[],"categories_nodes":[],"categories_segments":[],"categories_sizes":[],"default_left":[0,0,0,0,0,0,0,0,0,0,0,0,0,0,0,0,0,0,0,0,0,0,0,0,0,0,0,0,0,0,0,0,0,0,0,0,0,0,0,0,0,0,0,0,0,0,0,0,0,0,0],"id":24,"left_children":[1,3,5,7,9,-1,11,13,15,17,-1,19,21,23,-1,-1,25,-1,27,29,31,-1,33,-1,35,-1,-1,37,39,41,-1,43,45,47,49,-1,-1,-1,-1,-1,-1,-1,-1,-1,-1,-1,-1,-1,-1,-1,-1],"loss_changes":[8.8445715E2,1.9579248E2,1.0636306E3,6.387722E1,2.397174E1,0E0,1.15540405E2,3.0661926E0,3.126566E0,7.501666E1,0E0,8.748291E1,5.446045E0,4.5912933E0,0E0,0E0,3.242035E-1,0E0,2.3102806E1,1.9149994E1,1.1199074E2,0E0,8.460205E0,0E0,1.0002646E1,0E0,0E0,1.2266303E1,2.7959473E1,1.02682495E1,0E0,6.631805E0,7.974896E1,4.2013245E0,1.1055283E1,0E0,0E0,0E0,0E0,0E0,0E0,0E0,0E0,0E0,0E0,0E0,0E0,0E0,0E0,0E0,0E0],"parents":[2147483647,0,0,1,1,2,2,3,3,4,4,6,6,7,7,8,8,9,9,11,11,12,12,13,13,16,16,18,18,19,19,20,20,22,22,24,24,27,27,28,28,29,29,31,31,32,32,33,33,34,34],"right_children":[2,4,6,8,10,-1,12,14,16,18,-1,20,22,24,-1,-1,26,-1,28,30,32,-1,34,-1,36,-1,-1,38,40,42,-1,44,46,48,50,-1,-1,-1,-1,-1,-1,-1,-1,-1,-1,-1,-1,-1,-1,-1,-1],"split_conditions":[1.44E2,5.7857143E1,1.2816E1,1.4E1,1.8E2,-4.2384282E-1,1E0,1.4285715E2,9.15E1,2.87E2,-3.174841E-1,3.6914288E1,1.1496154E2,1E0,-0E0,-1.578947E-2,2.4137142E1,-2.935296E-1,6.442857E1,1.9285715E2,2E2,5.5944122E-2,1.5321428E2,-1.1323859E-1,1.515E1,7.190717E-2,3.1638283E-2,1.4535715E2,4.896E1,1.64E2,2.8893892E-2,2.2E2,1.6107143E2,1.9E2,2.2E2,5.470587E-2,-7.275236E-2,-1.3755701E-1,-1.556402E-2,-2.0196636E-1,4.086014E-2,9.579367E-2,2.2871557E-1,-1.202446E-2,3.404307E-2,2.4120302E-1,6.8061024E-2,3.5462376E-1,8.657481E-2,7.338994E-2,2.276266E-1],"split_indices":[1,5,11,9,4,0,15,4,4,0,0,10,4,15,0,0,11,0,5,4,1,0,4,0,6,0,0,4,10,1,0,0,4,1,0,0,0,0,0,0,0,0,0,0,0,0,0,0,0,0,0],"split_type":[0,0,0,0,0,0,0,0,0,0,0,0,0,0,0,0,0,0,0,0,0,0,0,0,0,0,0,0,0,0,0,0,0,0,0,0,0,0,0,0,0,0,0,0,0,0,0,0,0,0,0],"sum_hessian":[1.8E2,6.9E1,1.11E2,3.6E1,3.3E1,8E0,1.03E2,2.5E1,1.1E1,2.7E1,6E0,8.5E1,1.8E1,2.4E1,1E0,1E0,1E1,9E0,1.8E1,2.4E1,6.1E1,1E0,1.7E1,1.3E1,1.1E1,6E0,4E0,1E1,8E0,2.2E1,2E0,3.3E1,2.8E1,7E0,1E1,1E0,1E1,2E0,8E0,7E0,1E0,4E0,1.8E1,1.1E1,2.2E1,1.3E1,1.5E1,6E0,1E0,3E0,7E0],"tree_param":{"num_deleted":"0","num_feature":"19","num_nodes":"51","size_leaf_vector":"1"}},{"base_weights":[-3.7729163E-2,-2.5868177E0,1.6931398E0,-6.305564E-1,-4.4175906E0,-7.263922E0,2.6001241E0,-1.7354937E0,5.6524163E-1,-4.601136E0,-7.703579E-1,-1.7331444E-1,-4.6006486E-1,2.093036E0,5.030194E0,-1.9638973E0,-6.831837E-1,-5.713147E-1,9.379231E-1,-2.8788445E0,-2.541372E-1,-1.001155E-1,3.9838657E-2,2.9754891E0,1.1793782E0,5.807329E0,1.221955E0,-1.4040098E-1,-1.2510344E0,-4.2135086E-2,-1.3130227E-2,-0E0,-3.5271198E-2,2.9538772E-1,1.1553984E0,-5.1092803E-1,-2.1778171E-1,3.2945807E0,5.483593E-1,-5.8864564E-1,1.3836081E0,3.358116E-1,3.6109045E0,-2.4744568E-2,9.962671E-2,4.336332E-3,-8.0440775E-2,-1.969677E-2,2.9560119E-2,2.3468714E-2,6.8403475E-2,-3.8257297E-2,1.0148583E-2,2.036082E-1,7.989604E-2,7.226504E-2,-3.9850783E-2,-5.2137624E-2,-9.47154E-3,1.0265998E-1,2.5999775E-2,4.5581397E-2,1.9742171E-1],"categories":[],"categories_nodes":[],"categories_segments":[],"categories_sizes":[],"default_left":[0,0,0,0,0,0,0,0,0,0,0,0,0,0,0,0,0,0,0,0,0,0,0,0,0,0,0,0,0,0,0,0,0,0,0,0,0,0,0,0,0,0,0,0,0,0,0,0,0,0,0,0,0,0,0,0,0,0,0,0,0,0,0],"id":25,"left_children":[1,3,5,7,9,11,13,15,17,19,21,-1,-1,23,25,27,29,31,33,35,-1,-1,-1,37,39,41,43,-1,45,-1,-1,-1,-1,47,49,51,-1,53,55,57,59,-1,61,-1,-1,-1,-1,-1,-1,-1,-1,-1,-1,-1,-1,-1,-1,-1,-1,-1,-1,-1,-1],"loss_changes":[7.854177E2,2.5457547E2,8.7955566E2,4.8664143E1,2.0687378E1,4.041327E1,1.0828851E2,2.96027E0,8.196833E0,1.3602844E1,7.507832E0,0E0,0E0,6.21886E1,3.955304E1,5.1073112E0,3.6218166E-3,3.5848916E-1,1.4699297E0,3.2257072E1,0E0,0E0,0E0,2.9562653E1,1.6059467E1,6.6799927E-1,6.4277163E0,0E0,5.0779915E0,0E0,0E0,0E0,0E0,1.2721816E0,6.330948E-1,1.1189506E0,0E0,4.0420593E1,8.45709E0,5.856831E-1,2.0649193E1,0E0,1.3810043E0,0E0,0E0,0E0,0E0,0E0,0E0,0E0,0E0,0E0,0E0,0E0,0E0,0E0,0E0,0E0,0E0,0E0,0E0,0E0,0E0],"parents":[2147483647,0,0,1,1,2,2,3,3,4,4,5,5,6,6,7,7,8,8,9,9,10,10,13,13,14,14,15,15,16,16,17,17,18,18,19,19,23,23,24,24,25,25,26,26,28,28,33,33,34,34,35,35,37,37,38,38,39,39,40,40,42,42],"right_children":[2,4,6,8,10,12,14,16,18,20,22,-1,-1,24,26,28,30,32,34,36,-1,-1,-1,38,40,42,44,-1,46,-1,-1,-1,-1,48,50,52,-1,54,56,58,60,-1,62,-1,-1,-1,-1,-1,-1,-1,-1,-1,-1,-1,-1,-1,-1,-1,-1,-1,-1,-1,-1],"split_conditions":[1.44E2,5.7857143E1,8E0,1.8285715E1,5.44E1,7.909E2,1E0,8E1,6E1,9.71962E2,2.64E2,-1.7331444E-1,-4.6006486E-1,2.16E2,2.07E1,5.142857E1,1E1,2.87E2,2.0571428E1,6.342857E1,-2.541372E-1,-1.001155E-1,3.9838657E-2,3.018916E2,2.2E2,1.762E1,1.72E2,-1.4040098E-1,1.1978571E2,-4.2135086E-2,-1.3130227E-2,-0E0,-3.5271198E-2,8E1,7.846125E1,1E0,-2.1778171E-1,4.1965714E1,5.344E2,4.6381035E1,6.442857E1,3.358116E-1,1.85E2,-2.4744568E-2,9.962671E-2,4.336332E-3,-8.0440775E-2,-1.969677E-2,2.9560119E-2,2.3468714E-2,6.8403475E-2,-3.8257297E-2,1.0148583E-2,2.036082E-1,7.989604E-2,7.226504E-2,-3.9850783E-2,-5.2137624E-2,-9.47154E-3,1.0265998E-1,2.5999775E-2,4.5581397E-2,1.9742171E-1],"split_indices":[1,5,9,11,10,3,15,16,16,2,0,0,0,0,6,5,9,0,11,5,0,0,0,14,0,6,1,0,14,0,0,0,0,16,14,15,0,10,2,5,5,0,0,0,0,0,0,0,0,0,0,0,0,0,0,0,0,0,0,0,0,0,0],"split_type":[0,0,0,0,0,0,0,0,0,0,0,0,0,0,0,0,0,0,0,0,0,0,0,0,0,0,0,0,0,0,0,0,0,0,0,0,0,0,0,0,0,0,0,0,0,0,0,0,0,0,0,0,0,0,0,0,0,0,0,0,0,0,0],"sum_hessian":[1.76E2,7.1E1,1.05E2,3.5E1,3.6E1,9E0,9.6E1,1.8E1,1.7E1,3.4E1,2E0,4E0,5E0,8.1E1,1.5E1,1.4E1,4E0,4E0,1.3E1,9E0,2.5E1,1E0,1E0,4E1,4.1E1,1.2E1,3E0,5E0,9E0,2E0,2E0,1E0,3E0,4E0,9E0,4E0,5E0,3.5E1,5E0,4E0,3.7E1,7E0,5E0,1E0,2E0,2E0,7E0,1E0,3E0,3E0,6E0,3E0,1E0,2.3E1,1.2E1,3E0,2E0,1E0,3E0,2E1,1.7E1,1E0,4E0],"tree_param":{"num_deleted":"0","num_feature":"19","num_nodes":"63","size_leaf_vector":"1"}},{"base_weights":[-5.8248606E-2,-7.3794446E0,4.4482267E-1,-5.046328E-1,-2.1864724E-1,-2.1347065E0,2.4252868E0,-7.553106E-1,-3.6553836E0,1.9193792E0,4.6705165E0,-1.4335037E0,3.734857E-1,-2.461018E0,-4.9178877E0,2.394311E-1,1.5574471E0,2.960721E-1,1.5820686E0,-1.5677304E0,3.8842734E-2,-3.076726E-1,6.582408E-1,-2.2903264E-1,-1.122675E0,-2.6784506E-1,-1.1731873E-1,2.204036E0,5.861508E-1,2.9833087E-1,1.3665146E-1,-8.583049E-2,-0E0,-3.6848813E-2,3.273855E-2,-5.3784433E-3,4.2574197E-2,-1.0773378E-1,-9.792008E-3,5.1237285E-2,1.9881903E-1,-6.0422726E-2,5.072729E-2,-2.4125919E-2,3.763934E-2],"categories":[],"categories_nodes":[],"categories_segments":[],"categories_sizes":[],"default_left":[0,0,0,0,0,0,0,0,0,0,0,0,0,0,0,0,0,0,0,0,0,0,0,0,0,0,0,0,0,0,0,0,0,0,0,0,0,0,0,0,0,0,0,0,0],"id":26,"left_children":[1,3,5,-1,-1,7,9,11,13,15,17,19,21,23,25,-1,27,-1,29,31,-1,33,35,-1,37,-1,-1,39,41,43,-1,-1,-1,-1,-1,-1,-1,-1,-1,-1,-1,-1,-1,-1,-1],"loss_changes":[6.301002E2,4.4148743E1,8.225927E2,0E0,0E0,1.4363107E2,9.3741455E1,2.9731985E1,3.6919495E1,7.083121E1,5.1696167E1,8.417519E0,3.1470287E0,4.8186264E1,3.5942993E0,0E0,4.1763107E1,0E0,7.746707E0,5.3528214E0,0E0,2.556674E0,1.7938466E0,0E0,1.1777399E1,0E0,0E0,8.111957E1,2.3501842E1,1.8097064E0,0E0,0E0,0E0,0E0,0E0,0E0,0E0,0E0,0E0,0E0,0E0,0E0,0E0,0E0,0E0],"parents":[2147483647,0,0,1,1,2,2,5,5,6,6,7,7,8,8,9,9,10,10,11,11,12,12,13,13,14,14,16,16,18,18,19,19,21,21,22,22,24,24,27,27,28,28,29,29],"right_children":[2,4,6,-1,-1,8,10,12,14,16,18,20,22,24,26,-1,28,-1,30,32,-1,34,36,-1,38,-1,-1,40,42,44,-1,-1,-1,-1,-1,-1,-1,-1,-1,-1,-1,-1,-1,-1,-1],"split_conditions":[1.3664E1,4E0,1.44E2,-5.046328E-1,-2.1864724E-1,1.2876964E2,1E0,1.4E1,6.442857E1,5.308E2,1.852E1,4.8085712E1,8E1,1.14E2,1E0,2.394311E-1,4.832E1,2.960721E-1,2.15E2,1E2,3.8842734E-2,1E0,1.368E1,-2.2903264E-1,5.8142857E1,-2.6784506E-1,-1.1731873E-1,2E2,2.0845715E1,1.72E2,1.3665146E-1,-8.583049E-2,-0E0,-3.6848813E-2,3.273855E-2,-5.3784433E-3,4.2574197E-2,-1.0773378E-1,-9.792008E-3,5.1237285E-2,1.9881903E-1,-6.0422726E-2,5.072729E-2,-2.4125919E-2,3.763934E-2],"split_indices":[11,9,1,0,0,14,15,9,5,2,6,10,16,1,15,0,7,0,1,16,0,17,6,0,5,0,0,1,11,1,0,0,0,0,0,0,0,0,0,0,0,0,0,0,0],"split_type":[0,0,0,0,0,0,0,0,0,0,0,0,0,0,0,0,0,0,0,0,0,0,0,0,0,0,0,0,0,0,0,0,0,0,0,0,0,0,0,0,0,0,0,0,0],"sum_hessian":[1.69E2,1E1,1.59E2,4E0,6E0,6.9E1,9E1,3.7E1,3.2E1,7.5E1,1.5E1,2.3E1,1.4E1,1.8E1,1.4E1,7E0,6.8E1,1E1,5E0,2.2E1,1E0,4E0,1E1,6E0,1.2E1,1.1E1,3E0,4E1,2.8E1,3E0,2E0,2E1,2E0,3E0,1E0,2E0,8E0,5E0,7E0,2.5E1,1.5E1,5E0,2.3E1,1E0,2E0],"tree_param":{"num_deleted":"0","num_feature":"19","num_nodes":"45","size_leaf_vector":"1"}},{"base_weights":[1.0780697E-2,-2.1933475E0,1.4015752E0,5.15376E-1,-3.1428165E0,-6.607091E0,2.2609193E0,-3.6418743E-2,4.6454147E-2,-2.4086275E0,-4.7865744E0,-4.4444513E-1,-2.0095344E-1,1.7017839E0,4.579199E0,-1.5287881E-2,2.2020386E-1,-3.3050687E0,-1.1009609E0,-2.6110443E-1,-1.1291933E-1,9.099728E-1,2.5692127E0,3.8748417E-2,4.7419353E0,1.6405717E-2,2.7793882E-4,-2.3206291E0,-2.5343892E-1,-1.9043158E0,-1.6416575E-1,2.906287E0,1.7568618E-1,3.8324983E0,1.615805E0,2.9906332E-1,3.400428E0,-1.2914978E-1,3.7871704E-2,-1.01124875E-1,-2.1471558E-2,-2.7492378E-2,3.785735E-2,-1.0828819E-2,1.7812587E-1,-2.9060354E-2,2.1738835E-2,6.445363E-2,2.6098233E-1,1.586574E-1,3.9100405E-2,5.7260115E-2,2.0452438E-1],"categories":[],"categories_nodes":[],"categories_segments":[],"categories_sizes":[],"default_left":[0,0,0,0,0,0,0,0,0,0,0,0,0,0,0,0,0,0,0,0,0,0,0,0,0,0,0,0,0,0,0,0,0,0,0,0,0,0,0,0,0,0,0,0,0,0,0,0,0,0,0,0,0],"id":27,"left_children":[1,3,5,7,9,11,13,15,-1,17,19,-1,-1,21,23,-1,25,27,29,-1,-1,31,33,-1,35,-1,-1,37,-1,39,41,43,45,47,49,-1,51,-1,-1,-1,-1,-1,-1,-1,-1,-1,-1,-1,-1,-1,-1,-1,-1],"loss_changes":[5.54783E2,1.8191193E2,7.7842755E2,4.460448E0,5.050653E1,2.7943268E1,1.22498535E2,6.9795036E-1,0E0,4.046602E1,3.9743958E0,0E0,0E0,5.4321854E1,7.536133E0,0E0,8.0621034E-2,2.5696167E1,1.2274372E1,0E0,0E0,6.514522E1,4.023523E1,0E0,8.649261E0,0E0,0E0,1.5060295E1,0E0,4.5502472E-1,3.5935872E0,2.5697968E1,6.9055834E0,4.907036E1,2.8287243E1,0E0,1.1910629E1,0E0,0E0,0E0,0E0,0E0,0E0,0E0,0E0,0E0,0E0,0E0,0E0,0E0,0E0,0E0,0E0],"parents":[2147483647,0,0,1,1,2,2,3,3,4,4,5,5,6,6,7,7,9,9,10,10,13,13,14,14,16,16,17,17,18,18,21,21,22,22,24,24,27,27,29,29,30,30,31,31,32,32,33,33,34,34,36,36],"right_children":[2,4,6,8,10,12,14,16,-1,18,20,-1,-1,22,24,-1,26,28,30,-1,-1,32,34,-1,36,-1,-1,38,-1,40,42,44,46,48,50,-1,52,-1,-1,-1,-1,-1,-1,-1,-1,-1,-1,-1,-1,-1,-1,-1,-1],"split_conditions":[1.44E2,2.622E1,1.3664E1,2.0571428E1,1.6107143E2,4E0,1E0,1.7088E1,4.6454147E-2,1.2E2,1E0,-4.4444513E-1,-2.0095344E-1,2E2,1.1496154E2,-1.5287881E-2,3.8746296E1,1.4285715E2,1.4535715E2,-2.6110443E-1,-1.1291933E-1,1.3214285E2,1.6107143E2,3.8748417E-2,1.5321428E2,1.6405717E-2,2.7793882E-4,4.8085712E1,-2.5343892E-1,1E0,1E0,1.48E2,1.5E2,1.4535715E2,5.332E2,2.9906332E-1,2.2E2,-1.2914978E-1,3.7871704E-2,-1.01124875E-1,-2.1471558E-2,-2.7492378E-2,3.785735E-2,-1.0828819E-2,1.7812587E-1,-2.9060354E-2,2.1738835E-2,6.445363E-2,2.6098233E-1,1.586574E-1,3.9100405E-2,5.7260115E-2,2.0452438E-1],"split_indices":[1,10,11,11,4,9,15,11,0,1,15,0,0,1,4,0,5,4,4,0,0,4,4,0,4,0,0,10,0,15,15,1,4,4,2,0,0,0,0,0,0,0,0,0,0,0,0,0,0,0,0,0,0],"split_type":[0,0,0,0,0,0,0,0,0,0,0,0,0,0,0,0,0,0,0,0,0,0,0,0,0,0,0,0,0,0,0,0,0,0,0,0,0,0,0,0,0,0,0,0,0,0,0,0,0,0,0,0,0],"sum_hessian":[1.79E2,6.9E1,1.1E2,1.8E1,5.1E1,1E1,1E2,8E0,1E1,3.7E1,1.4E1,4E0,6E0,8.2E1,1.8E1,4E0,4E0,2.1E1,1.6E1,1.1E1,3E0,4.4E1,3.8E1,1E0,1.7E1,2E0,2E0,1.5E1,6E0,8E0,8E0,1.1E1,3.3E1,1.5E1,2.3E1,7E0,1E1,1.4E1,1E0,7E0,1E0,6E0,2E0,2E0,9E0,8E0,2.5E1,6E0,9E0,7E0,1.6E1,3E0,7E0],"tree_param":{"num_deleted":"0","num_feature":"19","num_nodes":"53","size_leaf_vector":"1"}},{"base_weights":[-1.12563714E-1,-2.088439E0,1.3597802E0,-3.385242E0,-5.5073434E-1,-5.6433597E0,2.2694275E0,-2.4677212E0,-2.6943037E-1,-1.9045109E-1,-1.6801937E-1,-3.5209468E-1,-1.5272553E-1,4.6421285E0,1.7387347E0,-3.5412896E0,-1.4325639E0,-9.380398E-1,6.562394E-1,5.863757E0,3.0293336E0,5.713223E-1,3.0172117E0,-1.7230762E0,-2.174422E-1,-1.625256E0,-0E0,4.8277625E-1,-1.2610548E0,2.8324425E-1,1.214024E0,8.780426E-2,3.4618166E-1,3.7779674E-2,1.603301E-1,1.1957231E-1,2.4073446E0,3.3903928E0,9.725481E-1,-1.0277422E-1,-3.3608668E-2,-2.6320487E-2,-9.238834E-2,5.86043E-2,-5.217781E-3,-7.4085064E-2,4.3199882E-2,2.1217767E-2,-2.2394469E-3,-0E0,7.248042E-2,2.964635E-2,-3.414975E-2,1.628553E-1,-3.0646387E-3,2.1349096E-1,1.3256304E-1,9.101679E-2,-3.6564037E-2],"categories":[],"categories_nodes":[],"categories_segments":[],"categories_sizes":[],"default_left":[0,0,0,0,0,0,0,0,0,0,0,0,0,0,0,0,0,0,0,0,0,0,0,0,0,0,0,0,0,0,0,0,0,0,0,0,0,0,0,0,0,0,0,0,0,0,0,0,0,0,0,0,0,0,0,0,0,0,0],"id":28,"left_children":[1,3,5,7,9,11,13,15,-1,17,-1,-1,-1,19,21,23,25,27,29,31,33,35,37,39,-1,41,-1,43,45,47,49,-1,-1,-1,-1,51,53,55,57,-1,-1,-1,-1,-1,-1,-1,-1,-1,-1,-1,-1,-1,-1,-1,-1,-1,-1,-1,-1],"loss_changes":[5.1783545E2,1.4929367E2,6.6224927E2,6.128009E1,3.5446682E1,2.0927917E1,1.0587543E2,2.776886E1,0E0,2.1531975E1,0E0,0E0,0E0,1.2871185E1,1.113481E2,1.2455704E1,4.7337837E0,8.94764E0,2.8352232E0,2.1802551E1,8.084564E-1,3.34658E1,2.3735443E1,4.4156456E-1,0E0,2.4574814E0,0E0,1.8479495E0,8.3752365E0,5.661433E-1,1.6636963E0,0E0,0E0,0E0,0E0,1.3312525E1,1.7301235E1,7.487915E0,1.1551479E1,0E0,0E0,0E0,0E0,0E0,0E0,0E0,0E0,0E0,0E0,0E0,0E0,0E0,0E0,0E0,0E0,0E0,0E0,0E0,0E0],"parents":[2147483647,0,0,1,1,2,2,3,3,4,4,5,5,6,6,7,7,9,9,13,13,14,14,15,15,16,16,17,17,18,18,19,19,20,20,21,21,22,22,23,23,25,25,27,27,28,28,29,29,30,30,35,35,36,36,37,37,38,38],"right_children":[2,4,6,8,10,12,14,16,-1,18,-1,-1,-1,20,22,24,26,28,30,32,34,36,38,40,-1,42,-1,44,46,48,50,-1,-1,-1,-1,52,54,56,58,-1,-1,-1,-1,-1,-1,-1,-1,-1,-1,-1,-1,-1,-1,-1,-1,-1,-1,-1,-1],"split_conditions":[1.44E2,1E0,8E0,1.6285715E2,3.2E1,1.0976E1,1.35E2,2.7E2,-2.6943037E-1,2.136E1,-1.6801937E-1,-3.5209468E-1,-1.5272553E-1,1.9E2,2E2,1.748E1,1.4853215E2,1.515E1,1E0,1.536E1,1.0109298E3,1E0,3.00988E2,1.3178572E2,-2.174422E-1,2.87E2,-0E0,2.58E2,1.29E2,1.6E1,3.83E2,8.780426E-2,3.4618166E-1,3.7779674E-2,1.603301E-1,1.8E2,1.8E2,9.6946E2,5.344E2,-1.0277422E-1,-3.3608668E-2,-2.6320487E-2,-9.238834E-2,5.86043E-2,-5.217781E-3,-7.4085064E-2,4.3199882E-2,2.1217767E-2,-2.2394469E-3,-0E0,7.248042E-2,2.964635E-2,-3.414975E-2,1.628553E-1,-3.0646387E-3,2.1349096E-1,1.3256304E-1,9.101679E-2,-3.6564037E-2],"split_indices":[1,15,9,4,11,11,4,0,0,11,0,0,0,0,1,11,14,6,17,11,2,15,14,4,0,0,0,0,1,9,0,0,0,0,0,1,4,2,2,0,0,0,0,0,0,0,0,0,0,0,0,0,0,0,0,0,0,0,0],"split_type":[0,0,0,0,0,0,0,0,0,0,0,0,0,0,0,0,0,0,0,0,0,0,0,0,0,0,0,0,0,0,0,0,0,0,0,0,0,0,0,0,0,0,0,0,0,0,0,0,0,0,0,0,0,0,0,0,0,0,0],"sum_hessian":[1.76E2,7.5E1,1.01E2,4E1,3.5E1,1.1E1,9E1,2.9E1,1.1E1,3.2E1,3E0,6E0,5E0,1.5E1,7.5E1,1.3E1,1.6E1,1.7E1,1.5E1,7E0,8E0,4E1,3.5E1,5E0,8E0,1.4E1,2E0,3E0,1.4E1,1E1,5E0,2E0,5E0,1E0,7E0,3.3E1,7E0,2.9E1,6E0,3E0,2E0,3E0,1.1E1,1E0,2E0,1.3E1,1E0,7E0,3E0,1E0,4E0,2.1E1,1.2E1,5E0,2E0,1.1E1,1.8E1,4E0,2E0],"tree_param":{"num_deleted":"0","num_feature":"19","num_nodes":"59","size_leaf_vector":"1"}},{"base_weights":[-3.29147E-1,-6.951077E0,9.32251E-2,-4.4888932E-1,-1.874594E-1,-2.1754684E0,1.9366093E0,1.1000176E-1,-3.021168E0,3.484773E0,1.4553264E0,-9.669632E-1,4.895187E-1,-2.5656173E0,-2.9471496E-1,1.3574547E0,4.024722E0,7.611265E-1,2.2671225E0,-5.818091E-2,-0E0,1.9772927E-1,6.81701E-2,-3.138136E0,-1.5163071E0,-6.636776E-2,1.5283492E-1,4.2122045E0,2.3125133E-2,2.5919083E-1,2.3314016E0,3.7064388E0,1.1948583E0,-3.771146E-2,2.6750574E-2,-1.03516154E-1,-2.2659187E-1,-4.822068E-2,-1.3133281E-1,1.0761028E-1,2.3555934E-1,2.5768816E-2,-4.8143663E-2,2.0611127E-1,4.8036538E-2,1.08305156E-1,2.4615227E-1,-4.2007383E-2,7.931282E-2],"categories":[],"categories_nodes":[],"categories_segments":[],"categories_sizes":[],"default_left":[0,0,0,0,0,0,0,0,0,0,0,0,0,0,0,0,0,0,0,0,0,0,0,0,0,0,0,0,0,0,0,0,0,0,0,0,0,0,0,0,0,0,0,0,0,0,0,0,0],"id":29,"left_children":[1,3,5,-1,-1,7,9,11,13,15,17,19,21,23,-1,25,27,29,31,-1,-1,33,-1,35,37,-1,-1,39,-1,41,43,45,47,-1,-1,-1,-1,-1,-1,-1,-1,-1,-1,-1,-1,-1,-1,-1,-1],"loss_changes":[5.1316986E2,3.6450195E1,7.2768787E2,0E0,0E0,1.5138351E2,6.596454E1,9.417583E0,5.8636353E1,1.9268555E1,4.0237778E1,1.1599293E0,3.909131E0,2.5414368E1,0E0,3.1603134E1,8.937897E0,3.2240105E1,4.755432E1,0E0,0E0,4.8767004E0,0E0,3.758023E1,9.363602E0,0E0,0E0,5.6206665E0,0E0,1.07829685E1,2.0077652E1,1.4863022E1,1.8133741E1,0E0,0E0,0E0,0E0,0E0,0E0,0E0,0E0,0E0,0E0,0E0,0E0,0E0,0E0,0E0,0E0],"parents":[2147483647,0,0,1,1,2,2,5,5,6,6,7,7,8,8,9,9,10,10,11,11,12,12,13,13,15,15,16,16,17,17,18,18,21,21,23,23,24,24,27,27,29,29,30,30,31,31,32,32],"right_children":[2,4,6,-1,-1,8,10,12,14,16,18,20,22,24,-1,26,28,30,32,-1,-1,34,-1,36,38,-1,-1,40,-1,42,44,46,48,-1,-1,-1,-1,-1,-1,-1,-1,-1,-1,-1,-1,-1,-1,-1,-1],"split_conditions":[1.2816E1,4E0,1.44E2,-4.4888932E-1,-1.874594E-1,2.622E1,3.5942856E1,1.4E1,1.8E2,1.64E2,2E2,8E1,1E0,1.26E2,-2.9471496E-1,7.74E2,7.818E2,4E1,1.6107143E2,-5.818091E-2,-0E0,8E1,6.81701E-2,1.3253143E2,1.6107143E2,-6.636776E-2,1.5283492E-1,1.2857143E2,2.3125133E-2,1.081E3,4.116E1,1.5857143E2,1.9313538E1,-3.771146E-2,2.6750574E-2,-1.03516154E-1,-2.2659187E-1,-4.822068E-2,-1.3133281E-1,1.0761028E-1,2.3555934E-1,2.5768816E-2,-4.8143663E-2,2.0611127E-1,4.8036538E-2,1.08305156E-1,2.4615227E-1,-4.2007383E-2,7.931282E-2],"split_indices":[11,9,1,0,0,10,10,9,4,1,1,16,17,1,0,3,3,16,4,0,0,16,0,14,4,0,0,4,0,2,10,4,11,0,0,0,0,0,0,0,0,0,0,0,0,0,0,0,0],"split_type":[0,0,0,0,0,0,0,0,0,0,0,0,0,0,0,0,0,0,0,0,0,0,0,0,0,0,0,0,0,0,0,0,0,0,0,0,0,0,0,0,0,0,0,0,0,0,0,0,0],"sum_hessian":[1.82E2,1E1,1.72E2,5E0,5E0,7.7E1,9.5E1,2.1E1,5.6E1,2.1E1,7.4E1,5E0,1.6E1,5E1,6E0,5E0,1.6E1,4.1E1,3.3E1,4E0,1E0,1.3E1,3E0,3.1E1,1.9E1,2E0,3E0,1.5E1,1E0,3.2E1,9E0,1.3E1,2E1,3E0,1E1,1.9E1,1.2E1,1.4E1,5E0,4E0,1.1E1,2.7E1,5E0,3E0,6E0,7E0,6E0,3E0,1.7E1],"tree_param":{"num_deleted":"0","num_feature":"19","num_nodes":"49","size_leaf_vector":"1"}},{"base_weights":[-4.703824E-2,-6.9653683E0,3.2327133E-1,-4.2442033E-1,-2.0146282E-1,-1.7472569E0,1.7850258E0,-5.295138E-1,-3.0181167E0,1.4053841E0,3.5276875E0,-1.4892193E0,2.678438E-1,-3.4916344E0,-1.7015221E0,2.6912377E0,8.958756E-1,4.015924E0,9.1193736E-1,-8.667802E-2,-5.36089E-1,-1.3108279E0,6.0933506E-1,-1.9013458E0,-2.0808473E-1,9.137402E-2,-2.39778E0,3.1270864E0,-1.3581523E-1,2.8963652E-1,1.5513933E0,8.52794E-2,2.2409359E-1,-2.9760227E-2,1.6460528E0,-3.0760366E-2,-2.9903983E-3,-7.6277904E-2,-1.4165935E-2,3.465622E-2,-1.7877063E-2,-4.8119787E-2,-1.4047173E-1,-4.6438944E-2,3.8717564E-2,-1.4850195E-1,3.7700806E-2,-1.7253343E-2,1.7688036E-1,1.5042216E-2,-3.8644847E-2,-6.3975774E-2,1.9089118E-2,1.4304754E-1,2.9330546E-2,2.0414695E-2,1.0053927E-1],"categories":[],"categories_nodes":[],"categories_segments":[],"categories_sizes":[],"default_left":[0,0,0,0,0,0,0,0,0,0,0,0,0,0,0,0,0,0,0,0,0,0,0,0,0,0,0,0,0,0,0,0,0,0,0,0,0,0,0,0,0,0,0,0,0,0,0,0,0,0,0,0,0,0,0,0,0],"id":30,"left_children":[1,3,5,-1,-1,7,9,11,13,15,17,19,21,23,25,27,29,31,33,-1,35,37,39,41,-1,43,45,47,49,51,53,-1,-1,-1,55,-1,-1,-1,-1,-1,-1,-1,-1,-1,-1,-1,-1,-1,-1,-1,-1,-1,-1,-1,-1,-1,-1],"loss_changes":[4.538145E2,4.792572E0,5.1159213E2,0E0,0E0,1.0637776E2,6.004605E1,2.8834473E1,1.4736237E1,5.1608E1,1.7555725E1,2.802803E0,1.2049738E1,1.7055023E1,1.4181232E1,2.906369E1,2.3607979E1,6.807968E0,5.5104876E0,0E0,8.4116936E-2,2.6944208E-1,1.7396278E0,4.5928764E0,0E0,3.490723E0,1.689021E1,3.0047775E1,1.3924782E0,5.1702213E0,3.4616684E1,0E0,0E0,0E0,2.9145336E-1,0E0,0E0,0E0,0E0,0E0,0E0,0E0,0E0,0E0,0E0,0E0,0E0,0E0,0E0,0E0,0E0,0E0,0E0,0E0,0E0,0E0,0E0],"parents":[2147483647,0,0,1,1,2,2,5,5,6,6,7,7,8,8,9,9,10,10,11,11,12,12,13,13,14,14,15,15,16,16,17,17,18,18,20,20,21,21,22,22,23,23,25,25,26,26,27,27,28,28,29,29,30,30,34,34],"right_children":[2,4,6,-1,-1,8,10,12,14,16,18,20,22,24,26,28,30,32,34,-1,36,38,40,42,-1,44,46,48,50,52,54,-1,-1,-1,56,-1,-1,-1,-1,-1,-1,-1,-1,-1,-1,-1,-1,-1,-1,-1,-1,-1,-1,-1,-1,-1,-1],"split_conditions":[6E0,4E0,1.44E2,-4.2442033E-1,-2.0146282E-1,5.657143E1,4E1,6E1,4E1,3.6312E1,1.8E2,1.7828571E1,1.44E1,9.72E2,6.442857E1,3.025116E2,1.95E2,1.48E1,1.72E2,-8.667802E-2,1.08E2,9E1,1.11E2,1.6107143E2,-2.0808473E-1,1.11E2,5.44E1,1.48E2,5.344E2,1.3571428E2,1.6107143E2,8.52794E-2,2.2409359E-1,-2.9760227E-2,1.85E2,-3.0760366E-2,-2.9903983E-3,-7.6277904E-2,-1.4165935E-2,3.465622E-2,-1.7877063E-2,-4.8119787E-2,-1.4047173E-1,-4.6438944E-2,3.8717564E-2,-1.4850195E-1,3.7700806E-2,-1.7253343E-2,1.7688036E-1,1.5042216E-2,-3.8644847E-2,-6.3975774E-2,1.9089118E-2,1.4304754E-1,2.9330546E-2,2.0414695E-2,1.0053927E-1],"split_indices":[9,9,1,0,0,5,16,16,16,10,4,11,11,2,5,14,1,13,1,0,1,16,1,4,0,1,10,1,2,4,4,0,0,0,1,0,0,0,0,0,0,0,0,0,0,0,0,0,0,0,0,0,0,0,0,0,0],"split_type":[0,0,0,0,0,0,0,0,0,0,0,0,0,0,0,0,0,0,0,0,0,0,0,0,0,0,0,0,0,0,0,0,0,0,0,0,0,0,0,0,0,0,0,0,0,0,0,0,0,0,0,0,0,0,0,0,0],"sum_hessian":[1.75E2,8E0,1.67E2,4E0,4E0,6.9E1,9.8E1,3.6E1,3.3E1,8.2E1,1.6E1,1.6E1,2E1,2.3E1,1E1,2.2E1,6E1,1.3E1,3E0,1.2E1,4E0,3E0,1.7E1,8E0,1.5E1,3E0,7E0,1.9E1,3E0,3.2E1,2.8E1,3E0,1E1,1E0,2E0,3E0,1E0,2E0,1E0,1.6E1,1E0,5E0,3E0,1E0,2E0,6E0,1E0,2E0,1.7E1,2E0,1E0,1E0,3.1E1,1.1E1,1.7E1,1E0,1E0],"tree_param":{"num_deleted":"0","num_feature":"19","num_nodes":"57","size_leaf_vector":"1"}},{"base_weights":[4.704526E-2,-6.3078933E0,3.345733E-1,-4.071017E-1,-1.7795014E-1,2.0298257E0,-1.252669E0,3.6813905E0,1.4720578E0,-2.0583794E0,-0E0,5.361E0,2.4515142E0,1.9630608E-1,1.1126584E0,-1.0034201E0,-2.9358969E0,-1.52268E-1,3.5897508E-1,7.539454E-2,3.1886938E-1,2.6654394E0,7.453087E-1,-9.5421575E-2,2.2101314E0,2.041873E-1,-3.0867717E0,-1.8369441E0,-2.3290013E-1,1.5825843E0,-1.4082758E-1,3.350235E-2,1.3884173E-1,-4.3961775E-2,1.0235993E-1,1.6142568E-2,-7.352006E-2,1.8798485E-1,5.141582E-2,-6.317028E-2,2.9429978E-2,-6.927169E-2,-1.8018559E-1,-6.2370237E-2,-1.0984017E-1,1.1254138E-1,-0E0,-5.5986483E-2,2.898779E-2],"categories":[],"categories_nodes":[],"categories_segments":[],"categories_sizes":[],"default_left":[0,0,0,0,0,0,0,0,0,0,0,0,0,0,0,0,0,0,0,0,0,0,0,0,0,0,0,0,0,0,0,0,0,0,0,0,0,0,0,0,0,0,0,0,0,0,0,0,0],"id":31,"left_children":[1,3,5,-1,-1,7,9,11,13,15,17,19,21,-1,23,25,27,-1,29,-1,-1,31,33,35,37,39,41,43,-1,45,47,-1,-1,-1,-1,-1,-1,-1,-1,-1,-1,-1,-1,-1,-1,-1,-1,-1,-1],"loss_changes":[3.377222E2,1.0187164E1,4.7888785E2,0E0,0E0,7.328775E1,9.290335E1,2.9456116E1,5.3338974E1,4.8501877E1,4.1478218E1,2.092508E1,2.782364E0,0E0,7.864664E1,6.884705E1,4.7569366E1,0E0,2.1160192E1,0E0,0E0,4.6202087E-1,8.261698E0,1.726786E1,5.242534E1,1.083105E1,3.3032684E0,1.1583023E0,0E0,1.0417845E1,1.8337683E1,0E0,0E0,0E0,0E0,0E0,0E0,0E0,0E0,0E0,0E0,0E0,0E0,0E0,0E0,0E0,0E0,0E0,0E0],"parents":[2147483647,0,0,1,1,2,2,5,5,6,6,7,7,8,8,9,9,10,10,11,11,12,12,14,14,15,15,16,16,18,18,21,21,22,22,23,23,24,24,25,25,26,26,27,27,29,29,30,30],"right_children":[2,4,6,-1,-1,8,10,12,14,16,18,20,22,-1,24,26,28,-1,30,-1,-1,32,34,36,38,40,42,44,-1,46,48,-1,-1,-1,-1,-1,-1,-1,-1,-1,-1,-1,-1,-1,-1,-1,-1,-1,-1],"split_conditions":[6E0,4E0,2.52E2,-4.071017E-1,-1.7795014E-1,1.3571428E2,1E0,1.9E2,5.308E2,2.73E2,5.47E2,4.8E1,2.4E2,1.9630608E-1,1.6E1,1.0266499E3,1.6285715E2,-1.52268E-1,9.73E2,7.539454E-2,3.1886938E-1,1.1496154E2,2.46E2,7.846E2,6.442857E1,1.4535715E2,5.49E1,1.4464285E2,-2.3290013E-1,2.73E2,1.2E1,3.350235E-2,1.3884173E-1,-4.3961775E-2,1.0235993E-1,1.6142568E-2,-7.352006E-2,1.8798485E-1,5.141582E-2,-6.317028E-2,2.9429978E-2,-6.927169E-2,-1.8018559E-1,-6.2370237E-2,-1.0984017E-1,1.1254138E-1,-0E0,-5.5986483E-2,2.898779E-2],"split_indices":[9,9,0,0,0,4,15,0,2,0,3,5,0,0,13,2,4,0,2,0,0,4,0,3,5,4,5,4,0,0,9,0,0,0,0,0,0,0,0,0,0,0,0,0,0,0,0,0,0],"split_type":[0,0,0,0,0,0,0,0,0,0,0,0,0,0,0,0,0,0,0,0,0,0,0,0,0,0,0,0,0,0,0,0,0,0,0,0,0,0,0,0,0,0,0,0,0,0,0,0,0],"sum_hessian":[1.83E2,7E0,1.76E2,3E0,4E0,8.5E1,9.1E1,2E1,6.5E1,5.5E1,3.6E1,7E0,1.3E1,7E0,5.8E1,2.6E1,2.9E1,3E0,3.3E1,2E0,5E0,1.1E1,2E0,2.8E1,3E1,1.7E1,9E0,1.9E1,