{"learner":{"attributes":{"scikit_learn":"{\"_estimator_type\": \"regressor\"}"},"feature_names":[],"feature_types":[],"gradient_booster":{"model":{"cats":{"enc":[],"feature_segments":[],"sorted_idx":[]},"gbtree_model_param":{"num_parallel_tree":"1","num_trees":"667"},"iteration_indptr":[0,1,2,3,4,5,6,7,8,9,10,11,12,13,14,15,16,17,18,19,20,21,22,23,24,25,26,27,28,29,30,31,32,33,34,35,36,37,38,39,40,41,42,43,44,45,46,47,48,49,50,51,52,53,54,55,56,57,58,59,60,61,62,63,64,65,66,67,68,69,70,71,72,73,74,75,76,77,78,79,80,81,82,83,84,85,86,87,88,89,90,91,92,93,94,95,96,97,98,99,100,101,102,103,104,105,106,107,108,109,110,111,112,113,114,115,116,117,118,119,120,121,122,123,124,125,126,127,128,129,130,131,132,133,134,135,136,137,138,139,140,141,142,143,144,145,146,147,148,149,150,151,152,153,154,155,156,157,158,159,160,161,162,163,164,165,166,167,168,169,170,171,172,173,174,175,176,177,178,179,180,181,182,183,184,185,186,187,188,189,190,191,192,193,194,195,196,197,198,199,200,201,202,203,204,205,206,207,208,209,210,211,212,213,214,215,216,217,218,219,220,221,222,223,224,225,226,227,228,229,230,231,232,233,234,235,236,237,238,239,240,241,242,243,244,245,246,247,248,249,250,251,252,253,254,255,256,257,258,259,260,261,262,263,264,265,266,267,268,269,270,271,272,273,274,275,276,277,278,279,280,281,282,283,284,285,286,287,288,289,290,291,292,293,294,295,296,297,298,299,300,301,302,303,304,305,306,307,308,309,310,311,312,313,314,315,316,317,318,319,320,321,322,323,324,325,326,327,328,329,330,331,332,333,334,335,336,337,338,339,340,341,342,343,344,345,346,347,348,349,350,351,352,353,354,355,356,357,358,359,360,361,362,363,364,365,366,367,368,369,370,371,372,373,374,375,376,377,378,379,380,381,382,383,384,385,386,387,388,389,390,391,392,393,394,395,396,397,398,399,400,401,402,403,404,405,406,407,408,409,410,411,412,413,414,415,416,417,418,419,420,421,422,423,424,425,426,427,428,429,430,431,432,433,434,435,436,437,438,439,440,441,442,443,444,445,446,447,448,449,450,451,452,453,454,455,456,457,458,459,460,461,462,463,464,465,466,467,468,469,470,471,472,473,474,475,476,477,478,479,480,481,482,483,484,485,486,487,488,489,490,491,492,493,494,495,496,497,498,499,500,501,502,503,504,505,506,507,508,509,510,511,512,513,514,515,516,517,518,519,520,521,522,523,524,525,526,527,528,529,530,531,532,533,534,535,536,537,538,539,540,541,542,543,544,545,546,547,548,549,550,551,552,553,554,555,556,557,558,559,560,561,562,563,564,565,566,567,568,569,570,571,572,573,574,575,576,577,578,579,580,581,582,583,584,585,586,587,588,589,590,591,592,593,594,595,596,597,598,599,600,601,602,603,604,605,606,607,608,609,610,611,612,613,614,615,616,617,618,619,620,621,622,623,624,625,626,627,628,629,630,631,632,633,634,635,636,637,638,639,640,641,642,643,644,645,646,647,648,649,650,651,652,653,654,655,656,657,658,659,660,661,662,663,664,665,666,667],"tree_info":[0,0,0,0,0,0,0,0,0,0,0,0,0,0,0,0,0,0,0,0,0,0,0,0,0,0,0,0,0,0,0,0,0,0,0,0,0,0,0,0,0,0,0,0,0,0,0,0,0,0,0,0,0,0,0,0,0,0,0,0,0,0,0,0,0,0,0,0,0,0,0,0,0,0,0,0,0,0,0,0,0,0,0,0,0,0,0,0,0,0,0,0,0,0,0,0,0,0,0,0,0,0,0,0,0,0,0,0,0,0,0,0,0,0,0,0,0,0,0,0,0,0,0,0,0,0,0,0,0,0,0,0,0,0,0,0,0,0,0,0,0,0,0,0,0,0,0,0,0,0,0,0,0,0,0,0,0,0,0,0,0,0,0,0,0,0,0,0,0,0,0,0,0,0,0,0,0,0,0,0,0,0,0,0,0,0,0,0,0,0,0,0,0,0,0,0,0,0,0,0,0,0,0,0,0,0,0,0,0,0,0,0,0,0,0,0,0,0,0,0,0,0,0,0,0,0,0,0,0,0,0,0,0,0,0,0,0,0,0,0,0,0,0,0,0,0,0,0,0,0,0,0,0,0,0,0,0,0,0,0,0,0,0,0,0,0,0,0,0,0,0,0,0,0,0,0,0,0,0,0,0,0,0,0,0,0,0,0,0,0,0,0,0,0,0,0,0,0,0,0,0,0,0,0,0,0,0,0,0,0,0,0,0,0,0,0,0,0,0,0,0,0,0,0,0,0,0,0,0,0,0,0,0,0,0,0,0,0,0,0,0,0,0,0,0,0,0,0,0,0,0,0,0,0,0,0,0,0,0,0,0,0,0,0,0,0,0,0,0,0,0,0,0,0,0,0,0,0,0,0,0,0,0,0,0,0,0,0,0,0,0,0,0,0,0,0,0,0,0,0,0,0,0,0,0,0,0,0,0,0,0,0,0,0,0,0,0,0,0,0,0,0,0,0,0,0,0,0,0,0,0,0,0,0,0,0,0,0,0,0,0,0,0,0,0,0,0,0,0,0,0,0,0,0,0,0,0,0,0,0,0,0,0,0,0,0,0,0,0,0,0,0,0,0,0,0,0,0,0,0,0,0,0,0,0,0,0,0,0,0,0,0,0,0,0,0,0,0,0,0,0,0,0,0,0,0,0,0,0,0,0,0,0,0,0,0,0,0,0,0,0,0,0,0,0,0,0,0,0,0,0,0,0,0,0,0,0,0,0,0,0,0,0,0,0,0,0,0,0,0,0,0,0,0,0,0,0,0,0,0,0,0,0,0,0,0,0,0,0,0,0,0,0,0,0,0,0,0,0,0,0,0,0,0,0,0,0,0,0,0,0,0,0,0,0,0,0,0,0,0,0,0,0,0,0,0,0,0,0,0,0,0,0,0,0,0,0,0,0,0,0,0,0,0,0,0,0,0,0,0,0,0,0,0,0,0,0,0,0,0,0,0,0,0,0,0,0,0,0,0,0,0,0,0,0,0,0,0,0,0,0,0,0,0,0,0,0],"trees":[{"base_weights":[1.22972615E-2,-1.0809329E1,4.4931526E0,1.7908627E-1,-1.1768415E1,-3.982334E0,5.9647527E0,-8.2493104E-2,-3.2399842E-1,-1.353185E0,-6.9449086E0,3.2156825E0,9.276787E0,-8.721454E-2,8.734711E-3,-2.1326883E-1,-3.584876E-2,2.237322E-1,3.4986902E-2,7.091082E-2,3.5588425E-1],"categories":[],"categories_nodes":[],"categories_segments":[],"categories_sizes":[],"default_left":[0,0,0,0,0,0,0,0,0,0,0,0,0,0,0,0,0,0,0,0,0],"id":0,"left_children":[1,3,5,-1,7,9,11,-1,-1,13,15,17,19,-1,-1,-1,-1,-1,-1,-1,-1],"loss_changes":[3.487384E4,3.9456426E3,6.476417E3,0E0,3.6898438E1,5.5934595E2,3.7988174E3,0E0,0E0,1.5644412E2,1.2044739E2,2.322673E3,4.74083E3,0E0,0E0,0E0,0E0,0E0,0E0,0E0,0E0],"parents":[2147483647,0,0,1,1,2,2,4,4,5,5,6,6,9,9,10,10,11,11,12,12],"right_children":[2,4,6,-1,8,10,12,-1,-1,14,16,18,20,-1,-1,-1,-1,-1,-1,-1,-1],"split_conditions":[3.75E0,5.357E2,3E1,1.7908627E-1,5.42E2,4.38E0,4.5E0,-8.2493104E-2,-3.2399842E-1,1.2E1,1.4E1,7E-1,4.8E1,-8.721454E-2,8.734711E-3,-2.1326883E-1,-3.584876E-2,2.237322E-1,3.4986902E-2,7.091082E-2,3.5588425E-1],"split_indices":[8,7,2,0,7,8,8,0,0,0,0,5,2,0,0,0,0,0,0,0,0],"split_type":[0,0,0,0,0,0,0,0,0,0,0,0,0,0,0,0,0,0,0,0,0],"sum_hessian":[7.08E2,2.05E2,5.03E2,9E0,1.96E2,7.3E1,4.3E2,5E0,1.91E2,4.3E1,3E1,2.41E2,1.89E2,1.8E1,2.5E1,2.4E1,6E0,6.2E1,1.79E2,7.2E1,1.17E2],"tree_param":{"num_deleted":"0","num_feature":"9","num_nodes":"21","size_leaf_vector":"1"}},{"base_weights":[-6.739377E-2,-1.0524459E1,4.224749E0,1.7608057E-1,-1.14582E1,-1.6824622E-1,1.2960644E1,-1.3929417E1,-3.8830569E0,8.468312E0,-4.3486824E0,6.5248237E0,6.038302E-1,-8.143351E-2,-3.8620636E-1,-3.4212027E-2,-1.7144905E-1,2.822513E-1,1.574201E-1,-2.4995878E-1,-7.604926E-2,2.9879073E-2,3.0802923E-1],"categories":[],"categories_nodes":[],"categories_segments":[],"categories_sizes":[],"default_left":[0,0,0,0,0,0,0,0,0,0,0,0,0,0,0,0,0,0,0,0,0,0,0],"id":1,"left_children":[1,3,5,-1,7,9,11,13,15,17,19,21,-1,-1,-1,-1,-1,-1,-1,-1,-1,-1,-1],"loss_changes":[3.2636443E4,3.772457E3,1.979944E4,0E0,3.489379E3,1.2791772E4,9.436322E3,1.9089844E2,3.2091907E2,2.5415137E2,1.6494316E3,2.7806553E3,0E0,0E0,0E0,0E0,0E0,0E0,0E0,0E0,0E0,0E0,0E0],"parents":[2147483647,0,0,1,1,2,2,4,4,5,5,6,6,7,7,8,8,9,9,10,10,11,11],"right_children":[2,4,6,-1,8,10,12,14,16,18,20,22,-1,-1,-1,-1,-1,-1,-1,-1,-1,-1,-1],"split_conditions":[3.75E0,5.357E2,4.8E1,1.7608057E-1,7.2E1,7E-1,3.85E0,5.42E2,1E0,6E-1,7.5E-1,7.2E1,6.038302E-1,-8.143351E-2,-3.8620636E-1,-3.4212027E-2,-1.7144905E-1,2.822513E-1,1.574201E-1,-2.4995878E-1,-7.604926E-2,2.9879073E-2,3.0802923E-1],"split_indices":[8,7,3,0,3,5,8,7,5,5,5,3,0,0,0,0,0,0,0,0,0,0,0],"split_type":[0,0,0,0,0,0,0,0,0,0,0,0,0,0,0,0,0,0,0,0,0,0,0],"sum_hessian":[7.16E2,2.06E2,5.1E2,9E0,1.97E2,3.43E2,1.67E2,1.45E2,5.2E1,1.1E2,2.33E2,1.04E2,6.3E1,5E0,1.4E2,2.9E1,2.3E1,5.5E1,5.5E1,5E1,1.83E2,5.2E1,5.2E1],"tree_param":{"num_deleted":"0","num_feature":"9","num_nodes":"23","size_leaf_vector":"1"}},{"base_weights":[-4.4463985E-3,3.5436888E0,-1.0625385E1,-7.4540484E-1,1.2875273E1,-3.5816845E-1,-3.816009E0,5.3476677E0,-4.2381167E0,5.979415E-1,6.347098E0,-1.1832641E0,-1.6769573E-1,-3.9841023E-1,2.2456612E-1,-1.8583786E-1,-6.9045885E-3,3.0893466E-2,2.9975775E-1,-6.864468E-2,5.789894E-3],"categories":[],"categories_nodes":[],"categories_segments":[],"categories_sizes":[],"default_left":[0,0,0,0,0,0,0,0,0,0,0,0,0,0,0,0,0,0,0,0,0],"id":2,"left_children":[1,3,5,7,9,-1,11,13,15,-1,17,19,-1,-1,-1,-1,-1,-1,-1,-1,-1],"loss_changes":[2.7026986E4,2.1570777E4,2.817795E3,8.077364E3,9.287434E3,0E0,3.084499E2,8.717373E3,2.4728242E3,0E0,2.5222651E3,6.586211E1,0E0,0E0,0E0,0E0,0E0,0E0,0E0,0E0,0E0],"parents":[2147483647,0,0,1,1,2,2,3,3,4,4,6,6,7,7,8,8,10,10,11,11],"right_children":[2,4,6,8,10,-1,12,14,16,-1,18,20,-1,-1,-1,-1,-1,-1,-1,-1,-1],"split_conditions":[5.633803E-1,4.8E1,7.2E1,7E-1,2.6086956E-1,-3.5816845E-1,1E0,8E0,1.2E1,5.979415E-1,7.2E1,1.2E1,-1.6769573E-1,-3.9841023E-1,2.2456612E-1,-1.8583786E-1,-6.9045885E-3,3.0893466E-2,2.9975775E-1,-6.864468E-2,5.789894E-3],"split_indices":[6,3,3,5,6,0,5,0,0,0,3,0,0,0,0,0,0,0,0,0,0],"split_type":[0,0,0,0,0,0,0,0,0,0,0,0,0,0,0,0,0,0,0,0,0],"sum_hessian":[7.06E2,5.32E2,1.74E2,3.68E2,1.64E2,1.23E2,5.1E1,1.33E2,2.35E2,6.3E1,1.01E2,2.8E1,2.3E1,1.4E1,1.19E2,1.4E2,9.5E1,5.1E1,5E1,1.2E1,1.6E1],"tree_param":{"num_deleted":"0","num_feature":"9","num_nodes":"21","size_leaf_vector":"1"}},{"base_weights":[3.5241118E-3,-1.0033471E1,4.159582E0,1.6935623E-1,-1.0932039E1,-3.6620839E0,5.5598392E0,-3.862055E-2,-3.01682E-1,-1.1616998E0,-1.8071318E-1,3.0755093E0,8.522497E0,1.291507E-2,-6.071222E-2,2.0566969E-1,3.7825942E-2,3.2395875E-1,6.98663E-2],"categories":[],"categories_nodes":[],"categories_segments":[],"categories_sizes":[],"default_left":[0,0,0,0,0,0,0,0,0,0,0,0,0,0,0,0,0,0,0],"id":3,"left_children":[1,3,5,-1,7,9,11,-1,-1,13,-1,15,17,-1,-1,-1,-1,-1,-1],"loss_changes":[3.0000447E4,3.456879E3,5.6842734E3,0E0,2.035918E2,5.566482E2,3.0443525E3,0E0,0E0,9.44692E1,0E0,1.7886228E3,3.746038E3,0E0,0E0,0E0,0E0,0E0,0E0],"parents":[2147483647,0,0,1,1,2,2,4,4,5,5,6,6,9,9,11,11,12,12],"right_children":[2,4,6,-1,8,10,12,-1,-1,14,-1,16,18,-1,-1,-1,-1,-1,-1],"split_conditions":[3.75E0,2.7527084E0,3E1,1.6935623E-1,5.46E2,4.38E0,4.5E0,-3.862055E-2,-3.01682E-1,6.5E2,-1.8071318E-1,7E-1,7.605E2,1.291507E-2,-6.071222E-2,2.0566969E-1,3.7825942E-2,3.2395875E-1,6.98663E-2],"split_indices":[8,8,2,0,1,8,8,0,0,1,0,5,1,0,0,0,0,0,0],"split_type":[0,0,0,0,0,0,0,0,0,0,0,0,0,0,0,0,0,0,0],"sum_hessian":[7.08E2,2.05E2,5.03E2,9E0,1.96E2,7.5E1,4.28E2,4E0,1.92E2,4.5E1,3E1,2.39E2,1.89E2,1.9E1,2.6E1,6E1,1.79E2,1.17E2,7.2E1],"tree_param":{"num_deleted":"0","num_feature":"9","num_nodes":"19","size_leaf_vector":"1"}},{"base_weights":[-6.776435E-2,-9.681218E0,3.9562185E0,1.6651379E-1,-1.0552178E1,-2.1068916E-1,1.2145941E1,-1.2878412E1,-9.373937E-2,-2.6908944E0,2.662762E0,6.184337E0,5.581127E-1,-3.818234E-2,-3.5757232E-1,-8.346269E-2,1.2643488E-2,3.9921522E-2,1.8048598E-1,2.8775137E-2,2.912101E-1],"categories":[],"categories_nodes":[],"categories_segments":[],"categories_sizes":[],"default_left":[0,0,0,0,0,0,0,0,0,0,0,0,0,0,0,0,0,0,0,0,0],"id":4,"left_children":[1,3,5,-1,7,9,11,13,-1,15,17,19,-1,-1,-1,-1,-1,-1,-1,-1,-1],"loss_changes":[2.7742053E4,3.2729668E3,1.726852E4,0E0,3.1012422E3,2.4674211E3,7.7919746E3,3.4467578E2,0E0,2.2804822E2,7.075718E2,2.4271484E3,0E0,0E0,0E0,0E0,0E0,0E0,0E0,0E0,0E0],"parents":[2147483647,0,0,1,1,2,2,4,4,5,5,6,6,7,7,9,9,10,10,11,11],"right_children":[2,4,6,-1,8,10,12,14,-1,16,18,20,-1,-1,-1,-1,-1,-1,-1,-1,-1],"split_conditions":[3.75E0,5.357E2,4.8E1,1.6651379E-1,7.2E1,7.605E2,3.85E0,5.46E2,-9.373937E-2,1.2768E3,2.4E1,7.2E1,5.581127E-1,-3.818234E-2,-3.5757232E-1,-8.346269E-2,1.2643488E-2,3.9921522E-2,1.8048598E-1,2.8775137E-2,2.912101E-1],"split_indices":[8,7,3,0,3,1,8,1,0,7,3,3,0,0,0,0,0,0,0,0,0],"split_type":[0,0,0,0,0,0,0,0,0,0,0,0,0,0,0,0,0,0,0,0,0],"sum_hessian":[7.06E2,2.06E2,5E2,9E0,1.97E2,3.35E2,1.65E2,1.45E2,5.2E1,1.8E2,1.55E2,1.02E2,6.3E1,4E0,1.41E2,1.61E2,1.9E1,1.25E2,3E1,5.1E1,5.1E1],"tree_param":{"num_deleted":"0","num_feature":"9","num_nodes":"21","size_leaf_vector":"1"}},{"base_weights":[1.1746303E-2,-9.405947E0,3.8916519E0,1.6371903E-1,-1.0257281E1,-3.5232642E0,5.2046204E0,-4.3227383E-1,-9.503677E0,-1.0972093E0,-6.417042E0,2.722108E0,8.26749E0,-5.9904847E-2,-2.643486E-1,-7.5863004E-2,1.1207331E-2,-1.9810233E-1,-3.045478E-2,5.4339267E-2,1.0989355E-1,6.719131E-2,3.1537214E-1],"categories":[],"categories_nodes":[],"categories_segments":[],"categories_sizes":[],"default_left":[0,0,0,0,0,0,0,0,0,0,0,0,0,0,0,0,0,0,0,0,0,0,0],"id":5,"left_children":[1,3,5,-1,7,9,11,-1,13,15,17,19,21,-1,-1,-1,-1,-1,-1,-1,-1,-1,-1],"loss_changes":[2.6498441E4,3.1232793E3,5.1027715E3,0E0,1.3574219E1,5.2619037E2,3.2086592E3,0E0,1.7386719E2,1.3552925E2,1.1665259E2,1.939231E2,3.5663652E3,0E0,0E0,0E0,0E0,0E0,0E0,0E0,0E0,0E0,0E0],"parents":[2147483647,0,0,1,1,2,2,4,4,5,5,6,6,8,8,9,9,10,10,11,11,12,12],"right_children":[2,4,6,-1,8,10,12,-1,14,16,18,20,22,-1,-1,-1,-1,-1,-1,-1,-1,-1,-1],"split_conditions":[3.75E0,2.7527084E0,3E1,1.6371903E-1,6E0,4.38E0,4.5E0,-4.3227383E-1,3.175E0,1.2E1,1.4E1,1.2E1,4.8E1,-5.9904847E-2,-2.643486E-1,-7.5863004E-2,1.1207331E-2,-1.9810233E-1,-3.045478E-2,5.4339267E-2,1.0989355E-1,6.719131E-2,3.1537214E-1],"split_indices":[8,8,2,0,0,8,8,0,8,0,0,0,2,0,0,0,0,0,0,0,0,0,0],"split_type":[0,0,0,0,0,0,0,0,0,0,0,0,0,0,0,0,0,0,0,0,0,0,0],"sum_hessian":[7.14E2,2.06E2,5.08E2,9E0,1.97E2,7.5E1,4.33E2,1E1,1.87E2,4.5E1,3E1,2.45E2,1.88E2,7E0,1.8E2,1.9E1,2.6E1,2.4E1,6E0,1.67E2,7.8E1,7.2E1,1.16E2],"tree_param":{"num_deleted":"0","num_feature":"9","num_nodes":"23","size_leaf_vector":"1"}},{"base_weights":[-6.656643E-2,3.164546E0,-9.525919E0,-8.5493803E-1,1.1692764E1,-3.2453635E-1,-3.1208346E0,-4.2472947E-1,-2.0367835E-1,8.696822E0,3.9890653E-1,-1.0083882E-1,-6.1298764E-1,-1.1090039E-1,5.0925273E-2,1.1186366E-1,2.6804626E-1,-3.205684E-2,9.7067794E-4],"categories":[],"categories_nodes":[],"categories_segments":[],"categories_sizes":[],"default_left":[0,0,0,0,0,0,0,0,0,0,0,0,0,0,0,0,0,0,0],"id":6,"left_children":[1,3,5,7,9,-1,11,-1,13,15,-1,-1,17,-1,-1,-1,-1,-1,-1],"loss_changes":[2.2040453E4,1.8484492E4,2.61133E3,3.5417698E3,8.186367E2,0E0,7.153473E1,0E0,2.9387798E3,2.9919678E2,0E0,0E0,6.716386E0,0E0,0E0,0E0,0E0,0E0,0E0],"parents":[2147483647,0,0,1,1,2,2,3,3,4,4,6,6,8,8,9,9,12,12],"right_children":[2,4,6,8,10,-1,12,-1,14,16,-1,-1,18,-1,-1,-1,-1,-1,-1],"split_conditions":[1.42E3,4.8E1,7.2E1,6E0,7.2E1,-3.2453635E-1,1.4E1,-4.2472947E-1,2.8E1,1E1,3.9890653E-1,-1.0083882E-1,7E0,-1.1090039E-1,5.0925273E-2,1.1186366E-1,2.6804626E-1,-3.205684E-2,9.7067794E-4],"split_indices":[7,3,3,0,3,0,0,0,4,0,0,0,4,0,0,0,0,0,0],"split_type":[0,0,0,0,0,0,0,0,0,0,0,0,0,0,0,0,0,0,0],"sum_hessian":[7.1E2,5.32E2,1.78E2,3.65E2,1.67E2,1.26E2,5.2E1,1E1,3.55E2,9.4E1,7.3E1,4E1,1.2E1,1.22E2,2.33E2,2.4E1,7E1,4E0,8E0],"tree_param":{"num_deleted":"0","num_feature":"9","num_nodes":"19","size_leaf_vector":"1"}},{"base_weights":[-7.194616E-2,3.0464895E0,-9.318917E0,-8.5724396E-1,1.1568597E1,-3.162935E-1,-3.0846806E0,-4.1731676E-1,-2.2484186E-1,8.452994E0,3.966578E-1,-1.0002007E-1,-6.0613996E-1,-1.06561825E-1,4.748159E-2,1.09394655E-1,2.6151785E-1,-3.169308E-2,9.5515925E-4],"categories":[],"categories_nodes":[],"categories_segments":[],"categories_sizes":[],"default_left":[0,0,0,0,0,0,0,0,0,0,0,0,0,0,0,0,0,0,0],"id":7,"left_children":[1,3,5,7,9,-1,11,-1,13,15,-1,-1,17,-1,-1,-1,-1,-1,-1],"loss_changes":[2.076514E4,1.79738E4,2.4053428E3,3.4094368E3,8.980078E2,0E0,7.0197754E1,0E0,2.688107E3,2.78417E2,0E0,0E0,6.56236E0,0E0,0E0,0E0,0E0,0E0,0E0],"parents":[2147483647,0,0,1,1,2,2,3,3,4,4,6,6,8,8,9,9,12,12],"right_children":[2,4,6,8,10,-1,12,-1,14,16,-1,-1,18,-1,-1,-1,-1,-1,-1],"split_conditions":[1.42E3,4.8E1,7.2E1,6E0,7.2E1,-3.162935E-1,1.4E1,-4.1731676E-1,2.8E1,1E1,3.966578E-1,-1.0002007E-1,7E0,-1.06561825E-1,4.748159E-2,1.09394655E-1,2.6151785E-1,-3.169308E-2,9.5515925E-4],"split_indices":[7,3,3,0,3,0,0,0,4,0,0,0,4,0,0,0,0,0,0],"split_type":[0,0,0,0,0,0,0,0,0,0,0,0,0,0,0,0,0,0,0],"sum_hessian":[7.09E2,5.33E2,1.76E2,3.69E2,1.64E2,1.25E2,5.1E1,1E1,3.59E2,9.1E1,7.3E1,3.9E1,1.2E1,1.23E2,2.36E2,2.4E1,6.7E1,4E0,8E0],"tree_param":{"num_deleted":"0","num_feature":"9","num_nodes":"19","size_leaf_vector":"1"}},{"base_weights":[5.6746118E-2,-8.634857E0,3.5557039E0,5.853658E0,-9.456514E0,-3.352854E0,4.7559495E0,1.7693949E-1,3.1743415E-2,-3.7026115E-2,-9.583665E0,-1.0496283E0,-1.6815269E-1,2.3539453E0,7.7369905E0,-3.4157157E-1,-2.3045899E-1,1.0651052E-2,-5.4065224E-2,5.49503E-2,1.2995395E-1,2.9718375E-1,5.5438083E-2],"categories":[],"categories_nodes":[],"categories_segments":[],"categories_sizes":[],"default_left":[0,0,0,0,0,0,0,0,0,0,0,0,0,0,0,0,0,0,0,0,0,0,0],"id":8,"left_children":[1,3,5,7,9,11,13,-1,-1,-1,15,17,-1,19,21,-1,-1,-1,-1,-1,-1,-1,-1],"loss_changes":[2.199479E4,2.7811387E3,4.364551E3,1.6325989E0,1.3116016E2,4.814533E2,3.0598232E3,0E0,0E0,0E0,4.913086E1,7.269682E1,0E0,1.5069177E2,3.4047031E3,0E0,0E0,0E0,0E0,0E0,0E0,0E0,0E0],"parents":[2147483647,0,0,1,1,2,2,3,3,4,4,5,5,6,6,10,10,11,11,13,13,14,14],"right_children":[2,4,6,8,10,12,14,-1,-1,-1,16,18,-1,20,22,-1,-1,-1,-1,-1,-1,-1,-1],"split_conditions":[3.75E0,5.357E2,3E1,7.818E2,5.46E2,4.38E0,4.5E0,1.7693949E-1,3.1743415E-2,-3.7026115E-2,3E1,6.5E2,-1.6815269E-1,7.954E2,7.605E2,-3.4157157E-1,-2.3045899E-1,1.0651052E-2,-5.4065224E-2,5.49503E-2,1.2995395E-1,2.9718375E-1,5.5438083E-2],"split_indices":[8,7,2,1,1,8,8,0,0,0,2,1,0,1,1,0,0,0,0,0,0,0,0],"split_type":[0,0,0,0,0,0,0,0,0,0,0,0,0,0,0,0,0,0,0,0,0,0,0],"sum_hessian":[7.12E2,2.02E2,5.1E2,9E0,1.93E2,7.4E1,4.36E2,6E0,3E0,4E0,1.89E2,4.5E1,2.9E1,2.47E2,1.89E2,3.6E1,1.53E2,1.9E1,2.6E1,2.26E2,2.1E1,1.18E2,7.1E1],"tree_param":{"num_deleted":"0","num_feature":"9","num_nodes":"23","size_leaf_vector":"1"}},{"base_weights":[-5.0547555E-2,2.9345946E0,-2.414349E-1,-4.2030587E0,4.631944E0,-4.0407208E-1,-2.2410114E0,1.8669199E0,5.788219E0,1.6573685E-1,-9.194298E-2,3.0625032E-2,1.0382311E-1,2.5465077E-1,6.276481E-2],"categories":[],"categories_nodes":[],"categories_segments":[],"categories_sizes":[],"default_left":[0,0,0,0,0,0,0,0,0,0,0,0,0,0,0],"id":9,"left_children":[1,3,-1,5,7,-1,9,11,13,-1,-1,-1,-1,-1,-1],"loss_changes":[1.901336E4,6.6461733E3,0E0,2.0392969E3,1.3415508E3,0E0,1.0300222E3,1.7460776E2,3.68821E3,0E0,0E0,0E0,0E0,0E0,0E0],"parents":[2147483647,0,0,1,1,3,3,4,4,6,6,7,7,8,8],"right_children":[2,4,-1,6,8,-1,10,12,14,-1,-1,-1,-1,-1,-1],"split_conditions":[5.633803E-1,3E1,-2.414349E-1,6E0,1.0908E3,-4.0407208E-1,5.351E2,7.774E2,2.6086956E-1,1.6573685E-1,-9.194298E-2,3.0625032E-2,1.0382311E-1,2.5465077E-1,6.276481E-2],"split_indices":[6,2,0,0,7,0,7,1,6,0,0,0,0,0,0],"split_type":[0,0,0,0,0,0,0,0,0,0,0,0,0,0,0],"sum_hessian":[7.11E2,5.34E2,1.77E2,1.01E2,4.33E2,1E1,9.1E1,1.32E2,3.01E2,8E0,8.3E1,1.02E2,3E1,1.44E2,1.57E2],"tree_param":{"num_deleted":"0","num_feature":"9","num_nodes":"15","size_leaf_vector":"1"}},{"base_weights":[4.3284897E-2,-8.324719E0,3.4578023E0,5.6898437E0,-9.112352E0,-4.189485E-1,1.1064426E1,1.7211314E-1,3.068333E-2,-1.1221274E1,-2.6365652E0,7.4508595E0,-4.270457E0,5.17321E-1,5.330708E0,-3.556276E-2,-3.1145185E-1,-5.530362E-3,-1.3550022E-1,2.5682056E-1,1.300234E-1,-7.274779E-2,-2.4967474E-1,1.3253553E-2,2.6052213E-1],"categories":[],"categories_nodes":[],"categories_segments":[],"categories_sizes":[],"default_left":[0,0,0,0,0,0,0,0,0,0,0,0,0,0,0,0,0,0,0,0,0,0,0,0,0],"id":10,"left_children":[1,3,5,7,9,11,13,-1,-1,15,17,19,21,-1,23,-1,-1,-1,-1,-1,-1,-1,-1,-1,-1],"loss_changes":[2.0664516E4,2.603751E3,1.5171648E4,2.0946655E0,2.5735605E3,1.0653112E4,7.3381816E3,0E0,0E0,2.4517578E2,3.1670285E2,3.6087744E2,1.7078604E3,0E0,2.2045588E3,0E0,0E0,0E0,0E0,0E0,0E0,0E0,0E0,0E0,0E0],"parents":[2147483647,0,0,1,1,2,2,3,3,4,4,5,5,6,6,9,9,10,10,11,11,12,12,14,14],"right_children":[2,4,6,8,10,12,14,-1,-1,16,18,20,22,-1,24,-1,-1,-1,-1,-1,-1,-1,-1,-1,-1],"split_conditions":[3.75E0,2.7527084E0,4.8E1,7.818E2,7.2E1,7E-1,2.6086956E-1,1.7211314E-1,3.068333E-2,5.46E2,1E0,6E-1,7.605E2,5.17321E-1,7.2E1,-3.556276E-2,-3.1145185E-1,-5.530362E-3,-1.3550022E-1,2.5682056E-1,1.300234E-1,-7.274779E-2,-2.4967474E-1,1.3253553E-2,2.6052213E-1],"split_indices":[8,8,3,1,3,5,6,0,0,1,5,5,1,0,3,0,0,0,0,0,0,0,0,0,0],"split_type":[0,0,0,0,0,0,0,0,0,0,0,0,0,0,0,0,0,0,0,0,0,0,0,0,0],"sum_hessian":[7.12E2,2.04E2,5.08E2,9E0,1.95E2,3.4E2,1.68E2,6E0,3E0,1.44E2,5.1E1,1.1E2,2.3E2,6.5E1,1.03E2,4E0,1.4E2,2.8E1,2.3E1,5.5E1,5.5E1,1.8E2,5E1,5.1E1,5.2E1],"tree_param":{"num_deleted":"0","num_feature":"9","num_nodes":"25","size_leaf_vector":"1"}},{"base_weights":[-1.10718235E-1,-8.050524E0,3.146866E0,5.1497245E0,-8.860436E0,-4.3916154E-1,1.0393457E1,1.1867055E-2,1.6538164E-1,-1.0956577E1,-2.3656144E0,2.1516016E0,-2.7376664E0,5.021805E0,4.9531338E-1,-6.094914E-2,-3.024055E-1,-9.150638E-2,-2.5462806E-2,2.4289334E-2,1.7160709E-1,-1.1268043E-1,3.1243555E-2,9.321679E-3,2.5050995E-1],"categories":[],"categories_nodes":[],"categories_segments":[],"categories_sizes":[],"default_left":[0,0,0,0,0,0,0,0,0,0,0,0,0,0,0,0,0,0,0,0,0,0,0,0,0],"id":11,"left_children":[1,3,5,7,9,11,13,-1,-1,15,17,19,21,23,-1,-1,-1,-1,-1,-1,-1,-1,-1,-1,-1],"loss_changes":[1.8546988E4,2.4854912E3,1.3242427E4,5.3095825E1,2.5582607E3,2.0909485E3,6.55659E3,0E0,0E0,6.024414E1,6.1494965E1,8.3435846E2,1.0380146E3,2.087747E3,0E0,0E0,0E0,0E0,0E0,0E0,0E0,0E0,0E0,0E0,0E0],"parents":[2147483647,0,0,1,1,2,2,3,3,4,4,5,5,6,6,9,9,10,10,11,11,12,12,13,13],"right_children":[2,4,6,8,10,12,14,-1,-1,16,18,20,22,24,-1,-1,-1,-1,-1,-1,-1,-1,-1,-1,-1],"split_conditions":[3.75E0,5.388E2,4.8E1,1E1,7.2E1,1.117E3,3.85E0,1.1867055E-2,1.6538164E-1,5.42E2,1.2E1,2.4E1,1.4E1,7.2E1,4.9531338E-1,-6.094914E-2,-3.024055E-1,-9.150638E-2,-2.5462806E-2,2.4289334E-2,1.7160709E-1,-1.1268043E-1,3.1243555E-2,9.321679E-3,2.5050995E-1],"split_indices":[8,7,3,0,3,7,8,0,0,7,0,3,0,3,0,0,0,0,0,0,0,0,0,0,0],"split_type":[0,0,0,0,0,0,0,0,0,0,0,0,0,0,0,0,0,0,0,0,0,0,0,0,0],"sum_hessian":[7.06E2,2.03E2,5.03E2,1E1,1.93E2,3.4E2,1.63E2,3E0,7E0,1.43E2,5E1,1.6E2,1.8E2,1.02E2,6.1E1,4E0,1.39E2,2.5E1,2.5E1,1.28E2,3.2E1,1.32E2,4.8E1,5.1E1,5.1E1],"tree_param":{"num_deleted":"0","num_feature":"9","num_nodes":"25","size_leaf_vector":"1"}},{"base_weights":[-2.84189E-2,-7.801945E0,3.1816585E0,5.0732064E0,-8.589368E0,-3.4112665E-1,1.0276563E1,1.6287991E-1,1.1754312E-2,-1.0583622E1,-2.5036147E0,7.3758407E0,-4.1355977E0,4.9358196E0,4.910399E-1,-3.1727914E-2,-2.9391295E-1,-3.1294345E-3,-1.3115919E-1,2.4914815E-1,1.3380077E-1,-7.204943E-2,-2.3872097E-1,1.1016664E-2,2.4436575E-1],"categories":[],"categories_nodes":[],"categories_segments":[],"categories_sizes":[],"default_left":[0,0,0,0,0,0,0,0,0,0,0,0,0,0,0,0,0,0,0,0,0,0,0,0,0],"id":12,"left_children":[1,3,5,7,9,11,13,-1,-1,15,17,19,21,23,-1,-1,-1,-1,-1,-1,-1,-1,-1,-1,-1],"loss_changes":[1.7895887E4,2.3688115E3,1.2706651E4,5.1301178E1,2.2737422E3,1.0260916E4,6.492885E3,0E0,0E0,2.3038672E2,3.0975204E2,2.5342236E2,1.4882766E3,1.9502031E3,0E0,0E0,0E0,0E0,0E0,0E0,0E0,0E0,0E0,0E0,0E0],"parents":[2147483647,0,0,1,1,2,2,3,3,4,4,5,5,6,6,9,9,10,10,11,11,12,12,13,13],"right_children":[2,4,6,8,10,12,14,-1,-1,16,18,20,22,24,-1,-1,-1,-1,-1,-1,-1,-1,-1,-1,-1],"split_conditions":[3.75E0,5.388E2,4.8E1,7.842E2,7.2E1,7E-1,3.85E0,1.6287991E-1,1.1754312E-2,5.46E2,1E0,6E-1,7.605E2,7.2E1,4.910399E-1,-3.1727914E-2,-2.9391295E-1,-3.1294345E-3,-1.3115919E-1,2.4914815E-1,1.3380077E-1,-7.204943E-2,-2.3872097E-1,1.1016664E-2,2.4436575E-1],"split_indices":[8,7,3,1,3,5,8,0,0,1,5,5,1,3,0,0,0,0,0,0,0,0,0,0,0],"split_type":[0,0,0,0,0,0,0,0,0,0,0,0,0,0,0,0,0,0,0,0,0,0,0,0,0],"sum_hessian":[7.06E2,2.04E2,5.02E2,1E1,1.94E2,3.39E2,1.63E2,7E0,3E0,1.43E2,5.1E1,1.1E2,2.29E2,1.02E2,6.1E1,4E0,1.39E2,2.8E1,2.3E1,5.5E1,5.5E1,1.8E2,4.9E1,5.1E1,5.1E1],"tree_param":{"num_deleted":"0","num_feature":"9","num_nodes":"25","size_leaf_vector":"1"}},{"base_weights":[7.73549E-2,-7.67412E0,3.2398994E0,5.4521008E0,-8.415264E0,7.2685947E0,2.0796115E0,1.6506577E-1,2.9202733E-2,-7.7411284E0,-3.8204902E-1,2.4559465E-1,4.7891536E0,3.6277754E0,-8.495451E0,-1.5096389E-1,-2.6419643E-1,1.3351834E-1,2.4885964E-2,3.974779E-2,1.760167E-1,-2.4178967E-1,-6.0569223E-2],"categories":[],"categories_nodes":[],"categories_segments":[],"categories_sizes":[],"default_left":[0,0,0,0,0,0,0,0,0,0,0,0,0,0,0,0,0,0,0,0,0,0,0],"id":13,"left_children":[1,3,5,7,9,11,13,-1,-1,15,-1,-1,17,19,21,-1,-1,-1,-1,-1,-1,-1,-1],"loss_changes":[1.7730361E4,2.2958076E3,2.315915E3,2.5328674E0,1.5162305E2,2.4773242E2,6.8290176E3,0E0,0E0,5.2485547E2,0E0,0E0,1.1826172E0,2.1536987E3,1.953418E1,0E0,0E0,0E0,0E0,0E0,0E0,0E0,0E0],"parents":[2147483647,0,0,1,1,2,2,3,3,4,4,5,5,6,6,9,9,12,12,13,13,14,14],"right_children":[2,4,6,8,10,12,14,-1,-1,16,-1,-1,18,20,22,-1,-1,-1,-1,-1,-1,-1,-1],"split_conditions":[3.75E0,5.357E2,7E-1,7.818E2,7.947E2,6E-1,7.605E2,1.6506577E-1,2.9202733E-2,1E0,-3.8204902E-1,2.4559465E-1,1.0908446E3,4.38E0,7.954E2,-1.5096389E-1,-2.6419643E-1,1.3351834E-1,2.4885964E-2,3.974779E-2,1.760167E-1,-2.4178967E-1,-6.0569223E-2],"split_indices":[8,7,5,1,1,5,1,0,0,5,0,0,7,8,1,0,0,0,0,0,0,0,0],"split_type":[0,0,0,0,0,0,0,0,0,0,0,0,0,0,0,0,0,0,0,0,0,0,0],"sum_hessian":[7.12E2,2.04E2,5.08E2,9E0,1.95E2,1.07E2,4.01E2,6E0,3E0,1.86E2,9E0,5.4E1,5.3E1,3.53E2,4.8E1,9.8E1,8.8E1,5E1,3E0,2.05E2,1.48E2,4.3E1,5E0],"tree_param":{"num_deleted":"0","num_feature":"9","num_nodes":"23","size_leaf_vector":"1"}},{"base_weights":[-3.1323932E-2,-7.3982778E0,2.9845085E0,4.9383883E0,-8.158752E0,6.929997E0,1.8268368E0,1.582127E-1,1.1935767E-2,-7.4834647E0,-3.7563685E-1,2.3692594E-1,1.20630346E-1,3.4184873E0,-2.3513748E-1,-1.4498821E-1,-2.563909E-1,3.7349887E-2,1.654988E-1],"categories":[],"categories_nodes":[],"categories_segments":[],"categories_sizes":[],"default_left":[0,0,0,0,0,0,0,0,0,0,0,0,0,0,0,0,0,0,0],"id":14,"left_children":[1,3,5,7,9,11,13,-1,-1,15,-1,-1,-1,17,-1,-1,-1,-1,-1],"loss_changes":[1.595574E4,2.182495E3,2.2565176E3,4.692035E1,1.7824805E2,2.8739502E2,6.855029E3,0E0,0E0,5.1060156E2,0E0,0E0,0E0,1.8738052E3,0E0,0E0,0E0,0E0,0E0],"parents":[2147483647,0,0,1,1,2,2,3,3,4,4,5,5,6,6,9,9,13,13],"right_children":[2,4,6,8,10,12,14,-1,-1,16,-1,-1,-1,18,-1,-1,-1,-1,-1],"split_conditions":[3.75E0,5.388E2,7E-1,7.842E2,7.947E2,6E-1,7.605E2,1.582127E-1,1.1935767E-2,1E0,-3.7563685E-1,2.3692594E-1,1.20630346E-1,4.38E0,-2.3513748E-1,-1.4498821E-1,-2.563909E-1,3.7349887E-2,1.654988E-1],"split_indices":[8,7,5,1,1,5,1,0,0,5,0,0,0,8,0,0,0,0,0],"split_type":[0,0,0,0,0,0,0,0,0,0,0,0,0,0,0,0,0,0,0],"sum_hessian":[7.07E2,2.03E2,5.04E2,1E1,1.93E2,1.08E2,3.96E2,7E0,3E0,1.84E2,9E0,5.5E1,5.3E1,3.47E2,4.9E1,9.7E1,8.7E1,2.01E2,1.46E2],"tree_param":{"num_deleted":"0","num_feature":"9","num_nodes":"19","size_leaf_vector":"1"}},{"base_weights":[9.057331E-3,2.5900896E0,-7.5487266E0,-5.2138743E0,3.0116203E0,-1.4434722E-1,-2.592605E-1,4.865074E0,-1.174823E1,6.6825767E0,1.9301627E0,1.558194E-1,1.1822371E-2,-5.3564552E-2,-3.6875892E-1,2.2731975E-1,1.2212006E-1,9.5662005E-2,-2.2782135E-1],"categories":[],"categories_nodes":[],"categories_segments":[],"categories_sizes":[],"default_left":[0,0,0,0,0,0,0,0,0,0,0,0,0,0,0,0,0,0,0],"id":15,"left_children":[1,3,5,7,9,-1,-1,11,13,15,17,-1,-1,-1,-1,-1,-1,-1,-1],"loss_changes":[1.4068258E4,1.8562598E3,5.3179395E2,2.269075E3,1.9665347E3,0E0,0E0,4.531909E1,1.9540356E2,2.1001904E2,6.768494E3,0E0,0E0,0E0,0E0,0E0,0E0,0E0,0E0],"parents":[2147483647,0,0,1,1,2,2,3,3,4,4,7,7,8,8,9,9,10,10],"right_children":[2,4,6,8,10,-1,-1,12,14,16,18,-1,-1,-1,-1,-1,-1,-1,-1],"split_conditions":[5.633803E-1,5E-1,1E0,7.872E2,7E-1,-1.4434722E-1,-2.592605E-1,7.842E2,5.42E2,6E-1,7.605E2,1.558194E-1,1.1822371E-2,-5.3564552E-2,-3.6875892E-1,2.2731975E-1,1.2212006E-1,9.5662005E-2,-2.2782135E-1],"split_indices":[6,5,5,1,5,0,0,1,7,5,1,0,0,0,0,0,0,0,0],"split_type":[0,0,0,0,0,0,0,0,0,0,0,0,0,0,0,0,0,0,0],"sum_hessian":[7.1E2,5.32E2,1.78E2,2.4E1,5.08E2,9.3E1,8.5E1,1E1,1.4E1,1.09E2,3.99E2,7E0,3E0,4E0,1E1,5.3E1,5.6E1,3.49E2,5E1],"tree_param":{"num_deleted":"0","num_feature":"9","num_nodes":"19","size_leaf_vector":"1"}},{"base_weights":[1.1102934E-2,-7.1015754E0,2.9528334E0,5.2243648E0,-7.793563E0,1.5325068E0,4.7437944E0,1.5831803E-1,2.7780386E-2,-7.1498566E0,-3.631431E-1,1.2267286E0,1.2152256E-1,6.476312E0,1.1537777E0,-2.6546406E-2,-1.9735605E-1,4.0091112E-2,2.3755187E-3,1.2865312E-1,2.8636032E-1,-2.8656948E-2,6.35457E-2],"categories":[],"categories_nodes":[],"categories_segments":[],"categories_sizes":[],"default_left":[0,0,0,0,0,0,0,0,0,0,0,0,0,0,0,0,0,0,0,0,0,0,0],"id":16,"left_children":[1,3,5,7,9,11,13,-1,-1,15,-1,17,-1,19,21,-1,-1,-1,-1,-1,-1,-1,-1],"loss_changes":[1.5131845E4,2.0326514E3,1.2605029E3,2.9234924E0,1.8929297E2,2.3244012E2,1.3486685E3,0E0,0E0,8.1296875E1,0E0,7.601102E1,0E0,7.798672E2,2.2122269E2,0E0,0E0,0E0,0E0,0E0,0E0,0E0,0E0],"parents":[2147483647,0,0,1,1,2,2,3,3,4,4,5,5,6,6,9,9,11,11,13,13,14,14],"right_children":[2,4,6,8,10,12,14,-1,-1,16,-1,18,-1,20,22,-1,-1,-1,-1,-1,-1,-1,-1],"split_conditions":[3.75E0,5.357E2,4.5E0,7.818E2,7.947E2,7.954E2,4.5274153E0,1.5831803E-1,2.7780386E-2,5.46E2,-3.631431E-1,7.60538E2,1.2152256E-1,2.8E1,7.74E2,-2.6546406E-2,-1.9735605E-1,4.0091112E-2,2.3755187E-3,1.2865312E-1,2.8636032E-1,-2.8656948E-2,6.35457E-2],"split_indices":[8,7,8,1,1,1,8,0,0,1,0,1,0,4,1,0,0,0,0,0,0,0,0],"split_type":[0,0,0,0,0,0,0,0,0,0,0,0,0,0,0,0,0,0,0,0,0,0,0],"sum_hessian":[7.12E2,2.06E2,5.06E2,9E0,1.97E2,2.88E2,2.18E2,6E0,3E0,1.88E2,9E0,2.68E2,2E1,1.44E2,7.4E1,4E0,1.84E2,2.19E2,4.9E1,1.09E2,3.5E1,2.6E1,4.8E1],"tree_param":{"num_deleted":"0","num_feature":"9","num_nodes":"23","size_leaf_vector":"1"}},{"base_weights":[9.3279496E-2,-6.8612905E0,2.925414E0,4.7392573E0,-7.5827217E0,-3.470532E0,4.0222178E0,1.21591035E-2,1.5134957E-1,-3.5627455E-1,-6.898587E0,-9.908123E-1,-6.2398815E0,1.9427361E0,6.6109347E0,-4.02574E-2,-1.9138817E-1,-6.852161E-2,1.1232589E-2,-1.9217497E-1,-3.0781496E-2,4.288404E-2,1.3130388E-1,2.5013286E-1,5.275299E-2],"categories":[],"categories_nodes":[],"categories_segments":[],"categories_sizes":[],"default_left":[0,0,0,0,0,0,0,0,0,0,0,0,0,0,0,0,0,0,0,0,0,0,0,0,0],"id":17,"left_children":[1,3,5,7,9,11,13,-1,-1,-1,15,17,19,21,23,-1,-1,-1,-1,-1,-1,-1,-1,-1,-1],"loss_changes":[1.4127945E4,1.938501E3,3.6529707E3,4.091333E1,2.3866113E2,4.9804773E2,2.2835386E3,0E0,0E0,0E0,7.709277E1,1.0786655E2,1.0436023E2,2.2236774E2,2.2212559E3,0E0,0E0,0E0,0E0,0E0,0E0,0E0,0E0,0E0,0E0],"parents":[2147483647,0,0,1,1,2,2,3,3,4,4,5,5,6,6,10,10,11,11,12,12,13,13,14,14],"right_children":[2,4,6,8,10,12,14,-1,-1,-1,16,18,20,22,24,-1,-1,-1,-1,-1,-1,-1,-1,-1,-1],"split_conditions":[3.75E0,2.7683334E0,3E1,1E1,6E0,4.38E0,4.5E0,1.21591035E-2,1.5134957E-1,-3.5627455E-1,3.175E0,1.2E1,1.4E1,7.954E2,7.605E2,-4.02574E-2,-1.9138817E-1,-6.852161E-2,1.1232589E-2,-1.9217497E-1,-3.0781496E-2,4.288404E-2,1.3130388E-1,2.5013286E-1,5.275299E-2],"split_indices":[8,8,2,0,0,8,8,0,0,0,8,0,0,1,1,0,0,0,0,0,0,0,0,0,0],"split_type":[0,0,0,0,0,0,0,0,0,0,0,0,0,0,0,0,0,0,0,0,0,0,0,0,0],"sum_hessian":[7.06E2,2.02E2,5.04E2,1E1,1.92E2,7.2E1,4.32E2,3E0,7E0,1E1,1.82E2,4.2E1,3E1,2.45E2,1.87E2,6E0,1.76E2,1.8E1,2.4E1,2.4E1,6E0,2.25E2,2E1,1.17E2,7E1],"tree_param":{"num_deleted":"0","num_feature":"9","num_nodes":"25","size_leaf_vector":"1"}},{"base_weights":[5.5464998E-2,-6.7519174E0,2.7825868E0,5.079313E0,-7.434775E0,-7.284279E-1,9.72331E0,1.5395664E-1,2.696021E-2,-9.378924E0,-1.52464E0,6.559747E0,-4.211915E0,4.580353E-1,4.602886E0,-4.8906833E-2,-2.6057824E-1,1.929805E-2,-1.0270506E-1,2.2443092E-1,1.1690282E-1,-2.2448306E-1,-7.8849815E-2,3.6359401E-3,2.3666863E-1],"categories":[],"categories_nodes":[],"categories_segments":[],"categories_sizes":[],"default_left":[0,0,0,0,0,0,0,0,0,0,0,0,0,0,0,0,0,0,0,0,0,0,0,0,0],"id":18,"left_children":[1,3,5,7,9,11,13,-1,-1,15,17,19,21,-1,23,-1,-1,-1,-1,-1,-1,-1,-1,-1,-1],"loss_changes":[1.3408257E4,1.8804365E3,1.260442E4,2.897766E0,2.1900635E3,8.979332E3,5.8820215E3,0E0,0E0,1.2177637E2,2.943349E2,2.3904102E2,1.1321147E3,0E0,1.9795901E3,0E0,0E0,0E0,0E0,0E0,0E0,0E0,0E0,0E0,0E0],"parents":[2147483647,0,0,1,1,2,2,3,3,4,4,5,5,6,6,9,9,10,10,11,11,12,12,14,14],"right_children":[2,4,6,8,10,12,14,-1,-1,16,18,20,22,-1,24,-1,-1,-1,-1,-1,-1,-1,-1,-1,-1],"split_conditions":[3.75E0,5.357E2,4.8E1,5.332E2,7.2E1,7E-1,2.6086956E-1,1.5395664E-1,2.696021E-2,5.42E2,1E0,6E-1,7.5E-1,4.580353E-1,7.2E1,-4.8906833E-2,-2.6057824E-1,1.929805E-2,-1.0270506E-1,2.2443092E-1,1.1690282E-1,-2.2448306E-1,-7.8849815E-2,3.6359401E-3,2.3666863E-1],"split_indices":[8,7,3,7,3,5,6,0,0,7,5,5,5,0,3,0,0,0,0,0,0,0,0,0,0],"split_type":[0,0,0,0,0,0,0,0,0,0,0,0,0,0,0,0,0,0,0,0,0,0,0,0,0],"sum_hessian":[7.11E2,2.01E2,5.1E2,9E0,1.92E2,3.42E2,1.68E2,6E0,3E0,1.42E2,5E1,1.09E2,2.33E2,6.5E1,1.03E2,5E0,1.37E2,2.7E1,2.3E1,5.4E1,5.5E1,5E1,1.83E2,5.2E1,5.1E1],"tree_param":{"num_deleted":"0","num_feature":"9","num_nodes":"25","size_leaf_vector":"1"}},{"base_weights":[6.108229E-2,-2.5915267E0,4.335453E0,4.2581034E0,-5.6111336E0,1.9996271E0,6.900197E0,-4.8533907E0,6.4035764E0,-7.556221E-1,-6.0412726E0,4.041381E0,-2.8720846E-2,2.2501564E-1,5.076037E0,1.2540816E-1,-2.993592E-1,2.210315E-1,1.1397446E-1,-7.8637265E-2,1.3816299E-2,-1.2939912E-1,-2.0770723E-1,7.233399E-2,1.7580724E-1,-3.3019718E-2,7.280405E-2,1.6303104E-1,8.432251E-2],"categories":[],"categories_nodes":[],"categories_segments":[],"categories_sizes":[],"default_left":[0,0,0,0,0,0,0,0,0,0,0,0,0,0,0,0,0,0,0,0,0,0,0,0,0,0,0,0,0],"id":19,"left_children":[1,3,5,7,9,11,13,15,17,19,21,23,25,-1,27,-1,-1,-1,-1,-1,-1,-1,-1,-1,-1,-1,-1,-1,-1],"loss_changes":[8.1311406E3,9.287986E3,1.5675723E3,2.8832407E3,6.208545E2,6.285847E2,8.552734E1,2.0044792E3,2.4549219E2,9.343691E1,3.7701172E2,1.5660803E2,2.7941214E2,0E0,2.1705688E1,0E0,0E0,0E0,0E0,0E0,0E0,0E0,0E0,0E0,0E0,0E0,0E0,0E0,0E0],"parents":[2147483647,0,0,1,1,2,2,3,3,4,4,5,5,6,6,7,7,8,8,9,9,10,10,11,11,12,12,14,14],"right_children":[2,4,6,8,10,12,14,16,18,20,22,24,26,-1,28,-1,-1,-1,-1,-1,-1,-1,-1,-1,-1,-1,-1,-1,-1],"split_conditions":[4.8E1,7E-1,7.2E1,3E1,6.5E2,1E0,1E0,7.872E2,6E-1,5.47E2,1E0,2.8E1,2.8E1,2.2501564E-1,1.4E1,1.2540816E-1,-2.993592E-1,2.210315E-1,1.1397446E-1,-7.8637265E-2,1.3816299E-2,-1.2939912E-1,-2.0770723E-1,7.233399E-2,1.7580724E-1,-3.3019718E-2,7.280405E-2,1.6303104E-1,8.432251E-2],"split_indices":[3,5,3,2,1,5,5,1,5,1,5,4,4,0,4,0,0,0,0,0,0,0,0,0,0,0,0,0,0],"split_type":[0,0,0,0,0,0,0,0,0,0,0,0,0,0,0,0,0,0,0,0,0,0,0,0,0,0,0,0,0],"sum_hessian":[7.06E2,4.37E2,2.69E2,1.33E2,3.04E2,1.46E2,1.23E2,2.4E1,1.09E2,2.6E1,2.78E2,7E1,7.6E1,5.9E1,6.4E1,1E1,1.4E1,5.3E1,5.6E1,7E0,1.9E1,1.66E2,1.12E2,5.2E1,1.8E1,5.5E1,2.1E1,3.6E1,2.8E1],"tree_param":{"num_deleted":"0","num_feature":"9","num_nodes":"29","size_leaf_vector":"1"}},{"base_weights":[-4.5294985E-3,-6.522677E0,2.7019355E0,4.933144E0,-7.1679688E0,-6.735945E-1,9.373053E0,1.50022E-1,2.5512703E-2,-9.017378E0,-1.635436E0,-2.6980066E0,1.7270532E0,4.4825575E-1,4.40726E0,-2.1082036E-2,-2.5073802E-1,-5.968672E-2,8.91854E-3,-1.1190896E-1,2.9864125E-2,1.3657226E-2,1.5789366E-1,2.421012E-3,2.2768854E-1],"categories":[],"categories_nodes":[],"categories_segments":[],"categories_sizes":[],"default_left":[0,0,0,0,0,0,0,0,0,0,0,0,0,0,0,0,0,0,0,0,0,0,0,0,0],"id":20,"left_children":[1,3,5,7,9,11,13,-1,-1,15,17,19,21,-1,23,-1,-1,-1,-1,-1,-1,-1,-1,-1,-1],"loss_changes":[1.2722623E4,1.762083E3,1.1510928E4,4.6551514E0,1.9900977E3,1.6959349E3,5.64029E3,0E0,0E0,2.0200488E2,6.711714E1,1.0372192E3,7.852078E2,0E0,1.851844E3,0E0,0E0,0E0,0E0,0E0,0E0,0E0,0E0,0E0,0E0],"parents":[2147483647,0,0,1,1,2,2,3,3,4,4,5,5,6,6,9,9,10,10,11,11,12,12,14,14],"right_children":[2,4,6,8,10,12,14,-1,-1,16,18,20,22,-1,24,-1,-1,-1,-1,-1,-1,-1,-1,-1,-1],"split_conditions":[3.75E0,2.7527084E0,4.8E1,7.818E2,7.2E1,7.605E2,2.6086956E-1,1.50022E-1,2.5512703E-2,5.46E2,1.4E1,1.4E1,2.4E1,4.4825575E-1,7.2E1,-2.1082036E-2,-2.5073802E-1,-5.968672E-2,8.91854E-3,-1.1190896E-1,2.9864125E-2,1.3657226E-2,1.5789366E-1,2.421012E-3,2.2768854E-1],"split_indices":[8,8,3,1,3,1,6,0,0,1,0,0,3,0,3,0,0,0,0,0,0,0,0,0,0],"split_type":[0,0,0,0,0,0,0,0,0,0,0,0,0,0,0,0,0,0,0,0,0,0,0,0,0],"sum_hessian":[7.1E2,2.06E2,5.04E2,9E0,1.97E2,3.38E2,1.66E2,6E0,3E0,1.45E2,5.2E1,1.83E2,1.55E2,6.3E1,1.03E2,4E0,1.41E2,4E1,1.2E1,1.33E2,5E1,1.24E2,3.1E1,5.2E1,5.1E1],"tree_param":{"num_deleted":"0","num_feature":"9","num_nodes":"25","size_leaf_vector":"1"}},{"base_weights":[-2.1434436E-2,2.206937E0,-6.581709E0,-3.3590811E-1,2.6136265E0,-4.4453306E0,-2.30702E-1,5.840115E0,1.5730088E0,-1.5982105E-1,-7.4010655E-2,-4.3463927E-2,1.6754565E-1,8.205746E-2,-2.186118E-1],"categories":[],"categories_nodes":[],"categories_segments":[],"categories_sizes":[],"default_left":[0,0,0,0,0,0,0,0,0,0,0,0,0,0,0],"id":21,"left_children":[1,3,5,-1,7,9,-1,11,13,-1,-1,-1,-1,-1,-1],"loss_changes":[1.0527866E4,3.3610203E3,5.278823E2,0E0,1.7197971E3,1.507439E2,0E0,3.524458E2,5.7665947E3,0E0,0E0,0E0,0E0,0E0,0E0],"parents":[2147483647,0,0,1,1,2,2,4,4,5,5,7,7,8,8],"right_children":[2,4,6,-1,8,10,-1,12,14,-1,-1,-1,-1,-1,-1],"split_conditions":[5.633803E-1,6E0,1E0,-3.3590811E-1,7E-1,1.2E1,-2.30702E-1,8E0,7.605E2,-1.5982105E-1,-7.4010655E-2,-4.3463927E-2,1.6754565E-1,8.205746E-2,-2.186118E-1],"split_indices":[6,0,5,0,5,0,0,0,1,0,0,0,0,0,0],"split_type":[0,0,0,0,0,0,0,0,0,0,0,0,0,0,0],"sum_hessian":[7.09E2,5.32E2,1.77E2,1E1,5.22E2,9.2E1,8.5E1,1.21E2,4.01E2,4.3E1,4.9E1,4E0,1.17E2,3.52E2,4.9E1],"tree_param":{"num_deleted":"0","num_feature":"9","num_nodes":"15","size_leaf_vector":"1"}},{"base_weights":[1.9035783E-2,2.1988363E0,-6.4354196E0,-3.644938E0,3.5785282E0,-4.393482E0,-2.2481073E-1,-8.166325E0,-7.960194E-1,2.0850012E-1,2.9008985E0,-1.5448388E-1,-2.7235603E0,-2.592889E-2,-2.588302E-1,-5.143528E-2,1.405739E-1,1.2708236E-1,-4.6873666E-2,-8.8643156E-2,-3.88385E-2],"categories":[],"categories_nodes":[],"categories_segments":[],"categories_sizes":[],"default_left":[0,0,0,0,0,0,0,0,0,0,0,0,0,0,0,0,0,0,0,0,0],"id":22,"left_children":[1,3,5,7,9,11,-1,13,15,-1,17,-1,19,-1,-1,-1,-1,-1,-1,-1,-1],"loss_changes":[1.0231461E4,4.4557637E3,4.8056152E2,1.3364094E3,1.0996313E3,1.2441284E2,0E0,3.4242236E2,5.213088E2,0E0,3.221884E3,0E0,1.0915527E1,0E0,0E0,0E0,0E0,0E0,0E0,0E0,0E0],"parents":[2147483647,0,0,1,1,2,2,3,3,4,4,5,5,7,7,8,8,10,10,12,12],"right_children":[2,4,6,8,10,12,-1,14,16,-1,18,-1,20,-1,-1,-1,-1,-1,-1,-1,-1],"split_conditions":[1.42E3,3E1,1E0,1E1,6E-1,1.2E1,-2.2481073E-1,5.42E2,7.605E2,2.0850012E-1,7.605E2,-1.5448388E-1,6E1,-2.592889E-2,-2.588302E-1,-5.143528E-2,1.405739E-1,1.2708236E-1,-4.6873666E-2,-8.8643156E-2,-3.88385E-2],"split_indices":[7,2,5,0,5,0,0,7,1,0,1,0,2,0,0,0,0,0,0,0,0],"split_type":[0,0,0,0,0,0,0,0,0,0,0,0,0,0,0,0,0,0,0,0,0],"sum_hessian":[7.16E2,5.38E2,1.78E2,1.01E2,4.37E2,9.3E1,8.5E1,3.5E1,6.6E1,5.4E1,3.83E2,4.5E1,4.8E1,7E0,2.8E1,5.9E1,7E0,2.77E2,1.06E2,2.8E1,2E1],"tree_param":{"num_deleted":"0","num_feature":"9","num_nodes":"21","size_leaf_vector":"1"}},{"base_weights":[-3.229119E-2,2.0743592E0,-6.222325E0,-1.1772666E0,8.911879E0,-2.2111921E-1,-1.3047242E0,-3.255283E-1,-6.898705E-1,4.2950028E-1,4.0949287E0,-1.8370192E0,4.877873E-1,-1.1037512E-1,2.929218E-2,-2.748797E-3,2.14841E-1,-5.723048E-2,-9.361067E-3,-1.1258591E-2,2.5189765E-2],"categories":[],"categories_nodes":[],"categories_segments":[],"categories_sizes":[],"default_left":[0,0,0,0,0,0,0,0,0,0,0,0,0,0,0,0,0,0,0,0,0],"id":23,"left_children":[1,3,5,7,9,-1,11,-1,13,-1,15,17,19,-1,-1,-1,-1,-1,-1,-1,-1],"loss_changes":[9.377783E3,1.1989074E4,1.6482236E3,1.8906632E3,5.381407E3,0E0,6.0008377E1,0E0,2.155937E3,0E0,1.7515245E3,1.3968109E1,9.100246E0,0E0,0E0,0E0,0E0,0E0,0E0,0E0,0E0],"parents":[2147483647,0,0,1,1,2,2,3,3,4,4,6,6,8,8,10,10,11,11,12,12],"right_children":[2,4,6,8,10,-1,12,-1,14,-1,16,18,20,-1,-1,-1,-1,-1,-1,-1,-1],"split_conditions":[5.633803E-1,4.8E1,7.2E1,6E0,2.6086956E-1,-2.2111921E-1,1.4E1,-3.255283E-1,2.8E1,4.2950028E-1,7.2E1,2.8E1,7E0,-1.1037512E-1,2.929218E-2,-2.748797E-3,2.14841E-1,-5.723048E-2,-9.361067E-3,-1.1258591E-2,2.5189765E-2],"split_indices":[6,3,3,0,6,0,0,0,4,0,3,4,4,0,0,0,0,0,0,0,0],"split_type":[0,0,0,0,0,0,0,0,0,0,0,0,0,0,0,0,0,0,0,0,0],"sum_hessian":[7.08E2,5.31E2,1.77E2,3.63E2,1.68E2,1.25E2,5.2E1,1E1,3.53E2,6.4E1,1.04E2,4E1,1.2E1,1.19E2,2.34E2,5.2E1,5.2E1,3.2E1,8E0,4E0,8E0],"tree_param":{"num_deleted":"0","num_feature":"9","num_nodes":"21","size_leaf_vector":"1"}},{"base_weights":[-3.2410845E-2,-2.4345968E0,3.91816E0,3.9243882E0,-5.230839E0,1.8125242E0,6.2148094E0,-1.0128075E1,5.9422193E0,-1.9094256E-1,-2.6437137E0,4.132073E0,-4.035072E-1,2.054591E-1,4.451175E0,-3.1984696E-1,-4.3008924E-2,1.9823293E-1,1.0425648E-1,-1.11376075E-2,-1.14713304E-1,2.935104E-2,1.364036E-1,-4.400589E-2,6.653925E-2,1.3713713E-1,2.4761384E-2],"categories":[],"categories_nodes":[],"categories_segments":[],"categories_sizes":[],"default_left":[0,0,0,0,0,0,0,0,0,0,0,0,0,0,0,0,0,0,0,0,0,0,0,0,0,0,0],"id":24,"left_children":[1,3,5,7,9,11,13,15,17,-1,19,21,23,-1,25,-1,-1,-1,-1,-1,-1,-1,-1,-1,-1,-1,-1],"loss_changes":[6.815851E3,8.0559043E3,1.2501387E3,4.294858E3,1.3392617E3,7.783882E2,1.1185205E2,1.6764026E2,1.9927002E2,0E0,4.6972253E2,1.6725537E2,3.0407407E2,0E0,1.1687891E2,0E0,0E0,0E0,0E0,0E0,0E0,0E0,0E0,0E0,0E0,0E0,0E0],"parents":[2147483647,0,0,1,1,2,2,3,3,4,4,5,5,6,6,7,7,8,8,10,10,11,11,12,12,14,14],"right_children":[2,4,6,8,10,12,14,16,18,-1,20,22,24,-1,26,-1,-1,-1,-1,-1,-1,-1,-1,-1,-1,-1,-1],"split_conditions":[4.8E1,7E-1,7.2E1,8E0,1.2E1,1E0,1E0,6E0,6E-1,-1.9094256E-1,1E0,1E1,2.8E1,2.054591E-1,1.4E1,-3.1984696E-1,-4.3008924E-2,1.9823293E-1,1.0425648E-1,-1.11376075E-2,-1.14713304E-1,2.935104E-2,1.364036E-1,-4.400589E-2,6.653925E-2,1.3713713E-1,2.4761384E-2],"split_indices":[3,5,3,0,0,5,5,0,5,0,5,0,4,0,0,0,0,0,0,0,0,0,0,0,0,0,0],"split_type":[0,0,0,0,0,0,0,0,0,0,0,0,0,0,0,0,0,0,0,0,0,0,0,0,0,0,0],"sum_hessian":[7.07E2,4.41E2,2.66E2,1.34E2,3.07E2,1.44E2,1.22E2,1.4E1,1.2E2,1.76E2,1.31E2,6.8E1,7.6E1,5.9E1,6.3E1,1E1,4E0,6.5E1,5.5E1,5.7E1,7.4E1,1.8E1,5E1,5.5E1,2.1E1,5.2E1,1.1E1],"tree_param":{"num_deleted":"0","num_feature":"9","num_nodes":"27","size_leaf_vector":"1"}},{"base_weights":[1.2339712E-2,2.0830266E0,-6.073039E0,-4.39392E0,2.4342988E0,-1.1084262E-1,-2.1372855E-1,4.1692824E0,-9.956063E0,5.8045626E0,1.4543202E0,1.4036489E-1,1.4726456E-2,-4.2520896E-2,-3.142647E-1,1.9835585E-1,1.02765396E-1,7.52677E-2,-2.0196785E-1],"categories":[],"categories_nodes":[],"categories_segments":[],"categories_sizes":[],"default_left":[0,0,0,0,0,0,0,0,0,0,0,0,0,0,0,0,0,0,0],"id":25,"left_children":[1,3,5,7,9,-1,-1,11,13,15,17,-1,-1,-1,-1,-1,-1,-1,-1],"loss_changes":[9.062599E3,1.2806257E3,4.7080078E2,1.6420022E3,1.6455393E3,0E0,0E0,4.011264E1,1.6027466E2,1.8756201E2,4.822641E3,0E0,0E0,0E0,0E0,0E0,0E0,0E0,0E0],"parents":[2147483647,0,0,1,1,2,2,3,3,4,4,7,7,8,8,9,9,10,10],"right_children":[2,4,6,8,10,-1,-1,12,14,16,18,-1,-1,-1,-1,-1,-1,-1,-1],"split_conditions":[5.633803E-1,5E-1,1E0,7.872E2,7E-1,-1.1084262E-1,-2.1372855E-1,7.818E2,5.42E2,6E-1,7.605E2,1.4036489E-1,1.4726456E-2,-4.2520896E-2,-3.142647E-1,1.9835585E-1,1.02765396E-1,7.52677E-2,-2.0196785E-1],"split_indices":[6,5,5,1,5,0,0,1,7,5,1,0,0,0,0,0,0,0,0],"split_type":[0,0,0,0,0,0,0,0,0,0,0,0,0,0,0,0,0,0,0],"sum_hessian":[7.08E2,5.31E2,1.77E2,2.4E1,5.07E2,9.2E1,8.5E1,1E1,1.4E1,1.08E2,3.99E2,6E0,4E0,4E0,1E1,5.4E1,5.4E1,3.51E2,4.8E1],"tree_param":{"num_deleted":"0","num_feature":"9","num_nodes":"19","size_leaf_vector":"1"}},{"base_weights":[4.8255477E-2,2.0674348E0,-5.898522E0,-9.9783915E-1,8.580126E0,-2.0868213E-1,-1.2835925E0,-3.087799E-1,-5.3733724E-1,4.1319016E-1,3.8465593E0,-5.982861E-2,-1.4071876E-1,-7.0663154E-2,4.531862E-2,-6.577339E-3,2.0387447E-1,-1.7920317E-2,1.3032468E-2],"categories":[],"categories_nodes":[],"categories_segments":[],"categories_sizes":[],"default_left":[0,0,0,0,0,0,0,0,0,0,0,0,0,0,0,0,0,0,0],"id":26,"left_children":[1,3,5,7,9,-1,11,-1,13,-1,15,-1,17,-1,-1,-1,-1,-1,-1],"loss_changes":[8.696714E3,1.0840123E4,1.4433242E3,1.740914E3,5.0970176E3,0E0,5.8400322E1,0E0,1.6684531E3,0E0,1.62819E3,0E0,1.1903202E1,0E0,0E0,0E0,0E0,0E0,0E0],"parents":[2147483647,0,0,1,1,2,2,3,3,4,4,6,6,8,8,10,10,12,12],"right_children":[2,4,6,8,10,-1,12,-1,14,-1,16,-1,18,-1,-1,-1,-1,-1,-1],"split_conditions":[5.633803E-1,4.8E1,7.2E1,6E0,2.6086956E-1,-2.0868213E-1,1.2E1,-3.087799E-1,7.605E2,4.1319016E-1,7.2E1,-5.982861E-2,1.4E1,-7.0663154E-2,4.531862E-2,-6.577339E-3,2.0387447E-1,-1.7920317E-2,1.3032468E-2],"split_indices":[6,3,3,0,6,0,0,0,1,0,3,0,0,0,0,0,0,0,0],"split_type":[0,0,0,0,0,0,0,0,0,0,0,0,0,0,0,0,0,0,0],"sum_hessian":[7.13E2,5.35E2,1.78E2,3.67E2,1.68E2,1.26E2,5.2E1,1E1,3.57E2,6.5E1,1.03E2,2.6E1,2.6E1,1.84E2,1.73E2,5.1E1,5.2E1,1.4E1,1.2E1],"tree_param":{"num_deleted":"0","num_feature":"9","num_nodes":"19","size_leaf_vector":"1"}},{"base_weights":[7.407132E-3,-5.5705957E0,2.2772923E0,4.4700503E0,-6.148793E0,-6.2894255E-2,4.2135577E0,1.3774967E-1,2.0665701E-2,-2.9430813E-1,-5.6109533E0,5.4345307E0,-4.8791184E0,1.3416386E0,7.8534083E0,-1.0493887E-1,-1.979324E-1,1.825228E-1,1.00773275E-1,-2.0192492E-1,-4.073933E-2,1.23081416E-1,-4.8401307E-2,1.4064845E-1,2.3727109E-1],"categories":[],"categories_nodes":[],"categories_segments":[],"categories_sizes":[],"default_left":[0,0,0,0,0,0,0,0,0,0,0,0,0,0,0,0,0,0,0,0,0,0,0,0,0],"id":27,"left_children":[1,3,5,7,9,11,13,-1,-1,-1,15,17,19,21,23,-1,-1,-1,-1,-1,-1,-1,-1,-1,-1],"loss_changes":[9.131322E3,1.3648164E3,2.3242905E3,1.0333893E1,1.6078711E2,6.4390854E3,2.8739268E3,0E0,0E0,0E0,3.9861914E2,1.1094946E2,1.0509165E3,1.6684802E3,3.2114746E1,0E0,0E0,0E0,0E0,0E0,0E0,0E0,0E0,0E0,0E0],"parents":[2147483647,0,0,1,1,2,2,3,3,4,4,5,5,6,6,10,10,11,11,12,12,13,13,14,14],"right_children":[2,4,6,8,10,12,14,-1,-1,-1,16,18,20,22,24,-1,-1,-1,-1,-1,-1,-1,-1,-1,-1],"split_conditions":[3.75E0,2.7527084E0,4.8E1,7.818E2,6E0,7E-1,3.85E0,1.3774967E-1,2.0665701E-2,-2.9430813E-1,1E0,6E-1,1E1,1E0,1E1,-1.0493887E-1,-1.979324E-1,1.825228E-1,1.00773275E-1,-2.0192492E-1,-4.073933E-2,1.23081416E-1,-4.8401307E-2,1.4064845E-1,2.3727109E-1],"split_indices":[8,8,2,1,0,5,8,0,0,0,5,5,0,5,0,0,0,0,0,0,0,0,0,0,0],"split_type":[0,0,0,0,0,0,0,0,0,0,0,0,0,0,0,0,0,0,0,0,0,0,0,0,0],"sum_hessian":[7.1E2,2.03E2,5.07E2,9E0,1.94E2,2.32E2,2.75E2,6E0,3E0,9E0,1.85E2,1.08E2,1.24E2,1.58E2,1.17E2,9.9E1,8.6E1,5.3E1,5.5E1,6.7E1,5.7E1,7.7E1,8.1E1,3.8E1,7.9E1],"tree_param":{"num_deleted":"0","num_feature":"9","num_nodes":"25","size_leaf_vector":"1"}},{"base_weights":[-4.935931E-2,1.833015E0,-5.6107125E0,-1.0944605E0,8.20128E0,-2.0002526E-1,-1.1230607E0,-3.9853892E0,3.7271854E-1,5.6544075E0,2.9703325E-1,-2.0243447E0,-2.1937022E-2,-1.5247777E-1,-5.1447894E-2,-2.9825437E-1,2.9658172E-2,3.644676E-2,1.8649149E-1,-5.9614398E-2,-1.4583152E-2,-1.2551285E-2,2.9646771E-2],"categories":[],"categories_nodes":[],"categories_segments":[],"categories_sizes":[],"default_left":[0,0,0,0,0,0,0,0,0,0,0,0,0,0,0,0,0,0,0,0,0,0,0],"id":28,"left_children":[1,3,5,7,9,-1,11,13,15,17,-1,19,21,-1,-1,-1,-1,-1,-1,-1,-1,-1,-1],"loss_changes":[7.5593613E3,1.0110067E4,1.3781597E3,1.5972684E3,8.326504E2,0E0,5.6847244E1,3.6937048E2,2.126719E3,4.6311548E2,0E0,1.1566772E0,1.8211264E1,0E0,0E0,0E0,0E0,0E0,0E0,0E0,0E0,0E0,0E0],"parents":[2147483647,0,0,1,1,2,2,3,3,4,4,6,6,7,7,8,8,9,9,11,11,12,12],"right_children":[2,4,6,8,10,-1,12,14,16,18,-1,20,22,-1,-1,-1,-1,-1,-1,-1,-1,-1,-1],"split_conditions":[1.42E3,4.8E1,7.2E1,2.8E1,7.2E1,-2.0002526E-1,1.2E1,1.2E1,6E0,1E1,2.9703325E-1,2.8E1,2.8E1,-1.5247777E-1,-5.1447894E-2,-2.9825437E-1,2.9658172E-2,3.644676E-2,1.8649149E-1,-5.9614398E-2,-1.4583152E-2,-1.2551285E-2,2.9646771E-2],"split_indices":[7,3,3,4,3,0,0,0,0,0,0,4,4,0,0,0,0,0,0,0,0,0,0],"split_type":[0,0,0,0,0,0,0,0,0,0,0,0,0,0,0,0,0,0,0,0,0,0,0],"sum_hessian":[7.11E2,5.34E2,1.77E2,3.69E2,1.65E2,1.25E2,5.2E1,1.21E2,2.48E2,9.4E1,7.1E1,2.6E1,2.6E1,6.3E1,5.8E1,1E1,2.38E2,2.3E1,7.1E1,2.1E1,5E0,2.1E1,5E0],"tree_param":{"num_deleted":"0","num_feature":"9","num_nodes":"23","size_leaf_vector":"1"}},{"base_weights":[-1.1857534E-3,-5.3334804E0,2.1956074E0,4.3908834E0,-5.8868794E0,5.4415407E0,1.2354183E0,1.3539186E-1,2.0187622E-2,-2.9304898E-1,-5.3205514E0,1.8468031E-1,9.783737E-2,-2.0286459E-1,2.553802E0,-9.870436E-2,-1.8766916E-1,1.3644315E-1,1.3697539E-2],"categories":[],"categories_nodes":[],"categories_segments":[],"categories_sizes":[],"default_left":[0,0,0,0,0,0,0,0,0,0,0,0,0,0,0,0,0,0,0],"id":29,"left_children":[1,3,5,7,9,11,13,-1,-1,-1,15,-1,-1,-1,17,-1,-1,-1,-1],"loss_changes":[8.494907E3,1.2833486E3,1.5629097E3,1.0265045E1,2.389336E2,1.5012158E2,4.729694E3,0E0,0E0,0E0,3.735337E2,0E0,0E0,0E0,1.7739209E3,0E0,0E0,0E0,0E0],"parents":[2147483647,0,0,1,1,2,2,3,3,4,4,5,5,6,6,10,10,14,14],"right_children":[2,4,6,8,10,12,14,-1,-1,-1,16,-1,-1,-1,18,-1,-1,-1,-1],"split_conditions":[3.75E0,2.7527084E0,7E-1,2.7395833E0,6E0,6E-1,7.5E-1,1.3539186E-1,2.0187622E-2,-2.9304898E-1,1E0,1.8468031E-1,9.783737E-2,-2.0286459E-1,1E0,-9.870436E-2,-1.8766916E-1,1.3644315E-1,1.3697539E-2],"split_indices":[8,8,5,8,0,5,5,0,0,0,5,0,0,0,5,0,0,0,0],"split_type":[0,0,0,0,0,0,0,0,0,0,0,0,0,0,0,0,0,0,0],"sum_hessian":[7.14E2,2.06E2,5.08E2,9E0,1.97E2,1.1E2,3.98E2,6E0,3E0,1E1,1.87E2,5.5E1,5.5E1,4.9E1,3.49E2,9.9E1,8.8E1,1.55E2,1.94E2],"tree_param":{"num_deleted":"0","num_feature":"9","num_nodes":"19","size_leaf_vector":"1"}},{"base_weights":[-5.3627472E-2,-5.196685E0,2.039808E0,4.3310733E0,-5.74786E0,-7.9478365E-1,7.7990804E0,1.3865635E-1,2.611378E-2,-7.349972E0,-8.5790277E-1,-2.634124E0,1.3266958E0,3.2833033E0,3.8593686E-1,-1.5213761E-2,-2.0453249E-1,-3.697969E-2,1.7799038E-2,-1.0743449E-1,2.7026305E-2,4.8358343E-3,1.4184305E-1,-1.1664347E-2,1.8679744E-1],"categories":[],"categories_nodes":[],"categories_segments":[],"categories_sizes":[],"default_left":[0,0,0,0,0,0,0,0,0,0,0,0,0,0,0,0,0,0,0,0,0,0,0,0,0],"id":30,"left_children":[1,3,5,7,9,11,13,-1,-1,15,17,19,21,23,-1,-1,-1,-1,-1,-1,-1,-1,-1,-1,-1],"loss_changes":[7.7639663E3,1.2347476E3,8.403098E3,1.0032135E1,1.5281465E3,1.3798511E3,4.625787E3,0E0,0E0,1.4375488E2,4.7085155E1,9.203154E2,7.3383014E2,1.4331115E3,0E0,0E0,0E0,0E0,0E0,0E0,0E0,0E0,0E0,0E0,0E0],"parents":[2147483647,0,0,1,1,2,2,3,3,4,4,5,5,6,6,9,9,10,10,11,11,12,12,13,13],"right_children":[2,4,6,8,10,12,14,-1,-1,16,18,20,22,24,-1,-1,-1,-1,-1,-1,-1,-1,-1,-1,-1],"split_conditions":[3.75E0,2.7527084E0,4.8E1,7.784E2,7.2E1,7.605E2,3.85E0,1.3865635E-1,2.611378E-2,5.46E2,1.4E1,1.4E1,2.4E1,7.2E1,3.8593686E-1,-1.5213761E-2,-2.0453249E-1,-3.697969E-2,1.7799038E-2,-1.0743449E-1,2.7026305E-2,4.8358343E-3,1.4184305E-1,-1.1664347E-2,1.8679744E-1],"split_indices":[8,8,3,1,3,1,8,0,0,1,0,0,3,3,0,0,0,0,0,0,0,0,0,0,0],"split_type":[0,0,0,0,0,0,0,0,0,0,0,0,0,0,0,0,0,0,0,0,0,0,0,0,0],"sum_hessian":[7.1E2,2.03E2,5.07E2,9E0,1.94E2,3.43E2,1.64E2,5E0,4E0,1.44E2,5E1,1.83E2,1.6E2,1.01E2,6.3E1,4E0,1.4E2,3.8E1,1.2E1,1.34E2,4.9E1,1.28E2,3.2E1,5.2E1,4.9E1],"tree_param":{"num_deleted":"0","num_feature":"9","num_nodes":"25","size_leaf_vector":"1"}},{"base_weights":[-4.687365E-2,1.723453E0,-5.286881E0,-2.8436482E-1,2.0630705E0,-3.5356581E0,-1.863441E-1,5.0062413E0,1.0965247E0,-1.2734939E-1,-2.0590863E0,-3.8257707E-2,1.4352418E-1,6.3475534E-2,-1.98278E-1,-6.68324E-2,-1.0052701E-2],"categories":[],"categories_nodes":[],"categories_segments":[],"categories_sizes":[],"default_left":[0,0,0,0,0,0,0,0,0,0,0,0,0,0,0,0,0],"id":31,"left_children":[1,3,5,-1,7,9,-1,11,13,-1,15,-1,-1,-1,-1,-1,-1],"loss_changes":[6.7078716E3,2.3549644E3,3.6298584E2,0E0,1.4784885E3,1.1065613E2,0E0,2.6350928E2,4.3059453E3,0E0,3.007161E1,0E0,0E0,0E0,0E0,0E0,0E0],"parents":[2147483647,0,0,1,1,2,2,4,4,5,5,7,7,8,8,10,10],"right_children":[2,4,6,-1,8,10,-1,12,14,-1,16,-1,-1,-1,-1,-1,-1],"split_conditions":[5.633803E-1,6E0,1E0,-2.8436482E-1,7E-1,1.2E1,-1.863441E-1,8E0,7.605E2,-1.2734939E-1,2.8E1,-3.8257707E-2,1.4352418E-1,6.3475534E-2,-1.98278E-1,-6.68324E-2,-1.0052701E-2],"split_indices":[6,0,5,0,5,0,0,0,1,0,4,0,0,0,0,0,0],"split_type":[0,0,0,0,0,0,0,0,0,0,0,0,0,0,0,0,0],"sum_hessian":[7.12E2,5.35E2,1.77E2,1E1,5.25E2,9.2E1,8.5E1,1.24E2,4.01E2,4.5E1,4.7E1,4E0,1.2E2,3.53E2,4.8E1,3.6E1,1.1E1],"tree_param":{"num_deleted":"0","num_feature":"9","num_nodes":"17","size_leaf_vector":"1"}},{"base_weights":[1.3024596E-2,1.741359E0,-5.103785E0,-1.0430725E0,7.6638103E0,-6.699649E0,-9.161811E-1,-3.800197E0,3.7860197E-1,3.828212E-1,3.1660848E0,-2.0751688E-1,-1.2890261E-1,-3.521268E-2,1.46624325E-2,-1.2327723E-1,-7.291061E-2,-1.18591115E-1,2.6319457E-2,-1.2937516E-2,1.7852814E-1],"categories":[],"categories_nodes":[],"categories_segments":[],"categories_sizes":[],"default_left":[0,0,0,0,0,0,0,0,0,0,0,0,0,0,0,0,0,0,0,0,0],"id":32,"left_children":[1,3,5,7,9,11,13,15,17,-1,19,-1,-1,-1,-1,-1,-1,-1,-1,-1,-1],"loss_changes":[6.360337E3,8.910219E3,1.1789946E3,1.4607867E3,4.719827E3,3.4754883E1,3.501324E1,3.541028E1,7.1900165E2,0E0,1.3594886E3,0E0,0E0,0E0,0E0,0E0,0E0,0E0,0E0,0E0,0E0],"parents":[2147483647,0,0,1,1,2,2,3,3,4,4,5,5,6,6,7,7,8,8,10,10],"right_children":[2,4,6,8,10,12,14,16,18,-1,20,-1,-1,-1,-1,-1,-1,-1,-1,-1,-1],"split_conditions":[5.633803E-1,4.8E1,7.2E1,2.8E1,2.6086956E-1,4.8E1,2.8E1,2.6086956E-1,9.66E2,3.828212E-1,7.2E1,-2.0751688E-1,-1.2890261E-1,-3.521268E-2,1.46624325E-2,-1.2327723E-1,-7.291061E-2,-1.18591115E-1,2.6319457E-2,-1.2937516E-2,1.7852814E-1],"split_indices":[6,3,3,4,6,3,4,6,7,0,3,0,0,0,0,0,0,0,0,0,0],"split_type":[0,0,0,0,0,0,0,0,0,0,0,0,0,0,0,0,0,0,0,0,0],"sum_hessian":[7.08E2,5.32E2,1.76E2,3.65E2,1.67E2,1.25E2,5.1E1,1.21E2,2.44E2,6.4E1,1.03E2,7.4E1,5.1E1,4.1E1,1E1,6.3E1,5.8E1,2.3E1,2.21E2,5.2E1,5.1E1],"tree_param":{"num_deleted":"0","num_feature":"9","num_nodes":"21","size_leaf_vector":"1"}},{"base_weights":[2.1364107E-3,-4.9070897E0,1.9366615E0,4.261039E0,-5.459458E0,-2.6487699E0,2.7460217E0,1.3655509E-1,2.553455E-2,-4.9058037E0,-2.8113192E-1,-5.2932185E-1,-1.447734E-1,1.0316377E0,4.876799E0,-8.872403E-2,-1.7308913E-1,1.622849E-2,-3.572963E-2,1.2904957E-1,-8.404372E-3,1.8911037E-1,3.4804128E-2],"categories":[],"categories_nodes":[],"categories_segments":[],"categories_sizes":[],"default_left":[0,0,0,0,0,0,0,0,0,0,0,0,0,0,0,0,0,0,0,0,0,0,0],"id":33,"left_children":[1,3,5,7,9,11,13,-1,-1,15,-1,17,-1,19,21,-1,-1,-1,-1,-1,-1,-1,-1],"loss_changes":[6.7731196E3,1.1510991E3,1.9393606E3,1.0156128E1,2.3529883E2,4.3456293E2,1.5701919E3,0E0,0E0,3.2302734E2,0E0,4.9017162E1,0E0,1.249509E3,1.3929097E3,0E0,0E0,0E0,0E0,0E0,0E0,0E0,0E0],"parents":[2147483647,0,0,1,1,2,2,3,3,4,4,5,5,6,6,9,9,11,11,13,13,14,14],"right_children":[2,4,6,8,10,12,14,-1,-1,16,-1,18,-1,20,22,-1,-1,-1,-1,-1,-1,-1,-1],"split_conditions":[3.75E0,2.7527084E0,3E1,7.784E2,7.947E2,4.38E0,4.5E0,1.3655509E-1,2.553455E-2,1E0,-2.8113192E-1,6.5E2,-1.447734E-1,7E-1,7.605E2,-8.872403E-2,-1.7308913E-1,1.622849E-2,-3.572963E-2,1.2904957E-1,-8.404372E-3,1.8911037E-1,3.4804128E-2],"split_indices":[8,8,2,1,1,8,8,0,0,5,0,1,0,5,1,0,0,0,0,0,0,0,0],"split_type":[0,0,0,0,0,0,0,0,0,0,0,0,0,0,0,0,0,0,0,0,0,0,0],"sum_hessian":[7.02E2,1.96E2,5.06E2,9E0,1.87E2,7.4E1,4.32E2,5E0,4E0,1.78E2,9E0,4.5E1,2.9E1,2.44E2,1.88E2,9.2E1,8.6E1,1.9E1,2.6E1,6.1E1,1.83E2,1.16E2,7.2E1],"tree_param":{"num_deleted":"0","num_feature":"9","num_nodes":"23","size_leaf_vector":"1"}},{"base_weights":[4.5466244E-2,-4.7209134E0,2.0059536E0,4.2072577E0,-5.244203E0,-8.407735E-1,7.6570024E0,1.348011E-1,2.5244806E-2,-6.830482E0,-6.967273E-1,-3.795725E0,8.840152E-1,3.7128824E-1,3.4036007E0,-3.5032105E-2,-1.8984345E-1,-2.8385397E-2,1.6543925E-2,-1.2214817E-1,-7.311512E-2,-2.6722424E-2,4.2362705E-2,-7.3950994E-3,1.7847277E-1],"categories":[],"categories_nodes":[],"categories_segments":[],"categories_sizes":[],"default_left":[0,0,0,0,0,0,0,0,0,0,0,0,0,0,0,0,0,0,0,0,0,0,0,0,0],"id":34,"left_children":[1,3,5,7,9,11,13,-1,-1,15,17,19,21,-1,23,-1,-1,-1,-1,-1,-1,-1,-1,-1,-1],"loss_changes":[6.6556206E3,1.0933599E3,8.1536396E3,9.805145E0,1.4057192E3,1.7547601E3,4.0568184E3,0E0,0E0,6.708203E1,2.9572285E1,2.9539917E1,2.8409314E2,0E0,1.2457113E3,0E0,0E0,0E0,0E0,0E0,0E0,0E0,0E0,0E0,0E0],"parents":[2147483647,0,0,1,1,2,2,3,3,4,4,5,5,6,6,9,9,10,10,11,11,12,12,14,14],"right_children":[2,4,6,8,10,12,14,-1,-1,16,18,20,22,-1,24,-1,-1,-1,-1,-1,-1,-1,-1,-1,-1],"split_conditions":[3.75E0,5.357E2,4.8E1,5.308E2,7.2E1,2.8E1,2.6086956E-1,1.348011E-1,2.5244806E-2,5.42E2,2.8E1,2.6086956E-1,4.0999765E0,3.7128824E-1,7.2E1,-3.5032105E-2,-1.8984345E-1,-2.8385397E-2,1.6543925E-2,-1.2214817E-1,-7.311512E-2,-2.6722424E-2,4.2362705E-2,-7.3950994E-3,1.7847277E-1],"split_indices":[8,7,3,7,3,4,6,0,0,7,4,6,8,0,3,0,0,0,0,0,0,0,0,0,0],"split_type":[0,0,0,0,0,0,0,0,0,0,0,0,0,0,0,0,0,0,0,0,0,0,0,0,0],"sum_hessian":[7.01E2,2.02E2,4.99E2,9E0,1.93E2,3.35E2,1.64E2,5E0,4E0,1.41E2,5.2E1,1.21E2,2.14E2,6.3E1,1.01E2,5E0,1.36E2,4.2E1,1E1,6.4E1,5.7E1,5.6E1,1.58E2,4.9E1,5.2E1],"tree_param":{"num_deleted":"0","num_feature":"9","num_nodes":"25","size_leaf_vector":"1"}},{"base_weights":[1.2892035E-2,-2.1419845E0,3.5076253E0,3.3833673E0,-4.5305905E0,7.235153E0,-2.6314645E0,-8.511587E0,5.1023808E0,-6.200162E0,-2.1184154E0,4.8901596E0,2.645809E-1,-4.3578515E0,-6.789004E-1,-2.6944807E-1,-3.507381E-2,1.0939298E-1,2.1640816E-1,-1.8783589E-1,-1.2237514E-1,-9.54171E-3,-1.6369714E-1,1.9139549E-1,6.883517E-2,-7.4134536E-2,-1.4281859E-1,2.6931765E-2,-6.98293E-2],"categories":[],"categories_nodes":[],"categories_segments":[],"categories_sizes":[],"default_left":[0,0,0,0,0,0,0,0,0,0,0,0,0,0,0,0,0,0,0,0,0,0,0,0,0,0,0,0,0],"id":35,"left_children":[1,3,5,7,9,11,13,15,17,19,21,23,-1,25,27,-1,-1,-1,-1,-1,-1,-1,-1,-1,-1,-1,-1,-1,-1],"loss_changes":[5.461142E3,6.006298E3,6.4361504E3,3.0767986E3,1.1972544E3,7.455781E2,3.493532E2,1.2477844E2,2.0528076E2,4.540869E1,9.357109E2,4.0895166E2,0E0,2.052246E0,1.9555263E2,0E0,0E0,0E0,0E0,0E0,0E0,0E0,0E0,0E0,0E0,0E0,0E0,0E0,0E0],"parents":[2147483647,0,0,1,1,2,2,3,3,4,4,5,5,6,6,7,7,8,8,9,9,10,10,11,11,13,13,14,14],"right_children":[2,4,6,8,10,12,14,16,18,20,22,24,-1,26,28,-1,-1,-1,-1,-1,-1,-1,-1,-1,-1,-1,-1,-1,-1],"split_conditions":[4.8E1,7E-1,1.15406E3,8E0,1.2E1,7.2E1,7.2E1,6E0,2.4E1,1E1,1.42E3,1E0,2.645809E-1,1E0,1E0,-2.6944807E-1,-3.507381E-2,1.0939298E-1,2.1640816E-1,-1.8783589E-1,-1.2237514E-1,-9.54171E-3,-1.6369714E-1,1.9139549E-1,6.883517E-2,-7.4134536E-2,-1.4281859E-1,2.6931765E-2,-6.98293E-2],"split_indices":[3,5,7,0,0,3,3,0,3,0,7,5,0,5,5,0,0,0,0,0,0,0,0,0,0,0,0,0,0],"split_type":[0,0,0,0,0,0,0,0,0,0,0,0,0,0,0,0,0,0,0,0,0,0,0,0,0,0,0,0,0],"sum_hessian":[7.14E2,4.43E2,2.71E2,1.33E2,3.1E2,1.68E2,1.03E2,1.4E1,1.19E2,1.78E2,1.32E2,9.5E1,7.3E1,5.1E1,5.2E1,1E1,4E0,9.6E1,2.3E1,1.14E2,6.4E1,9.5E1,3.7E1,4.4E1,5.1E1,2.6E1,2.5E1,2.9E1,2.3E1],"tree_param":{"num_deleted":"0","num_feature":"9","num_nodes":"29","size_leaf_vector":"1"}},{"base_weights":[-1.8569281E-2,-2.1096354E0,3.405406E0,3.2949271E0,-4.414041E0,7.056124E0,-2.538397E0,-8.366918E0,4.994895E0,-6.0175276E0,-2.1280115E0,4.7516975E0,2.570459E-1,-1.1414442E-1,-6.645758E-1,-2.6474547E-1,-3.4675855E-2,1.0803499E-1,2.1111478E-1,-1.8198746E-1,-1.1931218E-1,-1.037695E-2,-1.6125827E-1,2.5110569E-2,1.6096343E-1,2.6317304E-2,-6.830063E-2],"categories":[],"categories_nodes":[],"categories_segments":[],"categories_sizes":[],"default_left":[0,0,0,0,0,0,0,0,0,0,0,0,0,0,0,0,0,0,0,0,0,0,0,0,0,0,0],"id":36,"left_children":[1,3,5,7,9,11,13,15,17,19,21,23,-1,-1,25,-1,-1,-1,-1,-1,-1,-1,-1,-1,-1,-1,-1],"loss_changes":[5.1851187E3,5.680794E3,6.0588193E3,2.9614937E3,1.0922886E3,6.928369E2,3.2112115E2,1.19380615E2,1.7743652E2,3.6336426E1,9.1298553E2,4.080874E2,0E0,0E0,1.8698213E2,0E0,0E0,0E0,0E0,0E0,0E0,0E0,0E0,0E0,0E0,0E0,0E0],"parents":[2147483647,0,0,1,1,2,2,3,3,4,4,5,5,6,6,7,7,8,8,9,9,10,10,11,11,14,14],"right_children":[2,4,6,8,10,12,14,16,18,20,22,24,-1,-1,26,-1,-1,-1,-1,-1,-1,-1,-1,-1,-1,-1,-1],"split_conditions":[4.8E1,7E-1,1.15406E3,8E0,1.2E1,7.2E1,7.2E1,6E0,2.4E1,1E1,1.42E3,1E1,2.570459E-1,-1.1414442E-1,1E0,-2.6474547E-1,-3.4675855E-2,1.0803499E-1,2.1111478E-1,-1.8198746E-1,-1.1931218E-1,-1.037695E-2,-1.6125827E-1,2.5110569E-2,1.6096343E-1,2.6317304E-2,-6.830063E-2],"split_indices":[3,5,7,0,0,3,3,0,3,0,7,0,0,0,5,0,0,0,0,0,0,0,0,0,0,0,0],"split_type":[0,0,0,0,0,0,0,0,0,0,0,0,0,0,0,0,0,0,0,0,0,0,0,0,0,0,0],"sum_hessian":[7.13E2,4.44E2,2.69E2,1.32E2,3.12E2,1.66E2,1.03E2,1.4E1,1.18E2,1.78E2,1.34E2,9.3E1,7.3E1,5.1E1,5.2E1,1E1,4E0,9.6E1,2.2E1,1.14E2,6.4E1,9.6E1,3.8E1,2.4E1,6.9E1,2.9E1,2.3E1],"tree_param":{"num_deleted":"0","num_feature":"9","num_nodes":"27","size_leaf_vector":"1"}},{"base_weights":[-1.2347262E-2,-4.4019322E0,1.7911475E0,4.0200768E0,-4.8896437E0,-7.930858E-1,6.9077992E0,1.3027684E-1,2.2491239E-2,-6.3043294E0,-5.3948677E-1,4.778434E0,-3.5080526E0,3.4976196E-1,2.742949E0,-1.00943E-2,-1.7557384E-1,2.5716856E-2,-6.417867E-2,9.8411016E-2,2.0704892E-1,-1.9462426E-1,-6.898979E-2,-1.8491665E-2,1.6208237E-1],"categories":[],"categories_nodes":[],"categories_segments":[],"categories_sizes":[],"default_left":[0,0,0,0,0,0,0,0,0,0,0,0,0,0,0,0,0,0,0,0,0,0,0,0,0],"id":37,"left_children":[1,3,5,7,9,11,13,-1,-1,15,17,19,21,-1,23,-1,-1,-1,-1,-1,-1,-1,-1,-1,-1],"loss_changes":[5.7250977E3,9.7502026E2,6.808684E3,1.3425995E1,1.2213965E3,5.321381E3,4.0743408E3,0E0,0E0,1.1821338E2,1.6257994E2,2.2595703E2,7.335564E2,0E0,1.2166211E3,0E0,0E0,0E0,0E0,0E0,0E0,0E0,0E0,0E0,0E0],"parents":[2147483647,0,0,1,1,2,2,3,3,4,4,5,5,6,6,9,9,10,10,11,11,12,12,14,14],"right_children":[2,4,6,8,10,12,14,-1,-1,16,18,20,22,-1,24,-1,-1,-1,-1,-1,-1,-1,-1,-1,-1],"split_conditions":[3.75E0,2.7527084E0,4.8E1,7.784E2,7.2E1,7E-1,2.6086956E-1,1.3027684E-1,2.2491239E-2,5.46E2,1E0,2.4E1,2.4E1,3.4976196E-1,7.2E1,-1.00943E-2,-1.7557384E-1,2.5716856E-2,-6.417867E-2,9.8411016E-2,2.0704892E-1,-1.9462426E-1,-6.898979E-2,-1.8491665E-2,1.6208237E-1],"split_indices":[8,8,3,1,3,5,6,0,0,1,5,3,3,0,3,0,0,0,0,0,0,0,0,0,0],"split_type":[0,0,0,0,0,0,0,0,0,0,0,0,0,0,0,0,0,0,0,0,0,0,0,0,0],"sum_hessian":[7.12E2,2.05E2,5.07E2,9E0,1.96E2,3.4E2,1.67E2,5E0,4E0,1.46E2,5E1,1.1E2,2.3E2,6.4E1,1.03E2,4E0,1.42E2,2.9E1,2.1E1,8.7E1,2.3E1,4.1E1,1.89E2,5.2E1,5.1E1],"tree_param":{"num_deleted":"0","num_feature":"9","num_nodes":"25","size_leaf_vector":"1"}},{"base_weights":[-2.5615566E-3,-4.349333E0,1.788223E0,-5.5360675E0,-6.378719E-1,-7.330768E-1,6.7502055E0,3.1541586E0,-6.172805E0,-2.61963E-2,-4.746157E-3,-2.304584E0,1.0938597E0,2.691861E0,3.390622E-1,1.0342121E-1,6.159434E-3,-1.9286412E-1,-1.0911711E-1,-7.253508E-2,1.8763792E-2,7.406844E-4,1.2693761E-1,-1.8037308E-2,1.5895194E-1],"categories":[],"categories_nodes":[],"categories_segments":[],"categories_sizes":[],"default_left":[0,0,0,0,0,0,0,0,0,0,0,0,0,0,0,0,0,0,0,0,0,0,0,0,0],"id":38,"left_children":[1,3,5,7,9,11,13,15,17,-1,-1,19,21,23,-1,-1,-1,-1,-1,-1,-1,-1,-1,-1,-1],"loss_changes":[5.6450107E3,9.120271E2,6.453271E3,9.9212256E2,7.69178E0,1.0063585E3,3.8328872E3,2.2657135E1,1.3831494E2,0E0,0E0,2.1280164E2,6.221084E2,1.1687021E3,0E0,0E0,0E0,0E0,0E0,0E0,0E0,0E0,0E0,0E0,0E0],"parents":[2147483647,0,0,1,1,2,2,3,3,4,4,5,5,6,6,7,7,8,8,11,11,12,12,13,13],"right_children":[2,4,6,8,10,12,14,16,18,-1,-1,20,22,24,-1,-1,-1,-1,-1,-1,-1,-1,-1,-1,-1],"split_conditions":[3.75E0,7.2E1,4.8E1,5.388E2,6E1,7.605E2,3.85E0,7.842E2,4.8E1,-2.61963E-2,-4.746157E-3,1.2768E3,2.4E1,7.2E1,3.390622E-1,1.0342121E-1,6.159434E-3,-1.9286412E-1,-1.0911711E-1,-7.253508E-2,1.8763792E-2,7.406844E-4,1.2693761E-1,-1.8037308E-2,1.5895194E-1],"split_indices":[8,3,3,7,2,1,8,1,3,0,0,7,3,3,0,0,0,0,0,0,0,0,0,0,0],"split_type":[0,0,0,0,0,0,0,0,0,0,0,0,0,0,0,0,0,0,0,0,0,0,0,0,0],"sum_hessian":[7.14E2,2.06E2,5.08E2,1.54E2,5.2E1,3.4E2,1.68E2,9E0,1.45E2,2.7E1,2.5E1,1.82E2,1.58E2,1.03E2,6.5E1,6E0,3E0,9.3E1,5.2E1,1.63E2,1.9E1,1.26E2,3.2E1,5.2E1,5.1E1],"tree_param":{"num_deleted":"0","num_feature":"9","num_nodes":"25","size_leaf_vector":"1"}},{"base_weights":[-5.811574E-2,-4.1947207E0,1.6129242E0,4.1768885E0,-4.6497784E0,-2.4082358E0,2.3237872E0,1.272751E-1,2.282875E-2,-2.536947E-1,-4.1254067E0,-2.6622579E-1,-5.01335E0,7.460683E-1,4.29057E0,-1.6765928E-2,-1.1544233E-1,-4.2612363E-2,2.2482527E-2,-1.5630354E-1,-1.9859288E-2,1.011055E-2,6.716523E-2,2.6905123E-2,1.6874786E-1],"categories":[],"categories_nodes":[],"categories_segments":[],"categories_sizes":[],"default_left":[0,0,0,0,0,0,0,0,0,0,0,0,0,0,0,0,0,0,0,0,0,0,0,0,0],"id":39,"left_children":[1,3,5,7,9,11,13,-1,-1,-1,15,17,19,21,23,-1,-1,-1,-1,-1,-1,-1,-1,-1,-1],"loss_changes":[4.9636943E3,8.957095E2,1.4936971E3,5.500183E-1,2.7091553E2,4.3652377E2,1.3398059E3,0E0,0E0,0E0,6.2094727E1,7.764904E1,8.7588806E1,1.5575497E2,1.1861484E3,0E0,0E0,0E0,0E0,0E0,0E0,0E0,0E0,0E0,0E0],"parents":[2147483647,0,0,1,1,2,2,3,3,4,4,5,5,6,6,10,10,11,11,12,12,13,13,14,14],"right_children":[2,4,6,8,10,12,14,-1,-1,-1,16,18,20,22,24,-1,-1,-1,-1,-1,-1,-1,-1,-1,-1],"split_conditions":[3.75E0,5.351E2,3E1,5.308E2,6E0,4.38E0,4.5E0,1.272751E-1,2.282875E-2,-2.536947E-1,1.15E3,1.2E1,1.4E1,1.4E1,4.8E1,-1.6765928E-2,-1.1544233E-1,-4.2612363E-2,2.2482527E-2,-1.5630354E-1,-1.9859288E-2,1.011055E-2,6.716523E-2,2.6905123E-2,1.6874786E-1],"split_indices":[8,7,2,7,0,8,8,0,0,0,7,0,0,0,2,0,0,0,0,0,0,0,0,0,0],"split_type":[0,0,0,0,0,0,0,0,0,0,0,0,0,0,0,0,0,0,0,0,0,0,0,0,0],"sum_hessian":[7.07E2,2.01E2,5.06E2,8E0,1.93E2,7.4E1,4.32E2,5E0,3E0,1E1,1.83E2,4.4E1,3E1,2.44E2,1.88E2,7E0,1.76E2,1.9E1,2.5E1,2.4E1,6E0,2.06E2,3.8E1,7.2E1,1.16E2],"tree_param":{"num_deleted":"0","num_feature":"9","num_nodes":"25","size_leaf_vector":"1"}},{"base_weights":[5.238965E-2,-1.8945385E0,3.2223282E0,-4.5105176E0,-6.001051E-2,3.263365E-1,1.6846733E-1,-5.1930923E0,-2.079823E0,-2.3787801E-1,3.9572853E-1,-2.3621056E0,2.6670458E0,-1.1629866E-1,-1.7734136E-1,-1.3743002E-2,-1.1319041E-1,3.305033E-2,-9.5028065E-2,-8.826159E-2,1.1371512E-2,1.5151677E-1,-1.3499425E-2],"categories":[],"categories_nodes":[],"categories_segments":[],"categories_sizes":[],"default_left":[0,0,0,0,0,0,0,0,0,0,0,0,0,0,0,0,0,0,0,0,0,0,0],"id":40,"left_children":[1,3,5,7,9,-1,11,13,15,-1,17,19,21,-1,-1,-1,-1,-1,-1,-1,-1,-1,-1],"loss_changes":[4.4382476E3,2.1367932E3,7.3140015E3,2.4395752E2,1.078163E3,0E0,1.3541653E3,1.3790039E1,1.5048866E2,0E0,8.496936E2,2.686596E2,1.0025233E3,0E0,0E0,0E0,0E0,0E0,0E0,0E0,0E0,0E0,0E0],"parents":[2147483647,0,0,1,1,2,2,3,3,4,4,6,6,7,7,8,8,10,10,11,11,12,12],"right_children":[2,4,6,8,10,-1,12,14,16,-1,18,20,22,-1,-1,-1,-1,-1,-1,-1,-1,-1,-1],"split_conditions":[4.8E1,2.8E1,2.6086956E-1,1.4E1,6E0,3.263365E-1,7.2E1,5.633803E-1,5.633803E-1,-2.3787801E-1,2.6086956E-1,2.8E1,5.633803E-1,-1.1629866E-1,-1.7734136E-1,-1.3743002E-2,-1.1319041E-1,3.305033E-2,-9.5028065E-2,-8.826159E-2,1.1371512E-2,1.5151677E-1,-1.3499425E-2],"split_indices":[3,4,6,0,0,0,3,6,6,0,6,4,6,0,0,0,0,0,0,0,0,0,0],"split_type":[0,0,0,0,0,0,0,0,0,0,0,0,0,0,0,0,0,0,0,0,0,0,0],"sum_hessian":[7.08E2,4.4E2,2.68E2,1.78E2,2.62E2,6.5E1,2.03E2,1.34E2,4.4E1,8E0,2.54E2,1.01E2,1.02E2,9.3E1,4.1E1,2.9E1,1.5E1,2.13E2,4.1E1,7.6E1,2.5E1,5.1E1,5.1E1],"tree_param":{"num_deleted":"0","num_feature":"9","num_nodes":"23","size_leaf_vector":"1"}},{"base_weights":[4.197855E-2,-3.9276943E0,1.6696962E0,3.8513072E0,-4.3865676E0,-2.218541E0,2.3603911E0,1.2521578E-1,2.1092629E-2,-3.3238711E0,-5.4134264E0,-2.5157636E-1,-4.73555E0,7.314617E-1,4.4048467E0,-1.6824432E-1,-5.4925054E-2,-7.4163508E-3,-1.5317735E-1,3.18639E-2,-2.3523998E-2,-5.098131E-2,-1.625408E-1,5.9643574E-2,-5.9649337E-2,2.912623E-2,1.7196432E-1],"categories":[],"categories_nodes":[],"categories_segments":[],"categories_sizes":[],"default_left":[0,0,0,0,0,0,0,0,0,0,0,0,0,0,0,0,0,0,0,0,0,0,0,0,0,0,0],"id":41,"left_children":[1,3,5,7,9,11,13,-1,-1,15,17,19,21,23,25,-1,-1,-1,-1,-1,-1,-1,-1,-1,-1,-1,-1],"loss_changes":[4.634595E3,8.391289E2,1.3951761E3,1.3531052E1,1.1686865E2,3.872447E2,1.4291357E3,0E0,0E0,3.5012427E2,9.337329E1,4.9744816E1,5.9614624E1,1.0877509E3,1.184438E3,0E0,0E0,0E0,0E0,0E0,0E0,0E0,0E0,0E0,0E0,0E0,0E0],"parents":[2147483647,0,0,1,1,2,2,3,3,4,4,5,5,6,6,9,9,10,10,11,11,12,12,13,13,14,14],"right_children":[2,4,6,8,10,12,14,-1,-1,16,18,20,22,24,26,-1,-1,-1,-1,-1,-1,-1,-1,-1,-1,-1,-1],"split_conditions":[3.75E0,5.357E2,3E1,5.308E2,1E0,4.38E0,4.5E0,1.2521578E-1,2.1092629E-2,3E1,2.6086956E-1,1E0,1E0,1E0,4.8E1,-1.6824432E-1,-5.4925054E-2,-7.4163508E-3,-1.5317735E-1,3.18639E-2,-2.3523998E-2,-5.098131E-2,-1.625408E-1,5.9643574E-2,-5.9649337E-2,2.912623E-2,1.7196432E-1],"split_indices":[8,7,2,7,5,8,8,0,0,2,6,5,5,5,2,0,0,0,0,0,0,0,0,0,0,0,0],"split_type":[0,0,0,0,0,0,0,0,0,0,0,0,0,0,0,0,0,0,0,0,0,0,0,0,0,0,0],"sum_hessian":[7.06E2,2.03E2,5.03E2,9E0,1.94E2,7.4E1,4.29E2,5E0,4E0,1.07E2,8.7E1,4.5E1,2.9E1,2.43E2,1.86E2,2.7E1,8E1,4E0,8.3E1,1.2E1,3.3E1,1.3E1,1.6E1,1.63E2,8E1,7.1E1,1.15E2],"tree_param":{"num_deleted":"0","num_feature":"9","num_nodes":"27","size_leaf_vector":"1"}},{"base_weights":[4.1132364E-2,1.358786E0,-3.9263034E0,-2.421791E-1,1.6476084E0,-2.366067E0,-1.4780812E-1,4.412262E0,7.460434E-1,-1.0026439E-1,-9.5005625E-1,-2.8377613E-2,1.2613629E-1,5.0397526E-2,-1.7776279E-1,-3.4746338E-2,6.1600604E-3],"categories":[],"categories_nodes":[],"categories_segments":[],"categories_sizes":[],"default_left":[0,0,0,0,0,0,0,0,0,0,0,0,0,0,0,0,0],"id":42,"left_children":[1,3,5,-1,7,9,-1,11,13,-1,15,-1,-1,-1,-1,-1,-1],"loss_changes":[3.7445496E3,1.6743721E3,3.4707446E2,0E0,1.296463E3,1.6239185E2,0E0,1.8300342E2,3.3229426E3,0E0,2.2623215E1,0E0,0E0,0E0,0E0,0E0,0E0],"parents":[2147483647,0,0,1,1,2,2,4,4,5,5,7,7,8,8,10,10],"right_children":[2,4,6,-1,8,10,-1,12,14,-1,16,-1,-1,-1,-1,-1,-1],"split_conditions":[5.633803E-1,6E0,1E0,-2.421791E-1,7E-1,1.2E1,-1.4780812E-1,8E0,7.605E2,-1.0026439E-1,2.8E1,-2.8377613E-2,1.2613629E-1,5.0397526E-2,-1.7776279E-1,-3.4746338E-2,6.1600604E-3],"split_indices":[6,0,5,0,5,0,0,0,1,0,4,0,0,0,0,0,0],"split_type":[0,0,0,0,0,0,0,0,0,0,0,0,0,0,0,0,0],"sum_hessian":[7.05E2,5.32E2,1.73E2,1E1,5.22E2,9.2E1,8.1E1,1.23E2,3.99E2,4.3E1,4.9E1,4E0,1.19E2,3.5E2,4.9E1,3.8E1,1.1E1],"tree_param":{"num_deleted":"0","num_feature":"9","num_nodes":"17","size_leaf_vector":"1"}},{"base_weights":[1.9372288E-2,1.3150874E0,-3.8311734E0,-2.6767707E0,2.268551E0,-2.3005562E0,-1.4404032E-1,-6.0697007E0,-6.1947817E-1,1.585542E-1,1.6842993E0,-9.668399E-2,-9.2711157E-1,-1.7879808E-2,-1.9374323E-1,-7.1104E-2,3.311047E-2,-4.55898E-2,8.019374E-2,-4.1622493E-2,7.466691E-4],"categories":[],"categories_nodes":[],"categories_segments":[],"categories_sizes":[],"default_left":[0,0,0,0,0,0,0,0,0,0,0,0,0,0,0,0,0,0,0,0,0],"id":43,"left_children":[1,3,5,7,9,11,-1,13,15,-1,17,-1,19,-1,-1,-1,-1,-1,-1,-1,-1],"loss_changes":[3.5983638E3,2.087708E3,3.3776636E2,7.2281616E2,8.563513E2,1.5094464E2,0E0,1.9836133E2,2.8345975E2,0E0,1.6583284E3,0E0,3.1661537E1,0E0,0E0,0E0,0E0,0E0,0E0,0E0,0E0],"parents":[2147483647,0,0,1,1,2,2,3,3,4,4,5,5,7,7,8,8,10,10,12,12],"right_children":[2,4,6,8,10,12,-1,14,16,-1,18,-1,20,-1,-1,-1,-1,-1,-1,-1,-1],"split_conditions":[1.42E3,3E1,1E0,1E1,6E-1,1.2E1,-1.4404032E-1,5.42E2,2.8E1,1.585542E-1,4.8E1,-9.668399E-2,6E1,-1.7879808E-2,-1.9374323E-1,-7.1104E-2,3.311047E-2,-4.55898E-2,8.019374E-2,-4.1622493E-2,7.466691E-4],"split_indices":[7,2,5,0,5,0,0,7,4,0,2,0,2,0,0,0,0,0,0,0,0],"split_type":[0,0,0,0,0,0,0,0,0,0,0,0,0,0,0,0,0,0,0,0,0],"sum_hessian":[7.1E2,5.34E2,1.76E2,1.01E2,4.33E2,9.3E1,8.3E1,3.4E1,6.7E1,5.4E1,3.79E2,4.4E1,4.9E1,7E0,2.7E1,3.1E1,3.6E1,1.03E2,2.76E2,2.8E1,2.1E1],"tree_param":{"num_deleted":"0","num_feature":"9","num_nodes":"21","size_leaf_vector":"1"}},{"base_weights":[-5.4971103E-2,-1.9411659E0,2.9999642E0,2.919322E0,-4.00168E0,6.082587E0,-1.9513003E0,-3.0801697E0,4.3642936E0,-1.8693356E-1,-3.4315464E0,2.2928749E-1,3.8003044E0,-3.4677236E0,-2.4479608E-1,6.002706E-2,-2.3457104E-1,8.709591E-2,1.936905E-1,-6.317314E-2,-1.6137736E-1,4.9417827E-2,1.5544465E-1,-5.558192E-2,-1.1644154E-1,3.2249898E-2,-5.246575E-2],"categories":[],"categories_nodes":[],"categories_segments":[],"categories_sizes":[],"default_left":[0,0,0,0,0,0,0,0,0,0,0,0,0,0,0,0,0,0,0,0,0,0,0,0,0,0,0],"id":44,"left_children":[1,3,5,7,9,11,13,15,17,-1,19,-1,21,23,25,-1,-1,-1,-1,-1,-1,-1,-1,-1,-1,-1,-1],"loss_changes":[4.144426E3,4.5180547E3,4.2576367E3,1.2507312E3,3.8197266E2,7.322798E2,2.7874423E2,9.728928E2,2.298523E2,0E0,6.815996E2,0E0,3.0809375E2,1.7473328E1,1.5137648E2,0E0,0E0,0E0,0E0,0E0,0E0,0E0,0E0,0E0,0E0,0E0,0E0],"parents":[2147483647,0,0,1,1,2,2,3,3,4,4,5,5,6,6,7,7,8,8,10,10,12,12,13,13,14,14],"right_children":[2,4,6,8,10,12,14,16,18,-1,20,-1,22,24,26,-1,-1,-1,-1,-1,-1,-1,-1,-1,-1,-1,-1],"split_conditions":[4.8E1,7E-1,1.15406E3,5E-1,2.4E1,1E0,7.2E1,5.42E2,2.4E1,-1.8693356E-1,1.42E3,2.2928749E-1,7.2E1,1E0,1E0,6.002706E-2,-2.3457104E-1,8.709591E-2,1.936905E-1,-6.317314E-2,-1.6137736E-1,4.9417827E-2,1.5544465E-1,-5.558192E-2,-1.1644154E-1,3.2249898E-2,-5.246575E-2],"split_indices":[3,5,7,5,3,5,3,7,3,0,7,0,3,5,5,0,0,0,0,0,0,0,0,0,0,0,0],"split_type":[0,0,0,0,0,0,0,0,0,0,0,0,0,0,0,0,0,0,0,0,0,0,0,0,0,0,0],"sum_hessian":[7.08E2,4.39E2,2.69E2,1.3E2,3.09E2,1.65E2,1.04E2,2.4E1,1.06E2,4.1E1,2.68E2,7.4E1,9.1E1,5.2E1,5.2E1,1.4E1,1E1,8.3E1,2.3E1,1.93E2,7.5E1,5E1,4.1E1,2.6E1,2.6E1,2.9E1,2.3E1],"tree_param":{"num_deleted":"0","num_feature":"9","num_nodes":"27","size_leaf_vector":"1"}},{"base_weights":[2.8516075E-2,-3.6021068E0,1.5435164E0,-4.695784E0,-2.4008185E-1,-6.857901E-1,5.969864E0,3.6743968E0,-5.3369803E0,3.1514112E-2,-5.131714E-2,4.2131095E0,-3.157013E0,3.0610907E-1,2.2603917E0,1.20790884E-1,1.865454E-2,-1.670583E-1,-9.290251E-2,8.495824E-2,1.8945022E-1,-1.6824901E-1,-6.467954E-2,-2.7066598E-2,1.4247689E-1],"categories":[],"categories_nodes":[],"categories_segments":[],"categories_sizes":[],"default_left":[0,0,0,0,0,0,0,0,0,0,0,0,0,0,0,0,0,0,0,0,0,0,0,0,0],"id":45,"left_children":[1,3,5,7,9,11,13,15,17,-1,-1,19,21,-1,23,-1,-1,-1,-1,-1,-1,-1,-1,-1,-1],"loss_changes":[3.9340945E3,7.6789185E2,5.002249E3,9.6093115E2,1.4471556E2,4.197715E3,3.1772002E3,1.6138092E1,1.1298828E2,0E0,0E0,2.2783154E2,4.5963257E2,0E0,1.0612406E3,0E0,0E0,0E0,0E0,0E0,0E0,0E0,0E0,0E0,0E0],"parents":[2147483647,0,0,1,1,2,2,3,3,4,4,5,5,6,6,7,7,8,8,11,11,12,12,14,14],"right_children":[2,4,6,8,10,12,14,16,18,-1,-1,20,22,-1,24,-1,-1,-1,-1,-1,-1,-1,-1,-1,-1],"split_conditions":[3.75E0,7.2E1,4.8E1,2.7527084E0,1E0,7E-1,2.6086956E-1,2.7275E0,4.8E1,3.1514112E-2,-5.131714E-2,2.4E1,2.4E1,3.0610907E-1,7.2E1,1.20790884E-1,1.865454E-2,-1.670583E-1,-9.290251E-2,8.495824E-2,1.8945022E-1,-1.6824901E-1,-6.467954E-2,-2.7066598E-2,1.4247689E-1],"split_indices":[8,3,3,8,5,5,6,8,3,0,0,3,3,0,3,0,0,0,0,0,0,0,0,0,0],"split_type":[0,0,0,0,0,0,0,0,0,0,0,0,0,0,0,0,0,0,0,0,0,0,0,0,0],"sum_hessian":[7.04E2,2.05E2,4.99E2,1.53E2,5.2E1,3.35E2,1.64E2,9E0,1.44E2,2.9E1,2.3E1,1.11E2,2.24E2,6.3E1,1.01E2,5E0,4E0,9.3E1,5.1E1,8.8E1,2.3E1,3.8E1,1.86E2,5E1,5.1E1],"tree_param":{"num_deleted":"0","num_feature":"9","num_nodes":"25","size_leaf_vector":"1"}},{"base_weights":[-5.5173986E-2,-1.8512197E0,2.8799684E0,-4.999243E0,-8.319725E-1,2.0385113E-1,3.0096394E-1,3.3314898E0,-6.033545E0,-2.1873603E0,7.505211E-1,-2.1572225E0,2.5332546E0,1.19239345E-1,1.4147146E-2,-5.023893E-3,-1.7064114E-1,-9.128974E-2,2.7168434E-2,-3.9534606E-3,1.0874494E-1,-8.976476E-2,-2.248316E-2,-6.408454E-3,1.3762105E-1],"categories":[],"categories_nodes":[],"categories_segments":[],"categories_sizes":[],"default_left":[0,0,0,0,0,0,0,0,0,0,0,0,0,0,0,0,0,0,0,0,0,0,0,0,0],"id":46,"left_children":[1,3,5,7,9,11,-1,13,15,17,19,21,23,-1,-1,-1,-1,-1,-1,-1,-1,-1,-1,-1,-1],"loss_changes":[3.8127046E3,1.4159186E3,5.996577E3,1.0482466E3,7.504923E2,1.1998337E3,0E0,3.3129944E1,1.2947217E2,7.1606305E2,4.7889368E2,1.4955246E2,7.724282E2,0E0,0E0,0E0,0E0,0E0,0E0,0E0,0E0,0E0,0E0,0E0,0E0],"parents":[2147483647,0,0,1,1,2,2,3,3,4,4,5,5,7,7,8,8,9,9,10,10,11,11,12,12],"right_children":[2,4,6,8,10,12,-1,14,16,18,20,22,24,-1,-1,-1,-1,-1,-1,-1,-1,-1,-1,-1,-1],"split_conditions":[4.8E1,3.75E0,3.85E0,2.7683334E0,7.605E2,7.2E1,3.0096394E-1,7.784E2,5.46E2,1.4E1,2.4E1,3.634865E0,3.634865E0,1.19239345E-1,1.4147146E-2,-5.023893E-3,-1.7064114E-1,-9.128974E-2,2.7168434E-2,-3.9534606E-3,1.0874494E-1,-8.976476E-2,-2.248316E-2,-6.408454E-3,1.3762105E-1],"split_indices":[3,8,8,8,1,3,0,1,1,0,3,8,8,0,0,0,0,0,0,0,0,0,0,0,0],"split_type":[0,0,0,0,0,0,0,0,0,0,0,0,0,0,0,0,0,0,0,0,0,0,0,0,0],"sum_hessian":[7.12E2,4.43E2,2.69E2,1.03E2,3.4E2,2.07E2,6.2E1,1E1,9.3E1,1.82E2,1.58E2,1.03E2,1.04E2,5E0,5E0,4E0,8.9E1,1.33E2,4.9E1,1.28E2,3E1,5.1E1,5.2E1,5.2E1,5.2E1],"tree_param":{"num_deleted":"0","num_feature":"9","num_nodes":"25","size_leaf_vector":"1"}},{"base_weights":[-4.5454278E-4,1.1746283E0,-3.4795895E0,-2.3836935E0,2.0326312E0,-2.010672E0,-1.3191536E-1,-4.6046634E0,5.256248E-1,1.4706935E-1,1.4704142E0,-8.560511E-2,-7.502892E-1,5.2255E-3,-1.4823715E-1,7.015397E-2,-2.4459273E-2,7.209018E-2,-4.4897884E-2,-3.770884E-2,5.032325E-3],"categories":[],"categories_nodes":[],"categories_segments":[],"categories_sizes":[],"default_left":[0,0,0,0,0,0,0,0,0,0,0,0,0,0,0,0,0,0,0,0,0],"id":47,"left_children":[1,3,5,7,9,11,-1,13,15,-1,17,-1,19,-1,-1,-1,-1,-1,-1,-1,-1],"loss_changes":[2.9566597E3,1.6775593E3,3.1197144E2,7.088904E2,7.865597E2,1.26240906E2,0E0,2.547229E2,1.6380084E2,0E0,1.4346938E3,0E0,3.3306587E1,0E0,0E0,0E0,0E0,0E0,0E0,0E0,0E0],"parents":[2147483647,0,0,1,1,2,2,3,3,4,4,5,5,7,7,8,8,10,10,12,12],"right_children":[2,4,6,8,10,12,-1,14,16,-1,18,-1,20,-1,-1,-1,-1,-1,-1,-1,-1],"split_conditions":[1.42E3,3E1,1E0,1.2E1,6E-1,1.2E1,-1.3191536E-1,5.42E2,1E0,1.4706935E-1,7.605E2,-8.560511E-2,6E1,5.2255E-3,-1.4823715E-1,7.015397E-2,-2.4459273E-2,7.209018E-2,-4.4897884E-2,-3.770884E-2,5.032325E-3],"split_indices":[7,2,5,0,5,0,0,7,5,0,1,0,2,0,0,0,0,0,0,0,0],"split_type":[0,0,0,0,0,0,0,0,0,0,0,0,0,0,0,0,0,0,0,0,0],"sum_hessian":[7.12E2,5.35E2,1.77E2,1.02E2,4.33E2,9.2E1,8.5E1,5.6E1,4.6E1,5.5E1,3.78E2,4.4E1,4.8E1,9E0,4.7E1,1.7E1,2.9E1,2.75E2,1.03E2,2.7E1,2.1E1],"tree_param":{"num_deleted":"0","num_feature":"9","num_nodes":"21","size_leaf_vector":"1"}},{"base_weights":[5.949971E-3,-1.764217E0,2.861608E0,2.6541142E0,-3.6978755E0,2.8993043E-1,1.738039E-1,-2.8727262E0,3.9521403E0,-1.8273954E-1,-4.0141993E0,-2.1424487E0,2.5028315E0,8.885168E-2,-1.8884587E-1,8.0926165E-2,1.7511679E-1,-5.5288747E-2,2.1889701E-2,-7.9228476E-2,-1.483751E-1,-9.272686E-3,-9.925713E-2,1.3218313E-1,-7.6027256E-3],"categories":[],"categories_nodes":[],"categories_segments":[],"categories_sizes":[],"default_left":[0,0,0,0,0,0,0,0,0,0,0,0,0,0,0,0,0,0,0,0,0,0,0,0,0],"id":48,"left_children":[1,3,5,7,9,-1,11,13,15,17,19,21,23,-1,-1,-1,-1,-1,-1,-1,-1,-1,-1,-1,-1],"loss_changes":[3.6405488E3,3.853356E3,5.760381E3,1.0578286E3,3.4223633E2,0E0,1.1660886E3,8.6531085E2,1.7106189E2,6.682686E1,3.6382617E2,2.872827E2,7.123294E2,0E0,0E0,0E0,0E0,0E0,0E0,0E0,0E0,0E0,0E0,0E0,0E0],"parents":[2147483647,0,0,1,1,2,2,3,3,4,4,6,6,7,7,8,8,9,9,10,10,11,11,12,12],"right_children":[2,4,6,8,10,-1,12,14,16,18,20,22,24,-1,-1,-1,-1,-1,-1,-1,-1,-1,-1,-1,-1],"split_conditions":[4.8E1,7E-1,2.6086956E-1,5E-1,6.5E2,2.8993043E-1,7.2E1,7.872E2,2.4E1,5.47E2,1E0,1E0,1E0,8.885168E-2,-1.8884587E-1,8.0926165E-2,1.7511679E-1,-5.5288747E-2,2.1889701E-2,-7.9228476E-2,-1.483751E-1,-9.272686E-3,-9.925713E-2,1.3218313E-1,-7.6027256E-3],"split_indices":[3,5,6,5,1,0,3,1,3,1,5,5,5,0,0,0,0,0,0,0,0,0,0,0,0],"split_type":[0,0,0,0,0,0,0,0,0,0,0,0,0,0,0,0,0,0,0,0,0,0,0,0,0],"sum_hessian":[7.09E2,4.39E2,2.7E2,1.33E2,3.06E2,6.5E1,2.05E2,2.4E1,1.09E2,2.6E1,2.8E2,1.03E2,1.02E2,1E1,1.4E1,8.7E1,2.2E1,7E0,1.9E1,1.68E2,1.12E2,5E1,5.3E1,5.3E1,4.9E1],"tree_param":{"num_deleted":"0","num_feature":"9","num_nodes":"25","size_leaf_vector":"1"}},{"base_weights":[-4.6392926E-3,-3.2818651E0,1.3249998E0,3.5029168E0,-3.6841269E0,3.9497151E0,5.5213076E-1,1.1583219E-1,1.703069E-2,-2.187003E-1,-3.2197945E0,1.4097159E-1,6.4793475E-2,-1.6466567E-1,1.5757395E0,-5.4571535E-2,-1.19319074E-1,1.0678431E-1,-1.122553E-2],"categories":[],"categories_nodes":[],"categories_segments":[],"categories_sizes":[],"default_left":[0,0,0,0,0,0,0,0,0,0,0,0,0,0,0,0,0,0,0],"id":49,"left_children":[1,3,5,7,9,11,13,-1,-1,-1,15,-1,-1,-1,17,-1,-1,-1,-1],"loss_changes":[3.1644E3,6.442444E2,1.0356051E3,1.6568756E1,2.601953E2,1.5577454E2,2.7942422E3,0E0,0E0,0E0,2.201626E2,0E0,0E0,0E0,1.6689476E3,0E0,0E0,0E0,0E0],"parents":[2147483647,0,0,1,1,2,2,3,3,4,4,5,5,6,6,10,10,14,14],"right_children":[2,4,6,8,10,12,14,-1,-1,-1,16,-1,-1,-1,18,-1,-1,-1,-1],"split_conditions":[3.75E0,2.7527084E0,7E-1,2.7275E0,6E0,6E-1,7.5E-1,1.1583219E-1,1.703069E-2,-2.187003E-1,1E0,1.4097159E-1,6.4793475E-2,-1.6466567E-1,1E0,-5.4571535E-2,-1.19319074E-1,1.0678431E-1,-1.122553E-2],"split_indices":[8,8,5,8,0,5,5,0,0,0,5,0,0,0,5,0,0,0,0],"split_type":[0,0,0,0,0,0,0,0,0,0,0,0,0,0,0,0,0,0,0],"sum_hessian":[7.15E2,2.04E2,5.11E2,9E0,1.95E2,1.11E2,4E2,5E0,4E0,1E1,1.85E2,5.5E1,5.6E1,5E1,3.5E2,9.8E1,8.7E1,1.58E2,1.92E2],"tree_param":{"num_deleted":"0","num_feature":"9","num_nodes":"19","size_leaf_vector":"1"}},{"base_weights":[-2.164106E-2,-3.2196584E0,1.3012303E0,3.4585664E0,-3.6119905E0,-1.9472687E0,1.875538E0,1.1434435E-1,1.683747E-2,-3.1682875E0,-2.2075413E-1,-3.2096917E-3,-1.2178695E-1,4.588921E-1,3.6641655E0,-2.0058812E-3,-8.794495E-2,2.1665523E-2,-1.7031705E-2,-8.309319E-3,3.0478694E-2,1.4109465E-1,2.8236043E-2],"categories":[],"categories_nodes":[],"categories_segments":[],"categories_sizes":[],"default_left":[0,0,0,0,0,0,0,0,0,0,0,0,0,0,0,0,0,0,0,0,0,0,0],"id":50,"left_children":[1,3,5,7,9,11,13,-1,-1,15,-1,17,-1,19,21,-1,-1,-1,-1,-1,-1,-1,-1],"loss_changes":[3.0593296E3,6.2429126E2,9.748814E2,1.6091995E1,2.6029565E2,3.908612E2,1.0992664E3,0E0,0E0,3.6280518E1,0E0,2.795633E1,0E0,1.2850986E2,7.386184E2,0E0,0E0,0E0,0E0,0E0,0E0,0E0,0E0],"parents":[2147483647,0,0,1,1,2,2,3,3,4,4,5,5,6,6,9,9,11,11,13,13,14,14],"right_children":[2,4,6,8,10,12,14,-1,-1,16,-1,18,-1,20,22,-1,-1,-1,-1,-1,-1,-1,-1],"split_conditions":[3.75E0,2.7527084E0,3E1,7.784E2,7.947E2,4.38E0,4.5E0,1.1434435E-1,1.683747E-2,5.46E2,-2.2075413E-1,6.5E2,-1.2178695E-1,2.8E1,7.605E2,-2.0058812E-3,-8.794495E-2,2.1665523E-2,-1.7031705E-2,-8.309319E-3,3.0478694E-2,1.4109465E-1,2.8236043E-2],"split_indices":[8,8,2,1,1,8,8,0,0,1,0,1,0,4,1,0,0,0,0,0,0,0,0],"split_type":[0,0,0,0,0,0,0,0,0,0,0,0,0,0,0,0,0,0,0,0,0,0,0],"sum_hessian":[7.12E2,2.06E2,5.06E2,9E0,1.97E2,7.4E1,4.32E2,5E0,4E0,1.88E2,9E0,4.5E1,2.9E1,2.45E2,1.87E2,4E0,1.84E2,1.9E1,2.6E1,1.15E2,1.3E2,1.15E2,7.2E1],"tree_param":{"num_deleted":"0","num_feature":"9","num_nodes":"23","size_leaf_vector":"1"}},{"base_weights":[-7.0527126E-3,-1.7035822E0,2.7667885E0,-3.9384837E0,-1.6328135E-1,2.3582831E-1,2.786763E-1,-4.609096E0,-1.6059902E0,-2.1126238E-1,2.913533E-1,-2.0034823E0,2.4632716E0,-1.3966687E-1,-8.4970206E-2,-8.8631E-2,-1.2088029E-2,-3.2067515E-2,3.2060113E-2,-7.67078E-2,1.6015006E-2,-3.3258174E-3,1.2969217E-1],"categories":[],"categories_nodes":[],"categories_segments":[],"categories_sizes":[],"default_left":[0,0,0,0,0,0,0,0,0,0,0,0,0,0,0,0,0,0,0,0,0,0,0],"id":51,"left_children":[1,3,5,7,9,11,-1,13,15,-1,17,19,21,-1,-1,-1,-1,-1,-1,-1,-1,-1,-1],"loss_changes":[3.4173867E3,1.5474128E3,5.1981934E3,2.455752E2,9.546135E2,1.083046E3,0E0,1.858496E1,8.689736E1,0E0,3.498988E2,2.3870978E2,6.496801E2,0E0,0E0,0E0,0E0,0E0,0E0,0E0,0E0,0E0,0E0],"parents":[2147483647,0,0,1,1,2,2,3,3,4,4,5,5,7,7,8,8,10,10,11,11,12,12],"right_children":[2,4,6,8,10,12,-1,14,16,-1,18,20,22,-1,-1,-1,-1,-1,-1,-1,-1,-1,-1],"split_conditions":[4.8E1,2.8E1,3.85E0,1.4E1,6E0,7.2E1,2.786763E-1,1.2E1,3.634865E0,-2.1126238E-1,4.0999765E0,2.8E1,3.634865E0,-1.3966687E-1,-8.4970206E-2,-8.8631E-2,-1.2088029E-2,-3.2067515E-2,3.2060113E-2,-7.67078E-2,1.6015006E-2,-3.3258174E-3,1.2969217E-1],"split_indices":[3,4,8,0,0,3,0,0,8,0,8,4,8,0,0,0,0,0,0,0,0,0,0],"split_type":[0,0,0,0,0,0,0,0,0,0,0,0,0,0,0,0,0,0,0,0,0,0,0],"sum_hessian":[7.15E2,4.45E2,2.7E2,1.78E2,2.67E2,2.06E2,6.4E1,1.34E2,4.4E1,1E1,2.57E2,1.03E2,1.03E2,8.9E1,4.5E1,1.4E1,3E1,9.6E1,1.61E2,7.8E1,2.5E1,5.1E1,5.2E1],"tree_param":{"num_deleted":"0","num_feature":"9","num_nodes":"23","size_leaf_vector":"1"}},{"base_weights":[-3.696044E-3,-1.6801001E0,2.7349436E0,-9.326508E-1,-1.3684405E-1,2.7128914E-1,2.2572301E-1,-2.0757528E-1,-6.3110715E-1,-1.9640019E0,2.4039958E0,7.933259E-4,-5.6269977E-2,-7.9999596E-2,-2.1610219E-2,1.2650521E-1,-4.412281E-3],"categories":[],"categories_nodes":[],"categories_segments":[],"categories_sizes":[],"default_left":[0,0,0,0,0,0,0,0,0,0,0,0,0,0,0,0,0],"id":52,"left_children":[1,3,5,7,-1,-1,9,-1,11,13,15,-1,-1,-1,-1,-1,-1],"loss_changes":[3.3202002E3,1.0960958E3,4.970536E3,7.269314E2,0E0,0E0,1.0261573E3,0E0,3.452157E2,1.0960739E2,6.239242E2,0E0,0E0,0E0,0E0,0E0,0E0],"parents":[2147483647,0,0,1,1,2,2,3,3,6,6,8,8,9,9,10,10],"right_children":[2,4,6,8,-1,-1,10,-1,12,14,16,-1,-1,-1,-1,-1,-1],"split_conditions":[4.8E1,5.633803E-1,2.6086956E-1,6E0,-1.3684405E-1,2.7128914E-1,7.2E1,-2.0757528E-1,4.8E1,6E1,5.633803E-1,7.933259E-4,-5.6269977E-2,-7.9999596E-2,-2.1610219E-2,1.2650521E-1,-4.412281E-3],"split_indices":[3,6,6,0,0,0,3,0,2,2,6,0,0,0,0,0,0],"split_type":[0,0,0,0,0,0,0,0,0,0,0,0,0,0,0,0,0],"sum_hessian":[7.12E2,4.43E2,2.69E2,3.68E2,7.5E1,6.5E1,2.04E2,1E1,3.58E2,1.02E2,1.02E2,2.49E2,1.09E2,5.1E1,5.1E1,5.2E1,5E1],"tree_param":{"num_deleted":"0","num_feature":"9","num_nodes":"17","size_leaf_vector":"1"}},{"base_weights":[-1.5666507E-3,-9.780823E-1,4.4031134E0,-2.8632338E0,8.5084957E-1,3.1708017E-1,2.3533638E0,3.6811101E0,-3.1187713E0,-3.688456E-1,7.6755557E0,4.533788E0,-5.513302E-2,1.13277316E-1,1.874021E-2,-1.22888654E-1,-4.1372053E-2,1.8691171E-2,-5.4297637E-2,3.407015E-2,2.5145108E-1,4.6683427E-2,1.3588354E-1,-2.4315922E-2,2.15541E-2],"categories":[],"categories_nodes":[],"categories_segments":[],"categories_sizes":[],"default_left":[0,0,0,0,0,0,0,0,0,0,0,0,0,0,0,0,0,0,0,0,0,0,0,0,0],"id":53,"left_children":[1,3,5,7,9,-1,11,13,15,17,19,21,23,-1,-1,-1,-1,-1,-1,-1,-1,-1,-1,-1,-1],"loss_changes":[3.1191382E3,2.0602954E3,1.8009392E3,5.551997E2,2.5598523E3,0E0,5.770774E2,3.3820953E0,5.9896313E2,4.6189078E2,4.0285132E2,2.6362427E1,4.485789E1,0E0,0E0,0E0,0E0,0E0,0E0,0E0,0E0,0E0,0E0,0E0,0E0],"parents":[2147483647,0,0,1,1,2,2,3,3,4,4,6,6,7,7,8,8,9,9,10,10,11,11,12,12],"right_children":[2,4,6,8,10,-1,12,14,16,18,20,22,24,-1,-1,-1,-1,-1,-1,-1,-1,-1,-1,-1,-1],"split_conditions":[7.2E1,3.85E0,2.6086956E-1,5.351E2,4.8E1,3.1708017E-1,5.633803E-1,5.308E2,3.634865E0,1.117E3,1E1,1E1,1.2E1,1.13277316E-1,1.874021E-2,-1.22888654E-1,-4.1372053E-2,1.8691171E-2,-5.4297637E-2,3.407015E-2,2.5145108E-1,4.6683427E-2,1.3588354E-1,-2.4315922E-2,2.15541E-2],"split_indices":[3,8,6,7,3,0,6,7,8,7,0,0,0,0,0,0,0,0,0,0,0,0,0,0,0],"split_type":[0,0,0,0,0,0,0,0,0,0,0,0,0,0,0,0,0,0,0,0,0,0,0,0,0],"sum_hessian":[7.14E2,5.88E2,1.26E2,2.88E2,3E2,2.2E1,1.04E2,8E0,2.8E2,2.59E2,4.1E1,5.2E1,5.2E1,5E0,3E0,1.44E2,1.36E2,1.59E2,1E2,1E1,3.1E1,1.1E1,4.1E1,2.6E1,2.6E1],"tree_param":{"num_deleted":"0","num_feature":"9","num_nodes":"25","size_leaf_vector":"1"}},{"base_weights":[-2.0248001E-2,-1.6852907E0,2.6227837E0,2.4778168E0,-3.5110626E0,2.7004874E-1,2.5855446E-1,-6.249053E0,3.7494617E0,-5.0248284E0,-1.3450156E0,2.3710806E0,-1.9434215E0,-2.8012376E-2,-2.0795688E-1,7.755138E-2,1.715229E-1,-1.5510307E-1,-9.351998E-2,-1.02125116E-1,-3.8923621E-3,-2.6534705E-3,1.3010517E-1,-8.878177E-2,-9.599019E-3],"categories":[],"categories_nodes":[],"categories_segments":[],"categories_sizes":[],"default_left":[0,0,0,0,0,0,0,0,0,0,0,0,0,0,0,0,0,0,0,0,0,0,0,0,0],"id":54,"left_children":[1,3,5,7,9,11,-1,13,15,17,19,21,23,-1,-1,-1,-1,-1,-1,-1,-1,-1,-1,-1,-1],"loss_changes":[3.1606594E3,3.397614E3,4.476714E3,1.6579653E3,9.738401E2,1.01448065E3,0E0,9.8073975E1,1.8322278E2,8.245557E1,3.863275E2,6.66435E2,2.1703406E2,0E0,0E0,0E0,0E0,0E0,0E0,0E0,0E0,0E0,0E0,0E0,0E0],"parents":[2147483647,0,0,1,1,2,2,3,3,4,4,5,5,7,7,8,8,9,9,10,10,11,11,12,12],"right_children":[2,4,6,8,10,12,-1,14,16,18,20,22,24,-1,-1,-1,-1,-1,-1,-1,-1,-1,-1,-1,-1],"split_conditions":[4.8E1,7E-1,3.85E0,8E0,1.2E1,1E0,2.5855446E-1,2.7847917E0,2.4E1,1E1,3.75E0,3.634865E0,7.2E1,-2.8012376E-2,-2.0795688E-1,7.755138E-2,1.715229E-1,-1.5510307E-1,-9.351998E-2,-1.02125116E-1,-3.8923621E-3,-2.6534705E-3,1.3010517E-1,-8.878177E-2,-9.599019E-3],"split_indices":[3,5,8,0,0,5,0,8,3,0,8,8,3,0,0,0,0,0,0,0,0,0,0,0,0],"split_type":[0,0,0,0,0,0,0,0,0,0,0,0,0,0,0,0,0,0,0,0,0,0,0,0,0],"sum_hessian":[7.07E2,4.35E2,2.72E2,1.32E2,3.03E2,2.07E2,6.5E1,1.4E1,1.18E2,1.74E2,1.29E2,1.06E2,1.01E2,5E0,9E0,9.6E1,2.2E1,1.12E2,6.2E1,3.9E1,9E1,5.5E1,5.1E1,5.2E1,4.9E1],"tree_param":{"num_deleted":"0","num_feature":"9","num_nodes":"25","size_leaf_vector":"1"}},{"base_weights":[-1.986429E-2,-9.6458805E-1,4.2820573E0,-2.75304E0,7.54094E-1,3.0458948E-1,2.3055246E0,3.0293756E0,-2.9752455E0,-3.8851497E-1,1.9166933E-1,1.190405E-1,-7.2420534E-4,1.0042681E-1,1.6310398E-2,-1.1750704E-1,-3.9436623E-2,-5.1948156E-2,1.699351E-2],"categories":[],"categories_nodes":[],"categories_segments":[],"categories_sizes":[],"default_left":[0,0,0,0,0,0,0,0,0,0,0,0,0,0,0,0,0,0,0],"id":55,"left_children":[1,3,5,7,9,-1,11,13,15,17,-1,-1,-1,-1,-1,-1,-1,-1,-1],"loss_changes":[2.9475312E3,1.8393298E3,1.6386318E3,4.263745E2,2.2255464E3,0E0,5.245752E2,9.316963E0,5.478164E2,4.1565073E2,0E0,0E0,0E0,0E0,0E0,0E0,0E0,0E0,0E0],"parents":[2147483647,0,0,1,1,2,2,3,3,4,4,6,6,7,7,8,8,9,9],"right_children":[2,4,6,8,10,-1,12,14,16,18,-1,-1,-1,-1,-1,-1,-1,-1,-1],"split_conditions":[7.2E1,3.85E0,2.6086956E-1,5.357E2,4.8E1,3.0458948E-1,5.633803E-1,7.782E2,3.634865E0,7.605E2,1.9166933E-1,1.190405E-1,-7.2420534E-4,1.0042681E-1,1.6310398E-2,-1.1750704E-1,-3.9436623E-2,-5.1948156E-2,1.699351E-2],"split_indices":[3,8,6,7,3,0,6,1,8,1,0,0,0,0,0,0,0,0,0],"split_type":[0,0,0,0,0,0,0,0,0,0,0,0,0,0,0,0,0,0,0],"sum_hessian":[7.14E2,5.89E2,1.25E2,2.87E2,3.02E2,2.2E1,1.03E2,8E0,2.79E2,2.6E2,4.2E1,5.2E1,5.1E1,4E0,4E0,1.43E2,1.36E2,1.02E2,1.58E2],"tree_param":{"num_deleted":"0","num_feature":"9","num_nodes":"19","size_leaf_vector":"1"}},{"base_weights":[-2.1834733E-2,9.3127334E-1,-2.822572E0,-1.9372126E0,1.6328917E0,-8.7002546E-2,-1.3773584E0,-4.9451494E0,-1.303546E-1,8.862861E-1,3.363045E0,-5.4742698E-2,-4.8039565E-3,-1.0074358E-2,-1.588354E-1,-2.2786202E-2,9.968472E-2,3.7582174E-2,-1.4631081E-2,1.7577435E-1,3.1678364E-2],"categories":[],"categories_nodes":[],"categories_segments":[],"categories_sizes":[],"default_left":[0,0,0,0,0,0,0,0,0,0,0,0,0,0,0,0,0,0,0,0,0],"id":56,"left_children":[1,3,5,7,9,-1,11,13,15,17,19,-1,-1,-1,-1,-1,-1,-1,-1,-1,-1],"loss_changes":[1.9303153E3,1.103667E3,7.447278E1,5.864409E2,5.4716174E2,0E0,3.4181206E1,1.531496E2,2.1437776E2,2.242951E2,8.398274E2,0E0,0E0,0E0,0E0,0E0,0E0,0E0,0E0,0E0,0E0],"parents":[2147483647,0,0,1,1,2,2,3,3,4,4,6,6,7,7,8,8,9,9,10,10],"right_children":[2,4,6,8,10,-1,12,14,16,18,20,-1,-1,-1,-1,-1,-1,-1,-1,-1,-1],"split_conditions":[5.633803E-1,3E1,1.4E1,1E1,1.2E1,-8.7002546E-2,6E1,5.42E2,7.605E2,2.6086956E-1,2.6086956E-1,-5.4742698E-2,-4.8039565E-3,-1.0074358E-2,-1.588354E-1,-2.2786202E-2,9.968472E-2,3.7582174E-2,-1.4631081E-2,1.7577435E-1,3.1678364E-2],"split_indices":[6,2,0,0,0,0,2,7,1,6,6,0,0,0,0,0,0,0,0,0,0],"split_type":[0,0,0,0,0,0,0,0,0,0,0,0,0,0,0,0,0,0,0,0,0],"sum_hessian":[7.12E2,5.34E2,1.78E2,1.03E2,4.31E2,1.36E2,4.2E1,3.5E1,6.8E1,3.07E2,1.24E2,2.5E1,1.7E1,7E0,2.8E1,6.1E1,7E0,2.28E2,7.9E1,4.7E1,7.7E1],"tree_param":{"num_deleted":"0","num_feature":"9","num_nodes":"21","size_leaf_vector":"1"}},{"base_weights":[3.497562E-2,-2.720917E0,1.1603003E0,3.5047398E0,-3.0636897E0,2.2081566E0,-5.466148E-1,1.0847189E-1,1.7070984E-2,-1.9366947E-1,-2.6464322E0,5.797887E-1,4.3500767E0,1.2303742E0,-2.3818321E0,-3.8942184E-2,-1.0468826E-1,9.634065E-2,-1.03818424E-1,7.697008E-2,1.6250646E-1,-6.0227517E-2,8.473476E-2,-7.458587E-2,-4.5173824E-2],"categories":[],"categories_nodes":[],"categories_segments":[],"categories_sizes":[],"default_left":[0,0,0,0,0,0,0,0,0,0,0,0,0,0,0,0,0,0,0,0,0,0,0,0,0],"id":57,"left_children":[1,3,5,7,9,11,13,-1,-1,-1,15,17,19,21,23,-1,-1,-1,-1,-1,-1,-1,-1,-1,-1],"loss_changes":[2.2523767E3,5.0946558E2,9.2899744E2,4.6775665E0,2.368805E2,1.1039196E3,6.706026E2,0E0,0E0,0E0,2.4999353E2,2.5285132E3,2.4467749E2,7.231756E2,4.6350098E-1,0E0,0E0,0E0,0E0,0E0,0E0,0E0,0E0,0E0,0E0],"parents":[2147483647,0,0,1,1,2,2,3,3,4,4,5,5,6,6,10,10,11,11,12,12,13,13,14,14],"right_children":[2,4,6,8,10,12,14,-1,-1,-1,16,18,20,22,24,-1,-1,-1,-1,-1,-1,-1,-1,-1,-1],"split_conditions":[3.75E0,2.749375E0,1E0,2.7275E0,6E0,4.8E1,2.6086956E-1,1.0847189E-1,1.7070984E-2,-1.9366947E-1,1E0,7E-1,1.2E1,3E1,6E1,-3.8942184E-2,-1.0468826E-1,9.634065E-2,-1.03818424E-1,7.697008E-2,1.6250646E-1,-6.0227517E-2,8.473476E-2,-7.458587E-2,-4.5173824E-2],"split_indices":[8,8,5,8,0,2,6,0,0,0,5,5,0,2,2,0,0,0,0,0,0,0,0,0,0],"split_type":[0,0,0,0,0,0,0,0,0,0,0,0,0,0,0,0,0,0,0,0,0,0,0,0,0],"sum_hessian":[7.15E2,2.05E2,5.1E2,8E0,1.97E2,3.15E2,1.95E2,5E0,3E0,1E1,1.87E2,1.83E2,1.32E2,1E2,9.5E1,9.9E1,8.8E1,1.1E2,7.3E1,7.6E1,5.6E1,3.5E1,6.5E1,5.3E1,4.2E1],"tree_param":{"num_deleted":"0","num_feature":"9","num_nodes":"25","size_leaf_vector":"1"}},{"base_weights":[1.0914532E-3,9.1643965E-1,-2.6790607E0,-1.9657806E-1,1.1315202E0,-1.3991655E0,-1.06315196E-1,3.4523356E0,3.8001662E-1,-7.016623E-2,-1.8433025E-1,1.1729768E-1,5.693173E-2,-1.6066788E-1,3.5265893E-2,-1.3720845E-2,1.9489551E-2],"categories":[],"categories_nodes":[],"categories_segments":[],"categories_sizes":[],"default_left":[0,0,0,0,0,0,0,0,0,0,0,0,0,0,0,0,0],"id":58,"left_children":[1,3,5,-1,7,9,-1,11,13,-1,15,-1,-1,-1,-1,-1,-1],"loss_changes":[1.7692308E3,9.8662134E2,2.5761365E2,0E0,9.144651E2,1.3845558E2,0E0,9.937549E1,2.3762808E3,0E0,1.7733522E1,0E0,0E0,0E0,0E0,0E0,0E0],"parents":[2147483647,0,0,1,1,2,2,4,4,5,5,7,7,8,8,10,10],"right_children":[2,4,6,-1,8,10,-1,12,14,-1,16,-1,-1,-1,-1,-1,-1],"split_conditions":[5.633803E-1,6E0,1E0,-1.9657806E-1,7E-1,1.2E1,-1.06315196E-1,6E-1,7.5E-1,-7.016623E-2,2.8E1,1.1729768E-1,5.693173E-2,-1.6066788E-1,3.5265893E-2,-1.3720845E-2,1.9489551E-2],"split_indices":[6,0,5,0,5,0,0,5,5,0,4,0,0,0,0,0,0],"split_type":[0,0,0,0,0,0,0,0,0,0,0,0,0,0,0,0,0],"sum_hessian":[7.1E2,5.32E2,1.78E2,9E0,5.23E2,9.3E1,8.5E1,1.23E2,4E2,4.4E1,4.9E1,6.8E1,5.5E1,4.7E1,3.53E2,3.8E1,1.1E1],"tree_param":{"num_deleted":"0","num_feature":"9","num_nodes":"17","size_leaf_vector":"1"}},{"base_weights":[-6.2526907E-3,-1.5468811E0,2.5310893E0,-3.5627253E0,-1.5733324E-1,2.4499746E-1,3.5613218E-1,-4.2045774E0,-1.4099234E0,-1.8685855E-1,2.4427938E-1,-1.6203912E0,2.2963893E0,-1.2776493E-1,-7.710925E-2,-1.1854738E-2,-7.374326E-2,2.3070265E-2,-7.02276E-2,-6.5454625E-2,2.1578645E-2,1.1607107E-1,3.775338E-3],"categories":[],"categories_nodes":[],"categories_segments":[],"categories_sizes":[],"default_left":[0,0,0,0,0,0,0,0,0,0,0,0,0,0,0,0,0,0,0,0,0,0,0],"id":59,"left_children":[1,3,5,7,9,-1,11,13,15,-1,17,19,21,-1,-1,-1,-1,-1,-1,-1,-1,-1,-1],"loss_changes":[2.8309343E3,1.2589163E3,3.8321E3,2.2034912E2,7.439776E2,0E0,8.284621E2,1.8445312E1,5.7364334E1,0E0,4.5970297E2,2.1441702E2,4.5774042E2,0E0,0E0,0E0,0E0,0E0,0E0,0E0,0E0,0E0,0E0],"parents":[2147483647,0,0,1,1,2,2,3,3,4,4,6,6,7,7,8,8,10,10,11,11,12,12],"right_children":[2,4,6,8,10,-1,12,14,16,-1,18,20,22,-1,-1,-1,-1,-1,-1,-1,-1,-1,-1],"split_conditions":[4.8E1,2.8E1,2.6086956E-1,1.4E1,6E0,2.4499746E-1,7.2E1,1.2E1,5.633803E-1,-1.8685855E-1,2.6086956E-1,2.8E1,5.633803E-1,-1.2776493E-1,-7.710925E-2,-1.1854738E-2,-7.374326E-2,2.3070265E-2,-7.02276E-2,-6.5454625E-2,2.1578645E-2,1.1607107E-1,3.775338E-3],"split_indices":[3,4,6,0,0,0,3,0,6,0,6,4,6,0,0,0,0,0,0,0,0,0,0],"split_type":[0,0,0,0,0,0,0,0,0,0,0,0,0,0,0,0,0,0,0,0,0,0,0],"sum_hessian":[7.13E2,4.45E2,2.68E2,1.78E2,2.67E2,6.3E1,2.05E2,1.33E2,4.5E1,1E1,2.57E2,1.02E2,1.03E2,8.8E1,4.5E1,3E1,1.5E1,2.15E2,4.2E1,7.7E1,2.5E1,5.1E1,5.2E1],"tree_param":{"num_deleted":"0","num_feature":"9","num_nodes":"23","size_leaf_vector":"1"}},{"base_weights":[1.0985436E-2,-2.525205E0,1.0528953E0,3.378476E0,-2.851777E0,1.2619974E-1,5.653767E-1,1.0527563E-1,1.5575278E-2,-5.2161818E0,-2.492473E0,-1.7656058E0,2.098624E0,-2.3015643E-2,-1.9014253E-1,-3.4999926E-2,-9.769621E-2,5.3506274E-2,-9.461644E-2,1.1534157E-1,1.8328708E-3],"categories":[],"categories_nodes":[],"categories_segments":[],"categories_sizes":[],"default_left":[0,0,0,0,0,0,0,0,0,0,0,0,0,0,0,0,0,0,0,0,0],"id":60,"left_children":[1,3,5,7,9,-1,11,-1,-1,13,15,17,19,-1,-1,-1,-1,-1,-1,-1,-1],"loss_changes":[1.9110612E3,4.599087E2,8.807852E2,6.1549835E0,9.913794E1,0E0,1.6561716E3,0E0,0E0,1.3375836E2,2.2100293E2,1.2166799E3,1.2088602E3,0E0,0E0,0E0,0E0,0E0,0E0,0E0,0E0],"parents":[2147483647,0,0,1,1,2,2,3,3,4,4,6,6,9,9,10,10,11,11,12,12],"right_children":[2,4,6,8,10,-1,12,-1,-1,14,16,18,20,-1,-1,-1,-1,-1,-1,-1,-1],"split_conditions":[3.75E0,2.749375E0,6E-1,2.7275E0,5E-1,1.2619974E-1,4.8E1,1.0527563E-1,1.5575278E-2,2.7847917E0,1E0,7E-1,1E0,-2.3015643E-2,-1.9014253E-1,-3.4999926E-2,-9.769621E-2,5.3506274E-2,-9.461644E-2,1.1534157E-1,1.8328708E-3],"split_indices":[8,8,5,8,5,0,2,0,0,8,5,5,5,0,0,0,0,0,0,0,0],"split_type":[0,0,0,0,0,0,0,0,0,0,0,0,0,0,0,0,0,0,0,0,0],"sum_hessian":[7.12E2,2.05E2,5.07E2,8E0,1.97E2,5.5E1,4.52E2,5E0,3E0,1.6E1,1.81E2,1.79E2,2.73E2,7E0,9E0,9.2E1,8.9E1,5.6E1,1.23E2,1.3E2,1.43E2],"tree_param":{"num_deleted":"0","num_feature":"9","num_nodes":"21","size_leaf_vector":"1"}},{"base_weights":[1.3562192E-2,-8.870062E-1,4.120379E0,-1.3262717E-1,-3.5410578E0,1.7944774E-1,2.3474212E-1,-8.618122E-1,2.6597998E0,-1.14356175E-1,-2.2836506E0,-1.01555176E-1,3.1498328E-2,-7.9158925E-2,4.643495E-3,4.7175042E-2,1.1533011E-1,-7.1697064E-2,-1.43553E-2,-1.0359823E-2,5.700101E-3],"categories":[],"categories_nodes":[],"categories_segments":[],"categories_sizes":[],"default_left":[0,0,0,0,0,0,0,0,0,0,0,0,0,0,0,0,0,0,0,0,0],"id":61,"left_children":[1,3,5,7,9,-1,11,13,15,-1,17,19,-1,-1,-1,-1,-1,-1,-1,-1,-1],"loss_changes":[2.685644E3,1.1897363E3,1.2459492E3,9.6895624E2,5.5423218E1,0E0,1.8248632E1,7.985931E2,1.0283948E2,0E0,2.7593964E1,4.495222E0,0E0,0E0,0E0,0E0,0E0,0E0,0E0,0E0,0E0],"parents":[2147483647,0,0,1,1,2,2,3,3,4,4,6,6,7,7,8,8,10,10,11,11],"right_children":[2,4,6,8,10,-1,12,14,16,-1,18,20,-1,-1,-1,-1,-1,-1,-1,-1,-1],"split_conditions":[7.2E1,1.42E3,1.15406E3,4.8E1,4.8E1,1.7944774E-1,2.8E1,2.8E1,2.8E1,-1.14356175E-1,2.8E1,6E1,3.1498328E-2,-7.9158925E-2,4.643495E-3,4.7175042E-2,1.1533011E-1,-7.1697064E-2,-1.43553E-2,-1.0359823E-2,5.700101E-3],"split_indices":[3,7,7,3,3,0,4,4,4,0,4,2,0,0,0,0,0,0,0,0,0],"split_type":[0,0,0,0,0,0,0,0,0,0,0,0,0,0,0,0,0,0,0,0,0],"sum_hessian":[7.15E2,5.9E2,1.25E2,4.64E2,1.26E2,7.4E1,5.1E1,3.71E2,9.3E1,7.4E1,5.2E1,4.1E1,1E1,1.21E2,2.5E2,6.6E1,2.7E1,4.1E1,1.1E1,2.1E1,2E1],"tree_param":{"num_deleted":"0","num_feature":"9","num_nodes":"21","size_leaf_vector":"1"}},{"base_weights":[-1.0744155E-2,-2.414237E0,9.795227E-1,3.3335881E0,-2.7318473E0,1.8475395E-1,2.5573487E0,1.0386379E-1,1.5383204E-2,-2.3426516E0,-1.870292E-1,-7.7416086E-1,7.705956E-1,1.1866263E0,4.6184177E0,-7.226757E-2,-2.9862836E-2,-1.3273267E-2,-5.288987E-2,-5.1603377E-2,2.5105268E-2,1.0824792E-2,6.1560124E-2,9.2027225E-2,1.7587015E-1],"categories":[],"categories_nodes":[],"categories_segments":[],"categories_sizes":[],"default_left":[0,0,0,0,0,0,0,0,0,0,0,0,0,0,0,0,0,0,0,0,0,0,0,0,0],"id":62,"left_children":[1,3,5,7,9,11,13,-1,-1,15,-1,17,19,21,23,-1,-1,-1,-1,-1,-1,-1,-1,-1,-1],"loss_changes":[1.7259813E3,4.3721252E2,6.413237E2,5.9588776E0,2.376914E2,1.9860657E2,4.539425E2,0E0,0E0,5.9340332E1,0E0,3.9702232E1,9.824643E1,8.8694824E1,2.9333862E1,0E0,0E0,0E0,0E0,0E0,0E0,0E0,0E0,0E0,0E0],"parents":[2147483647,0,0,1,1,2,2,3,3,4,4,5,5,6,6,9,9,11,11,12,12,13,13,14,14],"right_children":[2,4,6,8,10,12,14,-1,-1,16,-1,18,20,22,24,-1,-1,-1,-1,-1,-1,-1,-1,-1,-1],"split_conditions":[3.75E0,5.351E2,1.2E1,7.784E2,7.947E2,4.0999765E0,4.38E0,1.0386379E-1,1.5383204E-2,1.4E1,-1.870292E-1,7.60538E2,6.5E2,2.8E1,2.8E1,-7.226757E-2,-2.9862836E-2,-1.3273267E-2,-5.288987E-2,-5.1603377E-2,2.5105268E-2,1.0824792E-2,6.1560124E-2,9.2027225E-2,1.7587015E-1],"split_indices":[8,7,0,1,1,8,8,0,0,0,0,1,1,4,4,0,0,0,0,0,0,0,0,0,0],"split_type":[0,0,0,0,0,0,0,0,0,0,0,0,0,0,0,0,0,0,0,0,0,0,0,0,0],"sum_hessian":[7.14E2,2.06E2,5.08E2,8E0,1.98E2,3.42E2,1.66E2,5E0,3E0,1.89E2,9E0,1.29E2,2.13E2,1.05E2,6.1E1,1.46E2,4.3E1,1.1E2,1.9E1,8E0,2.05E2,6.5E1,4E1,4.6E1,1.5E1],"tree_param":{"num_deleted":"0","num_feature":"9","num_nodes":"25","size_leaf_vector":"1"}},{"base_weights":[-2.9862659E-2,-9.206376E-1,4.0553174E0,2.8182817E-1,-2.444915E0,2.833313E-1,2.1971002E0,-6.1406314E-1,6.036414E0,-1.3875515E0,-3.4222054E0,3.9343462E0,2.0695114E-1,-1.7758772E-1,-7.5661973E-3,3.3819275E-3,2.0894527E-1,-4.910634E-2,-1.1730319E-3,-1.1116371E-1,-5.917522E-2,3.6202725E-2,1.1972081E-1,-1.856349E-2,2.7326059E-2],"categories":[],"categories_nodes":[],"categories_segments":[],"categories_sizes":[],"default_left":[0,0,0,0,0,0,0,0,0,0,0,0,0,0,0,0,0,0,0,0,0,0,0,0,0],"id":63,"left_children":[1,3,5,7,9,-1,11,13,15,17,19,21,23,-1,-1,-1,-1,-1,-1,-1,-1,-1,-1,-1,-1],"loss_changes":[2.6139065E3,1.0845846E3,1.3901589E3,1.7459021E3,2.425719E2,0E0,3.6385596E2,5.7483636E2,4.366615E2,7.491177E1,5.8868774E1,3.5533447E1,4.32345E1,0E0,0E0,0E0,0E0,0E0,0E0,0E0,0E0,0E0,0E0,0E0,0E0],"parents":[2147483647,0,0,1,1,2,2,3,3,4,4,6,6,7,7,8,8,9,9,10,10,11,11,12,12],"right_children":[2,4,6,8,10,-1,12,14,16,18,20,22,24,-1,-1,-1,-1,-1,-1,-1,-1,-1,-1,-1,-1],"split_conditions":[7.2E1,2.6086956E-1,2.6086956E-1,4.8E1,5.633803E-1,2.833313E-1,5.633803E-1,6E0,1E1,1.4E1,4.8E1,1E1,1.2E1,-1.7758772E-1,-7.5661973E-3,3.3819275E-3,2.0894527E-1,-4.910634E-2,-1.1730319E-3,-1.1116371E-1,-5.917522E-2,3.6202725E-2,1.1972081E-1,-1.856349E-2,2.7326059E-2],"split_indices":[3,6,6,3,6,0,6,0,0,0,3,0,0,0,0,0,0,0,0,0,0,0,0,0,0],"split_type":[0,0,0,0,0,0,0,0,0,0,0,0,0,0,0,0,0,0,0,0,0,0,0,0,0],"sum_hessian":[7.07E2,5.84E2,1.23E2,3.29E2,2.55E2,2.2E1,1.01E2,